# Shape: (1, 1, 128, 10)
-0.042172
-0.172499
-0.393193
-0.189725
-0.056367
-0.148379
0.742604
0.010084
-0.167455
-0.087264
-0.123870
-0.105602
-0.279939
-0.193601
0.159685
0.290808
0.258407
0.227404
-0.171319
0.230170
-0.373589
-0.132444
0.108837
0.117850
0.416049
-0.252117
0.136221
-0.469484
-0.138783
-0.120950
-0.024398
-0.132499
0.113832
-0.017379
-0.506182
0.069492
-0.596312
-0.422664
0.176681
-0.279497
0.248038
0.259028
0.311377
0.131738
-0.411108
0.140489
-0.264100
-0.067686
-0.190622
0.131631
-0.483458
-0.789306
-0.068249
-0.250257
-0.004885
-0.045801
-0.439374
0.023578
0.068513
-0.340095
-0.448931
-0.465956
-0.382023
-0.446881
-0.333976
-0.464487
-0.252082
-0.467502
-0.091723
-0.198150
-0.010653
-0.151855
0.035215
-0.261775
-0.336072
-0.164080
0.595926
-0.215944
0.196242
-0.534798
-0.184532
-0.391999
-0.426847
-0.275529
-0.052901
-0.462513
-0.107526
-0.095304
0.396249
-0.598080
-0.011049
-0.281015
0.298249
-0.308760
0.339567
-0.313727
-0.380891
-0.318287
0.029178
-0.201313
-0.027178
-0.217963
-0.284548
-0.418379
0.457677
-0.444694
-0.008101
-0.222790
-0.290291
-0.192885
0.203157
-0.257753
0.212219
0.277533
0.267680
0.035134
0.252260
0.077978
0.246444
-0.184521
-0.135671
-0.303342
-0.483468
-0.035218
-0.580135
0.201086
-0.321116
0.060525
-0.519773
-0.008079
-0.040325
-0.021704
0.460989
0.023395
-0.109173
0.065349
0.016411
0.008689
-0.022830
0.176602
-0.694168
-0.321662
-0.336094
0.278130
-0.181042
-0.137695
0.050785
-0.052669
-0.407154
-0.466628
-0.283372
0.269346
-0.517192
-0.193560
0.124516
0.077973
-0.145203
-0.288970
-0.178191
0.188343
0.197170
-0.104014
-0.133675
0.393017
-0.118380
0.176691
-0.123478
0.172985
-0.228713
-0.054502
0.032402
-0.035283
-0.035430
-0.406037
0.356555
-0.252512
-0.354734
0.480356
-0.090985
0.007599
-0.061236
0.004803
-0.307332
-0.331412
-0.494898
-0.194263
-0.249890
-0.411928
-0.356344
-0.481431
-0.197151
0.507065
-0.263307
-0.372969
-0.461808
-0.348874
0.132222
-0.388940
0.075009
-0.040308
-0.590394
-0.074021
0.034073
0.195222
0.087243
0.077501
0.148403
0.139150
0.365461
-0.171732
-0.267613
-0.128447
-0.203941
0.195262
-0.189367
-0.102734
-0.234127
0.381592
0.063086
-0.373272
-0.117613
-0.415759
-0.407326
-0.291614
-0.281911
-0.444745
-0.561704
-0.542012
0.055560
-0.362216
0.258226
-0.140289
0.300086
-0.186228
-0.030591
0.052037
0.231397
0.196477
-0.357591
-0.464924
-0.272928
-0.207202
-0.096184
0.371787
0.146462
-0.235910
-0.238323
-0.457365
-0.120998
-0.351419
-0.099242
0.054543
-0.259094
0.143067
0.042608
0.190276
0.386798
-0.012593
0.147840
0.365804
0.036283
-0.065296
0.454324
-0.145725
-0.244802
0.272767
-0.425178
-0.184270
-0.302581
0.104257
-0.016176
0.202400
-0.058419
0.216257
0.365268
0.318638
-0.036275
0.090093
-0.040500
-0.071619
0.089297
0.004747
-0.370962
0.314783
-0.477811
-0.523138
-0.189404
-0.504237
0.167165
-0.189012
-0.202412
0.363521
-0.267341
0.128040
0.053652
0.171769
0.157894
0.306586
-0.207375
-0.180338
0.116440
0.187265
-0.017788
0.156319
0.202132
-0.155907
0.338308
-0.091242
-0.541344
0.035374
0.301610
0.200447
-0.195856
0.208615
-0.113912
0.087090
0.253030
0.309787
0.361245
0.276265
0.356837
0.201561
0.214128
-0.371172
0.021572
-0.098871
-0.201278
0.336970
0.083506
-0.035089
0.284087
-0.302647
-0.242471
-0.048554
0.444189
-0.316076
0.072787
-0.005654
0.000382
-0.229240
-0.099392
-0.089499
0.364157
-0.218632
-0.144503
-0.151290
-0.013690
-0.591003
0.242659
0.165232
-0.007435
0.250157
0.175846
0.235143
-0.053385
-0.067983
-0.189116
0.373578
-0.304677
0.090172
-0.318369
0.086019
0.314093
0.122379
-0.168104
0.014226
0.308080
-0.182100
-0.061769
-0.261661
0.025094
-0.109784
-0.223820
-0.136120
-0.239546
0.124750
-0.115206
0.463198
0.112319
0.068033
0.433224
-0.036502
0.059463
0.175047
0.134377
-0.114244
-0.186734
-0.164096
0.319782
0.220634
-0.018834
-0.373082
0.454838
0.063619
0.047190
-0.033633
-0.165216
-0.041369
-0.309482
-0.479920
-0.186593
0.540578
0.283629
0.208488
-0.055821
-0.075110
-0.300620
-0.023033
-0.176423
0.057588
-0.235094
-0.158769
-0.453695
0.075535
-0.099670
0.212569
-0.054339
-0.213682
0.282432
0.338746
0.349880
-0.721319
0.082839
0.177654
-0.275283
0.108928
0.116276
-0.442221
-0.459111
-0.131375
-0.201845
-0.119272
-0.030234
0.237998
-0.009785
0.130580
-0.226468
-0.265463
-0.001910
0.345370
0.189524
-0.337920
0.207646
0.121603
-0.057362
-0.336093
-0.474931
-0.059031
-0.229812
-0.111961
0.151947
-0.131505
-0.057187
-0.149794
0.077798
0.003647
0.437381
-0.528716
0.289709
0.055584
-0.130000
0.140984
0.230961
-0.006480
-0.217167
0.038493
0.210883
0.164086
0.471481
-0.026312
0.424634
-0.501031
-0.099333
-0.111354
0.367137
0.169421
0.088423
-0.181731
-0.001398
-0.388357
0.211924
-0.160705
0.512409
0.010062
-0.357454
-0.237684
0.133702
0.073168
-0.117757
-0.231271
-0.358989
-0.262080
-0.003255
0.095525
-0.403289
0.303878
-0.271699
0.272885
0.285769
-0.317724
0.356393
-0.247226
0.091442
0.146138
-0.232222
-0.245117
-0.188484
0.184509
-0.513320
0.263647
-0.113869
-0.263020
0.257510
-0.054399
-0.279839
0.229104
0.127857
0.182035
0.289185
0.254933
0.039990
0.100187
0.385993
-0.051507
0.183231
-0.103603
0.062018
0.213960
0.392411
-0.038114
-0.015572
-0.074460
0.105059
-0.030979
-0.060979
0.199564
-0.291194
0.290430
0.297090
0.341940
0.310138
0.427757
-0.169339
0.147723
-0.285173
-0.355949
-0.346920
0.091230
-0.115778
-0.265294
0.197096
0.210092
0.475298
-0.129734
0.117289
-0.379188
-0.045260
0.167137
-0.069320
0.121812
-0.266212
-0.232098
-0.274002
0.134305
-0.366762
0.321914
-0.495213
0.043920
-0.366039
-0.338316
-0.038612
-0.468831
0.247209
-0.157432
0.236413
-0.027522
-0.121090
-0.001218
-0.325541
0.012876
0.334469
0.283888
-0.356306
0.100696
-0.215339
0.218374
0.331739
0.193680
-0.057107
0.260979
-0.222420
0.197159
0.242503
0.190684
0.278541
0.148040
-0.114636
-0.284932
-0.600761
-0.156411
0.286872
0.013557
0.291676
0.046879
-0.292698
0.076788
0.072964
0.075666
-0.099711
0.107745
0.130813
-0.333148
0.082848
0.051774
0.099280
0.105139
-0.364802
-0.618792
-0.081300
-0.284146
-0.328694
0.036750
-0.225988
-0.147114
0.094285
-0.269462
0.186739
-0.027461
-0.437462
-0.293924
-0.273258
0.258939
0.083099
-0.130899
0.276242
-0.041332
0.312060
-0.235464
0.410040
0.086808
0.325911
0.350168
0.027965
0.026292
0.386277
0.151486
0.218039
-0.272239
-0.067970
-0.160144
0.040069
-0.069138
-0.162624
0.209384
-0.321148
0.154957
0.292440
-0.233211
-0.134503
0.377471
-0.208703
0.354422
-0.437677
0.113120
-0.350498
-0.032133
0.023997
-0.007901
0.044603
0.291158
-0.422502
-0.517458
-0.140555
-0.100486
-0.331694
-0.258120
-0.494550
-0.152286
-0.164870
-0.545688
0.256747
0.092556
-0.116759
0.132677
-0.374355
0.260149
-0.082007
-0.414240
-0.217994
0.127144
-0.279566
-0.194063
0.049881
0.247810
0.275908
0.017804
0.245716
0.187950
-0.040168
-0.018577
-0.048003
-0.032912
0.284249
-0.502052
-0.369694
-0.245888
-0.597014
-0.035406
-0.301409
0.169759
-0.083110
-0.097612
-0.078547
0.082392
0.407377
0.050065
-0.062537
0.133701
-0.130907
0.392959
-0.021447
0.261078
-0.296813
-0.383342
-0.063473
-0.310374
-0.621445
-0.558476
0.347902
-0.013775
0.522333
0.040771
0.172120
-0.284943
-0.157753
0.276504
0.245279
0.185633
-0.393894
-0.335781
-0.126455
-0.529149
0.102900
0.068669
0.375514
-0.050955
-0.071443
0.022380
-0.372450
-0.022674
-0.019219
-0.558931
-0.334954
-0.044617
0.158404
-0.299656
0.493568
-0.067820
-0.184304
0.100980
0.320079
-0.504761
-0.113884
-0.224540
0.334006
-0.354299
0.333226
-0.134571
-0.188978
0.013796
-0.290813
0.445651
-0.007285
0.107096
0.323441
-0.221542
-0.475812
-0.273872
-0.159701
-0.256775
0.237246
0.000280
-0.153654
-0.055760
0.560606
-0.066750
-0.149094
0.300366
0.169725
-0.024190
-0.153070
0.148257
-0.220891
-0.107268
-0.349069
0.370012
-0.001066
0.216950
0.060515
-0.074414
0.042570
-0.057932
-0.115339
0.058463
0.005683
-0.347740
-0.435673
0.287169
-0.014721
0.282873
-0.004709
-0.034547
-0.293664
-0.547789
0.100900
0.101827
-0.442269
-0.210173
0.294833
0.049834
-0.460321
0.488072
0.044178
-0.128202
0.072980
-0.159413
0.387488
0.010340
-0.136067
-0.039758
0.091206
0.050095
0.151410
0.366025
-0.003231
0.333342
-0.067673
-0.053372
-0.151394
0.226527
-0.426515
-0.234873
0.335582
-0.154728
-0.181008
-0.483783
-0.057604
-0.492194
-0.310129
-0.041621
-0.122900
-0.331196
0.192861
-0.034710
0.025157
0.034247
0.353037
0.006423
0.236334
0.465932
0.123219
0.211740
-0.391597
-0.494106
-0.470941
-0.305001
0.153822
-0.551349
-0.137334
0.035540
0.000532
0.123604
0.359420
-0.049706
0.003312
0.428611
0.238386
-0.096684
-0.127511
-0.238773
-0.204096
-0.173597
-0.024714
-0.014168
0.169036
0.112402
-0.258566
0.097674
0.444901
0.031832
0.236624
-0.180147
-0.342552
0.061258
0.343884
0.051096
-0.483222
-0.269829
-0.297477
0.130988
0.356097
0.002905
0.280507
-0.172660
0.207837
-0.215538
0.296240
-0.194409
-0.316441
0.157708
-0.312289
-0.123006
-0.432179
0.126602
-0.363193
-0.254573
-0.553786
-0.164504
-0.424990
0.334476
0.366235
-0.498438
0.379706
-0.081046
0.129760
0.034678
-0.385267
0.154467
-0.397954
-0.440823
0.206945
-0.362442
0.107294
0.167315
0.109954
-0.330421
-0.411358
-0.105295
0.003131
-0.278543
0.004357
0.018351
-0.233335
-0.136077
0.541153
0.264543
-0.365496
-0.022943
0.194002
0.103887
0.460455
-0.088431
0.180461
-0.059525
0.030698
0.239298
0.031254
0.164103
-0.349683
-0.010227
0.060874
0.161706
-0.045177
0.314890
-0.130545
0.142671
0.311013
0.283896
0.050198
0.051161
-0.090230
-0.284312
-0.003822
-0.242962
-0.202273
0.293985
0.407845
0.309517
-0.416954
-0.289210
-0.056406
-0.283152
0.504314
-0.264588
-0.378211
-0.485323
0.116315
-0.257869
-0.254411
-0.062436
-0.251129
0.195965
0.234993
-0.221126
-0.052244
-0.374441
0.246440
0.227440
-0.024610
0.248565
0.390471
-0.248274
-0.335003
-0.088553
0.093171
-0.027317
-0.141187
0.370706
0.099221
-0.062357
-0.169622
0.115613
0.094496
0.296984
-0.071940
0.167123
-0.203064
-0.407788
0.301627
-0.113652
-0.132685
0.388456
-0.007862
0.578200
0.317779
-0.208858
-0.254695
-0.252178
-0.059433
-0.133612
-0.245444
-0.160675
-0.052589
0.171324
-0.488151
-0.119240
0.328209
-0.021451
0.086260
-0.341538
-0.129173
-0.201533
-0.097970
0.337963
-0.324045
0.163586
0.218629
-0.278143
0.220712
-0.056182
-0.118549
0.337609
-0.260672
-0.234352
-0.071747
-0.136662
-0.562206
-0.578230
0.053564
0.316439
-0.441849
0.503310
-0.240254
0.233637
-0.436164
-0.072778
-0.591370
-0.262375
0.103147
-0.223375
-0.208071
-0.509077
-0.556878
-0.111800
0.050295
-0.127246
-0.397924
0.191186
-0.465072
-0.387289
-0.089574
-0.557266
-0.094973
-0.283181
-0.341202
0.056467
-0.283038
-0.257249
-0.553084
-0.230749
0.070677
-0.133697
0.039286
-0.103845
0.266372
0.437739
-0.175851
-0.458042
-0.385698
-0.280018
0.400375
0.149113
-0.373520
0.116627
-0.405708
0.353306
-0.377732
-0.419658
-0.265748
-0.443353
-0.294867
0.260181
0.309867
-0.053327
-0.224734
-0.204564
0.103165
-0.262836
-0.329081
0.451424
0.030396
-0.283596
-0.126606
-0.378434
-0.452897
-0.272836
0.101831
0.109279
0.218668
-0.356190
0.278353
0.254828
-0.356282
-0.074340
0.087854
0.457417
-0.286500
-0.270051
0.185332
-0.218142
-0.184514
-0.370266
-0.007873
-0.108963
0.008995
-0.144819
-0.530074
-0.349971
0.043761
0.451397
-0.362124
-0.038072
0.179742
0.209540
0.051049
-0.334627
-0.345118
0.341418
-0.525898
0.278195
-0.305666
-0.066062
-0.291425
0.144714
0.368367
0.281414
-0.239313
0.076789
-0.424067
0.025416
-0.581072
-0.251496
0.133379
-0.050647
0.167465
0.186400
-0.159267
0.315183
-0.387027
-0.526599
-0.103896
-0.648178
0.088866
-0.365260
0.149535
0.263272
-0.155119
0.038707
0.025259
-0.226852
0.299827
0.036492
-0.344297
-0.281101
-0.147339
-0.447111
0.029827
-0.358416
-0.101056
0.423557
0.073843
-0.104102
-0.384232
0.132715
-0.472760
-0.304793
-0.330186
0.330382
0.233243
-0.139535
-0.146315
0.315910
-0.165229
-0.332155
0.458548
0.232328
-0.158627
-0.244679
0.096099
0.022460
-0.402748
-0.641343
-0.136758
0.160889
0.030682
0.199099
0.237331
-0.377241
-0.715220
-0.486645
0.150448
0.080629
-0.065248
0.077727
0.193485
-0.047748
0.136451
0.415855
-0.159004
-0.243756
0.050360
-0.394999
0.414447
-0.037529
0.388831
-0.286483
-0.440484
-0.187695
-0.032173
-0.220856
-0.283419
-0.473832
-0.195643
0.032046
-0.102905
-0.285676
-0.245487
-0.299906
-0.060082
-0.292584
0.323054
0.267580
-0.143212
-0.169343
-0.186613
-0.418925
0.186264
0.012043
0.414188
-0.172545
-0.064755
-0.187394
0.038294
-0.156388
-0.346338
-0.367713
0.204765
-0.509398
0.098601
0.276026
