# Shape: (3, 3, 32, 32)
0.024932
0.061604
0.014529
-0.104573
-0.001686
0.152710
-0.100186
0.081523
-0.017332
0.034894
0.002326
-0.039533
0.047647
-0.038421
-0.050916
0.037960
-0.031838
-0.037790
0.016423
-0.079292
-0.069492
0.060956
-0.028733
-0.004819
-0.109809
0.014300
-0.009145
-0.021226
-0.004415
0.033609
0.051871
-0.031368
-0.036010
-0.001154
0.047087
0.038402
0.101645
0.001966
-0.049139
-0.090906
0.035807
0.058494
0.009114
0.072578
0.009587
-0.012145
0.112590
-0.030688
0.021913
-0.071000
0.025118
-0.155542
0.055347
0.025209
-0.030663
0.008592
-0.011942
0.006882
-0.125837
0.014033
-0.044006
0.013257
0.117361
0.009332
0.001687
0.028317
-0.050809
-0.002394
-0.026666
0.030148
0.114770
-0.059181
0.002407
-0.056539
-0.011786
0.007674
-0.038456
0.078654
0.079614
-0.025776
0.044753
-0.066980
0.014123
-0.017059
0.044989
0.032681
-0.037890
0.013186
0.050458
-0.054788
-0.038837
0.007302
-0.052887
-0.029239
-0.060334
-0.077918
-0.077600
0.004173
0.015725
-0.001052
-0.037274
0.054097
-0.088050
0.026354
0.007505
-0.090211
-0.035087
0.018863
-0.012394
-0.043022
-0.084691
0.040670
-0.054484
0.000929
-0.037770
-0.023133
-0.054120
0.029934
-0.040951
-0.003576
-0.010642
-0.021856
0.008676
0.000902
-0.039754
-0.035649
0.004967
0.069449
0.150490
0.004116
-0.000481
0.048369
0.066320
0.072080
-0.020776
-0.043170
-0.202522
-0.071947
-0.090988
-0.043276
-0.026132
-0.022564
0.024970
0.052444
-0.072964
-0.016048
-0.003834
-0.003618
-0.093827
0.019856
0.039607
0.017200
-0.032350
0.075079
-0.020383
-0.048604
-0.074634
-0.033692
-0.147788
-0.040014
0.039881
-0.013866
-0.008513
-0.029393
0.102434
-0.109428
-0.033262
-0.032587
0.034856
-0.035490
-0.049123
0.032810
-0.004873
-0.024691
0.035955
-0.044218
-0.016155
0.037967
0.024272
-0.001921
0.053802
-0.045309
0.000830
0.018904
0.107024
0.053286
-0.052987
-0.003275
-0.007684
-0.042767
-0.034389
-0.011369
-0.016358
-0.038040
0.030147
-0.024041
0.167027
0.011487
-0.063852
-0.044871
0.089367
0.056282
-0.031179
-0.027724
-0.048420
0.032971
0.054454
0.029302
0.075322
-0.018529
0.001163
-0.180543
0.002770
0.042789
-0.007503
0.044925
-0.081983
-0.072049
0.004605
-0.037212
-0.090327
-0.010052
-0.008144
0.004483
-0.038655
0.072336
-0.066321
-0.060687
-0.014511
-0.142809
0.022008
-0.015548
0.016442
0.068475
-0.009323
-0.030857
-0.038700
-0.031857
0.071402
-0.066967
0.046242
-0.089442
0.045105
-0.040764
-0.030135
0.049068
-0.039306
0.015656
0.020209
-0.019844
-0.102560
0.016531
-0.035115
0.033439
0.031428
-0.021969
-0.022175
-0.042855
0.025294
0.050426
0.018402
0.025523
-0.011757
0.038656
0.054666
0.051703
0.003022
-0.010222
0.024500
-0.036375
0.046482
0.078548
-0.039374
0.059324
0.053915
-0.026113
-0.008591
0.014590
0.002806
-0.031145
0.050465
-0.026963
0.001049
0.045218
-0.004093
-0.033811
0.013820
0.018761
0.034822
0.020333
-0.031287
0.033082
0.061983
-0.181748
-0.045826
-0.054265
-0.008565
-0.068583
0.066844
-0.049166
-0.012713
-0.034523
0.008358
-0.042551
0.032990
-0.038846
-0.037247
0.060116
-0.038574
0.051918
-0.033318
0.001871
0.115095
-0.082338
-0.034930
0.010347
0.025108
0.046062
0.070694
-0.032433
-0.071189
0.087562
-0.095841
-0.059624
-0.002614
-0.036238
-0.075944
0.083971
-0.007338
0.120791
0.015343
-0.047502
-0.037260
0.016914
-0.025251
0.174993
-0.111705
0.016603
-0.029215
-0.027755
-0.082663
-0.002222
0.056137
0.051727
-0.013821
-0.135082
-0.087432
-0.106086
-0.082640
0.140943
0.068497
0.041294
0.106493
-0.093300
0.049188
0.156682
0.002895
0.019941
0.029516
0.025884
-0.109443
-0.029553
0.062408
0.051231
0.031153
-0.005247
0.005904
-0.001357
-0.067725
0.007435
0.084052
0.043353
0.005394
0.020360
-0.115493
-0.045311
-0.030222
-0.060243
-0.155651
0.040396
0.014976
-0.080930
-0.046904
-0.026491
-0.057619
0.020857
-0.049878
0.028176
-0.002074
-0.002723
0.018538
-0.101381
-0.010571
0.007581
0.003986
0.034781
0.012386
0.010101
0.051977
-0.032589
0.035888
-0.095408
0.045829
-0.088582
0.057072
0.053558
-0.016687
-0.033944
0.024034
-0.020998
-0.007792
0.061230
-0.088661
-0.008974
-0.110934
-0.059833
0.039834
0.007809
0.017448
-0.032589
0.064079
0.047554
-0.014957
-0.067747
-0.068762
-0.069558
0.017418
0.072958
0.025926
0.021086
0.002994
-0.133739
0.091565
0.042286
0.022315
-0.018490
0.107683
0.057254
-0.019712
-0.056090
0.079589
0.036190
0.077545
0.085370
0.030927
-0.093984
-0.063547
0.026796
-0.101443
-0.013561
-0.047005
-0.004599
0.022537
-0.006038
0.077513
0.009523
0.056703
-0.194236
0.002244
0.004329
0.091788
0.014439
0.021608
-0.047990
0.005728
0.036515
0.110036
0.061086
-0.006656
0.021692
-0.147443
-0.025088
0.049798
-0.000463
0.066804
0.040938
-0.004385
-0.041087
-0.068817
-0.000318
0.081057
0.080939
-0.068398
-0.004614
-0.057221
-0.011360
0.080043
0.003751
0.021397
-0.011505
0.018882
-0.015080
0.057121
0.007092
0.005680
-0.073310
0.027119
-0.025233
0.053460
0.007538
0.021570
0.012775
-0.009870
-0.057773
0.019639
0.099401
0.047986
-0.052002
-0.010001
-0.149697
-0.024300
-0.003881
-0.094261
-0.054520
-0.072451
0.042031
0.080041
0.159976
-0.020043
0.020808
-0.092313
0.002990
-0.005755
-0.043317
0.004354
-0.002393
-0.033084
-0.034652
-0.090995
0.044116
-0.014436
-0.156229
0.015097
-0.050661
-0.003479
0.021550
-0.118269
-0.042078
0.002084
-0.079320
0.037538
-0.004172
-0.010195
0.002326
-0.071024
-0.066702
0.000357
0.045660
-0.016341
0.010199
0.118131
0.023768
0.007627
0.125523
0.001108
-0.065869
0.085425
-0.023524
-0.005888
0.018314
0.010946
-0.024062
0.077467
-0.000206
-0.090699
0.035118
-0.120773
0.012060
-0.008056
0.005362
-0.015000
0.014619
-0.046021
-0.199148
-0.127142
-0.014762
-0.177860
-0.026842
-0.027191
0.093645
0.049400
-0.056547
0.111253
-0.124629
0.143544
0.063742
0.023452
0.002785
0.047720
0.008587
0.093431
-0.090159
0.021821
-0.093627
-0.016518
-0.010954
0.032813
0.002493
-0.012448
-0.012427
0.005777
0.054544
0.115075
-0.005879
-0.071085
-0.100783
-0.051301
-0.041250
0.051651
-0.013717
-0.015989
0.059469
0.078299
-0.040518
0.006386
-0.096696
-0.019330
-0.238571
0.015861
0.041050
-0.029892
0.012871
0.012638
-0.045231
-0.040222
-0.034441
0.021770
-0.011962
0.039579
0.045893
0.006869
-0.057593
0.073748
-0.048248
-0.039660
0.160138
0.085526
0.072417
0.042313
-0.014487
-0.004602
-0.008352
0.038708
-0.051560
0.073302
-0.002920
0.006103
-0.012737
-0.039813
-0.010089
0.068447
-0.005307
-0.015994
-0.045074
-0.014991
-0.044121
0.037779
0.042025
0.031738
-0.088744
0.039998
-0.089640
0.014825
-0.008370
-0.029374
-0.013586
-0.044463
-0.066324
-0.066940
-0.019208
-0.058673
0.017832
-0.041333
0.008371
-0.003137
-0.084715
-0.005919
0.020164
0.101949
-0.134026
0.014010
-0.050401
0.037943
-0.038592
-0.002156
0.011642
0.050560
-0.089984
0.044327
-0.117797
0.013652
0.012625
0.001035
0.052510
-0.039715
-0.045933
-0.016131
-0.096211
0.003521
-0.011960
0.023523
-0.067250
0.012354
-0.011283
0.147914
0.044352
-0.104558
-0.028501
-0.005985
-0.057557
-0.058008
0.005374
-0.044632
0.047973
-0.032158
-0.035228
0.005613
-0.031305
-0.030355
0.008388
0.042541
-0.038006
0.042349
-0.047675
0.076759
0.021945
0.020701
-0.030948
-0.011326
-0.033797
-0.013458
-0.086714
-0.067646
-0.100782
-0.049213
-0.018621
-0.070435
-0.007855
-0.000910
-0.077078
-0.045890
0.026167
0.097945
0.016350
0.121167
-0.008825
-0.038006
-0.077439
0.033462
-0.062523
-0.001849
0.007568
0.039973
-0.086156
0.055822
-0.032672
-0.079174
-0.011084
-0.054368
-0.009700
-0.012757
-0.051429
0.001619
-0.007421
0.031439
-0.137849
-0.101593
0.002347
0.024116
0.065259
-0.079697
-0.109621
-0.039694
0.019555
-0.105975
0.001558
-0.028653
0.069421
0.070928
-0.044911
0.055648
-0.017432
0.027048
-0.056708
0.004267
0.036075
0.037056
-0.029208
0.054366
0.005812
-0.125586
-0.007562
-0.007769
0.058693
-0.132333
-0.147291
-0.013419
-0.143188
-0.073114
0.032353
0.074916
-0.053515
0.013320
0.040733
-0.079684
-0.007377
-0.020779
0.007667
-0.146911
0.008129
0.026527
-0.040272
0.053663
-0.078197
0.048663
0.018979
-0.014533
0.000902
0.030604
0.084129
-0.040687
0.076674
-0.007062
-0.064319
0.053286
0.075556
-0.064795
0.069961
-0.004157
-0.033866
-0.121617
-0.090737
0.003999
-0.032391
0.000142
-0.021118
-0.049953
0.028486
-0.100977
0.008992
0.010288
-0.056501
-0.034040
0.031634
-0.011763
0.066248
0.023825
0.017253
-0.099638
-0.105240
-0.119123
-0.006766
-0.010661
0.021418
-0.025531
-0.075000
0.012982
-0.076999
-0.068227
-0.065595
-0.039223
0.003829
-0.042563
0.014499
-0.111767
0.046706
-0.026682
0.047864
0.057023
0.006658
0.010892
0.057863
-0.084031
0.052619
-0.020783
-0.029368
-0.074331
0.033049
-0.044272
0.010960
-0.005340
0.032246
0.004092
-0.030292
-0.005923
-0.073603
0.047155
0.014913
0.062188
0.082992
0.003242
0.097499
0.042013
0.008320
0.007730
0.075019
0.006458
0.032737
-0.039074
-0.017693
-0.063519
0.085883
0.045514
-0.055052
0.006014
0.037903
0.061658
-0.031290
0.034269
0.005786
-0.040290
-0.001166
-0.010363
0.008369
-0.012696
0.035307
-0.026665
0.105108
-0.011939
0.017725
0.050103
-0.027576
0.066363
0.017431
-0.033843
0.008502
-0.055901
-0.088077
-0.043730
0.014498
-0.115045
-0.056388
-0.008936
-0.076072
-0.026332
-0.019676
-0.010568
0.069366
-0.036265
-0.042974
0.026293
0.013212
0.002077
0.096919
-0.016432
0.003570
-0.032564
-0.106820
-0.009239
0.013480
0.035177
0.042726
-0.071430
-0.024006
0.005095
-0.084338
-0.040921
0.067166
-0.009864
0.028994
0.044544
0.053839
0.039896
0.018326
0.001939
0.042694
-0.051414
0.116049
-0.017705
-0.095742
-0.013894
0.045378
0.010940
-0.060030
-0.000371
0.056331
-0.009675
-0.025819
0.030440
0.001020
-0.063289
0.000333
0.010511
0.003733
0.054816
0.028049
-0.020855
-0.008629
0.005396
-0.006728
-0.017942
0.065646
-0.008409
-0.065269
-0.001748
0.025223
0.016430
0.009785
-0.060985
-0.027747
-0.025417
0.035732
-0.005276
0.034080
0.082263
-0.036512
0.037213
0.064847
0.049933
0.045514
0.028424
0.036048
0.045757
0.008940
-0.025119
-0.022079
0.055856
-0.040234
-0.048030
0.059554
-0.018494
-0.049109
-0.069209
-0.023244
-0.000088
0.018325
-0.065685
-0.064541
0.003668
0.129766
-0.081107
0.057831
0.023810
-0.006430
0.070446
-0.062796
-0.016143
-0.024794
-0.023245
-0.018643
-0.031986
-0.009246
0.000712
-0.108060
-0.084315
0.086357
-0.048759
-0.075069
-0.115664
-0.010959
-0.013527
-0.054342
-0.059334
-0.001332
0.074637
-0.008109
-0.007462
-0.019313
0.029082
-0.069523
0.148125
0.055788
-0.046553
-0.046082
0.062364
0.086794
0.041438
0.013337
0.042944
-0.005891
0.083739
0.041931
-0.091953
-0.045160
0.009527
-0.083516
-0.016795
-0.025343
0.003068
-0.030010
-0.013310
0.002496
-0.018097
-0.018817
0.026829
0.016980
0.018864
-0.017923
0.048136
0.010701
-0.063735
-0.038846
0.024003
-0.005749
0.047147
-0.091977
0.008559
-0.119335
-0.066357
-0.007618
-0.107549
0.059617
0.082546
-0.054453
0.031286
-0.052519
-0.099925
-0.028924
0.060670
0.004626
0.081883
-0.016960
0.055992
-0.003985
0.022177
0.084513
-0.027975
0.069388
-0.051859
-0.082561
-0.087384
-0.028369
0.045603
0.000668
0.016446
0.072550
-0.165901
0.075212
-0.082720
-0.018445
-0.017323
0.016213
-0.088964
-0.029334
-0.033653
-0.012698
-0.038121
0.016288
0.021344
0.004634
-0.052827
-0.029752
-0.030174
-0.025475
-0.004951
0.061846
-0.049424
0.011002
-0.019464
-0.077423
-0.015214
0.102607
0.097396
0.026079
-0.058593
0.016727
-0.001411
0.019667
0.013521
-0.046573
-0.144371
0.037376
-0.073787
-0.002455
-0.071673
-0.002495
0.032751
0.071800
0.011941
-0.074601
-0.005847
0.002426
-0.065168
0.048584
0.000104
0.064495
0.000061
0.040097
0.018474
-0.006123
-0.103909
0.004747
-0.098533
-0.020976
-0.033003
-0.059325
-0.001316
0.005386
0.146653
-0.085157
-0.071594
-0.015739
0.007986
0.012634
-0.034548
0.055985
-0.037608
-0.025542
0.061106
-0.001166
-0.080925
0.052006
0.005112
-0.022524
0.039145
-0.037954
0.016363
0.039376
0.109351
0.023539
-0.017094
-0.017622
-0.036491
-0.006009
0.006364
0.007547
-0.073099
0.003317
0.014038
-0.001691
0.195065
0.043402
0.031803
-0.009096
0.064183
0.106944
0.024440
-0.026090
0.002399
0.015212
0.051022
0.079458
0.014296
-0.005993
-0.011842
-0.183389
-0.009115
0.108565
-0.017906
0.030953
-0.070323
-0.083324
-0.011228
0.017485
-0.072183
-0.088323
0.032598
0.031693
-0.029603
-0.014537
-0.116679
0.018101
0.083124
-0.118654
0.084683
-0.029814
0.136266
-0.045839
0.006122
-0.077542
-0.032869
-0.035274
0.083949
-0.111686
0.028162
-0.132407
-0.001653
0.002774
-0.017168
0.056694
0.001424
0.002294
0.053410
-0.107844
-0.090461
0.042195
-0.045694
-0.016565
-0.023724
-0.060739
0.019737
-0.051819
0.032227
0.061179
0.024836
-0.052728
-0.017901
-0.005500
-0.073667
0.091222
0.027375
-0.033813
0.068548
-0.148005
0.020499
0.024997
-0.019595
0.023615
-0.063195
0.012721
0.006548
-0.006514
-0.115481
-0.038851
0.070967
-0.025667
-0.096044
-0.149164
0.017335
-0.037393
-0.059070
-0.035048
0.011653
-0.011840
-0.058219
0.043529
0.117733
-0.142262
-0.051598
-0.089155
-0.012497
-0.101567
-0.022453
-0.048587
-0.054918
-0.034721
0.047739
-0.068111
-0.018272
-0.011687
0.030273
0.075815
-0.051345
0.063343
-0.001027
0.022995
0.071626
0.012783
0.027104
-0.027874
-0.003374
-0.054786
-0.043710
-0.021939
-0.080783
-0.037742
-0.102146
0.012694
0.043130
-0.065019
0.116159
0.099809
0.037125
0.050332
-0.051938
-0.098597
-0.028084
-0.025844
0.047385
-0.066137
-0.030015
-0.004768
0.055845
0.000590
-0.120802
0.049055
0.003120
0.019995
-0.106180
0.033121
0.063625
-0.049823
-0.068930
-0.143602
-0.059651
0.004847
0.159506
-0.046999
-0.037156
-0.054130
-0.002190
0.008859
0.093786
0.009080
-0.185217
-0.042968
-0.044019
0.070663
0.029336
0.011180
0.014238
0.031690
-0.048735
0.052010
-0.161633
0.011988
-0.018585
0.026901
0.066602
0.041585
-0.070960
-0.060447
0.134827
-0.050163
-0.020405
0.112738
-0.081304
-0.039371
-0.053890
0.027099
-0.069338
0.040914
-0.006951
0.079976
0.031780
-0.093863
0.013676
0.005809
-0.025180
0.048784
0.015706
0.038744
0.072576
0.011887
0.017238
-0.055424
-0.008964
-0.064346
0.054872
0.067092
0.023547
0.005066
0.014493
0.018201
-0.006840
-0.006432
-0.058226
-0.011599
-0.153154
-0.040838
-0.002293
0.065793
0.015661
-0.055526
0.057371
-0.024711
-0.130107
-0.023975
-0.081156
-0.016950
0.012665
0.084625
-0.005441
-0.006885
-0.027100
-0.082812
0.029865
0.039834
0.016310
-0.002496
0.072582
0.018939
-0.044988
-0.051200
0.083947
0.059331
-0.061199
0.110945
0.011988
0.011714
0.012008
0.037242
-0.052562
0.029485
-0.070903
-0.042359
0.006820
0.058500
-0.062061
-0.106784
0.052226
-0.078054
0.056066
-0.002019
0.010533
0.035173
0.032171
-0.091816
0.030561
-0.037610
-0.162593
-0.035902
0.102697
0.001370
0.036208
-0.011705
0.091591
-0.172714
0.006096
-0.013070
0.043918
0.135838
-0.015904
0.000139
0.008458
0.027990
0.015138
-0.120858
-0.024745
-0.022513
0.150854
0.031943
-0.004152
-0.034777
0.032564
0.007769
-0.043740
0.001456
0.033730
-0.081998
0.020510
-0.033813
-0.068969
-0.008330
-0.037777
0.025310
0.054277
-0.047411
0.034975
-0.033617
0.015829
0.058981
-0.001197
0.135887
-0.017747
0.024585
0.003160
-0.040161
-0.040010
0.018622
0.114226
0.101018
0.026478
-0.034650
-0.122576
-0.058681
-0.009451
-0.065414
-0.022489
0.006955
-0.014126
-0.010900
0.006227
0.097584
-0.030137
-0.135039
0.049589
-0.083879
-0.022397
0.032718
-0.103429
-0.016182
0.023311
-0.004033
-0.009436
-0.098887
-0.020489
0.018816
0.015749
-0.016085
-0.050604
-0.026193
-0.002334
-0.010758
-0.035525
0.061039
-0.032205
-0.070261
-0.006281
-0.008584
-0.024663
0.008472
0.056037
-0.013422
0.067523
-0.010794
-0.143644
0.049793
-0.051807
-0.021715
0.038764
-0.008614
0.015613
0.012960
0.147529
0.082908
-0.038156
0.136160
-0.037788
-0.008773
-0.100901
0.087414
0.000022
-0.034901
0.018557
0.008443
0.128744
-0.088776
0.100381
0.056450
0.003330
-0.008380
0.046906
-0.010656
0.041229
0.005827
-0.004222
-0.061285
-0.007087
0.011104
0.030836
0.044254
-0.044479
-0.019463
-0.003754
0.005248
-0.046281
0.034971
-0.064674
0.012273
-0.060412
-0.069703
-0.050564
-0.059808
-0.080111
-0.022288
0.010897
0.061132
0.155316
-0.200636
-0.036822
-0.039616
-0.030882
-0.017362
-0.015898
-0.010585
0.025347
0.090805
-0.036567
-0.112048
-0.025698
-0.028826
0.045407
0.066013
0.006609
-0.042963
0.027037
-0.064163
0.020409
-0.134101
0.055360
0.023681
-0.051986
-0.019619
-0.077451
0.003912
0.004762
-0.057237
0.105562
-0.101975
-0.002416
-0.015353
-0.065413
-0.041541
0.026736
-0.038652
-0.020853
-0.042144
-0.026361
-0.068746
-0.030231
0.027477
-0.038375
-0.066116
0.028178
-0.093257
-0.064230
-0.010788
-0.013051
0.008090
-0.090687
0.012481
0.014027
-0.013215
-0.036709
0.021175
0.065329
0.004931
-0.007488
0.041275
0.010355
0.001220
-0.068747
-0.066365
-0.051423
0.027160
-0.074163
-0.034591
-0.043497
-0.011102
0.079832
-0.029121
0.041759
-0.063373
0.003289
0.054100
0.049609
0.038224
0.094887
0.030930
0.069423
0.088760
0.005589
0.027872
0.002490
0.023036
0.046176
0.016388
0.049681
0.070353
-0.072919
-0.120110
0.022500
-0.067475
0.002428
0.042871
0.034558
0.052863
0.062341
-0.057893
0.019702
-0.017385
-0.037942
-0.063643
0.004937
0.048791
-0.055633
-0.082217
0.028424
0.057295
-0.031231
-0.062673
-0.095549
-0.059801
0.004442
-0.005647
-0.066924
0.068110
0.012236
-0.001507
-0.031859
0.030456
-0.019754
-0.096766
-0.042271
0.013611
0.007411
0.039527
0.078986
-0.015984
0.070897
-0.032344
0.084813
-0.043831
0.002486
0.004930
0.019774
-0.006952
-0.063943
0.025311
-0.102086
-0.003818
-0.025964
-0.020596
-0.024717
0.028910
0.026375
0.022499
0.036496
0.062282
-0.025687
0.036208
-0.038383
0.006889
-0.024368
0.006065
0.002389
-0.009423
0.008405
-0.000371
0.040159
0.060113
0.030253
0.002992
-0.014978
0.000741
0.055867
-0.106358
0.034631
0.000980
-0.132736
-0.022501
0.007646
0.026580
0.066710
0.008906
0.022204
-0.158042
-0.097024
0.076029
-0.030526
0.059654
0.032268
-0.008587
0.046569
0.004966
-0.063647
-0.039685
-0.037990
0.028406
0.047527
-0.000257
-0.061013
-0.085887
0.078751
-0.053328
0.059141
-0.043265
0.007532
0.052333
-0.048602
0.003673
-0.057773
0.016659
-0.043225
0.056681
-0.072889
-0.092830
-0.040289
-0.052181
0.005429
-0.026123
-0.031635
0.048210
-0.078831
-0.112457
-0.037137
-0.045689
0.014989
-0.014167
0.008890
0.072409
-0.071677
0.061906
0.017250
-0.006909
-0.031105
-0.008421
-0.011065
0.017849
0.043838
-0.085502
-0.042233
-0.084383
-0.104420
0.107269
-0.002344
-0.034337
0.002619
-0.008207
0.026730
-0.044957
-0.099532
-0.025884
-0.038963
-0.012177
0.007533
-0.008409
-0.159600
-0.027350
-0.017330
0.051957
0.058973
-0.048332
0.002834
0.051934
-0.075631
0.006127
0.035886
0.017474
-0.099395
-0.015533
-0.021611
0.046447
-0.043317
0.039051
0.023406
-0.033737
-0.036452
-0.040578
-0.007685
0.017424
0.049909
0.007595
-0.013897
0.024031
0.080952
0.031259
-0.045583
0.028705
0.009424
0.010742
-0.057654
-0.042605
-0.076949
0.093601
0.034694
-0.064555
-0.015798
-0.034258
0.004092
-0.042678
-0.025753
0.034307
-0.030816
-0.045558
-0.039235
0.026775
-0.015080
0.062911
-0.017207
0.127860
0.039067
0.010732
0.076172
0.047623
0.038766
-0.007578
-0.030523
0.041813
0.019730
-0.077083
-0.003586
-0.006073
-0.092633
-0.045345
0.069527
-0.076290
0.003456
-0.050711
0.016048
0.088020
-0.030601
-0.080526
-0.045663
-0.034655
0.023920
-0.010816
-0.062384
-0.004078
-0.020690
-0.063885
-0.020739
0.010489
-0.025178
-0.024882
-0.084979
-0.071534
0.007037
-0.110915
-0.004983
-0.044433
-0.075761
0.005760
0.042948
0.028953
-0.059655
-0.079522
-0.025456
-0.050563
0.025007
0.057207
-0.004255
-0.096681
0.039648
-0.006541
0.027502
-0.015646
-0.021175
0.028151
-0.046720
0.005482
-0.001182
0.004893
-0.067273
0.018196
-0.080255
-0.044613
0.006839
-0.002834
-0.121116
-0.008288
0.042816
-0.021093
-0.039519
0.036596
-0.034284
-0.002997
-0.036688
0.008166
-0.022095
-0.023100
-0.005550
-0.045164
-0.005712
0.030444
0.033047
0.013416
0.101133
-0.115898
0.021871
0.007378
0.010511
0.028825
-0.034267
0.044408
0.032953
-0.013466
-0.102459
-0.098695
0.098513
-0.033363
-0.074401
-0.056749
-0.013402
-0.023645
-0.116007
-0.049606
-0.047772
-0.027437
-0.073274
-0.051240
0.007262
0.052888
-0.128263
0.034935
0.069533
-0.022130
0.069822
-0.064228
-0.042504
0.007406
0.003880
-0.038299
-0.037180
-0.015774
-0.033628
-0.063544
-0.050170
0.114621
0.051124
-0.082835
-0.107642
-0.020129
-0.022554
-0.003443
-0.086790
0.047238
0.094738
-0.005519
0.022190
0.012129
0.003310
-0.033476
0.110461
0.029516
-0.023433
-0.007060
0.023047
-0.012932
-0.037014
-0.015800
0.008848
-0.035199
0.043529
0.037302
-0.052207
-0.030251
-0.007525
0.010214
0.000623
-0.050412
0.035616
-0.008906
0.017890
-0.037356
-0.086098
-0.098444
-0.003641
0.045482
0.020804
0.000186
0.028587
-0.056814
-0.029773
0.004347
-0.030920
0.040318
0.006888
-0.043553
-0.000204
-0.069337
-0.042494
-0.009526
-0.102606
0.065355
0.056885
0.019239
0.061453
-0.016096
0.055280
-0.002952
0.049104
0.033626
-0.000681
0.037863
0.025985
-0.025578
-0.053359
0.010748
0.031920
-0.117618
0.061860
-0.037198
0.011301
-0.042479
0.089241
0.034902
-0.015437
0.075272
-0.207900
0.031214
-0.097589
0.043480
-0.009374
0.020575
-0.042554
-0.001827
0.003894
-0.000751
-0.066333
0.012862
-0.016732
-0.056059
-0.084516
0.010819
-0.006245
-0.028990
0.046154
-0.024344
-0.204558
0.037771
-0.049042
-0.093848
-0.033057
0.103339
-0.008290
0.062869
-0.081466
-0.023410
0.017771
-0.081195
-0.046433
-0.008291
0.026140
0.025483
0.059271
-0.016732
0.004029
-0.015472
0.026942
-0.007934
0.120545
-0.113277
-0.000834
0.023888
0.001841
0.069245
-0.038806
0.004366
-0.005086
-0.144231
0.001696
0.040163
-0.060026
-0.019628
0.100581
-0.022139
-0.037488
-0.044615
0.014787
-0.022507
0.118065
-0.060231
-0.053437
-0.011906
0.066697
0.120241
0.003324
0.065071
0.039116
-0.002572
0.054190
0.014937
-0.101895
0.054464
0.003500
-0.076046
-0.032784
-0.015565
0.005323
0.032591
0.096085
-0.008706
-0.051973
-0.056560
-0.013920
-0.001889
-0.077839
-0.049893
-0.065989
0.017607
-0.023045
-0.002958
0.178601
-0.021651
0.010134
-0.004401
0.066461
0.022324
0.036722
-0.045681
0.017134
-0.021724
0.029694
0.050450
0.019144
0.004800
0.003590
-0.051819
-0.007371
0.110670
-0.014643
0.002266
-0.100109
-0.040879
-0.037911
0.029851
-0.050419
-0.004252
0.025046
0.016131
-0.004382
-0.043670
-0.111457
-0.021191
0.109920
-0.012440
0.090477
0.009148
0.135488
-0.113402
-0.016404
-0.060167
0.009893
-0.005932
0.056616
-0.068632
0.011731
-0.079624
0.003457
0.021207
-0.029657
0.037924
-0.012727
0.019464
-0.005746
-0.036935
-0.017251
-0.041049
-0.034341
-0.003967
-0.057190
-0.057943
-0.011846
-0.025596
-0.009592
0.043319
-0.001865
-0.011805
-0.046068
0.016165
-0.066970
-0.011764
0.019352
0.018632
0.085837
-0.085009
0.007731
-0.029044
-0.059300
0.069028
-0.025049
0.042759
-0.005614
-0.009797
-0.018139
-0.006917
0.018671
0.013983
0.046340
-0.073398
-0.013330
-0.082148
-0.100634
-0.034636
0.051123
0.028648
0.018987
-0.058885
0.093816
0.034227
-0.049783
-0.065797
-0.066338
-0.034387
-0.035570
-0.063151
0.023205
-0.006119
0.019669
-0.022045
-0.070089
-0.008586
-0.026283
-0.006003
-0.096580
0.020490
0.023699
0.050115
0.060142
0.070044
-0.071384
-0.139879
0.002373
0.000678
-0.027153
-0.011083
-0.028884
-0.009417
-0.058423
0.004646
-0.001227
-0.045967
0.043631
0.044099
0.097053
-0.074515
0.030765
-0.060410
0.063356
0.025750
0.012254
-0.234503
0.054375
0.012302
-0.022398
0.008160
-0.093962
0.062989
-0.028254
-0.078693
-0.133326
0.025555
-0.000348
0.086938
-0.096352
0.041111
-0.027029
0.008042
0.149250
0.099132
0.014489
-0.058455
0.085253
-0.010520
-0.070929
0.011285
-0.156866
-0.015942
-0.117465
0.018185
-0.077759
0.023758
-0.004188
-0.073891
0.027910
-0.024481
0.053521
0.011378
-0.017772
0.038753
0.038285
0.015015
-0.014892
0.193099
-0.133946
-0.008156
-0.031570
-0.073585
0.070599
-0.005537
0.002740
0.025360
0.008070
-0.031885
-0.044205
0.109830
0.050707
-0.033134
0.030550
-0.060763
-0.103611
0.022526
0.029903
0.020953
0.044349
0.059661
0.009679
-0.040880
0.007748
-0.006795
0.046515
0.051747
0.037921
0.004401
0.035519
0.041328
0.036007
-0.034545
-0.029656
-0.033238
-0.176661
-0.071883
-0.052925
-0.045899
0.019748
0.025775
0.017565
-0.028912
-0.058000
0.010754
-0.056478
0.044344
-0.023731
0.102237
0.003746
0.029990
-0.084940
0.083700
-0.096228
0.073083
0.003537
0.025475
0.009841
0.001187
-0.032806
-0.023823
0.044468
0.039753
0.005461
0.004616
0.007153
0.053573
-0.027385
0.015800
-0.097258
-0.050039
-0.007997
0.015185
0.007963
0.080792
0.029038
-0.081569
0.059107
0.071854
-0.067738
0.023096
-0.067073
0.024206
0.020360
-0.081360
0.053786
-0.030658
0.056546
-0.028182
0.082712
-0.036320
0.093427
0.002288
0.026568
-0.001838
0.054201
-0.019826
0.062523
-0.217051
0.004667
0.014187
0.025713
-0.019551
-0.000059
-0.002588
0.020959
0.005288
-0.005475
0.012189
0.034491
-0.083293
-0.075606
-0.050414
-0.038313
-0.022895
0.043836
0.035790
-0.023119
-0.097855
0.062424
0.015678
-0.065556
0.081034
0.025966
0.012447
0.060806
-0.036285
-0.128529
0.037281
0.033296
0.058029
0.071962
0.028575
0.025025
-0.044414
-0.033389
0.011127
0.108316
-0.031673
0.015594
-0.031047
-0.161270
-0.023863
0.065064
-0.070592
-0.016461
-0.000722
0.016681
0.019420
0.107958
0.064185
-0.009659
0.008856
0.058200
-0.061054
-0.021143
0.017871
-0.046730
-0.004134
0.074144
0.040488
-0.004081
-0.001104
-0.018636
0.064287
0.032020
0.022932
-0.003263
0.095445
0.009991
-0.014691
-0.127033
0.042318
-0.041193
-0.132730
-0.020628
-0.016479
-0.117176
-0.014501
-0.025798
-0.037981
0.053110
-0.041537
0.018162
0.041451
0.026563
-0.059396
0.034722
0.029871
0.038742
0.011225
0.053315
0.025446
0.006110
-0.041360
0.069974
0.002620
-0.005577
0.040732
-0.027308
0.040604
-0.006465
-0.009774
-0.015098
-0.057117
-0.090332
-0.095583
-0.032406
-0.037691
-0.047116
-0.009264
0.026237
0.144122
-0.038163
0.006565
0.009023
0.080367
-0.018352
0.037320
0.001493
0.025480
-0.032811
-0.000318
-0.088984
0.061194
0.002485
0.044733
-0.055936
-0.024042
-0.085261
0.078689
-0.022843
-0.121932
-0.029932
0.121702
0.097235
-0.163606
0.061073
0.059832
-0.040888
0.005576
0.027455
0.013498
0.051038
0.018702
-0.031130
-0.146322
0.003173
-0.027631
0.028616
0.040629
0.030247
0.011148
0.024006
0.032422
-0.074618
-0.165744
0.046085
-0.097363
-0.034508
-0.015431
-0.098395
-0.032189
0.000657
-0.007108
0.038737
-0.108933
-0.018807
-0.062793
-0.107804
-0.013915
0.027612
-0.011807
-0.002686
-0.047625
-0.056334
-0.073545
-0.060302
0.004429
-0.004290
0.010649
0.082681
-0.101111
-0.026896
-0.049424
-0.055418
0.035317
-0.032239
0.032653
-0.032145
0.042461
-0.019895
0.017570
0.043808
-0.050260
0.008508
0.003029
-0.037102
0.011107
-0.088739
0.026419
-0.069522
0.072531
-0.016183
-0.022257
-0.027220
-0.013596
-0.007603
0.032387
-0.048114
-0.087023
-0.010949
0.004574
0.013911
0.031098
-0.049408
-0.066227
0.037285
0.051744
-0.045782
0.059543
-0.002408
0.057912
-0.044717
-0.006475
-0.043060
-0.002815
-0.035139
-0.065770
0.010176
-0.059247
-0.038057
0.033874
0.016942
-0.036840
0.070742
-0.083070
-0.033797
0.023149
-0.003062
-0.090705
0.031017
0.051681
0.025964
-0.014258
0.020262
0.029783
0.034084
-0.082320
-0.092181
-0.067421
-0.075503
0.016325
-0.022128
0.023151
0.041759
-0.022077
0.010939
-0.012923
0.033590
0.052383
-0.107216
0.030452
-0.013194
0.051408
-0.012242
0.000317
0.054690
-0.064798
-0.038533
0.056926
-0.028115
-0.015221
-0.033174
-0.006935
0.039182
0.062859
-0.098304
0.010319
0.044715
-0.065717
-0.028875
0.064903
0.033477
0.030260
0.004797
-0.057055
0.015685
0.035571
-0.133967
-0.074479
0.009361
0.052337
0.040516
-0.099458
0.054821
-0.046407
0.047894
-0.049729
-0.074242
-0.056841
-0.045435
-0.043815
0.068797
0.033106
-0.001121
-0.037401
0.082747
0.019446
-0.019904
0.005443
0.031048
0.030815
0.030075
0.084140
0.149259
0.097951
-0.060681
0.035918
-0.020834
-0.029889
0.049700
0.092243
-0.084344
-0.074764
-0.030426
0.069084
-0.009018
-0.011513
0.036526
-0.067028
0.052859
-0.014893
0.005875
0.022086
0.019577
-0.002509
-0.049294
-0.042996
-0.003450
0.009375
-0.039475
0.070972
0.013525
0.001286
-0.038916
-0.012584
0.023149
0.034322
0.017522
-0.048133
-0.009879
-0.061744
0.050330
-0.020091
-0.021418
-0.021173
-0.033289
0.074426
-0.067526
0.057238
-0.011757
0.024921
-0.034327
0.053655
-0.001696
0.020916
0.068456
-0.033794
0.072724
-0.030922
-0.013250
0.023512
0.002397
-0.012143
-0.008558
0.073815
0.030535
-0.038517
-0.124554
0.063382
-0.001114
-0.104951
-0.018339
0.002872
-0.077502
-0.080310
0.014963
0.040961
0.036397
-0.022051
0.049019
0.072781
-0.005067
0.098083
0.072159
0.019740
0.016660
-0.018448
-0.012798
0.069168
-0.045825
0.043027
-0.018379
0.014650
-0.040149
-0.081493
-0.000674
0.038970
0.012841
0.019066
0.038329
-0.023399
0.027630
0.005705
-0.114202
0.038877
0.014745
0.021993
-0.065485
-0.006474
-0.051738
0.089131
0.023990
-0.034767
-0.100423
-0.069734
-0.009381
-0.008453
-0.038182
0.055273
-0.029441
-0.037681
-0.007911
-0.022000
0.049214
0.050282
-0.002285
0.087217
0.003639
0.025802
0.077605
0.072231
-0.038901
-0.041568
-0.006919
-0.000626
0.047335
-0.041198
-0.048136
-0.006918
-0.104495
0.033525
0.100047
-0.047671
-0.036374
0.004833
0.025512
-0.003464
-0.052387
-0.070265
0.032022
-0.013570
-0.018486
-0.114218
-0.015217
0.051571
-0.015178
-0.089897
-0.035408
-0.018720
-0.035816
0.020911
-0.057492
-0.060759
0.023217
0.036403
-0.061063
-0.069771
-0.059478
-0.023969
-0.020990
-0.005071
0.014768
-0.034262
-0.056787
0.022896
-0.112494
0.017148
0.018806
0.019128
0.052799
-0.032740
0.004009
0.058484
-0.025174
-0.035078
-0.061461
-0.048360
-0.034326
0.015890
-0.040109
0.045597
0.022900
-0.064528
0.011517
0.027071
-0.029562
-0.016159
-0.017479
-0.002449
0.014446
0.072485
-0.079067
0.042296
-0.065298
-0.019125
-0.031973
0.036299
-0.016209
0.038440
0.041529
-0.039520
0.024148
0.045388
0.106833
-0.103203
0.032355
0.030919
-0.062330
0.040062
-0.060610
0.073020
0.023371
-0.032369
-0.049819
-0.032134
0.048970
-0.041757
-0.015157
0.046366
-0.016720
-0.016710
-0.097075
-0.074796
-0.028016
0.005475
-0.030934
0.063731
0.042838
0.072718
-0.076617
0.006753
-0.008329
0.055797
-0.052779
0.007384
0.035014
-0.046320
-0.067399
0.057026
0.050757
-0.046820
0.025672
-0.056590
-0.045103
-0.084684
-0.011100
0.050517
-0.002696
-0.009303
0.030912
-0.053961
0.016235
0.037627
0.100452
-0.009324
0.031143
0.002423
0.038308
-0.035392
0.066439
0.030513
-0.015839
0.006851
-0.010814
-0.014908
-0.015274
0.009829
-0.036288
-0.004647
0.073691
-0.113195
-0.018241
-0.061004
0.022461
-0.123392
0.019844
-0.051809
-0.028317
-0.040758
0.004324
-0.043030
-0.069319
0.014762
0.057194
-0.027032
0.015668
-0.026509
-0.029645
0.023169
-0.006465
-0.088031
-0.075551
-0.024015
0.005728
0.046935
-0.048828
-0.118923
0.072067
-0.047650
-0.075696
0.086740
0.039777
0.008773
-0.104189
0.031996
0.023482
0.039144
0.024588
0.065181
-0.070449
-0.090431
-0.002983
0.023520
-0.054516
-0.005049
-0.004732
-0.026647
0.006389
-0.063281
0.024921
-0.017802
0.008632
-0.021313
0.050631
0.047023
0.051400
0.018740
-0.067996
0.045637
-0.019305
-0.061627
-0.045546
-0.053425
0.004561
-0.000448
0.074256
-0.007806
-0.018482
-0.044661
-0.010601
-0.015639
-0.032045
0.057505
0.034156
-0.041999
-0.007155
-0.055026
0.001883
-0.007359
-0.017083
0.026589
0.197054
-0.052147
0.030500
-0.046981
0.087221
0.015588
-0.043379
0.039239
-0.148356
-0.078318
-0.005319
-0.012529
-0.072037
-0.027577
-0.005740
0.063121
-0.161731
0.048304
0.006593
-0.049339
-0.020592
0.039863
-0.005082
-0.082594
-0.023428
0.045987
-0.070915
-0.053003
0.014792
-0.035845
-0.191223
-0.053149
0.008128
-0.011119
-0.008523
0.001165
0.142968
-0.064642
-0.005714
-0.069153
0.041796
-0.000009
-0.057209
-0.005010
-0.016702
-0.039384
0.030550
-0.057778
0.036090
0.007955
0.009985
-0.002374
0.094640
-0.029187
-0.012653
-0.007001
0.105596
0.055082
-0.030212
0.043948
-0.001863
-0.016473
0.014450
-0.006846
0.023371
-0.055993
0.023170
-0.055200
0.170905
-0.081398
0.004970
-0.088422
0.050303
0.042584
0.034781
-0.026424
-0.047901
0.003014
0.056192
-0.055864
0.053759
-0.079875
0.004056
-0.212256
-0.020205
-0.017206
-0.011095
-0.002293
-0.090081
-0.120447
-0.030608
-0.038312
-0.005626
0.001441
0.032892
0.010005
-0.061506
0.012756
-0.056940
0.027390
0.014176
-0.106943
-0.057835
-0.004394
-0.059321
-0.010705
-0.028788
-0.039529
-0.030797
-0.003096
-0.049483
0.032249
-0.048515
0.020786
0.021425
-0.029566
-0.006330
0.005456
-0.035574
-0.024076
0.071815
0.055364
0.008406
0.091365
0.075597
-0.020445
0.016898
-0.044389
-0.009462
-0.053174
0.065309
0.028502
0.031505
0.011488
-0.041015
-0.001170
0.015741
-0.006208
0.026435
-0.008130
0.039511
-0.025863
0.041324
0.044175
-0.014479
-0.018105
0.031572
-0.021502
0.004436
-0.029021
0.059235
0.004050
0.031854
-0.018099
-0.029018
0.002222
-0.033303
0.010069
0.019469
0.008919
-0.031057
-0.027063
-0.013541
0.055318
0.063011
-0.084719
-0.028789
0.020232
-0.106859
-0.027012
0.058112
-0.040958
0.002629
-0.036189
-0.013568
0.016358
-0.040710
0.065531
0.003131
0.094475
-0.033050
0.032025
-0.048695
-0.035674
0.034992
0.027381
0.055396
0.017248
0.073057
0.014696
0.038812
-0.007611
-0.012041
-0.018638
-0.025592
-0.007782
-0.031239
-0.037148
-0.012701
0.039467
0.012166
0.067923
0.036671
0.034530
-0.057572
0.011284
-0.041394
0.127197
-0.138666
-0.031285
-0.024072
-0.033446
-0.019832
0.014543
0.011858
0.032662
0.093060
-0.031579
0.007929
-0.066990
0.019943
0.048088
0.014275
-0.007454
0.024916
-0.026267
-0.013901
-0.105008
0.028932
0.014412
-0.002552
0.008517
-0.014405
0.032785
0.045487
0.007685
0.054854
-0.048242
-0.037848
-0.043420
0.025745
-0.030906
0.184313
0.032980
0.021307
-0.011565
-0.061844
0.028743
0.023909
0.136211
0.211512
-0.000046
0.007737
-0.059527
-0.181431
-0.015083
0.046245
0.037528
0.012941
-0.080881
-0.030013
0.039925
-0.000213
-0.017721
-0.070137
-0.051116
0.062554
-0.107762
-0.012850
-0.031560
0.039366
-0.100050
-0.020427
-0.006317
0.013509
-0.060485
0.042140
0.070779
-0.038061
-0.149639
-0.004299
-0.032747
0.001434
-0.022539
-0.020819
-0.081465
-0.065929
-0.137733
0.032234
0.019246
0.013625
0.013836
0.011072
-0.027872
-0.070966
-0.001672
0.005054
0.041804
0.024907
-0.030067
-0.025543
-0.020625
0.069170
-0.056170
0.071292
-0.035090
-0.016029
-0.060506
-0.007294
0.036373
-0.024577
0.000352
-0.038545
-0.077585
-0.119078
-0.049402
-0.063743
-0.084450
0.088292
0.014057
0.007169
0.026914
-0.035370
-0.021282
-0.042237
0.043425
-0.054675
0.005549
-0.063474
-0.099374
-0.052188
-0.000333
0.054867
-0.016676
-0.010031
0.103403
-0.029453
0.032653
0.138282
0.033757
-0.024365
-0.007171
-0.070979
0.077766
-0.022687
0.099544
-0.003874
0.015947
0.014471
0.113809
0.051992
0.010814
-0.052733
0.101406
-0.017327
-0.050355
0.039134
-0.024617
-0.144008
0.021664
0.034472
-0.005354
-0.002144
-0.006826
0.042454
0.056886
-0.042156
-0.062425
0.036383
0.037344
0.036126
0.002103
-0.008852
0.002754
-0.054702
0.023396
-0.024920
0.030530
0.090164
-0.002550
0.050947
-0.137906
-0.064071
0.030902
-0.042840
-0.037652
-0.078986
0.080666
0.080753
0.055101
0.019053
-0.030005
-0.012219
-0.003189
-0.001808
-0.071291
-0.001126
0.009995
-0.027813
0.037661
-0.060742
-0.012445
0.023263
-0.225404
-0.055869
-0.078185
0.015622
-0.006039
-0.151706
0.002886
-0.053028
-0.075838
-0.045849
0.012910
-0.043563
0.008717
-0.039296
-0.015860
0.057513
-0.023752
0.057771
-0.027927
0.014800
0.022062
-0.003651
-0.022187
-0.018774
0.015048
0.076110
-0.044077
0.002544
0.007371
-0.123653
0.006656
0.116837
-0.027551
-0.075510
0.004460
-0.063347
-0.017730
-0.003800
0.161917
-0.042342
0.051400
-0.000269
-0.109787
-0.079461
0.032740
-0.127184
0.072715
0.022320
-0.129999
0.004720
0.068302
-0.021577
0.047184
0.126607
0.036535
0.020800
-0.107151
0.040130
-0.030975
0.054657
-0.038260
0.004494
0.028710
-0.007151
-0.062134
0.004405
0.053220
0.054270
-0.046617
-0.004222
-0.101065
0.105792
-0.024146
0.041796
-0.059151
-0.083794
-0.076744
0.047717
-0.054858
-0.010057
-0.061603
0.019049
0.018883
0.004420
0.000614
0.011830
-0.054005
0.014959
0.030942
0.004498
-0.048179
-0.032580
0.005670
0.059745
0.094589
0.057031
0.006792
0.069084
-0.019580
0.003671
-0.042431
-0.046043
0.056205
0.098330
0.110323
0.031995
0.035360
-0.036387
-0.005222
0.023780
0.039871
-0.001857
-0.032319
0.116368
0.005442
-0.116144
-0.023520
-0.032440
-0.019587
-0.019283
0.008010
-0.034570
-0.027569
0.041679
-0.000227
-0.006665
0.062203
-0.011250
-0.107054
-0.015826
-0.071420
0.010564
0.033889
-0.104250
-0.074771
0.038517
-0.077404
-0.051314
-0.016424
-0.021688
0.006639
0.093241
-0.024504
0.010374
0.035731
-0.003955
0.040321
-0.181189
0.097500
-0.066658
0.039098
0.120439
0.037860
0.019636
-0.015749
-0.069724
-0.000729
-0.010472
0.143366
0.039234
-0.009294
-0.065981
-0.052948
-0.147712
-0.062326
-0.049727
0.100266
-0.223228
-0.009284
0.083478
-0.083412
0.047569
0.057570
-0.023749
0.044672
-0.052296
-0.095987
-0.028832
0.011775
-0.060768
0.017599
0.052129
0.084392
-0.072102
-0.092537
0.051199
-0.063164
-0.006765
0.030187
0.006767
-0.041968
0.051203
-0.133088
-0.003944
0.017403
-0.019272
0.038879
-0.031901
-0.052793
0.015957
-0.132879
0.000933
-0.064402
-0.048666
0.009246
-0.059578
0.064713
-0.004864
-0.061942
0.000573
0.027826
-0.173871
0.049896
0.027513
0.003698
-0.004807
0.023714
0.048063
-0.134598
-0.017660
0.056765
0.019759
0.056470
0.094416
-0.043048
-0.033098
-0.103516
0.005344
0.026162
0.065981
0.010220
-0.030459
0.016333
0.063447
-0.155208
-0.036547
0.039673
0.042693
-0.006311
-0.006336
0.066275
0.018364
0.028251
0.037532
-0.004997
-0.054779
0.111307
-0.050678
0.003001
0.046254
0.018669
-0.020613
0.000313
0.037230
0.003210
0.099653
0.014099
-0.023447
-0.031106
-0.055144
0.017113
0.017410
0.129159
-0.003417
-0.050926
-0.049644
-0.080316
0.068778
0.026945
0.067566
0.022770
0.034160
-0.011020
-0.020883
-0.005557
-0.038173
0.014537
-0.040505
-0.003932
-0.093046
-0.025099
0.047885
-0.057642
0.000897
0.017707
0.029243
0.014718
0.057107
0.051511
-0.039989
0.013208
0.026122
0.020514
0.028175
0.069176
0.000973
0.040007
0.070005
-0.035586
-0.056784
-0.009119
-0.014016
0.024318
-0.011772
-0.059224
-0.008318
0.028053
-0.008593
-0.019845
0.017659
0.043389
0.034904
0.009800
0.003224
0.086996
0.025619
0.059798
-0.048390
-0.155833
-0.061577
0.059752
0.009052
0.016502
-0.000871
-0.033446
0.024104
-0.023995
-0.109073
-0.050934
-0.021698
-0.022416
0.031108
0.034878
-0.018468
-0.003236
0.010731
0.056985
0.101886
-0.032959
-0.049964
-0.098965
-0.040152
-0.019230
-0.055866
-0.035312
-0.040730
-0.017823
-0.018836
-0.088303
0.022910
-0.044652
-0.007329
0.000729
0.032455
-0.070071
0.046964
-0.002631
0.012514
0.027323
-0.053532
0.000834
-0.079732
-0.013175
0.003705
0.019442
0.006268
0.010387
-0.000987
-0.000861
-0.032895
0.101260
-0.025736
-0.015926
0.046951
0.009099
0.069338
-0.021146
-0.000132
0.004941
-0.023983
0.070648
-0.024726
0.084259
0.008642
0.069355
-0.054299
0.134254
-0.012610
-0.057399
-0.023653
-0.007638
0.045052
-0.032487
0.033692
0.000448
0.048877
-0.011481
0.003329
0.063478
0.005526
-0.030913
0.009223
0.028294
-0.058147
0.015103
-0.031062
0.009534
0.065736
0.004701
0.011051
0.031283
0.001829
0.096148
-0.070515
0.044173
0.008500
-0.030825
-0.009923
0.003999
0.016761
-0.041270
0.021017
-0.035681
-0.055596
-0.105383
0.019107
0.097783
0.025134
-0.005010
0.020508
0.067732
-0.038730
-0.071659
-0.000529
-0.036298
-0.099684
0.033158
-0.058797
-0.019391
-0.102210
0.010775
-0.030490
-0.098300
0.013313
0.071160
0.035159
0.024410
0.009144
-0.019233
-0.009022
-0.095304
0.059692
0.093815
0.070962
-0.018104
-0.001549
-0.023297
0.000977
-0.047530
-0.054262
0.028948
0.057621
-0.022822
0.041016
-0.010845
-0.019216
0.033113
-0.068932
-0.038188
0.007674
0.022256
-0.040596
-0.044285
0.101211
-0.048361
0.050807
0.022410
0.026512
-0.004192
0.044984
0.023554
0.019216
0.014093
0.007528
-0.001389
0.025577
0.037334
0.003229
-0.020999
-0.047105
-0.102198
-0.009811
0.032696
-0.038520
-0.061956
-0.105240
0.047863
0.061306
0.059921
0.000091
0.028653
0.081848
0.037678
0.047837
0.013127
-0.016844
-0.020815
-0.006956
0.052513
0.045081
-0.049620
0.011125
-0.037402
-0.032111
-0.043343
-0.037937
0.009075
-0.042657
0.014532
-0.031578
-0.037535
0.005500
-0.029824
0.117329
-0.010688
0.047723
0.052877
-0.009795
-0.064902
0.069806
0.039286
-0.073297
0.010718
0.052733
-0.038493
-0.046287
-0.033752
-0.004614
-0.021614
0.068371
-0.009912
-0.093206
-0.095770
-0.016105
-0.085440
0.015518
-0.084675
0.008411
0.016662
0.003719
-0.042161
-0.068930
-0.075260
0.068638
0.046298
0.009310
-0.036074
0.019576
0.003068
-0.035438
-0.037164
-0.044610
-0.019826
-0.103237
0.026046
-0.049082
-0.065365
0.097042
-0.043904
-0.098333
0.085256
0.059531
-0.061456
-0.084520
0.002172
-0.093777
-0.031566
0.037071
0.063771
0.028249
-0.097648
-0.015582
-0.071209
-0.103322
0.019503
-0.019863
0.032739
0.058300
-0.039766
0.041883
-0.010075
-0.012444
0.010857
0.051039
0.077515
-0.038622
0.030824
-0.134858
0.101906
-0.024447
-0.014004
-0.128455
-0.062220
-0.014793
0.023337
0.008774
-0.003803
-0.003919
-0.044248
-0.035866
-0.044420
-0.016896
0.006955
0.057241
-0.048823
-0.096188
0.013259
0.012310
-0.004698
-0.009977
0.061672
0.114689
0.095626
-0.009888
-0.031097
0.029640
-0.062921
-0.039570
0.034141
-0.149969
0.020217
-0.049810
-0.009973
-0.062203
-0.020595
0.035832
0.042733
-0.133844
0.034345
-0.021693
-0.046192
-0.009685
0.063235
0.032283
-0.012168
0.018291
-0.043055
-0.052757
-0.003512
-0.010071
-0.027093
0.048615
-0.041344
-0.004690
-0.038315
0.003324
-0.008877
0.142612
-0.055318
0.003427
-0.030686
0.066328
0.034295
-0.019177
0.039424
-0.022758
-0.000513
0.057585
-0.018013
-0.078939
-0.004236
-0.010537
-0.051299
0.058999
-0.061899
-0.035304
0.031626
0.097697
-0.029343
0.001772
0.006142
-0.009537
-0.023945
-0.009073
-0.015192
0.046246
0.038096
0.050060
-0.046302
0.167880
-0.027508
-0.034419
-0.007776
0.000424
-0.020115
0.009314
-0.022147
-0.021903
-0.006864
0.054740
-0.004581
0.066143
-0.034229
-0.006061
-0.188782
-0.005317
-0.023566
0.014702
0.056600
-0.069876
-0.077720
-0.008389
-0.028753
0.024225
-0.052712
0.035409
-0.001507
-0.197538
-0.026676
-0.061891
0.036408
0.054743
-0.079850
-0.052098
0.063560
0.065178
-0.081107
0.048731
-0.026923
-0.008430
-0.029383
-0.032874
0.066638
-0.087982
0.026406
0.021103
-0.024152
-0.030294
-0.020422
-0.030219
-0.058468
0.045599
-0.098631
0.061710
0.050996
0.127041
-0.012487
-0.055899
-0.033485
-0.063467
-0.000334
0.009551
0.038873
0.060680
-0.013493
0.106897
-0.061243
-0.005473
-0.009346
0.012229
-0.032627
0.115430
-0.139947
0.009645
0.042927
-0.011182
-0.052889
-0.022618
0.039542
-0.038066
-0.067162
-0.067398
-0.011732
0.056489
-0.005450
-0.041797
-0.158186
-0.018694
-0.012995
-0.073279
-0.029785
-0.055312
-0.019633
-0.023836
-0.033827
0.024586
-0.010317
-0.070605
-0.007709
-0.023274
-0.013568
0.011807
-0.065872
-0.018564
-0.013955
0.016627
0.016356
-0.088699
0.096151
0.016603
0.068336
-0.042587
0.044204
0.000737
-0.046326
0.049921
-0.132562
0.048831
-0.042762
0.059512
-0.040755
-0.109818
-0.028930
-0.095582
0.030024
0.036293
-0.040775
0.018518
-0.058719
-0.091160
0.034482
0.086805
-0.023451
-0.021375
0.055034
-0.021362
-0.013989
0.022426
0.143380
-0.159769
-0.010918
0.027444
-0.024237
-0.123108
0.043300
0.037386
0.046955
0.033396
-0.068931
0.016904
-0.039061
0.028952
-0.022271
-0.031989
-0.026454
0.022867
0.190518
-0.059844
-0.149256
0.037161
0.055975
-0.216526
0.026968
0.013526
0.005658
0.113565
-0.010537
0.030763
0.011360
-0.017552
0.074257
-0.114299
-0.012723
-0.258426
0.007677
-0.000825
0.027191
-0.079040
-0.055485
0.031530
-0.045017
-0.312885
-0.092798
-0.007304
0.148550
0.082707
0.035790
0.008240
0.112850
-0.038471
-0.084905
-0.042270
0.063186
-0.006716
0.031262
-0.094208
-0.044778
0.036007
-0.129769
-0.029455
-0.019203
0.052800
-0.102998
-0.059233
-0.004227
-0.021780
-0.075370
0.062178
0.065236
-0.009718
-0.129803
-0.013949
-0.096355
0.028734
-0.050164
0.044656
-0.061498
-0.076491
-0.109410
0.057942
-0.058782
-0.001623
0.065497
-0.005579
-0.111404
0.091993
-0.069014
-0.023313
0.041516
0.049351
-0.045820
-0.017697
-0.036200
0.070031
-0.142742
0.099411
-0.074199
0.007933
0.001198
0.059040
0.044244
0.025335
-0.020425
-0.009870
-0.008123
-0.008551
0.029607
-0.098166
-0.091016
0.026100
-0.000212
-0.001743
-0.008247
-0.005345
0.025608
-0.022467
0.029954
-0.015796
-0.008756
-0.004540
0.072580
0.079681
-0.020077
0.001715
0.068385
0.023584
0.009041
0.036625
0.015891
-0.162276
0.007036
0.014265
0.007627
-0.058339
-0.057456
-0.045893
0.009309
-0.029132
-0.104624
-0.015296
0.020719
0.068690
0.003105
-0.015657
0.062334
-0.019546
0.004135
-0.000213
0.035308
-0.200352
0.106303
-0.091978
-0.030387
0.056988
-0.013725
-0.151695
0.073365
-0.012293
-0.105832
-0.012416
0.081776
-0.090989
0.015933
0.000654
-0.030887
0.036345
-0.079166
-0.010550
0.034218
-0.051523
0.159199
0.056739
0.079331
0.048313
0.038973
0.001158
-0.009353
-0.047860
0.055531
0.106146
-0.050163
0.010214
0.005359
-0.132861
-0.022182
-0.032238
-0.056959
-0.015203
0.003735
-0.009959
-0.053887
-0.018565
-0.027425
0.012654
-0.179728
-0.037773
-0.047306
-0.037331
0.014131
-0.067468
0.032952
-0.017940
0.002892
-0.020910
0.009677
-0.053658
0.016979
0.118280
0.025215
0.033907
0.045843
0.063569
-0.070771
-0.038404
-0.028748
-0.010415
-0.148569
0.031984
-0.005249
0.018018
-0.036616
0.029525
-0.013648
-0.063129
-0.008550
-0.181249
0.034277
-0.043591
-0.010704
-0.041004
-0.018029
0.037122
-0.071186
-0.234134
0.026989
-0.005581
0.144199
0.076651
0.038926
0.036462
0.099055
0.036146
-0.037302
0.037235
0.061930
-0.201054
0.056968
-0.014388
-0.105257
-0.054299
-0.085023
-0.018422
-0.025711
-0.006632
-0.142283
0.040956
0.054388
-0.036403
0.013470
0.033408
0.053749
0.009884
-0.023670
-0.022934
0.074505
0.020040
0.064680
0.088688
0.003879
0.090223
0.000492
-0.040863
0.070085
-0.014100
-0.124050
-0.066651
0.111369
-0.111577
0.000615
-0.068339
0.124726
0.077865
0.005903
0.011567
-0.020031
-0.035024
0.049317
-0.001967
0.143263
-0.063072
-0.012042
0.035838
-0.022420
-0.033876
-0.095497
-0.022961
-0.083755
-0.001736
-0.168640
0.055404
0.116531
-0.002190
0.022761
-0.063075
-0.017756
-0.009640
-0.019646
0.134382
-0.039240
0.005597
-0.005494
-0.094492
-0.021774
0.006018
-0.048574
-0.010576
-0.044776
0.010557
-0.033602
-0.017601
0.065665
0.021496
-0.060448
-0.033121
-0.054905
-0.007690
0.011482
-0.098178
-0.050308
0.012138
0.006852
0.015456
0.005167
-0.051049
0.004300
-0.041212
-0.160588
0.010977
0.080535
0.056962
-0.027990
0.036890
0.016769
-0.004607
0.087472
0.131246
0.045048
-0.008775
-0.002599
-0.032349
-0.046041
-0.010395
0.109506
-0.044043
-0.011691
0.020165
-0.020859
0.018145
-0.049737
0.002525
-0.214686
0.080723
0.097487
0.038539
-0.024925
-0.036317
-0.006013
-0.206348
0.085858
-0.044618
-0.038939
0.004153
-0.031768
0.028462
0.023313
0.162797
0.031835
-0.061595
-0.089877
-0.004216
-0.000111
0.032972
-0.031126
0.064359
-0.035823
-0.058025
-0.079598
-0.008702
0.017140
0.005142
0.001924
-0.074548
-0.065976
0.030475
0.015625
-0.027138
0.056826
0.093319
0.037105
-0.045806
-0.041619
-0.009860
0.111294
0.025343
0.000755
-0.104279
0.001685
0.000937
-0.053782
0.103749
0.048644
0.068434
-0.091158
-0.037876
0.031155
-0.010634
0.051784
-0.078789
-0.031193
-0.042828
-0.146320
-0.086843
-0.010495
0.026887
-0.036183
0.000282
0.010872
0.052090
0.089870
0.055353
0.060168
0.010150
-0.073355
-0.011288
0.014270
0.074987
-0.110600
0.107272
0.065457
-0.042446
-0.012171
0.201914
0.014759
0.012839
0.026159
-0.048451
-0.063772
0.015059
0.025033
-0.097442
0.022281
-0.032169
-0.012026
-0.093189
-0.101851
-0.021068
0.072250
0.052050
0.144136
0.009866
-0.028700
-0.011608
-0.026242
0.069702
0.105388
-0.049398
-0.058410
0.075916
0.046089
-0.052811
0.025811
-0.018422
-0.048970
0.041912
-0.026015
0.016322
-0.043526
-0.016726
0.018932
-0.017367
-0.041107
-0.060487
-0.034120
-0.046470
-0.004754
-0.105871
-0.005658
-0.028244
0.017281
-0.051443
-0.000235
0.037592
0.082654
0.055226
0.024229
-0.007876
0.001333
0.008336
0.003238
0.025378
0.027488
-0.002227
-0.027046
0.030800
0.080994
0.012767
-0.012373
0.016004
0.061382
0.064353
-0.065053
-0.075477
-0.184888
-0.095947
0.100235
-0.012998
-0.057566
0.050530
-0.048770
0.021167
-0.081164
-0.015946
-0.030982
-0.028193
0.032871
0.038961
0.021521
-0.083333
-0.052490
0.003865
0.059975
0.106879
-0.000622
-0.024832
-0.079106
-0.032711
-0.017378
-0.084705
-0.053527
-0.090412
-0.049101
-0.011861
-0.045053
0.026432
-0.031092
0.005265
-0.029253
0.043936
-0.036569
0.006773
0.001761
0.009470
-0.038673
-0.083962
-0.045165
-0.042967
-0.010096
-0.010612
0.032967
-0.029711
0.005548
-0.012758
-0.007960
0.035246
0.095056
-0.033967
0.002357
0.009153
0.019292
0.050696
-0.029916
-0.035512
0.019847
0.011534
-0.013297
-0.064652
0.040532
-0.046064
0.075992
-0.052897
0.110290
0.002698
-0.017872
0.047834
-0.028122
0.021436
-0.031509
-0.006064
0.032724
0.125869
-0.030647
-0.081758
-0.004425
0.021084
0.004131
0.053450
-0.023563
0.050680
-0.007433
0.027739
-0.012595
-0.024115
0.019518
-0.036971
-0.024583
0.006918
0.077083
-0.079475
-0.008685
-0.009587
-0.086842
-0.069506
0.022224
-0.004068
-0.007277
-0.015003
-0.092435
0.037679
-0.112504
0.013615
-0.061390
-0.054328
-0.026539
-0.091311
0.025837
-0.080255
-0.045514
-0.001240
0.005324
-0.098413
0.062774
0.007319
0.035873
0.065840
0.013660
-0.029904
-0.117326
-0.060332
0.118528
0.046027
-0.002443
-0.016435
-0.029348
0.003688
-0.077893
-0.025929
0.040954
0.056231
0.008913
-0.089187
-0.067177
0.022902
0.008963
0.005201
0.059444
-0.065452
0.090032
0.035474
-0.025674
0.002037
0.028906
0.035515
-0.061697
0.003782
0.059604
0.023208
-0.062766
0.123278
-0.135304
-0.003345
0.010762
0.073191
-0.082819
0.000083
0.051831
-0.004332
-0.020172
-0.066665
-0.001783
0.031190
0.031993
-0.013921
-0.083597
-0.002593
-0.005689
-0.006380
-0.036097
0.009535
-0.112090
-0.077985
0.035574
0.063981
-0.003425
-0.015031
0.043197
0.133845
-0.018719
0.125589
0.005362
-0.025735
0.034960
-0.026779
0.019090
0.023310
-0.044058
-0.006845
0.011696
-0.048469
-0.034697
-0.051291
-0.072308
-0.010902
-0.003236
-0.109363
0.003811
-0.001885
0.034456
0.154694
-0.005948
0.128441
0.004644
-0.034827
0.022782
0.122681
-0.040142
-0.081051
-0.006437
0.020320
-0.011466
-0.016886
-0.029398
0.010591
0.018382
0.039053
-0.004204
-0.059602
-0.102529
0.030226
-0.044242
0.003733
-0.098804
0.026007
0.012216
-0.029867
-0.063458
-0.016343
-0.115852
0.079290
-0.014849
-0.057621
-0.030542
0.000912
-0.117566
0.017322
-0.027854
0.006669
-0.012525
-0.040112
0.003733
-0.058860
0.025060
-0.028429
-0.068336
-0.068402
0.073972
0.095981
-0.055557
-0.000027
0.004951
0.095013
-0.008648
0.048093
0.027043
0.024537
-0.007177
0.018003
0.028325
0.070419
0.042720
0.025677
-0.130588
0.016794
-0.050223
0.062373
-0.151919
0.018185
0.041240
0.019029
0.039248
0.033285
0.013568
-0.168576
0.044446
-0.006154
0.004533
-0.072807
-0.055645
0.011182
0.073470
-0.054089
0.017623
0.021889
-0.109147
-0.043117
-0.046419
-0.052656
-0.031993
0.038060
0.017180
-0.052186
-0.019993
0.064537
-0.035735
-0.022748
0.007409
-0.108371
0.041882
-0.025867
-0.033837
0.001431
-0.090274
-0.055742
0.061040
0.085646
-0.055836
-0.022865
-0.005546
0.028076
0.013039
0.036735
0.005359
0.031760
-0.045791
-0.030784
0.030891
-0.053405
0.027437
-0.003973
0.050344
0.019357
-0.079974
0.049281
0.004521
0.006543
-0.016795
0.124101
-0.013982
-0.044881
-0.023471
0.025232
-0.080811
0.117171
-0.030124
0.010681
-0.069394
0.024319
0.123885
-0.012509
0.031025
0.035165
0.005409
0.057750
0.006353
-0.114297
0.046941
-0.010748
-0.073384
0.042473
-0.003930
0.012700
0.015552
0.084988
-0.011810
-0.073221
-0.059328
0.017989
-0.003727
-0.069718
-0.032611
0.050576
0.004872
-0.024565
-0.062947
0.194692
-0.042118
-0.038004
-0.021221
0.015685
-0.010239
0.012875
-0.032064
0.000532
-0.003952
0.027522
0.010129
0.084213
-0.069938
-0.029759
-0.055865
-0.039355
-0.005886
0.009959
0.017090
-0.118385
-0.020188
0.010597
0.024971
0.049565
-0.032603
0.026846
0.010367
-0.134787
0.008254
-0.078348
-0.033920
0.047182
0.043708
-0.111160
0.028678
0.098750
-0.014792
0.006822
-0.030689
0.028541
0.036810
0.028926
0.054032
-0.180485
0.050248
-0.036861
-0.019018
-0.014295
0.008879
0.023006
-0.013610
0.046702
-0.149242
-0.030238
-0.019602
0.097830
0.055296
0.013039
-0.015466
-0.054055
0.094835
-0.004314
-0.022532
-0.023956
0.021427
0.050613
-0.031582
-0.005104
-0.071956
0.011253
0.014500
0.085596
-0.086758
0.004809
0.071496
-0.021025
-0.030668
-0.045148
0.055267
0.032506
-0.070821
-0.052487
0.053074
-0.013166
0.000779
-0.032395
-0.050385
-0.033119
0.031508
-0.006674
-0.020516
-0.034780
0.038518
0.004245
-0.005491
0.025287
0.068708
0.002354
-0.002330
-0.060939
0.029779
-0.074060
-0.081290
0.010678
0.026923
0.001881
-0.016422
-0.116139
0.029106
-0.002188
0.003781
-0.052199
0.030679
0.034666
0.020635
0.008981
-0.085656
0.040659
-0.097516
0.080609
0.022848
0.017967
-0.045628
0.022460
0.008501
0.098203
0.075897
0.081092
-0.002598
-0.086850
0.069655
0.127226
-0.164729
0.009703
0.061554
0.028330
0.020243
0.011900
-0.013520
-0.025559
0.000272
-0.015257
-0.038690
-0.105401
0.015016
-0.020453
0.000950
0.001195
0.005249
0.027600
0.005023
0.037876
0.037920
0.059571
-0.043814
0.088530
-0.047554
0.030746
0.074291
0.018168
-0.032520
0.001017
0.053187
-0.013327
0.079070
-0.070729
-0.026293
-0.099828
0.035313
0.016374
-0.000084
-0.069236
0.014856
0.116532
0.006441
-0.039798
0.017267
0.107571
0.004566
-0.037592
-0.016180
0.045350
0.008729
0.038000
-0.151807
0.063671
0.001405
0.020055
0.051111
0.011096
-0.090364
-0.048196
0.110764
-0.121877
0.046211
-0.104492
-0.072768
-0.041638
-0.110924
0.012824
0.001500
0.077005
-0.034550
-0.033816
-0.009720
-0.023489
-0.064875
0.060087
0.089099
0.028085
-0.014162
-0.000086
-0.061632
0.069497
-0.083776
0.042788
-0.072885
-0.004508
-0.131340
0.028967
0.025372
-0.006624
-0.053072
-0.027150
-0.006304
0.066116
-0.028811
-0.109072
0.072618
-0.018611
-0.075376
0.000779
-0.017993
0.033981
-0.056638
0.020772
-0.016601
-0.005384
0.043425
0.047915
0.043366
0.006469
-0.023352
0.000574
0.086840
-0.004817
-0.021897
-0.087133
0.044719
-0.001003
0.020139
0.033845
-0.087446
0.062441
0.016147
-0.007147
0.015789
0.054583
0.000143
0.072213
0.169937
0.037395
-0.028793
-0.051302
0.012978
0.028431
-0.065599
0.046328
-0.002111
0.094387
-0.042468
0.067771
-0.039387
0.089074
-0.060385
-0.027776
-0.154289
0.057611
-0.028961
-0.057826
-0.138521
-0.028353
0.000611
-0.003519
-0.133857
0.023507
0.074736
-0.001671
-0.002367
-0.154844
0.064169
-0.027758
0.001921
-0.017262
0.023914
-0.085018
0.036753
0.012242
0.008726
-0.034779
0.121509
0.051484
0.015811
-0.019206
-0.056314
0.038610
-0.056986
0.028558
-0.086958
-0.025076
0.108729
0.077467
-0.078871
0.003047
0.034316
0.128757
-0.032710
-0.016257
0.010825
0.066544
-0.117092
-0.035181
0.028703
-0.171450
-0.103932
-0.014054
-0.039797
0.009371
0.004911
-0.006725
-0.013409
0.033442
-0.002183
-0.013819
-0.045400
-0.006258
-0.050222
-0.042588
0.019492
-0.089342
0.033283
-0.051772
0.068295
-0.041249
-0.011205
0.030455
0.025662
-0.009003
-0.013570
0.026261
0.055008
0.012073
-0.028187
0.049542
-0.072891
-0.032246
-0.064674
-0.026015
0.040020
-0.097085
-0.004258
0.003208
-0.056931
0.045356
-0.092093
0.116038
0.059251
-0.003824
-0.005385
0.078919
0.038936
0.051983
-0.068626
0.010096
-0.048588
-0.019938
-0.092085
0.058281
-0.002020
0.160987
-0.138504
0.058382
0.131809
0.014369
-0.010692
-0.018347
0.006723
-0.193965
-0.135663
-0.006627
-0.006336
-0.025891
0.020336
0.004983
-0.059122
-0.009762
0.073934
0.072166
0.060921
0.002431
-0.026804
-0.074101
0.014511
-0.022285
0.006205
0.010014
0.039068
0.067484
0.051132
0.023991
0.017616
-0.031015
0.062733
0.031285
-0.026979
-0.050461
0.052091
-0.069019
0.047877
0.057755
0.199723
-0.011371
-0.026969
0.001111
0.042664
0.005078
0.052336
-0.065711
0.137583
0.000778
-0.016872
0.038383
-0.064104
0.032205
-0.053019
-0.020277
-0.099808
-0.051564
-0.164794
0.009514
-0.114436
-0.009173
0.013879
-0.098834
-0.023917
0.011941
0.049893
0.089209
-0.063917
-0.012168
-0.019124
-0.076104
0.047803
0.022122
-0.049294
-0.009308
-0.049078
-0.027625
-0.002668
-0.092858
0.056498
-0.010881
0.014086
0.027005
-0.064646
-0.079281
-0.037224
-0.103516
-0.062132
0.019657
0.021449
0.018718
0.016230
-0.012602
-0.000022
-0.013672
0.014719
0.004687
-0.062894
0.050730
-0.016084
0.051416
-0.003883
0.042296
0.041972
-0.034487
0.004950
0.051124
0.000600
0.020679
-0.014885
-0.061972
0.069612
0.033348
0.003512
0.022276
0.041366
0.089609
-0.043492
-0.018991
0.029157
0.178685
0.043882
0.052652
0.074456
-0.053387
-0.020225
-0.165451
-0.073074
-0.007257
0.021678
0.039978
-0.080362
0.067533
-0.002663
0.113766
-0.060296
0.040593
-0.088579
0.004605
0.039432
0.043167
-0.049409
0.090564
-0.011594
0.029904
0.029970
-0.031111
0.018960
-0.028975
-0.046960
-0.037480
-0.066724
0.032494
0.063099
0.012272
-0.007547
0.050555
0.014028
0.081606
-0.108915
0.042850
0.127723
-0.045580
0.011194
0.010812
-0.014734
-0.068879
0.036801
0.023955
0.046526
0.002166
0.048942
-0.052505
0.046238
-0.050257
0.045323
0.039082
0.032146
-0.030808
-0.060759
0.061834
-0.008032
0.005037
0.038425
0.033222
-0.016826
0.052990
0.004056
-0.004434
-0.016365
-0.043621
0.031726
0.032951
-0.061799
-0.003606
-0.017770
-0.107703
0.044108
0.030235
-0.128000
0.061807
-0.006012
-0.041991
-0.016008
0.019107
-0.036129
-0.078960
0.020711
0.079045
0.038600
-0.006219
0.011876
0.061185
-0.080032
0.030661
-0.209180
-0.070332
0.122187
0.011366
0.109706
-0.009881
-0.027175
0.003505
0.005334
-0.076755
0.038819
-0.000697
0.008001
-0.022256
0.024684
0.084688
0.089308
0.055746
-0.033459
0.003055
0.038458
-0.005676
0.066170
0.015850
-0.031083
-0.042419
0.010808
-0.009847
0.038342
0.006993
-0.021862
0.000721
-0.010323
0.001562
-0.011071
0.018116
-0.049296
0.097691
0.037408
-0.008390
0.018246
-0.000253
-0.006696
-0.029102
-0.004332
-0.040110
0.034653
0.038320
0.088268
-0.008277
0.056625
-0.007317
0.053797
0.094612
0.039602
-0.006961
-0.094968
0.028795
0.060219
-0.027095
-0.012377
-0.012009
0.032759
0.036568
0.006258
-0.037561
0.028052
-0.008758
-0.066051
-0.027751
0.013711
-0.061892
0.002602
0.032491
0.006230
0.046248
0.050819
-0.110542
-0.077843
0.033162
0.050268
-0.050486
-0.054210
-0.004900
-0.046753
-0.009217
-0.013619
-0.052836
-0.020994
0.005361
0.014468
-0.015400
-0.042299
-0.006115
0.076033
-0.047159
-0.029266
-0.088958
-0.075677
-0.002078
0.025317
-0.062345
0.008815
-0.015388
-0.035627
-0.051385
0.006852
0.045351
0.082361
-0.026400
-0.035974
0.024739
0.036193
-0.034330
0.000742
-0.068150
0.035389
0.009965
-0.010806
-0.009105
0.045438
0.053519
0.116923
-0.030583
0.137996
0.031604
-0.011105
0.015561
0.011430
0.009640
-0.051957
-0.036381
-0.069037
0.126312
0.006830
-0.077020
-0.011469
0.060783
0.031881
0.109932
-0.012878
-0.043757
0.040594
0.012156
-0.101043
-0.053409
0.033962
0.025092
-0.029903
0.021063
-0.055193
-0.032026
0.013759
-0.067857
-0.059797
-0.076800
0.030033
-0.012936
0.008943
-0.053743
-0.065835
0.082043
0.029701
0.012012
-0.046624
-0.044043
-0.071122
-0.078961
-0.109600
-0.075939
0.121437
0.000652
0.004681
-0.052299
0.075350
0.053589
0.104034
0.078103
0.027553
-0.025578
-0.034521
-0.071812
0.033469
-0.029019
0.031550
-0.007711
-0.028491
-0.035974
-0.077807
-0.069647
-0.088230
0.068160
-0.027006
-0.090216
-0.066435
0.067556
0.003170
0.019911
0.033923
-0.065254
0.080246
-0.014121
-0.020218
-0.055457
0.058439
0.000414
-0.031263
-0.031137
0.012566
0.040812
-0.029491
0.077925
-0.122002
0.018167
0.057969
0.001074
-0.101271
-0.064780
0.070156
0.016239
-0.002602
-0.063224
0.035643
0.006074
-0.012818
-0.035264
0.068541
-0.025185
0.040448
0.026392
0.005279
0.053717
-0.039693
0.011351
0.023728
-0.022386
0.011642
-0.033675
-0.054982
-0.023627
0.014974
-0.084005
0.029519
0.050158
-0.006626
-0.078229
0.052621
0.059988
-0.128504
0.009109
0.023513
-0.007818
-0.055524
-0.005568
0.076053
0.080373
-0.000471
0.032896
-0.018099
-0.007195
-0.008236
0.137487
0.048401
0.087275
0.040543
0.001460
-0.042345
-0.049675
-0.068219
0.016122
-0.020895
-0.056925
-0.071403
-0.030561
-0.002607
-0.053578
-0.022925
-0.004692
-0.026530
0.019954
-0.016094
-0.022005
-0.077854
0.030083
-0.093948
-0.031049
0.007798
0.040474
0.102305
-0.000824
-0.001131
0.007353
-0.000165
0.056430
-0.100237
0.052114
-0.000271
-0.039504
-0.030740
-0.129878
-0.016677
-0.088440
0.031526
0.002378
0.006889
0.062276
-0.000041
-0.039634
0.069121
0.022681
0.045382
-0.045577
-0.034053
0.029585
0.062222
-0.042768
0.045950
-0.108222
-0.022406
-0.041750
0.050678
-0.121078
-0.021449
0.063861
0.044481
0.006475
0.006219
0.024878
-0.013654
-0.030498
0.030438
0.001499
0.069470
0.093495
0.033176
-0.014900
0.071238
-0.083942
0.015204
0.019150
0.054081
0.011782
-0.030019
0.037678
-0.090565
0.033432
0.064526
-0.011134
0.014919
-0.031334
0.044413
-0.047505
0.001197
-0.056468
0.024731
-0.041437
-0.058870
0.013585
0.064070
0.142450
0.078106
-0.052362
-0.001831
0.006634
-0.081047
-0.005460
-0.013415
-0.007504
0.068326
-0.002546
0.060615
-0.020391
-0.017070
-0.036734
-0.042421
-0.017194
0.066601
0.053078
-0.061257
-0.052914
-0.014910
-0.006795
-0.053095
-0.008694
0.105622
-0.072954
-0.033790
0.052647
0.052116
-0.079753
0.017863
-0.062399
0.039153
0.003527
-0.020344
0.125025
-0.038938
-0.041696
-0.027557
0.025163
-0.043177
-0.017455
0.019430
0.012299
-0.003971
0.012704
-0.020467
0.038385
-0.038542
-0.006279
0.034180
0.041853
-0.056710
-0.015250
-0.037048
0.019013
0.004265
0.067490
0.074723
-0.014319
-0.091219
0.014666
-0.021289
-0.007836
-0.021242
0.044272
-0.054759
0.065447
-0.094224
0.048352
0.003418
-0.015516
-0.019566
0.039606
0.006809
-0.068592
-0.001175
-0.025865
-0.049734
0.015821
-0.056066
-0.005449
-0.161506
-0.039919
-0.026077
-0.014638
-0.039646
-0.024202
0.004341
-0.064820
-0.036477
0.095752
-0.033518
0.051931
-0.052345
-0.057995
0.028139
0.003948
0.094946
-0.015257
-0.073382
-0.020201
-0.106783
-0.081154
-0.039295
-0.088863
0.015855
-0.032490
0.008450
-0.015474
0.004339
0.126340
-0.009837
-0.008958
0.038636
-0.006303
-0.025944
-0.002027
0.018699
0.047375
0.068038
0.102582
0.063551
-0.009074
-0.093936
-0.037956
-0.027698
0.059508
-0.009012
0.023798
-0.001926
0.023199
0.046532
-0.065845
-0.011270
0.009349
-0.013988
-0.004548
-0.032561
0.114297
-0.009360
0.061635
0.027551
0.009665
-0.033012
0.020132
0.012854
0.014877
-0.025354
0.072716
0.075435
-0.017456
-0.047126
0.057187
-0.025308
-0.014557
-0.017717
-0.050915
0.029255
-0.065226
-0.014257
0.028881
-0.039184
-0.006211
-0.022198
-0.030572
-0.094994
-0.065629
-0.017557
0.011272
-0.019467
0.001845
-0.020825
-0.049546
-0.002773
0.048283
0.005302
-0.002946
0.058023
-0.006335
0.018549
-0.013730
0.016561
0.030262
0.032038
0.076410
-0.001277
-0.037193
-0.038307
-0.064773
0.042204
0.074699
-0.018763
-0.059069
0.024806
-0.039868
-0.091908
-0.082532
-0.167996
-0.126673
-0.021772
0.043984
0.057246
-0.002657
-0.015675
-0.048929
-0.015529
-0.021315
-0.016157
-0.009904
-0.016404
0.061792
-0.043076
-0.038225
-0.036930
0.052358
0.055826
0.002640
-0.039639
0.062226
0.018182
-0.018770
-0.049313
-0.099449
0.100167
-0.064628
-0.089675
-0.108231
-0.014347
-0.099287
0.007162
0.100246
0.016960
-0.088370
-0.006591
0.032602
-0.059047
0.041294
-0.046709
0.093950
0.009839
0.090786
-0.025659
0.020127
-0.009870
0.051098
0.046100
0.075454
-0.149097
-0.028402
-0.044544
-0.014432
0.054134
-0.001147
0.006795
0.036896
0.055502
-0.079051
-0.023392
-0.115639
0.046536
-0.048632
0.020372
0.025394
-0.011049
0.035255
-0.003883
-0.015214
-0.047003
-0.059678
-0.029205
0.007433
-0.059836
-0.010418
-0.032605
-0.029082
0.022112
-0.049776
-0.142134
-0.022787
-0.095442
-0.002011
-0.042140
0.093574
-0.051827
-0.081966
-0.104967
-0.072348
-0.029899
-0.042437
-0.036457
0.045466
0.032674
0.044821
0.035172
0.105459
-0.030771
-0.071494
-0.103558
-0.034895
0.013213
0.036796
0.026243
-0.019282
-0.046920
-0.035994
-0.023496
-0.059781
-0.016549
0.000036
0.039959
-0.100084
-0.036378
-0.019360
-0.034237
-0.039017
-0.042154
-0.016009
-0.027581
0.081521
-0.026014
-0.051788
0.039615
-0.034904
0.049568
0.052810
0.006017
-0.067064
0.013607
-0.006645
-0.038007
-0.008892
-0.007284
-0.034214
0.079207
-0.114979
0.018371
0.048818
0.008591
0.041012
0.015547
0.002974
0.042632
-0.037193
-0.049694
-0.138531
0.015635
-0.024101
0.177087
0.067367
0.023899
0.057314
0.050189
-0.021167
0.063971
0.049284
-0.010883
0.005268
-0.026384
0.009693
0.040961
-0.027355
-0.003882
0.014882
0.048304
0.022290
0.039257
0.030031
-0.044467
0.039719
0.040898
0.027556
-0.044516
-0.045466
0.074318
-0.035998
0.057601
-0.077129
0.004709
-0.102912
-0.106581
0.060819
0.060794
-0.041675
-0.035472
-0.078509
0.038423
0.027854
0.023035
-0.046798
0.006335
0.029984
-0.029117
0.026087
-0.041371
-0.016340
0.051127
-0.019000
0.005002
-0.161257
0.004246
0.010146
-0.109338
-0.056851
-0.010319
0.011651
-0.041166
-0.073853
-0.048655
0.026043
-0.059905
-0.002974
-0.008209
-0.062237
-0.022097
0.000689
0.016914
0.064068
-0.032028
0.087109
-0.068725
-0.077468
0.002821
-0.055153
-0.085382
-0.085979
0.010517
0.035159
-0.011677
0.031089
0.007926
0.012811
-0.015530
0.083309
-0.019584
0.014910
0.021335
0.038029
0.005499
-0.000593
-0.066169
-0.001645
0.086963
0.039499
0.008014
0.037466
-0.010607
-0.096443
0.066347
0.058101
0.062100
-0.001600
0.010196
-0.091457
0.030236
0.085027
-0.020795
0.044114
0.023284
0.024860
0.009587
-0.057034
0.054957
0.005753
-0.031626
-0.016340
-0.060456
-0.088661
-0.026205
0.018514
-0.049159
-0.014489
-0.056121
-0.090675
0.036929
0.053724
0.007902
0.014399
0.027968
0.008715
0.074806
-0.007154
-0.036145
0.013379
0.142747
-0.026287
0.076570
0.053245
0.083868
-0.126908
0.001891
-0.009466
-0.038994
0.003769
-0.060853
0.058057
-0.007337
0.032797
-0.015083
0.015797
-0.022237
0.030966
0.091672
-0.020196
0.025923
-0.023968
0.033873
-0.155075
0.023396
0.000182
0.037945
0.023070
-0.050512
0.012965
-0.018079
0.073507
-0.053136
-0.031215
-0.072279
0.021638
0.006180
-0.002450
-0.011873
-0.038085
-0.036735
0.091566
-0.009961
-0.016577
0.021294
0.034053
-0.164076
-0.049178
-0.033448
0.021597
0.018243
-0.232427
-0.109463
-0.006460
-0.002688
-0.055962
-0.018575
-0.087367
0.002510
0.023370
-0.094084
0.036152
0.039400
0.050331
0.011080
0.101287
-0.023416
-0.025835
-0.049181
-0.178464
0.006707
-0.012057
-0.038821
0.074634
0.098624
0.056511
-0.073236
0.008360
-0.020435
-0.003895
-0.033315
-0.007794
0.114954
0.020092
0.019588
0.069998
-0.018889
-0.140266
-0.070475
0.039801
0.020451
-0.064866
0.068542
-0.021291
0.018910
-0.026569
-0.036783
0.062671
-0.002944
-0.029922
0.022092
0.003442
-0.023690
0.020376
-0.017060
-0.016689
0.101627
-0.053770
-0.052791
0.016625
-0.099402
-0.056131
0.002659
-0.006238
0.025060
-0.007591
0.039944
0.004929
-0.119603
0.014031
0.020642
0.022759
0.031745
0.012420
-0.028461
-0.004493
0.099495
0.055285
-0.038868
0.062750
-0.067511
-0.033261
-0.050890
-0.157980
0.032704
0.066733
-0.104578
0.050692
-0.041506
0.056639
-0.064087
0.064194
-0.048435
0.028451
-0.044771
0.046728
0.073032
-0.017315
-0.007301
-0.038701
0.003713
-0.095968
-0.059456
-0.000637
0.091178
0.092368
-0.033425
0.011199
-0.010489
0.029764
-0.027602
-0.060646
-0.042887
0.007643
-0.046894
-0.124380
-0.026615
-0.016422
-0.008032
0.043032
0.058046
-0.045828
-0.017377
0.001711
-0.015332
0.013023
0.002786
0.080165
0.052662
-0.022175
-0.128443
0.035414
-0.043432
0.042165
-0.086933
-0.036981
-0.057630
0.112829
0.062541
0.019751
-0.045016
0.064794
-0.005040
-0.068191
0.050168
-0.112009
0.002316
-0.101703
-0.007024
0.074320
-0.077624
-0.004309
-0.008470
0.063206
-0.038197
0.062403
0.003118
-0.071130
-0.021238
-0.019002
0.073873
0.008212
0.041300
-0.053795
0.047822
0.027436
-0.046636
0.013161
0.048504
0.065472
-0.052147
-0.041657
-0.014678
0.035640
-0.019878
0.036420
-0.011302
-0.033954
0.029320
0.031963
0.037476
0.002531
0.096928
-0.022558
0.013488
-0.034119
-0.130958
-0.075423
0.060035
0.014305
-0.016469
-0.052667
0.008913
-0.029415
-0.041207
-0.021174
0.001410
0.014950
0.007007
0.051630
0.038448
0.043043
0.025540
-0.078015
-0.021480
0.017566
0.033385
-0.014735
-0.047232
-0.098118
-0.051248
-0.003490
-0.106037
-0.050327
0.038939
0.005529
-0.038451
0.044385
0.013985
-0.013074
-0.006220
0.031035
-0.055240
-0.006121
-0.080049
-0.042976
0.031479
0.048732
-0.035992
-0.030853
-0.042120
-0.050115
-0.090569
-0.014673
0.019956
-0.022306
0.005889
0.063215
0.108688
-0.019179
0.023162
0.087352
-0.011644
0.040801
0.021564
-0.024073
0.001677
-0.009896
0.127355
0.032125
0.069187
0.008935
0.083061
-0.006435
0.025352
-0.049816
-0.003242
-0.009306
0.028593
-0.029711
-0.022984
0.036366
0.015574
0.088517
0.067958
0.031746
-0.015424
-0.020139
0.092532
-0.102406
0.029426
-0.054774
-0.061283
-0.029271
0.001933
0.078204
0.003164
0.028928
0.045874
0.009750
-0.050143
0.016294
-0.029514
0.000388
0.044246
-0.000438
-0.003470
0.007222
-0.036153
-0.000106
0.066128
0.032156
-0.029316
0.030052
0.043336
0.040088
-0.041668
0.008501
0.061138
-0.049920
0.009017
0.037808
-0.035878
-0.021376
-0.046879
-0.048475
-0.012661
-0.126262
0.058832
0.048519
-0.020401
0.049986
-0.020296
0.062847
-0.054179
0.043779
0.059765
0.039903
-0.047313
0.044694
0.083807
-0.016680
-0.037145
-0.111741
0.008362
-0.090573
-0.053878
0.010677
0.089754
0.095753
0.087253
0.048746
-0.064006
-0.020721
0.036445
-0.065325
0.047543
-0.042311
0.006992
-0.035196
-0.087237
0.113342
-0.109626
0.035538
-0.007631
0.096642
0.015291
0.068432
0.043087
0.008166
-0.048195
0.002388
0.056357
-0.031015
0.029603
0.090611
0.009972
0.071768
-0.091150
-0.094797
0.006423
-0.007197
-0.008412
-0.030149
0.042166
-0.014377
-0.072094
0.012634
-0.012723
-0.011271
-0.071127
-0.013120
0.066357
0.023103
-0.027068
-0.072494
0.096513
0.059561
-0.095954
0.000500
0.005422
0.029808
-0.037543
-0.028109
0.024318
0.066926
-0.002944
-0.017813
-0.042222
-0.009321
-0.001251
0.119719
0.020090
0.123525
0.045294
-0.043024
-0.008880
0.001718
-0.079128
0.040162
-0.076751
-0.052267
-0.057848
0.039129
-0.007399
-0.038655
0.018416
-0.001396
0.010091
-0.082578
-0.075894
-0.039315
-0.032903
0.039650
-0.133176
-0.030382
-0.002541
0.020280
0.035125
-0.036565
-0.057019
0.008161
0.022824
0.042041
-0.109345
0.054729
-0.032191
-0.016716
0.032139
-0.028940
-0.030393
0.012283
0.018383
0.010936
0.018852
0.086968
-0.001888
-0.051122
0.058169
-0.013752
-0.035847
-0.034474
-0.062982
-0.085133
-0.042222
-0.024801
0.008853
-0.038636
-0.111656
-0.029800
0.122534
0.000924
0.023812
0.070817
0.035999
-0.038685
-0.027503
0.047692
-0.055298
-0.027095
0.087473
0.069375
0.054183
0.026801
-0.006290
-0.065663
-0.033517
-0.086876
0.014055
-0.033350
0.033065
0.006481
-0.015902
-0.008037
-0.124539
-0.014850
0.045048
-0.010754
0.047935
-0.011135
0.052483
-0.040685
-0.068209
0.011354
0.032820
-0.028658
0.008643
0.032424
0.058885
0.062370
0.072005
-0.073636
-0.013453
-0.005604
-0.020774
0.061968
-0.022485
-0.048802
0.078110
-0.015008
0.068760
-0.021328
-0.004894
0.005229
0.076766
-0.070711
0.002336
0.019735
-0.029908
-0.025570
-0.011012
0.012348
-0.013566
0.032182
0.013350
-0.102288
-0.014951
0.053168
-0.006361
0.088454
0.044122
-0.041041
0.013059
0.018753
-0.013702
0.114525
-0.014972
-0.005623
-0.033369
0.048113
0.057083
-0.012335
0.052600
-0.018335
-0.003236
0.042917
-0.017208
-0.010230
-0.030325
-0.014946
0.006515
0.080090
-0.049253
-0.017156
-0.029593
0.044000
0.007884
0.060841
0.020133
0.013637
-0.012923
0.006246
-0.040917
0.012379
-0.015179
0.042429
0.014260
0.016280
-0.088940
0.002261
-0.030412
0.003792
0.013130
0.029289
0.012048
0.011085
0.009098
-0.013644
-0.063404
0.064531
-0.035333
0.027477
-0.146071
-0.029432
-0.070917
0.000574
0.015145
-0.025108
-0.007381
-0.008196
-0.008485
0.096739
-0.063192
0.054068
-0.030177
-0.139358
0.046322
-0.018480
0.031346
0.014237
0.035034
0.021322
-0.078484
-0.006355
-0.099590
0.036108
0.052202
0.026414
-0.008381
-0.054735
0.068311
0.109647
-0.031854
0.012491
0.030480
0.006444
-0.048708
-0.005335
-0.020262
0.079381
0.061604
0.053052
-0.024634
0.012708
0.018088
-0.042787
0.014717
0.065581
0.071138
-0.007386
-0.098294
0.031717
0.064512
0.000806
0.021318
-0.050965
-0.093479
-0.038776
-0.034141
0.075137
-0.126708
-0.016278
0.058155
-0.009833
-0.060999
-0.017820
0.045308
-0.030990
-0.017117
0.015466
0.053518
-0.023262
-0.003504
0.003073
-0.140061
0.031522
-0.008660
-0.085529
-0.020081
-0.125456
0.045842
0.005452
-0.011064
-0.016296
0.066168
0.002588
-0.038058
-0.031219
-0.055053
0.055187
0.038486
-0.018767
0.010813
-0.054376
0.011412
-0.002661
0.053557
-0.024378
0.092933
-0.061502
0.008139
-0.042621
-0.047556
0.024988
-0.002016
0.027441
-0.023389
0.005257
0.028546
-0.051450
0.010851
0.048230
0.015570
-0.014874
0.100364
0.021794
-0.093091
-0.012045
-0.147037
-0.043068
-0.043985
0.040897
0.081440
0.013906
0.013059
-0.031214
0.100935
-0.120860
-0.040068
0.030812
0.064138
0.020804
-0.018780
0.000191
0.020725
0.010615
0.023491
-0.072893
-0.066107
0.155922
0.007922
-0.003521
-0.004831
-0.174920
0.022322
-0.050804
0.078142
0.038594
-0.060277
0.077104
-0.025938
0.209434
0.011049
0.042877
-0.034201
0.013632
0.036844
0.025227
0.001358
0.076912
0.014946
-0.173837
-0.037444
0.022166
-0.025179
-0.080882
-0.008036
0.038489
0.068592
0.182379
0.019920
-0.031062
-0.013361
0.107978
0.025475
0.064466
0.064672
-0.079203
0.062170
-0.148440
0.076608
-0.053461
0.033269
-0.006619
0.048882
0.065344
-0.030813
-0.012033
-0.007940
-0.036752
-0.059452
0.037812
-0.048581
-0.017324
-0.054481
0.030912
0.045150
-0.002719
-0.132171
-0.012326
-0.008660
-0.057909
-0.037968
0.040742
-0.047182
-0.032187
-0.060776
-0.124123
0.006359
-0.027124
-0.083548
0.020693
0.014484
0.016859
0.044252
0.169340
-0.022652
0.025146
-0.079923
0.018310
0.000732
0.052070
-0.103075
0.055629
0.022226
-0.007984
0.024440
-0.027943
0.006790
-0.004481
-0.006732
-0.041187
-0.078286
0.035600
0.082205
-0.036668
-0.044084
-0.053622
-0.041963
0.082828
0.001895
-0.003872
0.023202
-0.037201
0.076549
0.012401
0.061716
-0.061692
0.124287
0.012663
-0.004047
0.043391
0.018552
-0.043182
0.113562
-0.083435
-0.010454
-0.119925
-0.050464
-0.037975
-0.001542
-0.027329
0.046703
-0.032261
0.088031
0.050750
-0.132545
-0.056296
-0.023280
-0.046167
0.002982
-0.013145
-0.155002
0.041772
0.107431
0.035159
-0.014778
0.034927
-0.050373
-0.017061
-0.013263
0.043308
0.012644
-0.154420
0.025309
0.029005
-0.104044
0.079294
-0.028537
-0.103949
0.028517
0.021463
-0.080822
0.010139
-0.047135
-0.009063
0.011960
0.023409
0.143031
-0.103423
0.014632
0.082656
0.055352
0.038766
-0.019251
-0.012944
0.010487
0.074941
-0.110790
-0.074620
-0.004713
-0.058776
-0.093524
0.003915
-0.032147
-0.008585
-0.001468
0.015807
0.002659
-0.083667
0.019592
-0.011316
-0.124090
-0.065499
0.013733
-0.004575
-0.009944
-0.073680
-0.010810
-0.052941
0.020827
-0.002820
-0.029787
-0.039153
0.004084
0.114595
-0.008480
0.011668
-0.061603
0.093794
-0.070750
-0.010145
0.019933
-0.042060
-0.063072
0.029291
0.020743
0.023809
-0.028472
0.003662
0.019737
-0.044357
0.054513
-0.162529
0.000183
-0.010544
0.005960
-0.098761
-0.031377
-0.032492
0.104551
0.022715
0.045811
0.047775
0.007520
0.034109
-0.015229
0.045806
-0.157082
0.033060
0.155158
-0.005504
-0.007676
0.143118
-0.015137
0.000912
-0.056237
-0.026212
0.045470
0.005796
0.022230
0.024437
-0.125216
0.043781
-0.021355
-0.009289
0.049513
-0.038366
-0.003281
0.062348
-0.015971
-0.019679
-0.013188
-0.026621
0.091636
0.001273
-0.037749
-0.003535
0.001018
-0.026204
0.023360
-0.041079
0.048846
0.045080
0.078532
0.079782
0.058330
-0.001926
0.088626
0.002229
-0.039491
-0.005566
-0.038523
-0.003204
0.002094
0.088570
-0.015194
-0.016979
-0.021448
-0.015220
-0.059739
-0.005675
0.048014
-0.004873
0.087986
0.046309
-0.128165
-0.211796
0.052304
0.013071
0.038489
-0.059033
-0.036147
0.013648
-0.029599
0.166894
-0.032068
-0.010229
-0.085872
-0.024316
-0.002357
-0.012837
0.009422
-0.020256
-0.041047
0.055841
-0.034391
-0.021566
-0.008348
-0.002231
-0.105921
-0.076017
-0.012876
-0.013444
0.045131
-0.179435
-0.064479
0.040781
0.024621
-0.029828
-0.029789
-0.084838
0.008427
0.020379
0.016550
0.008233
-0.061371
0.102024
-0.024478
0.052267
0.029073
-0.008642
-0.060709
0.076774
0.017788
-0.010188
-0.018905
0.009885
0.011143
0.110919
-0.011847
-0.068928
0.000337
-0.004689
-0.068071
-0.089759
-0.043206
-0.025522
0.122132
0.000061
-0.004516
-0.162202
-0.022744
-0.045463
0.013624
-0.207494
-0.054570
-0.031695
0.066116
-0.014891
-0.003851
0.099448
-0.033058
0.114857
-0.027958
0.007192
0.013227
-0.016137
0.008610
0.039817
0.074573
-0.043913
0.005025
-0.035087
-0.048754
-0.033906
0.002932
-0.008882
0.012005
-0.052760
-0.142763
0.081347
0.043236
0.020171
-0.016430
0.039383
-0.003306
0.001257
-0.156279
0.008045
0.040962
0.068789
-0.040721
0.069335
-0.092057
-0.036350
-0.066734
0.021695
0.044536
0.072692
-0.069727
0.045971
-0.013424
0.030614
-0.010275
-0.132747
0.031187
0.058742
-0.064059
-0.092966
0.026542
-0.015784
0.001411
0.054298
0.030598
-0.087380
0.037489
0.034071
0.023715
0.008708
0.043532
0.066099
-0.043734
-0.005947
-0.031592
-0.099205
-0.032587
0.033618
-0.179984
-0.110106
0.026366
0.030310
0.011557
0.002096
-0.000117
0.087160
-0.037398
-0.078248
-0.012176
-0.025543
-0.007511
-0.063189
0.029497
0.005978
0.021307
0.088000
0.070172
0.045176
-0.015699
-0.013183
0.013336
-0.014214
0.016066
-0.080316
0.047568
0.094175
-0.050802
0.054151
-0.010721
-0.028902
-0.014655
-0.062613
0.005540
-0.000573
-0.071843
-0.005343
0.003895
0.050313
-0.043663
-0.052963
-0.049821
-0.008799
-0.077556
-0.062634
0.057530
0.008473
0.035306
0.039815
-0.055012
0.030228
-0.023721
0.131401
0.057198
-0.071081
-0.055567
0.002735
0.044524
0.055613
-0.086879
0.001911
-0.055795
0.043957
0.015296
0.075408
0.017874
-0.006393
0.070524
0.020522
-0.014783
-0.112044
-0.216487
-0.091475
0.027679
0.014578
-0.086750
-0.042336
-0.053101
-0.041199
-0.117774
0.022777
-0.031428
-0.024600
-0.043663
0.003673
-0.020682
0.014681
-0.009109
0.007342
-0.093090
-0.003167
0.018912
0.018040
-0.064648
-0.014496
-0.060882
-0.042546
-0.078666
-0.076249
-0.019142
0.036474
-0.029069
0.005803
-0.000807
0.021285
-0.015680
0.028349
-0.061422
-0.018662
-0.088563
-0.026804
-0.001332
0.042930
-0.026427
0.050292
-0.048951
-0.103825
-0.077337
-0.011655
-0.047029
-0.033056
0.024498
0.052258
0.092385
-0.053097
-0.029690
0.031212
0.008547
0.078028
0.052060
-0.034705
0.040844
0.026950
0.082127
0.000521
0.095094
0.005392
0.117687
-0.018718
0.054241
0.005404
-0.021614
-0.004427
-0.002946
-0.058577
0.001899
0.026201
0.027533
0.069446
0.042178
0.068117
0.045580
-0.007809
0.043228
-0.011495
0.046267
0.000926
-0.034280
-0.018668
-0.005295
0.013146
0.058379
-0.002608
-0.027144
-0.008911
0.037831
-0.083793
-0.017080
-0.008893
0.004925
-0.016330
0.001875
-0.021787
-0.017266
-0.009294
0.000976
-0.011313
-0.043618
0.090722
-0.007549
-0.039317
-0.067987
-0.092956
-0.122281
-0.102253
0.050790
0.001160
-0.046928
0.071331
-0.098853
-0.027659
-0.005067
-0.115695
0.024043
0.003283
-0.068539
0.040783
0.071008
0.091045
-0.072723
-0.021729
0.000391
0.066110
-0.021842
0.037226
0.084638
0.019751
-0.076577
0.065691
-0.013220
-0.130918
0.020248
0.026534
0.092511
0.046578
0.107970
-0.039970
-0.060942
0.018908
0.010588
0.035205
0.038520
0.011836
-0.059902
-0.052694
-0.052692
0.045537
-0.136082
0.001225
-0.013061
0.031549
-0.029041
-0.049461
0.017858
0.000589
0.001748
-0.065091
-0.024644
-0.064728
0.030869
0.046909
-0.057345
0.056240
0.084804
0.050279
-0.027357
0.021894
-0.027606
-0.031261
0.071071
0.007325
-0.064535
0.080619
-0.023261
0.059239
-0.143435
0.015902
0.085532
-0.013786
0.057707
-0.050644
0.069668
0.100061
-0.052773
0.018303
0.073963
0.043966
-0.044953
-0.001037
0.018361
0.085177
0.043502
-0.064025
0.062088
-0.010419
-0.012335
0.128497
-0.021293
0.088072
-0.015632
0.005133
0.021689
0.016384
-0.078263
0.053028
-0.084143
0.010637
-0.092567
0.038264
0.010496
-0.018535
0.007129
0.011690
0.011936
-0.079628
-0.066527
-0.015999
0.002248
0.036094
-0.156742
0.009482
0.019968
0.067926
0.019190
-0.021025
-0.069042
0.016700
-0.027552
-0.050354
-0.135154
-0.019646
-0.097919
0.014621
-0.019386
-0.029334
0.015167
0.034812
0.037931
-0.044262
0.058473
0.003135
-0.043258
-0.034846
-0.005970
0.042246
0.057714
-0.041712
0.004196
0.081770
-0.019322
-0.016509
0.054713
0.029295
-0.056946
-0.005040
0.046545
0.040625
-0.007517
0.057583
-0.093047
-0.024010
-0.054321
0.014971
-0.049539
0.022837
0.006880
0.047059
0.038922
0.032636
-0.057023
-0.084775
-0.030101
-0.086946
0.047594
-0.021203
0.042370
0.034127
0.052285
0.042227
-0.157524
0.027828
0.005954
-0.006647
0.038953
-0.016394
0.067326
-0.019306
-0.041302
0.026414
0.004941
0.046582
-0.050600
-0.031499
0.035703
-0.286452
-0.010326
-0.063882
-0.046832
-0.037879
-0.044095
0.001964
-0.025674
0.185640
0.052622
-0.018310
0.062210
0.037715
-0.015326
0.048374
0.058150
-0.005273
0.000560
-0.011731
0.051192
-0.058313
-0.045857
0.021678
-0.029002
0.024980
-0.082079
0.024251
-0.049913
0.038296
0.011177
0.099842
0.026737
-0.034759
0.101012
0.059384
-0.053879
0.129379
-0.010788
-0.021101
-0.030408
0.024920
0.053016
-0.002150
0.028856
0.046395
0.016573
0.061955
0.040320
-0.052745
-0.033085
0.006708
-0.050461
0.050169
-0.044411
-0.004873
0.016065
0.037490
-0.016691
0.016428
-0.037863
-0.037759
-0.022437
-0.027982
-0.041620
0.028059
-0.021475
-0.009807
0.002863
0.022790
-0.069882
-0.000808
-0.016696
0.035190
-0.031619
0.045039
-0.029772
0.028541
-0.024209
-0.011389
-0.053643
0.043213
-0.039012
0.004287
-0.018941
-0.004148
-0.059887
-0.017286
0.014092
-0.058064
0.030900
0.071519
0.018408
0.047015
0.009037
-0.004683
-0.031676
-0.148082
-0.022497
-0.014812
0.081728
0.027489
0.146848
0.089148
-0.044830
0.004280
0.030898
0.090572
0.040119
0.063209
-0.008548
-0.069799
0.032383
-0.030543
-0.001551
-0.032450
0.071121
0.002189
-0.090406
-0.023516
-0.044472
0.070791
0.025734
0.028389
-0.034890
0.024978
0.037972
0.009046
0.019397
0.104616
0.111243
0.004694
-0.022110
0.002503
0.026310
-0.096036
0.055322
-0.024722
-0.098808
-0.033016
-0.025151
0.079459
-0.092287
0.024955
0.072337
0.010528
0.009928
-0.035433
0.050987
-0.001654
-0.024357
-0.107646
0.047363
-0.021749
0.042002
-0.077395
-0.099616
0.045656
0.008657
0.009080
0.009804
-0.081534
0.010138
0.037328
0.037900
0.020018
0.124566
0.056725
-0.034064
-0.074418
-0.045155
-0.021034
0.022730
0.019260
0.023538
-0.015442
0.037098
-0.083930
0.072754
0.032888
0.090463
-0.062126
-0.025085
0.018907
-0.028604
0.016582
-0.084957
0.006888
-0.068128
0.052672
-0.010156
-0.006604
-0.004294
0.076118
-0.144529
0.000387
0.086761
0.060118
0.022929
0.064760
-0.092111
-0.038138
-0.038038
-0.042044
0.074393
0.037560
0.011641
0.003986
0.104643
-0.121959
0.010263
-0.007845
0.016262
-0.029352
-0.011725
0.039951
0.083668
-0.004078
-0.048555
0.033792
-0.025650
0.109017
-0.037855
-0.013910
-0.034039
-0.234866
-0.121423
0.014080
-0.031005
-0.022940
-0.009567
0.096846
0.005149
0.138389
0.007954
0.068019
-0.034330
-0.083636
0.031254
-0.027953
0.078018
-0.050426
-0.031154
0.069344
-0.056006
-0.038732
-0.010122
-0.006280
-0.017777
0.028360
-0.096819
-0.010098
0.025607
0.023654
0.005079
-0.015303
-0.034670
0.010350
-0.046621
-0.011775
-0.032319
-0.139237
0.067286
0.020118
0.023379
-0.081161
-0.031701
0.027068
-0.050345
0.007991
-0.013552
-0.022093
-0.019043
0.019255
-0.009240
0.001700
-0.006777
0.029390
0.050234
-0.007589
-0.103293
-0.020943
-0.021361
-0.047375
0.015098
0.047422
-0.036389
0.007239
-0.117991
-0.111143
0.094759
-0.069833
-0.054785
-0.007304
0.090774
-0.049239
0.040108
0.069587
-0.116754
0.067474
-0.091427
0.022705
0.006813
0.064307
-0.090297
0.065408
0.072888
0.018628
0.068887
0.024774
0.020897
0.016680
-0.051584
-0.043476
0.027797
0.005711
0.038694
-0.006632
0.099570
-0.007888
-0.045904
0.128948
0.033622
0.114542
-0.044950
0.087992
-0.041618
-0.095547
0.084840
0.019267
0.031200
-0.011326
0.029618
-0.039570
-0.009631
-0.034302
0.017482
0.013206
-0.013221
0.055838
-0.086238
-0.018227
-0.028648
0.016458
-0.019006
-0.050487
0.083939
-0.032767
-0.008069
-0.052369
-0.080991
-0.077789
0.004036
-0.052633
-0.251859
0.061202
0.017361
0.056452
-0.003032
0.082666
-0.039569
0.025779
-0.014033
0.075601
0.073001
-0.095692
0.007989
0.005171
-0.073477
0.030800
-0.033770
0.065094
-0.011372
0.001378
-0.123176
-0.000589
-0.116289
0.029463
0.006741
0.050917
0.048343
-0.118233
-0.065134
-0.103876
0.005785
0.031647
0.019162
0.002397
0.068635
0.033039
-0.146604
-0.027055
-0.004614
-0.105258
-0.109415
-0.022001
0.010522
0.011591
0.003952
-0.007915
-0.029593
0.028538
-0.012977
0.016390
-0.042801
-0.050855
0.030941
-0.032494
-0.022127
-0.118066
0.021472
-0.028281
0.097003
0.031441
-0.027767
0.009701
0.022290
0.015029
0.061161
-0.005180
-0.113620
-0.004784
0.026353
-0.023105
0.008857
-0.039434
0.110086
0.043647
0.015606
-0.053689
-0.009186
-0.020377
0.057527
-0.024637
0.032839
0.080864
0.033916
-0.004201
0.004856
0.022108
-0.005906
-0.017152
-0.090920
-0.058277
-0.108495
0.050298
-0.042907
0.012530
-0.023926
0.154325
-0.184930
0.066506
-0.087364
0.019204
0.028089
-0.035658
0.024062
-0.112195
-0.089204
-0.014655
0.059488
0.030085
-0.040543
-0.007692
-0.104659
0.013268
0.009079
-0.025645
0.067772
-0.016920
-0.042619
-0.057026
-0.051537
0.004640
0.070231
0.023424
0.048019
-0.059858
0.091816
-0.045971
-0.012198
0.057372
-0.073575
0.035249
0.067869
0.035822
-0.068906
0.074225
0.061014
0.005666
0.010729
0.045393
-0.027604
0.034398
0.057810
-0.043971
0.088909
0.019898
-0.049915
-0.003465
-0.001234
0.035839
-0.055287
-0.014584
-0.000855
0.011794
0.016896
0.012182
-0.041446
-0.191743
-0.122873
-0.008226
-0.004611
-0.059453
0.012565
0.010828
-0.017592
0.132888
-0.079978
-0.064875
-0.064168
-0.053109
-0.074156
-0.057358
0.001203
0.039977
-0.083740
0.043541
-0.018665
-0.048822
0.006522
-0.019000
0.036921
-0.022751
0.010609
-0.034104
0.025741
-0.151617
-0.052713
0.061914
-0.026482
-0.013146
0.007848
-0.034213
0.001484
-0.076439
0.136438
-0.012094
-0.029882
0.007901
-0.008986
0.013018
0.007521
-0.007085
-0.140303
0.094671
-0.006903
-0.017799
0.013303
-0.034095
-0.037674
0.038407
0.032091
0.042769
0.016028
0.010135
-0.027269
0.077533
-0.048762
0.012188
-0.129754
-0.107107
0.008235
-0.040738
0.027976
0.032740
-0.005506
-0.118939
-0.112239
0.022592
0.009653
0.055446
0.007501
0.049571
-0.060258
0.160407
-0.087073
-0.013273
0.009505
0.015160
0.006031
0.052458
-0.049136
-0.030185
0.015824
0.012476
0.044450
-0.059324
0.008315
0.000322
-0.010356
0.006124
-0.088209
0.107185
0.121720
0.030905
-0.007384
-0.023583
-0.004255
0.148913
-0.018460
0.076910
-0.054667
-0.004445
0.038615
-0.048369
-0.020585
-0.093556
-0.047547
0.010391
0.038977
-0.065457
0.012459
0.004916
0.045390
0.017607
-0.038612
0.024655
0.076786
0.052885
-0.044076
0.015647
-0.001487
0.006666
0.017744
-0.089197
-0.062474
-0.052173
0.024269
0.002608
0.000965
0.101152
0.010260
0.041244
0.099228
-0.030136
0.022696
0.033961
-0.021363
-0.014468
-0.085504
0.090980
0.073837
-0.051733
0.012373
-0.051813
-0.079078
0.107324
-0.034619
0.022287
0.055317
-0.037217
-0.024105
-0.060296
-0.052898
-0.015859
0.106414
-0.081974
0.064973
0.081352
0.056097
0.074238
0.041467
-0.085998
-0.037851
-0.084241
0.017060
0.074810
-0.045224
0.044870
0.040597
0.078206
0.057666
0.031482
-0.018619
0.012367
-0.000734
-0.012626
0.046532
0.051362
-0.068882
-0.045388
-0.007380
0.023881
-0.064846
-0.019304
0.043931
0.011593
-0.022000
-0.049731
-0.071672
-0.020804
-0.073933
0.032372
0.040784
-0.007654
0.088859
0.046374
-0.060251
-0.005983
-0.037783
0.039452
0.023765
0.029906
0.035365
-0.020938
0.027680
-0.024932
0.079683
0.031957
0.073691
0.000574
-0.164056
0.006325
-0.044525
-0.017565
-0.008967
0.045989
0.030085
-0.001134
0.030080
-0.030579
0.025394
0.053353
-0.099755
0.041555
0.003498
0.050616
-0.003793
0.052004
-0.097874
-0.063385
0.086517
-0.059158
-0.067050
0.030589
-0.061207
-0.033054
-0.093335
0.018905
0.021682
0.048898
-0.023634
0.002384
-0.011950
-0.015081
0.014332
-0.031696
-0.114717
-0.052494
0.009767
-0.056761
0.003632
-0.029661
-0.062674
0.047980
-0.010044
-0.086610
-0.077200
-0.004611
-0.048259
-0.019165
0.019236
0.071899
0.039648
0.004953
0.007689
0.053496
-0.007541
0.020626
0.034672
-0.063932
0.055711
0.002406
0.036489
-0.050298
0.089213
0.007313
0.098386
-0.042196
0.071705
0.045934
-0.050909
0.037341
-0.001078
0.012151
-0.055671
0.008325
-0.043725
-0.000578
0.010823
0.084440
-0.025880
0.021982
0.028513
0.043879
-0.009821
-0.090696
0.024745
-0.016438
-0.020795
0.011507
0.111675
0.034126
-0.018790
0.004817
0.074978
-0.094933
0.000539
-0.022930
0.022729
-0.013073
0.016323
0.002550
-0.004889
-0.078257
-0.057900
0.005961
0.030239
0.081918
-0.009291
-0.020903
-0.036281
-0.157101
-0.165042
-0.053757
-0.002066
0.042339
0.000268
0.067357
-0.078975
0.048300
0.055863
-0.046262
0.019411
0.044025
0.004834
0.036463
0.110158
0.062812
-0.101663
-0.009005
-0.002485
0.053864
-0.072011
-0.070014
0.057810
-0.004782
-0.024275
0.056340
-0.012813
-0.075733
-0.028346
-0.032614
0.050050
0.007933
0.047933
-0.031437
-0.023390
-0.018228
0.056266
-0.051583
0.007760
0.029222
-0.066270
0.019196
-0.053045
0.048556
-0.113533
0.004930
0.043588
0.053783
-0.048049
-0.075007
0.079211
0.047373
-0.001839
-0.105193
0.039294
-0.030870
-0.045119
-0.020738
0.018506
0.078901
0.006865
0.017415
0.001001
