# Shape: (3, 3, 32, 32)
0.056872
0.179662
0.061301
-0.318345
-0.005238
0.480780
-0.262969
0.288421
-0.042909
0.091838
0.007511
-0.159293
0.185727
-0.174927
-0.230875
0.109520
-0.097836
-0.121867
0.051534
-0.276001
-0.291412
0.237234
-0.110792
-0.019018
-0.414117
0.038610
-0.023555
-0.062157
-0.014375
0.090766
0.160293
-0.152398
-0.082140
-0.003367
0.198668
0.116906
0.315838
0.006188
-0.128981
-0.321618
0.088648
0.153952
0.029429
0.292446
0.037368
-0.055296
0.510531
-0.088538
0.067337
-0.228967
0.078820
-0.541413
0.232096
0.098109
-0.118233
0.033909
-0.045036
0.018580
-0.324135
0.041094
-0.143296
0.035804
0.362668
0.045338
0.003848
0.082584
-0.214373
-0.007288
-0.082858
0.094915
0.301247
-0.209379
0.005959
-0.148808
-0.038055
0.030922
-0.149901
0.358104
0.361004
-0.074366
0.137523
-0.216004
0.044317
-0.059378
0.188659
0.127193
-0.146102
0.052043
0.190287
-0.147927
-0.100038
0.021383
-0.172213
-0.078965
-0.186444
-0.378554
-0.177007
0.012171
0.066348
-0.003203
-0.115821
0.170314
-0.231114
0.093237
0.018579
-0.237429
-0.113293
0.076005
-0.048310
-0.195875
-0.384026
0.117340
-0.167427
0.002996
-0.118521
-0.080520
-0.226949
0.116501
-0.157903
-0.014114
-0.040134
-0.059010
0.022347
0.002640
-0.129451
-0.096277
0.015350
0.337408
0.343271
0.012003
-0.002029
0.147248
0.206073
0.226932
-0.054534
-0.152733
-0.501391
-0.189359
-0.293794
-0.174378
-0.101861
-0.102731
0.113224
0.151308
-0.224215
-0.051753
-0.012032
-0.012594
-0.393459
0.077279
0.152720
0.067886
-0.122001
0.202714
-0.052503
-0.142327
-0.243028
-0.090992
-0.456694
-0.194404
0.090970
-0.040439
-0.035916
-0.089479
0.318288
-0.344514
-0.087307
-0.115292
0.086294
-0.093407
-0.158614
0.132204
-0.018994
-0.112417
0.163036
-0.127577
-0.049642
0.122440
0.076165
-0.006686
0.225617
-0.176337
0.003202
0.074610
0.403611
0.143871
-0.136486
-0.009591
-0.025021
-0.115500
-0.106269
-0.055233
-0.037314
-0.110940
0.127196
-0.073185
0.518995
0.036164
-0.167598
-0.158748
0.221248
0.148130
-0.100676
-0.111712
-0.188738
0.150112
0.246919
0.084541
0.231461
-0.059755
0.003649
-0.628438
0.011618
0.166531
-0.028932
0.177310
-0.309179
-0.194531
0.011862
-0.108968
-0.294128
-0.027146
-0.025166
0.021779
-0.088174
0.210959
-0.279818
-0.184744
-0.045089
-0.449607
0.057767
-0.055009
0.040707
0.180222
-0.030105
-0.124334
-0.150853
-0.145041
0.323768
-0.193210
0.142101
-0.288439
0.141538
-0.141892
-0.126370
0.190967
-0.151561
0.061792
0.076214
-0.053579
-0.264176
0.048409
-0.114343
0.090307
0.097118
-0.106732
-0.050582
-0.124981
0.106720
0.153507
0.057181
0.080355
-0.030859
0.136763
0.135338
0.136080
0.009757
-0.041190
0.095500
-0.165612
0.210767
0.226623
-0.120995
0.191313
0.169185
-0.090896
-0.036025
0.056784
0.010822
-0.122923
0.190315
-0.072800
0.002703
0.132411
-0.013329
-0.091312
0.042706
0.091147
0.079429
0.059297
-0.132004
0.100708
0.192598
-0.572200
-0.120286
-0.191984
-0.021205
-0.180506
0.215835
-0.198110
-0.049554
-0.157180
0.037897
-0.122766
0.101377
-0.125273
-0.116881
0.209253
-0.161757
0.202058
-0.128474
0.007386
0.434051
-0.222311
-0.089973
0.030299
0.081758
0.124397
0.218457
-0.157572
-0.162383
0.255365
-0.404366
-0.181510
-0.008123
-0.114089
-0.199338
0.297084
-0.018167
0.317914
0.049540
-0.191407
-0.145238
0.077007
-0.114501
0.504879
-0.343263
0.053543
-0.091678
-0.096609
-0.346646
-0.008648
0.216461
0.204155
-0.052121
-0.364721
-0.225208
-0.310653
-0.269098
0.380640
0.211669
0.200621
0.242913
-0.272099
0.207531
0.476975
0.008996
0.062782
0.077475
0.091574
-0.270953
-0.077781
0.201510
0.206431
0.121434
-0.023889
0.026770
-0.003916
-0.208115
0.023978
0.263756
0.150905
0.022622
0.079238
-0.445333
-0.178831
-0.113972
-0.162656
-0.400928
0.118293
0.048767
-0.218566
-0.144942
-0.128703
-0.131430
0.060826
-0.210444
0.085776
-0.006444
-0.008573
0.048659
-0.358678
-0.026170
0.019952
0.012870
0.140147
0.048281
0.045988
0.235687
-0.094023
0.110283
-0.307681
0.143811
-0.308339
0.239330
0.208443
-0.064343
-0.133969
0.090636
-0.056695
-0.020070
0.179301
-0.288705
-0.024235
-0.342808
-0.290689
0.090863
0.022773
0.073614
-0.099208
0.199109
0.149715
-0.039259
-0.239684
-0.170237
-0.183072
0.056242
0.293976
0.101058
0.096001
0.013575
-0.385855
0.281375
0.136369
0.070025
-0.064360
0.451567
0.222827
-0.076009
-0.221373
0.300147
0.097712
0.199743
0.249988
0.100708
-0.253820
-0.196372
0.130183
-0.231394
-0.039549
-0.198320
-0.014001
0.070027
-0.019011
0.203457
0.033690
0.140381
-0.511216
0.007245
0.017445
0.357786
0.065740
0.097979
-0.138457
0.017603
0.117757
0.345292
0.212629
-0.027912
0.084424
-0.568531
-0.099015
0.187801
-0.001250
0.172074
0.119879
-0.014278
-0.110962
-0.212658
-0.001543
0.184892
0.236049
-0.288581
-0.014045
-0.177800
-0.035765
0.210097
0.013269
0.052974
-0.030281
0.060970
-0.060763
0.222654
0.032289
0.025755
-0.211510
0.083336
-0.081374
0.167757
0.026239
0.090455
0.049718
-0.038058
-0.228016
0.074062
0.268382
0.123602
-0.152277
-0.032566
-0.404282
-0.075092
-0.018856
-0.215010
-0.159002
-0.305684
0.127953
0.248709
0.503657
-0.052609
0.073619
-0.228543
0.007869
-0.018584
-0.174541
0.016972
-0.010895
-0.150019
-0.099975
-0.279624
0.142270
-0.045299
-0.543806
0.063310
-0.197166
-0.013415
0.085052
-0.446018
-0.113611
0.005367
-0.232272
0.122235
-0.011267
-0.031505
0.011301
-0.162007
-0.194528
0.001506
0.139000
-0.050777
0.032111
0.310070
0.084091
0.018882
0.330369
0.003578
-0.265412
0.332981
-0.107101
-0.026699
0.052838
0.033638
-0.077596
0.243090
-0.000718
-0.380342
0.136674
-0.465693
0.047598
-0.030380
0.014478
-0.038636
0.042808
-0.149857
-0.537835
-0.392894
-0.071717
-0.405703
-0.078281
-0.114723
0.285076
0.153498
-0.178029
0.292018
-0.440926
0.355377
0.167765
0.075727
0.011221
0.186010
0.039098
0.423657
-0.260120
0.067055
-0.301935
-0.051833
-0.038128
0.137601
0.009704
-0.048000
-0.049046
0.021786
0.147269
0.296413
-0.017217
-0.231471
-0.272182
-0.158529
-0.200408
0.117817
-0.040003
-0.067459
0.181037
0.243296
-0.127564
0.016761
-0.342104
-0.047855
-0.627902
0.051215
0.165406
-0.116517
0.058601
0.057308
-0.130498
-0.123602
-0.111069
0.068313
-0.041637
0.165971
0.178610
0.026488
-0.227307
0.278120
-0.130269
-0.102157
0.468933
0.278495
0.195574
0.130756
-0.070384
-0.010498
-0.024357
0.163314
-0.156959
0.227767
-0.009195
0.016018
-0.045063
-0.098567
-0.026554
0.221010
-0.021384
-0.062343
-0.205218
-0.067976
-0.127297
0.116093
0.135527
0.099594
-0.308900
0.167730
-0.348870
0.057164
-0.033035
-0.110775
-0.036683
-0.114528
-0.194216
-0.217975
-0.051874
-0.181310
0.086634
-0.094281
0.024413
-0.013234
-0.257893
-0.018392
0.063481
0.267597
-0.474174
0.034685
-0.132652
0.122517
-0.155504
-0.008404
0.053007
0.229260
-0.259617
0.136216
-0.379882
0.042841
0.043947
0.004340
0.204364
-0.153139
-0.181288
-0.060834
-0.259768
0.009069
-0.035022
0.076598
-0.181620
0.038176
-0.054819
0.337396
0.129347
-0.441145
-0.086763
-0.018598
-0.181208
-0.152259
0.019011
-0.110497
0.126263
-0.103835
-0.141949
0.021881
-0.142529
-0.137642
0.024202
0.130727
-0.122566
0.132892
-0.165949
0.321886
0.085407
0.079820
-0.122146
-0.042715
-0.091253
-0.034665
-0.253925
-0.220273
-0.272179
-0.152078
-0.090467
-0.160665
-0.022908
-0.003840
-0.234643
-0.142592
0.082383
0.257087
0.057844
0.299976
-0.023227
-0.122721
-0.312034
0.130432
-0.284660
-0.008385
0.021834
0.122836
-0.277844
0.175170
-0.113726
-0.332014
-0.043137
-0.209640
-0.038283
-0.048111
-0.138858
0.004170
-0.021729
0.102374
-0.372285
-0.313940
0.011404
0.055009
0.190321
-0.336256
-0.333711
-0.123340
0.061566
-0.278164
0.005514
-0.070936
0.182711
0.229023
-0.180964
0.216915
-0.079364
0.122648
-0.163611
0.013114
0.116337
0.116280
-0.101666
0.227982
0.022621
-0.484250
-0.029846
-0.029299
0.158471
-0.340867
-0.431312
-0.043697
-0.386703
-0.225935
0.157182
0.170884
-0.156071
0.056199
0.124000
-0.247597
-0.023225
-0.054541
0.027124
-0.363712
0.021395
0.085654
-0.162274
0.209176
-0.356023
0.220660
0.054758
-0.044658
0.002908
0.096036
0.292838
-0.170621
0.298405
-0.027232
-0.253852
0.200955
0.204002
-0.166902
0.204866
-0.013536
-0.091461
-0.375820
-0.440831
0.009123
-0.094465
0.000601
-0.064289
-0.155217
0.089683
-0.265044
0.031814
0.025470
-0.148706
-0.109912
0.127468
-0.045852
0.301622
0.108034
0.049779
-0.306182
-0.339386
-0.373808
-0.023551
-0.044706
0.083355
-0.098446
-0.296006
0.048960
-0.207896
-0.175740
-0.192082
-0.127719
0.010340
-0.131528
0.070444
-0.254942
0.136212
-0.112577
0.145709
0.177184
0.020961
0.028589
0.204713
-0.208039
0.138490
-0.067109
-0.118336
-0.289737
0.150468
-0.200749
0.031621
-0.016408
0.103990
0.012841
-0.105442
-0.024837
-0.286456
0.181827
0.058856
0.234524
0.224077
0.008352
0.285506
0.136806
0.022470
0.023886
0.364471
0.014731
0.095473
-0.164858
-0.053862
-0.197368
0.270386
0.119464
-0.194771
0.014888
0.099758
0.199089
-0.126079
0.133577
0.026343
-0.182691
-0.003365
-0.031846
0.026990
-0.039839
0.122898
-0.111817
0.409069
-0.046034
0.069956
0.188951
-0.074455
0.170940
0.051044
-0.110203
0.022962
-0.172745
-0.427910
-0.099750
0.042282
-0.485392
-0.171658
-0.027765
-0.239499
-0.069115
-0.069612
-0.026165
0.182565
-0.117099
-0.173161
0.102488
0.060155
0.009419
0.279626
-0.050493
0.011512
-0.102186
-0.371820
-0.038742
0.052462
0.135642
0.168629
-0.269380
-0.064815
0.013125
-0.246967
-0.133250
0.181394
-0.030482
0.140866
0.101605
0.157017
0.168326
0.055790
0.006024
0.134413
-0.134953
0.410572
-0.043834
-0.251986
-0.044863
0.182845
0.042642
-0.273313
-0.001682
0.162522
-0.029732
-0.083265
0.095521
0.003550
-0.265401
0.001295
0.040528
0.014735
0.206725
0.075731
-0.053719
-0.025269
0.017569
-0.018170
-0.055444
0.318929
-0.019182
-0.190350
-0.007376
0.076784
0.051052
0.030805
-0.160073
-0.098165
-0.062926
0.094044
-0.017036
0.137323
0.320656
-0.166236
0.168738
0.187092
0.153441
0.146776
0.089195
0.125477
0.191880
0.034793
-0.096857
-0.087141
0.210645
-0.108631
-0.123717
0.174392
-0.060223
-0.132626
-0.213868
-0.112926
-0.000201
0.053441
-0.277136
-0.196478
0.011398
0.408546
-0.212890
0.204601
0.058947
-0.016924
0.227466
-0.253031
-0.062924
-0.112883
-0.105405
-0.053789
-0.098290
-0.029816
0.002233
-0.376137
-0.353572
0.336090
-0.188011
-0.296281
-0.436195
-0.029588
-0.034842
-0.159129
-0.193207
-0.003598
0.230641
-0.039394
-0.017021
-0.056324
0.122701
-0.211644
0.460261
0.175637
-0.122191
-0.163035
0.154397
0.228436
0.133801
0.053740
0.167394
-0.026823
0.379709
0.120977
-0.282567
-0.145636
0.029896
-0.290705
-0.070431
-0.098632
0.011829
-0.118444
-0.050196
0.006738
-0.046616
-0.055102
0.087362
0.045857
0.058293
-0.087076
0.109800
0.031208
-0.268909
-0.118256
0.074584
-0.018101
0.123752
-0.325408
0.021191
-0.314081
-0.214263
-0.030695
-0.419220
0.271429
0.374300
-0.157106
0.096142
-0.169367
-0.313564
-0.100679
0.254419
0.018004
0.315735
-0.066937
0.211161
-0.010760
0.057124
0.247478
-0.091094
0.187393
-0.160255
-0.401111
-0.199325
-0.082733
0.192407
0.002033
0.051103
0.228412
-0.435458
0.266093
-0.204792
-0.048545
-0.055934
0.065327
-0.346778
-0.133555
-0.152596
-0.036635
-0.117144
0.052528
0.066976
0.016129
-0.221530
-0.115791
-0.116351
-0.100543
-0.018673
0.166984
-0.127307
0.032217
-0.063382
-0.209095
-0.047013
0.498500
0.222163
0.076055
-0.247213
0.050921
-0.004384
0.061918
0.035490
-0.164773
-0.357423
0.098371
-0.238253
-0.009891
-0.279378
-0.011360
0.148506
0.207153
0.036695
-0.240580
-0.018347
0.008446
-0.273282
0.189085
0.000402
0.254548
0.000231
0.108261
0.047586
-0.017930
-0.338354
0.012821
-0.304485
-0.101910
-0.075280
-0.173016
-0.005552
0.016396
0.455688
-0.268100
-0.187921
-0.055685
0.019770
0.033252
-0.111555
0.225585
-0.146594
-0.116291
0.277080
-0.003363
-0.248680
0.167715
0.016042
-0.078400
0.164153
-0.147715
0.063093
0.155409
0.412387
0.063555
-0.044030
-0.051602
-0.118825
-0.016228
0.019665
0.036667
-0.166740
0.009675
0.059228
-0.005147
0.606119
0.136645
0.083476
-0.032181
0.158900
0.281470
0.078916
-0.105126
0.009353
0.069257
0.231356
0.229248
0.043932
-0.019327
-0.037160
-0.638343
-0.038224
0.422522
-0.069046
0.122163
-0.265206
-0.224973
-0.028921
0.051201
-0.235046
-0.238532
0.100735
0.153978
-0.067525
-0.042395
-0.492287
0.055103
0.258288
-0.373562
0.222276
-0.105481
0.337358
-0.120645
0.019766
-0.312450
-0.128123
-0.160599
0.380660
-0.322229
0.086540
-0.426998
-0.005189
0.009656
-0.071992
0.220645
0.005491
0.009055
0.201423
-0.291178
-0.233012
0.123559
-0.148792
-0.044736
-0.073311
-0.295092
0.045020
-0.151124
0.135971
0.186242
0.077173
-0.166005
-0.046988
-0.019458
-0.182379
0.240091
0.088394
-0.136247
0.267197
-0.673854
0.092949
0.072119
-0.060215
0.076156
-0.198306
0.044280
0.027459
-0.025352
-0.445287
-0.153337
0.267632
-0.069300
-0.247391
-0.436797
0.056446
-0.100987
-0.182538
-0.170274
0.026581
-0.034531
-0.245636
0.132512
0.365826
-0.447886
-0.135434
-0.315423
-0.030939
-0.267318
-0.072498
-0.195778
-0.214069
-0.158083
0.216467
-0.196509
-0.056148
-0.037689
0.094997
0.263898
-0.215313
0.246522
-0.003961
0.090757
0.270118
0.034513
0.069816
-0.081622
-0.010987
-0.147959
-0.135071
-0.106588
-0.184267
-0.110071
-0.430968
0.038644
0.134015
-0.204701
0.304894
0.353115
0.091911
0.132471
-0.167705
-0.397289
-0.109470
-0.117666
0.214863
-0.190814
-0.092235
-0.015377
0.175242
0.002053
-0.506577
0.190915
0.012032
0.078916
-0.400431
0.089426
0.163886
-0.145895
-0.224454
-0.387822
-0.184334
0.023547
0.363836
-0.137067
-0.156765
-0.164784
-0.006805
0.027891
0.246170
0.032124
-0.458549
-0.113090
-0.142134
0.284729
0.114351
0.050902
0.064563
0.091431
-0.149759
0.167726
-0.507202
0.041727
-0.077936
0.104696
0.256813
0.164125
-0.267607
-0.163206
0.347291
-0.146893
-0.066444
0.304468
-0.251245
-0.191276
-0.122924
0.079030
-0.292548
0.124553
-0.021599
0.251791
0.083417
-0.332081
0.033857
0.015290
-0.081306
0.196572
0.061220
0.176400
0.329090
0.034296
0.052971
-0.178737
-0.028130
-0.223978
0.230105
0.261114
0.090796
0.019993
0.054655
0.049142
-0.017619
-0.018835
-0.189599
-0.031325
-0.473276
-0.198404
-0.005230
0.191878
0.066077
-0.169035
0.178265
-0.077800
-0.341506
-0.084822
-0.200921
-0.044612
0.040895
0.340990
-0.021207
-0.031346
-0.122881
-0.238925
0.091774
0.128461
0.051182
-0.008689
0.304372
0.073708
-0.173469
-0.202073
0.316586
0.160194
-0.157639
0.324881
0.039035
0.031635
0.037107
0.180935
-0.119896
0.085991
-0.299152
-0.128949
0.021190
0.184175
-0.162898
-0.377793
0.129298
-0.205433
0.181033
-0.008135
0.041058
0.160142
0.145876
-0.264903
0.093912
-0.121288
-0.510216
-0.124970
0.430658
0.005331
0.139617
-0.046196
0.345410
-0.466327
0.015702
-0.038273
0.143010
0.366855
-0.049146
0.000674
0.019293
0.081629
0.063867
-0.367920
-0.076890
-0.070879
0.395963
0.113010
-0.010280
-0.091531
0.105146
0.031303
-0.170495
0.006631
0.152946
-0.236576
0.063025
-0.109044
-0.216425
-0.028994
-0.158415
0.098503
0.209288
-0.187121
0.131900
-0.090764
0.040772
0.172715
-0.003898
0.366986
-0.054842
0.119440
0.007209
-0.117124
-0.168810
0.056690
0.354930
0.318038
0.069501
-0.122590
-0.303464
-0.154444
-0.030518
-0.263581
-0.087660
0.031667
-0.064054
-0.031448
0.019136
0.314696
-0.094570
-0.470046
0.207948
-0.326449
-0.086360
0.129129
-0.390054
-0.043692
0.060044
-0.011809
-0.030726
-0.267061
-0.063315
0.091417
0.035923
-0.046911
-0.213505
-0.079738
-0.007252
-0.033871
-0.093247
0.215952
-0.079731
-0.184922
-0.020282
-0.034589
-0.096137
0.038571
0.254097
-0.038725
0.207494
-0.034809
-0.450755
0.173319
-0.217250
-0.084514
0.149471
-0.033996
0.058882
0.034991
0.380008
0.242780
-0.124247
0.367724
-0.116773
-0.042623
-0.230157
0.254934
0.000092
-0.106248
0.057661
0.026582
0.337927
-0.314083
0.248517
0.148573
0.010751
-0.033767
0.182836
-0.048516
0.186948
0.016811
-0.012973
-0.197638
-0.022238
0.038649
0.129309
0.172230
-0.171508
-0.076816
-0.014159
0.014170
-0.119213
0.102404
-0.210595
0.033146
-0.186684
-0.338644
-0.115338
-0.174424
-0.338001
-0.067851
0.033858
0.192463
0.407674
-0.709833
-0.091161
-0.104266
-0.099715
-0.069960
-0.061971
-0.048191
0.114936
0.261987
-0.112368
-0.361342
-0.080642
-0.100339
0.190413
0.256916
0.025483
-0.169564
0.101963
-0.173240
0.052570
-0.392689
0.180267
0.063955
-0.160648
-0.095318
-0.176668
0.011408
0.020094
-0.174243
0.328010
-0.321050
-0.006343
-0.054318
-0.161946
-0.109334
0.086329
-0.155744
-0.081286
-0.191878
-0.119533
-0.198343
-0.092897
0.088610
-0.120419
-0.230139
0.118165
-0.362944
-0.247665
-0.042579
-0.049217
0.021843
-0.233595
0.036547
0.045674
-0.035690
-0.113437
0.102874
0.149017
0.014382
-0.031593
0.125649
0.032176
0.003842
-0.180446
-0.234795
-0.127310
0.071483
-0.239468
-0.139380
-0.169550
-0.050545
0.361990
-0.084018
0.128323
-0.204372
0.010322
0.188311
0.208035
0.148764
0.365876
0.122074
0.261812
0.239650
0.014397
0.081619
0.008108
0.062212
0.142692
0.079618
0.113324
0.205177
-0.307656
-0.365641
0.069915
-0.212433
0.006374
0.151675
0.085556
0.139132
0.201297
-0.233274
0.076796
-0.079154
-0.172044
-0.183620
0.015172
0.157346
-0.174575
-0.286181
0.119196
0.222986
-0.120425
-0.247356
-0.360339
-0.161461
0.011441
-0.016535
-0.217923
0.183942
0.037811
-0.007323
-0.072672
0.088821
-0.083344
-0.294577
-0.131348
0.042853
0.019453
0.139845
0.195548
-0.042068
0.228924
-0.130327
0.330598
-0.199557
0.011272
0.014223
0.060764
-0.022421
-0.200654
0.088103
-0.428095
-0.014858
-0.100115
-0.081289
-0.093215
0.078058
0.067936
0.065883
0.118840
0.168202
-0.079377
0.175910
-0.087552
0.020091
-0.102813
0.018464
0.007424
-0.029667
0.022061
-0.001311
0.099424
0.158212
0.097685
0.012058
-0.058382
0.003374
0.253326
-0.306857
0.106421
0.003161
-0.416523
-0.078320
0.032064
0.103447
0.257230
0.035151
0.083738
-0.426713
-0.249915
0.222637
-0.099399
0.161106
0.099714
-0.041717
0.106225
0.014482
-0.268537
-0.120810
-0.118044
0.089432
0.124750
-0.000911
-0.151051
-0.226050
0.254284
-0.214881
0.230530
-0.196983
0.034155
0.150987
-0.149351
0.011844
-0.181291
0.057988
-0.181264
0.220596
-0.281055
-0.366376
-0.151939
-0.140889
0.013984
-0.076497
-0.103012
0.130199
-0.243602
-0.546358
-0.084710
-0.133247
0.063240
-0.043126
0.027622
0.227968
-0.188138
0.219020
0.042706
-0.018185
-0.100436
-0.033933
-0.043133
0.081267
0.198781
-0.246685
-0.129781
-0.272127
-0.327670
0.373385
-0.009828
-0.133635
0.010099
-0.032391
0.100804
-0.121383
-0.256376
-0.075796
-0.126875
-0.032885
0.023278
-0.040854
-0.364052
-0.079764
-0.073119
0.158168
0.183244
-0.152165
0.007440
0.183738
-0.187241
0.016125
0.115875
0.070411
-0.387439
-0.070720
-0.097995
0.134007
-0.133110
0.125934
0.073447
-0.117433
-0.152860
-0.157923
-0.029632
0.068769
0.188218
0.020505
-0.035797
0.070369
0.263601
0.084421
-0.140860
0.139460
0.021497
0.031329
-0.243249
-0.129698
-0.239101
0.294687
0.091064
-0.228389
-0.039112
-0.090165
0.013214
-0.171965
-0.100383
0.156195
-0.139733
-0.131441
-0.120569
0.086346
-0.047320
0.218980
-0.072156
0.497615
0.150640
0.042356
0.287261
0.128580
0.099854
-0.022190
-0.099392
0.112924
0.060970
-0.374495
-0.008180
-0.017710
-0.390834
-0.138040
0.216038
-0.240184
0.009072
-0.179410
0.039730
0.231662
-0.098810
-0.324474
-0.177992
-0.157781
0.108465
-0.031204
-0.191702
-0.013152
-0.064927
-0.222371
-0.086967
0.040822
-0.097083
-0.098205
-0.320477
-0.193141
0.018127
-0.324793
-0.016224
-0.119999
-0.234116
0.027983
0.097965
0.084438
-0.251695
-0.242084
-0.079099
-0.159187
0.065639
0.202392
-0.010534
-0.254458
0.128022
-0.026358
0.107203
-0.071236
-0.096016
0.081219
-0.143567
0.017679
-0.003708
0.017032
-0.282108
0.070816
-0.309458
-0.176078
0.025792
-0.007653
-0.311974
-0.024269
0.139421
-0.056964
-0.122120
0.177795
-0.078203
-0.008741
-0.154791
0.024859
-0.068654
-0.072726
-0.014569
-0.159786
-0.014141
0.080127
0.106708
0.054057
0.394213
-0.527675
0.099170
0.021286
0.032299
0.092959
-0.107529
0.154576
0.138187
-0.052406
-0.395074
-0.389528
0.371517
-0.090081
-0.191643
-0.166178
-0.043640
-0.063857
-0.358484
-0.241005
-0.108969
-0.080016
-0.309153
-0.155985
0.022566
0.166508
-0.336665
0.123596
0.172146
-0.058245
0.225453
-0.258802
-0.165680
0.033720
0.017593
-0.110499
-0.114254
-0.050869
-0.105523
-0.221185
-0.210387
0.446090
0.197132
-0.326930
-0.405943
-0.054348
-0.058094
-0.010083
-0.282612
0.127573
0.292760
-0.026815
0.050617
0.035373
0.013964
-0.101910
0.343229
0.092927
-0.061508
-0.024977
0.057059
-0.034037
-0.119516
-0.063664
0.034489
-0.160260
0.197380
0.107621
-0.160428
-0.097556
-0.023612
0.035553
0.002614
-0.196196
0.137334
-0.035148
0.067466
-0.100862
-0.221773
-0.288273
-0.011855
0.122832
0.064288
0.000903
0.065208
-0.165691
-0.125616
0.013234
-0.096075
0.126935
0.018080
-0.154086
-0.000505
-0.182491
-0.137210
-0.038383
-0.399952
0.297558
0.257941
0.055507
0.188842
-0.051907
0.173468
-0.010274
0.205917
0.130869
-0.002626
0.149434
0.097996
-0.069061
-0.137443
0.031472
0.103939
-0.317648
0.191159
-0.180721
0.025778
-0.123884
0.376521
0.106250
-0.047967
0.236980
-0.545697
0.110432
-0.241605
0.114435
-0.030268
0.082906
-0.165872
-0.008320
0.017655
-0.002166
-0.203837
0.041479
-0.052504
-0.195132
-0.354414
0.042108
-0.024080
-0.114418
0.174058
-0.065730
-0.526904
0.110605
-0.159695
-0.253453
-0.102153
0.502059
-0.018909
0.183350
-0.343718
-0.071265
0.055221
-0.255629
-0.121876
-0.029334
0.064717
0.067071
0.191383
-0.067420
0.015705
-0.070442
0.122166
-0.022889
0.370430
-0.365306
-0.002618
0.083150
0.007720
0.269494
-0.149635
0.017233
-0.019180
-0.389422
0.004369
0.117610
-0.195460
-0.053008
0.310815
-0.107558
-0.085511
-0.130115
0.062387
-0.068515
0.366858
-0.189628
-0.140260
-0.042122
0.165123
0.316465
0.010733
0.262197
0.152472
-0.011710
0.245721
0.043096
-0.313118
0.175640
0.010982
-0.264701
-0.137480
-0.060577
0.020526
0.128631
0.362358
-0.023507
-0.133873
-0.165623
-0.045328
-0.005102
-0.240536
-0.242397
-0.150522
0.051348
-0.097232
-0.009004
0.554961
-0.068164
0.026599
-0.015572
0.164539
0.058754
0.118574
-0.184067
0.066786
-0.098907
0.134646
0.145555
0.058830
0.015478
0.011266
-0.180371
-0.030911
0.430716
-0.056464
0.008943
-0.377534
-0.110372
-0.097652
0.087413
-0.164177
-0.011482
0.077398
0.078370
-0.009995
-0.127357
-0.470254
-0.064509
0.341548
-0.039164
0.237484
0.032366
0.335432
-0.298467
-0.052967
-0.242436
0.038561
-0.027007
0.256721
-0.198012
0.036048
-0.256778
0.010849
0.073818
-0.124364
0.147594
-0.049073
0.076818
-0.021670
-0.099724
-0.044436
-0.120203
-0.111824
-0.010713
-0.176728
-0.281507
-0.027022
-0.074649
-0.040472
0.131872
-0.005794
-0.037167
-0.120920
0.057192
-0.165799
-0.030962
0.062486
0.075076
0.334587
-0.387038
0.035054
-0.083796
-0.182226
0.222607
-0.078605
0.148835
-0.023542
-0.038128
-0.069942
-0.027300
0.070411
0.037753
0.119365
-0.214931
-0.043406
-0.221855
-0.310978
-0.168276
0.116613
0.083548
0.080111
-0.179259
0.291512
0.107758
-0.130670
-0.232784
-0.164234
-0.090505
-0.114853
-0.254461
0.090450
-0.027858
0.089189
-0.063603
-0.215380
-0.027689
-0.082477
-0.020895
-0.405003
0.079746
0.091382
0.197794
0.226808
0.189117
-0.183873
-0.409607
0.007727
0.001830
-0.083909
-0.053845
-0.065885
-0.027464
-0.246494
0.014144
-0.003814
-0.144718
0.114523
0.156020
0.240278
-0.196117
0.099338
-0.243415
0.246958
0.117237
0.055563
-0.676575
0.167093
0.039673
-0.070283
0.028405
-0.394027
0.245148
-0.108947
-0.310584
-0.502804
0.068997
-0.000895
0.254579
-0.313749
0.111028
-0.083525
0.039069
0.340442
0.289107
0.061131
-0.177949
0.264902
-0.033122
-0.186176
0.039925
-0.388358
-0.041960
-0.379288
0.073277
-0.303102
0.108170
-0.018991
-0.213187
0.085766
-0.078947
0.167948
0.039606
-0.074524
0.150821
0.147625
0.059260
-0.056161
0.521364
-0.345020
-0.023884
-0.102802
-0.198729
0.218164
-0.026900
0.006250
0.073958
0.034051
-0.097066
-0.137357
0.345779
0.133095
-0.117226
0.075634
-0.159924
-0.334554
0.090767
0.116559
0.095396
0.201099
0.172129
0.029742
-0.131835
0.024313
-0.023653
0.195057
0.201394
0.146220
0.017370
0.133950
0.111584
0.092747
-0.101157
-0.096568
-0.089764
-0.545916
-0.349235
-0.120723
-0.133860
0.083321
0.078465
0.054580
-0.091025
-0.152239
0.038047
-0.139824
0.116710
-0.076625
0.411953
0.014601
0.136540
-0.385152
0.241487
-0.295703
0.235684
0.011099
0.088673
0.041270
0.004621
-0.126499
-0.094022
0.167700
0.107334
0.014065
0.013516
0.023292
0.144683
-0.084625
0.076760
-0.221848
-0.145934
-0.033741
0.046225
0.024744
0.254360
0.076218
-0.288586
0.146333
0.189115
-0.218722
0.093065
-0.261446
0.110209
0.092319
-0.234734
0.165283
-0.098868
0.177440
-0.098097
0.346850
-0.141354
0.360247
0.009029
0.100193
-0.004963
0.139611
-0.058055
0.203593
-0.586184
0.014421
0.068927
0.058651
-0.057019
-0.000249
-0.007879
0.065126
0.016648
-0.014371
0.043122
0.085392
-0.219221
-0.244126
-0.203140
-0.149342
-0.104240
0.198772
0.103260
-0.071043
-0.315570
0.195887
0.054573
-0.274908
0.315377
0.100124
0.049123
0.229312
-0.097970
-0.331069
0.109170
0.108421
0.156716
0.222376
0.138825
0.057083
-0.129529
-0.140872
0.033873
0.336565
-0.099717
0.040931
-0.109843
-0.399261
-0.062807
0.210088
-0.284444
-0.064164
-0.003288
0.075638
0.056030
0.331750
0.206990
-0.030311
0.030827
0.244061
-0.237615
-0.081525
0.070533
-0.176230
-0.011163
0.190982
0.118562
-0.013288
-0.002982
-0.057588
0.312328
0.073039
0.066878
-0.013766
0.290556
0.031045
-0.046251
-0.333437
0.149718
-0.101984
-0.349337
-0.066607
-0.066401
-0.456748
-0.066023
-0.116980
-0.109580
0.163204
-0.133952
0.056992
0.144283
0.111389
-0.231161
0.133884
0.117895
0.146105
0.030307
0.137330
0.074514
0.019895
-0.111701
0.216232
0.012731
-0.012722
0.118790
-0.115215
0.123607
-0.020089
-0.030773
-0.039629
-0.202076
-0.223639
-0.251567
-0.104636
-0.151873
-0.183657
-0.042178
0.118970
0.415812
-0.117273
0.021171
0.028314
0.279742
-0.076960
0.145246
0.005759
0.100562
-0.123738
-0.000859
-0.229207
0.179193
0.008092
0.120809
-0.172852
-0.116803
-0.194482
0.229487
-0.096377
-0.371188
-0.093006
0.383156
0.255223
-0.578825
0.151200
0.157474
-0.132026
0.022467
0.107019
0.061454
0.231428
0.053959
-0.095662
-0.471870
0.009958
-0.096180
0.120001
0.158124
0.116630
0.043998
0.090531
0.087538
-0.192203
-0.485346
0.150064
-0.262946
-0.106637
-0.074968
-0.224441
-0.093875
0.002773
-0.021639
0.120365
-0.342955
-0.049364
-0.222158
-0.266893
-0.036624
0.089157
-0.047576
-0.010469
-0.216833
-0.255443
-0.212186
-0.185306
0.014284
-0.013461
0.037068
0.346721
-0.393512
-0.103711
-0.195066
-0.208996
0.095355
-0.083041
0.095617
-0.104673
0.114674
-0.061480
0.085362
0.099927
-0.146576
0.035897
0.009222
-0.115287
0.034968
-0.232922
0.093470
-0.172117
0.190898
-0.052254
-0.089683
-0.106101
-0.061901
-0.034477
0.093443
-0.147853
-0.280639
-0.034359
0.015920
0.058334
0.121031
-0.190514
-0.261381
0.140609
0.139709
-0.117927
0.174358
-0.007842
0.156401
-0.138183
-0.031457
-0.098222
-0.008211
-0.148255
-0.200218
0.031618
-0.186528
-0.099892
0.119843
0.041943
-0.096961
0.228421
-0.334721
-0.131738
0.105396
-0.013884
-0.261697
0.095314
0.166667
0.081474
-0.049629
0.084967
0.115913
0.131427
-0.324897
-0.347636
-0.182036
-0.194483
0.047804
-0.072054
0.062522
0.129044
-0.107257
0.024952
-0.037688
0.141721
0.159467
-0.333146
0.095873
-0.034632
0.181878
-0.030309
0.000833
0.176590
-0.261099
-0.150198
0.259181
-0.127483
-0.043915
-0.101942
-0.022365
0.122952
0.218802
-0.412236
0.040159
0.172419
-0.259371
-0.108894
0.175237
0.086231
0.088611
0.015621
-0.154087
0.048469
0.172819
-0.305582
-0.217209
0.039494
0.159325
0.125893
-0.313124
0.143894
-0.164183
0.118572
-0.130884
-0.239722
-0.229034
-0.177102
-0.199486
0.311956
0.095516
-0.003445
-0.120615
0.259658
0.067687
-0.083468
0.021184
0.119720
0.121621
0.113419
0.227177
0.384464
0.286829
-0.197594
0.097002
-0.064380
-0.145213
0.113366
0.269016
-0.355860
-0.227598
-0.094542
0.217500
-0.023672
-0.040733
0.090428
-0.176413
0.170677
-0.060009
0.022901
0.100555
0.088770
-0.007239
-0.151479
-0.138658
-0.010827
0.032632
-0.165538
0.276214
0.052151
0.005077
-0.146761
-0.033978
0.059627
0.100504
0.057058
-0.129991
-0.030527
-0.299975
0.114803
-0.058593
-0.090368
-0.064456
-0.103436
0.234316
-0.177241
0.202504
-0.029107
0.065591
-0.110838
0.216197
-0.006610
0.095230
0.310407
-0.097501
0.223476
-0.099721
-0.041577
0.081841
0.010050
-0.047261
-0.033000
0.291332
0.115153
-0.103996
-0.320829
0.185601
-0.003628
-0.283438
-0.056672
0.013953
-0.176784
-0.234215
0.063133
0.124693
0.113096
-0.069424
0.128665
0.257495
-0.012544
0.258148
0.232997
0.079539
0.064942
-0.083993
-0.058030
0.199560
-0.140818
0.138757
-0.057673
0.050993
-0.168363
-0.317163
-0.002598
0.153806
0.048425
0.051477
0.098728
-0.068520
0.089972
0.015407
-0.352906
0.188876
0.033634
0.064141
-0.276292
-0.019709
-0.160765
0.280614
0.062969
-0.123003
-0.248621
-0.183534
-0.030290
-0.034061
-0.148832
0.251655
-0.133497
-0.108715
-0.024309
-0.070947
0.154433
0.175022
-0.009584
0.339439
0.014030
0.101834
0.292668
0.195024
-0.100201
-0.121723
-0.022531
-0.001692
0.146273
-0.200154
-0.109800
-0.020175
-0.440880
0.102056
0.310872
-0.150084
-0.095474
0.017100
0.063160
-0.009117
-0.169155
-0.283125
0.124820
-0.061785
-0.083825
-0.329534
-0.046761
0.166309
-0.047628
-0.312914
-0.148481
-0.072856
-0.138104
0.082531
-0.216817
-0.164047
0.059802
0.106599
-0.198838
-0.188429
-0.183798
-0.116448
-0.047878
-0.014789
0.062309
-0.104300
-0.176453
0.072085
-0.295275
0.060669
0.046558
0.050343
0.170486
-0.131921
0.015627
0.266270
-0.114151
-0.101206
-0.188866
-0.155955
-0.107714
0.055310
-0.168195
0.177458
0.088301
-0.254678
0.043435
0.073092
-0.076147
-0.047317
-0.056918
-0.006615
0.044641
0.352158
-0.180353
0.123352
-0.275502
-0.058221
-0.099348
0.114280
-0.042546
0.135996
0.102814
-0.104015
0.077971
0.182886
0.416429
-0.469874
0.146712
0.089205
-0.191538
0.129194
-0.190193
0.254168
0.098007
-0.125978
-0.192100
-0.126826
0.184676
-0.112744
-0.039041
0.135773
-0.054446
-0.045128
-0.299981
-0.363384
-0.063905
0.015968
-0.130517
0.194013
0.133109
0.228940
-0.201105
0.023892
-0.020620
0.146853
-0.170421
0.029753
0.136483
-0.210893
-0.305615
0.164528
0.155973
-0.150989
0.080560
-0.196980
-0.189138
-0.329581
-0.042801
0.199379
-0.010166
-0.025117
0.079623
-0.158014
0.052864
0.101619
0.310415
-0.045302
0.071037
0.007065
0.161626
-0.107742
0.206444
0.096066
-0.041574
0.024240
-0.026773
-0.039237
-0.049320
0.039604
-0.141450
-0.021155
0.334145
-0.326584
-0.056053
-0.196732
0.070482
-0.429505
0.083215
-0.201636
-0.109189
-0.160862
0.016308
-0.116181
-0.178554
0.043227
0.186238
-0.073004
0.048417
-0.128790
-0.067620
0.067570
-0.027275
-0.267987
-0.234756
-0.075606
0.015034
0.166053
-0.120884
-0.312999
0.232699
-0.192000
-0.295058
0.394920
0.180364
0.025312
-0.320169
0.103183
0.073687
0.136254
0.103110
0.253679
-0.271645
-0.356909
-0.011249
0.063505
-0.140424
-0.014785
-0.015407
-0.071965
0.019743
-0.307441
0.056845
-0.051917
0.036418
-0.064882
0.157324
0.148042
0.134915
0.066301
-0.168340
0.120114
-0.062335
-0.248320
-0.177538
-0.243238
0.020680
-0.001293
0.228187
-0.025173
-0.057996
-0.155455
-0.044454
-0.060866
-0.123565
0.226957
0.128809
-0.113396
-0.018429
-0.161132
0.006131
-0.019874
-0.052790
0.129176
0.449485
-0.152079
0.128685
-0.143021
0.271017
0.049075
-0.113861
0.138824
-0.367289
-0.206128
-0.017175
-0.050484
-0.280798
-0.125556
-0.026030
0.182114
-0.496993
0.155774
0.020690
-0.171741
-0.086350
0.155141
-0.019594
-0.325979
-0.088354
0.124164
-0.182664
-0.155208
0.048166
-0.096805
-0.590916
-0.258217
0.018540
-0.032426
-0.035959
0.003548
0.444240
-0.203515
-0.014999
-0.244658
0.103475
-0.000023
-0.184724
-0.020188
-0.065103
-0.179313
0.138526
-0.166699
0.110902
0.025653
0.031334
-0.008264
0.396868
-0.113593
-0.048788
-0.027633
0.398228
0.148721
-0.077820
0.128692
-0.006068
-0.044488
0.044653
-0.033260
0.053310
-0.163296
0.097758
-0.168042
0.531047
-0.256269
0.013045
-0.312829
0.124537
0.112079
0.112306
-0.106473
-0.186716
0.013723
0.254800
-0.161176
0.165200
-0.257587
0.012728
-0.738825
-0.084728
-0.066963
-0.042780
-0.009048
-0.339718
-0.325204
-0.078841
-0.112188
-0.018321
0.003891
0.101643
0.048609
-0.140297
0.037201
-0.240240
0.083381
0.044049
-0.336692
-0.151805
-0.015545
-0.146863
-0.028175
-0.092956
-0.159276
-0.120044
-0.014098
-0.224378
0.093044
-0.149084
0.067032
0.067230
-0.102913
-0.026543
0.021235
-0.137171
-0.095020
0.270831
0.149482
0.021652
0.267542
0.246165
-0.055216
0.052219
-0.215658
-0.021582
-0.155075
0.275549
0.086765
0.097894
0.036167
-0.107657
-0.004140
0.038970
-0.016338
0.085357
-0.032760
0.154011
-0.117752
0.187381
0.127450
-0.044492
-0.058387
0.099074
-0.074844
0.018603
-0.112945
0.228405
0.015983
0.120129
-0.048868
-0.074746
0.006508
-0.108445
0.027192
0.060162
0.043330
-0.070841
-0.078925
-0.057132
0.168399
0.195790
-0.266723
-0.075565
0.071579
-0.264553
-0.071093
0.187639
-0.165036
0.010248
-0.164766
-0.061523
0.047194
-0.125100
0.211329
0.009824
0.328850
-0.138595
0.124638
-0.187765
-0.140796
0.131963
0.073928
0.142691
0.050508
0.237894
0.039688
0.119937
-0.036978
-0.027467
-0.054357
-0.107975
-0.023690
-0.097069
-0.116954
-0.033338
0.139630
0.030121
0.178770
0.118408
0.139135
-0.224414
0.051373
-0.187697
0.366982
-0.426115
-0.100891
-0.075537
-0.116421
-0.083164
0.056600
0.045723
0.128908
0.350953
-0.085262
0.020424
-0.196166
0.064941
0.129869
0.044113
-0.036212
0.056833
-0.076603
-0.058652
-0.319668
0.089899
0.045373
-0.006700
0.030134
-0.035662
0.086287
0.146876
0.030966
0.213817
-0.219643
-0.171618
-0.125274
0.079114
-0.099667
0.578372
0.114797
0.089351
-0.045009
-0.238465
0.113443
0.090166
0.367769
0.544817
-0.000135
0.025195
-0.160763
-0.560656
-0.073281
0.105486
0.109446
0.054598
-0.246221
-0.093259
0.125696
-0.000558
-0.062695
-0.173641
-0.134535
0.201982
-0.434217
-0.050088
-0.143691
0.178503
-0.288658
-0.062772
-0.020370
0.042392
-0.210536
0.176714
0.275462
-0.146760
-0.590590
-0.016213
-0.088416
0.003694
-0.066000
-0.067793
-0.220011
-0.203733
-0.669156
0.073527
0.056129
0.057486
0.042121
0.034402
-0.087751
-0.186272
-0.005915
0.012513
0.110024
0.080423
-0.121154
-0.099567
-0.093904
0.313644
-0.162058
0.219076
-0.113162
-0.050298
-0.210611
-0.030586
0.141558
-0.094765
0.001390
-0.145363
-0.209477
-0.306724
-0.144665
-0.207565
-0.228071
0.272839
0.068296
0.016352
0.078490
-0.149233
-0.064788
-0.131241
0.136715
-0.143511
0.019632
-0.157144
-0.261545
-0.168512
-0.001341
0.213869
-0.075927
-0.045487
0.298334
-0.090508
0.105302
0.433926
0.117501
-0.102176
-0.027907
-0.273691
0.306923
-0.085560
0.268769
-0.009979
0.046698
0.047122
0.307361
0.160666
0.052538
-0.120285
0.295737
-0.073106
-0.153290
0.121600
-0.077504
-0.377994
0.076645
0.085344
-0.014092
-0.006923
-0.027505
0.165482
0.258997
-0.191152
-0.180106
0.111804
0.120430
0.113364
0.007319
-0.037121
0.010717
-0.210928
0.092337
-0.093981
0.082431
0.232247
-0.007468
0.165897
-0.372438
-0.197991
0.150134
-0.097718
-0.109806
-0.333253
0.245565
0.250920
0.173477
0.050011
-0.106156
-0.030250
-0.008394
-0.005839
-0.287260
-0.004388
0.045508
-0.126115
0.108657
-0.186657
-0.040134
0.072999
-0.784592
-0.234283
-0.304289
0.060237
-0.023835
-0.572120
0.007793
-0.136591
-0.222076
-0.149297
0.034865
-0.134617
0.042351
-0.089636
-0.046255
0.242655
-0.072305
0.179509
-0.087923
0.038848
0.078054
-0.009038
-0.058394
-0.060621
0.060636
0.296674
-0.200678
0.011536
0.021267
-0.379981
0.021466
0.366633
-0.095900
-0.316650
0.017359
-0.244261
-0.069977
-0.014330
0.437175
-0.109064
0.150514
-0.000875
-0.296498
-0.245550
0.159062
-0.290109
0.212064
0.094169
-0.395747
0.014666
0.215038
-0.056636
0.166933
0.313446
0.096158
0.067161
-0.431754
0.156426
-0.141024
0.247839
-0.110386
0.013808
0.092587
-0.022440
-0.216277
0.018472
0.207128
0.209262
-0.183986
-0.015922
-0.272874
0.272501
-0.070705
0.136098
-0.159748
-0.258939
-0.372849
0.108844
-0.159987
-0.042430
-0.187533
0.059189
0.059450
0.011603
0.002173
0.029289
-0.142137
0.048302
0.124679
0.017533
-0.219354
-0.147730
0.016358
0.183594
0.305039
0.178962
0.023643
0.289700
-0.076204
0.014153
-0.167464
-0.173640
0.151754
0.253282
0.323058
0.104186
0.095496
-0.112442
-0.025372
0.054242
0.116280
-0.007833
-0.098386
0.361586
0.017132
-0.304855
-0.083212
-0.080312
-0.051551
-0.062263
0.032277
-0.134751
-0.125521
0.188989
-0.000655
-0.020481
0.200597
-0.035302
-0.372635
-0.066367
-0.277957
0.040734
0.133751
-0.393151
-0.201880
0.099212
-0.226661
-0.167094
-0.044355
-0.067019
0.032256
0.212685
-0.071462
0.043769
0.108774
-0.012288
0.126944
-0.475584
0.344946
-0.165028
0.102903
0.388889
0.152555
0.076542
-0.071702
-0.316158
-0.002102
-0.032181
0.462338
0.123117
-0.032349
-0.276691
-0.206068
-0.569566
-0.245988
-0.187530
0.270716
-0.574997
-0.027186
0.271826
-0.225269
0.146998
0.279694
-0.054172
0.130281
-0.220645
-0.292207
-0.089589
0.037073
-0.159504
0.062264
0.129057
0.222115
-0.232815
-0.372867
0.199570
-0.287582
-0.030676
0.087095
0.020795
-0.135343
0.160674
-0.463254
-0.016539
0.067729
-0.074311
0.153445
-0.120306
-0.142539
0.041103
-0.389109
0.003037
-0.173930
-0.150388
0.044923
-0.135898
0.188728
-0.020522
-0.188566
0.001781
0.087605
-0.456377
0.176526
0.068115
0.009732
-0.015523
0.095554
0.187348
-0.612814
-0.080079
0.163774
0.060718
0.182108
0.296278
-0.149841
-0.138796
-0.402873
0.020606
0.103257
0.248831
0.027593
-0.078458
0.047829
0.206599
-0.419166
-0.112938
0.192744
0.097384
-0.018406
-0.026733
0.201757
0.057062
0.088944
0.098513
-0.017680
-0.135617
0.292952
-0.163635
0.012093
0.180294
0.084996
-0.093467
0.000903
0.114407
0.010352
0.312710
0.049076
-0.098325
-0.121062
-0.212631
0.067539
0.065658
0.348728
-0.008802
-0.149125
-0.161653
-0.216908
0.212536
0.130908
0.154120
0.066407
0.144128
-0.033547
-0.064888
-0.017497
-0.100196
0.051429
-0.100280
-0.010348
-0.300440
-0.101133
0.186653
-0.262438
0.004069
0.051087
0.089864
0.047465
0.179200
0.179300
-0.167692
0.051404
0.100726
0.080965
0.106256
0.186776
0.002507
0.117153
0.227954
-0.096107
-0.175474
-0.044302
-0.031970
0.070920
-0.049666
-0.180292
-0.025845
0.088319
-0.022556
-0.070211
0.043720
0.114196
0.112704
0.039489
0.012566
0.396084
0.116168
0.172525
-0.148700
-0.502542
-0.193227
0.207987
0.037958
0.064223
-0.003357
-0.132005
0.090900
-0.064785
-0.280953
-0.149151
-0.070653
-0.060539
0.096131
0.169450
-0.042127
-0.009436
0.045276
0.173475
0.316585
-0.103766
-0.131145
-0.350130
-0.099406
-0.050613
-0.180387
-0.142286
-0.158762
-0.081145
-0.085411
-0.254766
0.070401
-0.143998
-0.022999
0.002536
0.136100
-0.272708
0.181090
-0.010385
0.047193
0.073773
-0.137888
0.002443
-0.259629
-0.035580
0.011449
0.094456
0.014298
0.030294
-0.004166
-0.002620
-0.102214
0.318798
-0.067553
-0.056345
0.116239
0.023948
0.223888
-0.085205
-0.000513
0.022498
-0.108747
0.203830
-0.075983
0.271724
0.027118
0.241413
-0.227702
0.522503
-0.048622
-0.226539
-0.089202
-0.020621
0.116046
-0.095132
0.109710
0.001210
0.151038
-0.055781
0.007594
0.185127
0.023316
-0.094105
0.028658
0.089079
-0.152626
0.053432
-0.076900
0.025093
0.212259
0.018942
0.043075
0.142430
0.008294
0.277402
-0.216690
0.142452
0.026672
-0.107296
-0.041611
0.015564
0.064629
-0.162884
0.079259
-0.096338
-0.143206
-0.308594
0.062219
0.264079
0.077668
-0.024340
0.046780
0.197534
-0.163409
-0.218145
-0.001643
-0.114278
-0.261650
0.117309
-0.145565
-0.051036
-0.330029
0.043416
-0.118850
-0.447551
0.060367
0.205307
0.108043
0.078719
0.028693
-0.066946
-0.037832
-0.370913
0.230169
0.370265
0.267615
-0.048880
-0.003989
-0.068221
0.003182
-0.128363
-0.167679
0.140640
0.131435
-0.066557
0.173051
-0.033016
-0.059710
0.104250
-0.180932
-0.135106
0.018999
0.058576
-0.131082
-0.178444
0.394514
-0.220184
0.230380
0.064657
0.081471
-0.013519
0.141160
0.081987
0.080582
0.054846
0.029029
-0.005482
0.096456
0.100802
0.008317
-0.061492
-0.153386
-0.276004
-0.030318
0.158849
-0.087866
-0.180688
-0.444025
0.145707
0.190493
0.188652
0.000238
0.101372
0.202634
0.099167
0.154464
0.052896
-0.065656
-0.094770
-0.031540
0.151508
0.138532
-0.160018
0.034910
-0.130190
-0.134657
-0.168684
-0.146283
0.035815
-0.160868
0.039235
-0.081339
-0.109915
0.017909
-0.080544
0.362569
-0.051925
0.108856
0.154211
-0.041328
-0.197576
0.216906
0.123684
-0.192389
0.037921
0.130553
-0.101311
-0.149457
-0.136002
-0.017987
-0.098407
0.310023
-0.028598
-0.286416
-0.308848
-0.050539
-0.297402
0.065076
-0.329544
0.032432
0.065762
0.014024
-0.113833
-0.177550
-0.220385
0.223505
0.125037
0.028770
-0.175263
0.044652
0.008947
-0.149519
-0.113135
-0.138615
-0.062418
-0.270977
0.092150
-0.121513
-0.172036
0.313342
-0.176908
-0.383299
0.388165
0.269936
-0.177309
-0.259726
0.007004
-0.294272
-0.109875
0.155455
0.248190
0.108927
-0.385395
-0.058765
-0.192263
-0.266139
0.057109
-0.064679
0.088417
0.180158
-0.193198
0.095536
-0.029381
-0.052502
0.033051
0.158592
0.244043
-0.101375
0.109052
-0.333873
0.268209
-0.078937
-0.056429
-0.500710
-0.283280
-0.067079
0.067329
0.026961
-0.012263
-0.012299
-0.154018
-0.150405
-0.172878
-0.065152
0.027450
0.215868
-0.131823
-0.247764
0.038826
0.040084
-0.012688
-0.030830
0.299625
0.261608
0.278881
-0.041720
-0.094666
0.092099
-0.198094
-0.103864
0.120790
-0.371282
0.053211
-0.160833
-0.040186
-0.242463
-0.093767
0.162476
0.123290
-0.411295
0.110758
-0.068073
-0.160785
-0.040615
0.246102
0.124482
-0.048026
0.068979
-0.116247
-0.135893
-0.010284
-0.032795
-0.073170
0.150228
-0.200863
-0.010699
-0.111741
0.014025
-0.027024
0.443133
-0.174157
0.008996
-0.108566
0.164211
0.090261
-0.061921
0.158854
-0.088709
-0.002334
0.261115
-0.051969
-0.242577
-0.013661
-0.033066
-0.178562
0.247412
-0.240905
-0.136129
0.124821
0.368437
-0.079227
0.004565
0.017986
-0.031055
-0.064669
-0.028037
-0.073807
0.105489
0.111103
0.211210
-0.140954
0.521645
-0.086604
-0.090342
-0.027512
0.001049
-0.052942
0.030076
-0.089238
-0.085375
-0.031251
0.248215
-0.013216
0.203254
-0.110383
-0.019019
-0.657116
-0.022295
-0.091714
0.056689
0.223385
-0.263519
-0.209843
-0.021609
-0.084197
0.078882
-0.142358
0.109420
-0.007323
-0.450588
-0.077798
-0.261126
0.110834
0.170100
-0.251392
-0.136747
0.224872
0.161364
-0.213467
0.157350
-0.108485
-0.032859
-0.133778
-0.149064
0.192261
-0.270365
0.085157
0.066220
-0.084068
-0.127038
-0.079480
-0.116523
-0.230760
0.171963
-0.266304
0.158954
0.149331
0.413680
-0.033723
-0.172738
-0.162684
-0.144769
-0.000973
0.040299
0.118339
0.188549
-0.042481
0.280583
-0.216672
-0.013549
-0.024598
0.039488
-0.131466
0.449941
-0.637167
0.043734
0.123851
-0.034361
-0.170561
-0.070975
0.137637
-0.159628
-0.261386
-0.259881
-0.046305
0.213035
-0.014715
-0.107661
-0.463216
-0.060872
-0.035095
-0.226446
-0.144706
-0.126168
-0.057256
-0.100569
-0.102977
0.076394
-0.032483
-0.185325
-0.027275
-0.057621
-0.035710
0.038123
-0.265424
-0.072360
-0.063536
0.075396
0.047189
-0.272567
0.310074
0.052100
0.237864
-0.178585
0.172039
0.002842
-0.182836
0.188262
-0.357915
0.125780
-0.125219
0.193787
-0.110067
-0.339358
-0.140555
-0.218026
0.087562
0.153126
-0.124127
0.057539
-0.184865
-0.239276
0.121994
0.214905
-0.061720
-0.069019
0.221755
-0.083269
-0.063693
0.101689
0.413672
-0.490962
-0.035211
0.086118
-0.084363
-0.516248
0.168518
0.144157
0.185319
0.125945
-0.186112
0.043541
-0.114381
0.094275
-0.060146
-0.098852
-0.128525
0.052160
0.555623
-0.252491
-0.454368
0.115469
0.176227
-0.568338
0.095412
0.033487
0.014892
0.366696
-0.042458
0.119913
0.051720
-0.079589
0.214243
-0.351236
-0.041032
-0.810940
0.026722
-0.003458
0.105824
-0.304774
-0.218985
0.118905
-0.121544
-0.805937
-0.271741
-0.023782
0.401186
0.255580
0.173883
0.018796
0.329113
-0.162317
-0.258470
-0.131344
0.198929
-0.017629
0.110601
-0.233233
-0.117852
0.116265
-0.522892
-0.114813
-0.087431
0.239418
-0.297165
-0.182020
-0.013631
-0.068344
-0.262349
0.260743
0.253892
-0.037470
-0.512303
-0.052606
-0.260158
0.074015
-0.146895
0.145411
-0.166085
-0.236371
-0.531553
0.132168
-0.171429
-0.006848
0.199388
-0.017337
-0.350734
0.241464
-0.244166
-0.057716
0.109268
0.159350
-0.184627
-0.068983
-0.164813
0.317551
-0.411832
0.305486
-0.239284
0.024894
0.004171
0.247580
0.172192
0.097690
-0.080614
-0.037222
-0.021933
-0.022025
0.086698
-0.319654
-0.245806
0.080654
-0.001029
-0.003977
-0.024051
-0.022552
0.077957
-0.069811
0.094305
-0.041462
-0.030976
-0.011241
0.191026
0.257284
-0.080898
0.006687
0.311353
0.106939
0.026085
0.112546
0.051246
-0.509222
0.024491
0.059821
0.029683
-0.224952
-0.226765
-0.173072
0.025134
-0.075038
-0.306370
-0.049808
0.055955
0.212266
0.015084
-0.035715
0.181788
-0.082467
0.012588
-0.000661
0.111160
-0.525884
0.376089
-0.227713
-0.079977
0.184012
-0.055303
-0.591299
0.334026
-0.055744
-0.305341
-0.038153
0.263717
-0.285522
0.055461
0.002744
-0.120207
0.140143
-0.312448
-0.039786
0.092388
-0.132715
0.466181
0.184758
0.214248
0.149297
0.189345
0.002641
-0.027278
-0.201928
0.169048
0.329824
-0.157928
0.026810
0.018958
-0.328928
-0.058382
-0.104096
-0.229512
-0.059261
0.017007
-0.045160
-0.155471
-0.057050
-0.088443
0.039708
-0.625600
-0.158399
-0.184111
-0.143945
0.055771
-0.254439
0.088970
-0.046211
0.008469
-0.068088
0.026135
-0.165813
0.082488
0.269800
0.073538
0.143058
0.139557
0.197524
-0.222811
-0.100802
-0.101707
-0.025785
-0.391023
0.103274
-0.021150
0.070234
-0.166710
0.133878
-0.039376
-0.193993
-0.027572
-0.568757
0.119313
-0.182799
-0.041660
-0.158110
-0.071157
0.139996
-0.192201
-0.603088
0.079031
-0.018172
0.389435
0.236868
0.189118
0.083170
0.288882
0.152507
-0.113556
0.115699
0.194974
-0.527727
0.201549
-0.035620
-0.277031
-0.175330
-0.342593
-0.071806
-0.117058
-0.030073
-0.410506
0.125855
0.175394
-0.114233
0.046888
0.140097
0.209184
0.038114
-0.093420
-0.086490
0.201163
0.051620
0.189401
0.288793
0.010475
0.278806
0.002391
-0.093210
0.204395
-0.059489
-0.377637
-0.207101
0.350624
-0.292867
0.002177
-0.169188
0.328270
0.251421
0.023787
0.045088
-0.091199
-0.158814
0.142287
-0.006046
0.462007
-0.197918
-0.041916
0.150287
-0.087254
-0.130624
-0.376906
-0.086593
-0.226137
-0.004472
-0.493828
0.180409
0.314713
-0.006768
0.110581
-0.143875
-0.051785
-0.040672
-0.059807
0.417559
-0.123541
0.014691
-0.019437
-0.233936
-0.057308
0.019433
-0.195723
-0.041224
-0.203862
0.047871
-0.096947
-0.054086
0.211762
0.067454
-0.210409
-0.138890
-0.213684
-0.029652
0.045316
-0.370251
-0.135831
0.031264
0.020064
0.050327
0.013956
-0.157750
0.020890
-0.094004
-0.468336
0.046314
0.245165
0.176994
-0.088121
0.096828
0.059327
-0.011406
0.230221
0.423786
0.181515
-0.034206
-0.011833
-0.146682
-0.132833
-0.031944
0.353143
-0.138207
-0.040693
0.084561
-0.081180
0.069967
-0.196299
0.009522
-0.579649
0.207927
0.285470
0.125494
-0.067313
-0.112228
-0.029214
-0.470685
0.250396
-0.188251
-0.118538
0.012904
-0.100016
0.074708
0.082478
0.403042
0.083788
-0.198887
-0.362151
-0.016433
-0.000503
0.149509
-0.089802
0.197772
-0.115526
-0.182082
-0.277066
-0.036490
0.066706
0.019826
0.007594
-0.281138
-0.178136
0.078499
0.045755
-0.088370
0.153469
0.288374
0.180270
-0.104484
-0.121378
-0.041601
0.338805
0.078747
0.002376
-0.273712
0.005960
0.002321
-0.141549
0.335001
0.196005
0.266753
-0.415034
-0.171747
0.089885
-0.032676
0.166997
-0.247239
-0.108576
-0.179598
-0.569461
-0.334861
-0.041421
0.101398
-0.097693
0.000727
0.031836
0.169618
0.242709
0.171052
0.292316
0.023151
-0.213931
-0.047626
0.043440
0.233005
-0.348204
0.281568
0.231582
-0.105084
-0.032032
0.651969
0.059472
0.050047
0.119098
-0.219696
-0.183992
0.046275
0.080729
-0.305771
0.077556
-0.134901
-0.046805
-0.359329
-0.401984
-0.079452
0.195075
0.134071
0.422074
0.032125
-0.077510
-0.035870
-0.127494
0.158991
0.307353
-0.208418
-0.177813
0.235891
0.145103
-0.138619
0.091317
-0.045608
-0.128886
0.135333
-0.104825
0.063621
-0.198169
-0.075841
0.054621
-0.053368
-0.132566
-0.189808
-0.118764
-0.194872
-0.018503
-0.408233
-0.022332
-0.106513
0.046659
-0.132509
-0.000687
0.122408
0.223221
0.170660
0.117715
-0.017964
0.003889
0.035171
0.009858
0.078856
0.086542
-0.005845
-0.095687
0.076252
0.213171
0.041224
-0.049856
0.062381
0.279465
0.291802
-0.187687
-0.231936
-0.596243
-0.301080
0.348901
-0.054505
-0.224041
0.194841
-0.192483
0.079827
-0.219141
-0.041073
-0.090725
-0.091804
0.088774
0.120397
0.104556
-0.190083
-0.153082
0.016308
0.182576
0.332101
-0.001959
-0.065179
-0.279870
-0.080983
-0.045737
-0.273507
-0.215683
-0.352422
-0.223552
-0.053781
-0.129984
0.081223
-0.100268
0.016521
-0.101826
0.184242
-0.142321
0.026117
0.006951
0.035712
-0.104417
-0.216270
-0.132258
-0.139912
-0.027266
-0.032794
0.160165
-0.067773
0.016180
-0.053830
-0.024233
0.109518
0.299268
-0.089156
0.008340
0.022659
0.050776
0.163696
-0.120545
-0.138425
0.090363
0.052298
-0.038364
-0.198674
0.130709
-0.144549
0.264513
-0.221821
0.429238
0.010404
-0.070537
0.180395
-0.075930
0.055215
-0.092268
-0.019745
0.088378
0.388961
-0.148892
-0.186492
-0.012905
0.088954
0.012576
0.166082
-0.074185
0.133025
-0.026298
0.068673
-0.033148
-0.077865
0.078646
-0.144110
-0.111923
0.031367
0.222395
-0.244223
-0.028010
-0.030084
-0.302280
-0.291473
0.086493
-0.015686
-0.028721
-0.056580
-0.249574
0.097055
-0.329446
0.044334
-0.165794
-0.167884
-0.128935
-0.208283
0.075350
-0.338608
-0.138554
-0.003853
0.016762
-0.258314
0.222090
0.018121
0.094415
0.212594
0.055043
-0.116563
-0.534174
-0.273573
0.341969
0.141440
-0.007880
-0.051571
-0.102155
0.015467
-0.303151
-0.099981
0.161635
0.212061
0.024064
-0.229729
-0.196713
0.074576
0.024206
0.016071
0.288801
-0.149299
0.262568
0.149670
-0.078157
0.006329
0.091006
0.093219
-0.218279
0.009364
0.156874
0.074936
-0.252908
0.480533
-0.616026
-0.015167
0.031051
0.224914
-0.267082
0.000261
0.180414
-0.018166
-0.078507
-0.257056
-0.007037
0.117625
0.086380
-0.035859
-0.244798
-0.008444
-0.015364
-0.019714
-0.175374
0.021749
-0.326896
-0.329030
0.108297
0.198806
-0.010784
-0.039453
0.152827
0.331365
-0.049267
0.405519
0.021604
-0.100314
0.159171
-0.121427
0.055078
0.071631
-0.142083
-0.021479
0.040710
-0.203251
-0.135035
-0.197773
-0.285383
-0.041114
-0.008736
-0.281699
0.011159
-0.006137
0.093054
0.478033
-0.028899
0.292976
0.013544
-0.146939
0.069354
0.381202
-0.126379
-0.212743
-0.022773
0.050307
-0.030177
-0.054522
-0.118455
0.041282
0.083689
0.177081
-0.012130
-0.183154
-0.330645
0.094850
-0.153998
0.015656
-0.384536
0.100280
0.048212
-0.112637
-0.171336
-0.042097
-0.339249
0.258190
-0.040103
-0.178059
-0.148383
0.002080
-0.342866
0.073086
-0.084794
0.020721
-0.039433
-0.105287
0.013206
-0.145722
0.065956
-0.091795
-0.275353
-0.266628
0.336789
0.435217
-0.160291
-0.000084
0.015965
0.298150
-0.030101
0.201675
0.105249
0.094613
-0.028328
0.067895
0.076478
0.181386
0.125098
0.083613
-0.352676
0.051896
-0.244003
0.142274
-0.443055
0.076726
0.125544
0.059128
0.123565
0.087366
0.048002
-0.417349
0.116979
-0.019871
0.018264
-0.283798
-0.253346
0.050703
0.211970
-0.166214
0.056832
0.068689
-0.379920
-0.180811
-0.180658
-0.203039
-0.126270
0.143535
0.046387
-0.134423
-0.058545
0.210149
-0.096508
-0.070297
0.035998
-0.247197
0.122144
-0.109135
-0.103009
0.004448
-0.284212
-0.146312
0.215956
0.212036
-0.146957
-0.073831
-0.022347
0.109440
0.059367
0.166573
0.015461
0.097598
-0.147672
-0.096600
0.107525
-0.223953
0.106782
-0.015321
0.198694
0.073001
-0.215928
0.126939
0.013239
0.021304
-0.045358
0.383497
-0.067927
-0.102375
-0.068450
0.106457
-0.246008
0.364079
-0.094841
0.028035
-0.245508
0.060207
0.326058
-0.040391
0.125013
0.137073
0.024626
0.261864
0.018329
-0.351229
0.151380
-0.033727
-0.255437
0.178111
-0.015297
0.048971
0.061380
0.320508
-0.031886
-0.188605
-0.173730
0.058578
-0.010067
-0.215441
-0.158436
0.115364
0.014209
-0.103645
-0.191625
0.604957
-0.132600
-0.099754
-0.075077
0.038833
-0.026949
0.041573
-0.129198
0.002075
-0.017994
0.124796
0.029223
0.258782
-0.225541
-0.093382
-0.194454
-0.165034
-0.022908
0.038400
0.067450
-0.446459
-0.054508
0.027296
0.073122
0.161398
-0.088051
0.082960
0.050368
-0.307452
0.024071
-0.330562
-0.103261
0.146607
0.137606
-0.291773
0.101461
0.244479
-0.038933
0.022029
-0.123659
0.111251
0.167591
0.131164
0.155890
-0.554621
0.162042
-0.115669
-0.066198
-0.059945
0.034557
0.088708
-0.053714
0.176123
-0.402950
-0.077886
-0.057401
0.318560
0.149335
0.040292
-0.075139
-0.123300
0.276576
-0.018201
-0.068592
-0.074438
0.067459
0.132849
-0.111734
-0.012637
-0.189383
0.036336
0.058425
0.333648
-0.395002
0.021805
0.206277
-0.064608
-0.098901
-0.141674
0.192375
0.136315
-0.275626
-0.202387
0.209470
-0.049653
0.002104
-0.083443
-0.147542
-0.107844
0.085094
-0.020625
-0.099675
-0.079333
0.112333
0.017911
-0.016715
0.078573
0.216315
0.006179
-0.008243
-0.150869
0.078376
-0.239136
-0.327552
0.041623
0.122580
0.008531
-0.047380
-0.356888
0.093862
-0.006867
0.013162
-0.218895
0.119401
0.133670
0.081442
0.033870
-0.231271
0.104730
-0.285556
0.262484
0.061704
0.055520
-0.221679
0.051232
0.024793
0.414334
0.231049
0.251975
-0.008180
-0.227963
0.246434
0.314977
-0.433555
0.031329
0.248028
0.110429
0.092166
0.053959
-0.039008
-0.078541
0.000879
-0.047875
-0.134672
-0.441996
0.058442
-0.078864
0.003750
0.004508
0.014173
0.071092
0.014710
0.123334
0.102411
0.184085
-0.212865
0.201939
-0.138686
0.129724
0.226158
0.056453
-0.102383
0.002669
0.188172
-0.032994
0.208106
-0.228381
-0.105946
-0.389123
0.160779
0.074248
-0.000244
-0.212760
0.047908
0.365677
0.022420
-0.166891
0.067199
0.414788
0.018021
-0.141770
-0.043687
0.116814
0.025561
0.123738
-0.409982
0.196756
0.006827
0.045746
0.149060
0.046816
-0.275088
-0.149758
0.348720
-0.319904
0.163492
-0.258693
-0.191519
-0.134447
-0.446958
0.049986
0.006829
0.349173
-0.099683
-0.103914
-0.031347
-0.073708
-0.225817
0.251973
0.346765
0.108294
-0.055892
-0.000325
-0.166405
0.179011
-0.245320
0.139331
-0.196839
-0.013930
-0.638097
0.066074
0.073994
-0.027946
-0.161562
-0.084363
-0.019848
0.173541
-0.101930
-0.270034
0.191124
-0.060095
-0.303720
0.003035
-0.081922
0.154086
-0.163409
0.063830
-0.053537
-0.016895
0.151155
0.200931
0.168775
0.024944
-0.092164
0.002163
0.234466
-0.012408
-0.064121
-0.283728
0.120772
-0.003099
0.097841
0.077200
-0.255025
0.263450
0.049154
-0.022208
0.049709
0.143269
0.000506
0.178779
0.447262
0.120746
-0.116017
-0.199971
0.059090
0.128916
-0.189263
0.142364
-0.006807
0.296184
-0.147824
0.284196
-0.153292
0.343463
-0.238325
-0.104748
-0.416579
0.148396
-0.084805
-0.188295
-0.374100
-0.087616
0.002967
-0.008027
-0.390378
0.099179
0.227512
-0.005191
-0.007453
-0.406435
0.227026
-0.068721
0.005055
-0.055738
0.096359
-0.331397
0.167331
0.055512
0.025174
-0.106875
0.391852
0.161557
0.055034
-0.080538
-0.219168
0.148877
-0.224911
0.107700
-0.234784
-0.064591
0.318390
0.252253
-0.213005
0.009416
0.166720
0.293698
-0.095395
-0.068592
0.032954
0.206768
-0.368644
-0.092343
0.101548
-0.424463
-0.273543
-0.045381
-0.160360
0.036527
0.022358
-0.030492
-0.038688
0.102765
-0.007040
-0.043365
-0.158029
-0.026243
-0.195458
-0.164214
0.076930
-0.336928
0.089865
-0.133355
0.199987
-0.134317
-0.030262
0.094111
0.124675
-0.020537
-0.039575
0.110798
0.167456
0.037514
-0.088743
0.130039
-0.257882
-0.079832
-0.170218
-0.084001
0.161258
-0.378433
-0.019387
0.014545
-0.164254
0.139376
-0.296989
0.364127
0.206241
-0.016035
-0.020958
0.304307
0.153671
0.196041
-0.185289
0.026005
-0.142281
-0.064925
-0.248691
0.180100
-0.009812
0.367216
-0.403931
0.246324
0.401257
0.044648
-0.033660
-0.048157
0.023784
-0.480205
-0.357056
-0.021400
-0.025532
-0.100922
0.092589
0.022595
-0.170575
-0.029999
0.238428
0.226457
0.212055
0.010194
-0.104320
-0.285728
0.057273
-0.084042
0.016755
0.025794
0.114402
0.219747
0.138091
0.074136
0.085586
-0.070747
0.182954
0.131995
-0.082129
-0.156794
0.164000
-0.181162
0.169384
0.142986
0.525659
-0.036717
-0.108669
0.004329
0.194248
0.023027
0.150998
-0.201928
0.443689
0.002441
-0.058728
0.160960
-0.249487
0.124180
-0.209254
-0.076468
-0.269481
-0.132821
-0.482565
0.030981
-0.309055
-0.028346
0.067431
-0.225443
-0.069752
0.050379
0.151887
0.277195
-0.201230
-0.031940
-0.067658
-0.188412
0.125815
0.071431
-0.198625
-0.036280
-0.223449
-0.125264
-0.007697
-0.285348
0.182198
-0.034144
0.049031
0.113244
-0.251593
-0.305701
-0.146914
-0.390384
-0.167755
0.050634
0.062808
0.060952
0.043832
-0.038943
-0.000108
-0.031185
0.042927
0.019776
-0.191463
0.157633
-0.050637
0.134957
-0.013738
0.104713
0.110468
-0.111357
0.019946
0.199279
0.002730
0.093767
-0.042946
-0.190437
0.224492
0.104646
0.012224
0.093412
0.160993
0.345525
-0.171654
-0.071621
0.078725
0.460261
0.128498
0.171449
0.201083
-0.164977
-0.098259
-0.377397
-0.213112
-0.030617
0.065993
0.124223
-0.253006
0.177261
-0.009422
0.281653
-0.158694
0.131072
-0.356920
0.017950
0.179529
0.195736
-0.142552
0.278299
-0.037390
0.093839
0.104320
-0.130462
0.073792
-0.111726
-0.185339
-0.141346
-0.180153
0.083698
0.184771
0.039961
-0.020382
0.156224
0.068155
0.186145
-0.317638
0.180790
0.388819
-0.141628
0.035242
0.028379
-0.052128
-0.170526
0.096857
0.077349
0.187473
0.008441
0.222830
-0.238080
0.133404
-0.154438
0.146160
0.122638
0.111895
-0.129191
-0.236466
0.238428
-0.031699
0.018996
0.103746
0.085573
-0.049272
0.172550
0.010953
-0.013701
-0.079505
-0.099501
0.092526
0.139023
-0.188129
-0.011205
-0.055947
-0.282700
0.156052
0.074854
-0.336888
0.199572
-0.024223
-0.163678
-0.072885
0.086639
-0.104237
-0.242640
0.066792
0.248044
0.134358
-0.026080
0.046220
0.235923
-0.315868
0.115631
-0.564783
-0.181162
0.357799
0.037012
0.296280
-0.030535
-0.132027
0.007994
0.015556
-0.323843
0.118174
-0.002167
0.025191
-0.058418
0.087330
0.209665
0.235053
0.179999
-0.134819
0.011910
0.175097
-0.025736
0.190908
0.048706
-0.100238
-0.133111
0.037621
-0.041293
0.149222
0.026963
-0.086283
0.002721
-0.027871
0.004024
-0.032420
0.058989
-0.133131
0.301883
0.181740
-0.019137
0.053213
-0.001069
-0.020383
-0.090426
-0.013638
-0.105281
0.122601
0.094871
0.232315
-0.026726
0.228163
-0.028521
0.244934
0.429012
0.114258
-0.021391
-0.306262
0.090359
0.209610
-0.113623
-0.048169
-0.046304
0.129291
0.137907
0.016898
-0.096749
0.082146
-0.028517
-0.178384
-0.085756
0.066615
-0.141176
0.007587
0.137085
0.018965
0.143705
0.159994
-0.290151
-0.275402
0.082100
0.132301
-0.163018
-0.218434
-0.019102
-0.212864
-0.041795
-0.039293
-0.162363
-0.067704
0.016821
0.050361
-0.064581
-0.164623
-0.023577
0.300085
-0.177847
-0.079019
-0.229140
-0.221605
-0.006765
0.068374
-0.192659
0.042824
-0.035101
-0.103903
-0.216802
0.020860
0.140916
0.259300
-0.069295
-0.127271
0.061248
0.095257
-0.110850
0.002989
-0.265647
0.161121
0.045187
-0.031176
-0.027978
0.146533
0.167943
0.406987
-0.128248
0.537066
0.121862
-0.043830
0.058683
0.030860
0.024830
-0.152144
-0.118465
-0.186447
0.390329
0.033184
-0.175684
-0.033448
0.256453
0.097052
0.341588
-0.040545
-0.114853
0.143618
0.030095
-0.265937
-0.172453
0.136848
0.097806
-0.136144
0.095508
-0.159241
-0.098415
0.044371
-0.212934
-0.208142
-0.322057
0.116885
-0.049880
0.035294
-0.202679
-0.177753
0.211328
0.086973
0.039113
-0.125916
-0.136103
-0.345538
-0.180111
-0.319635
-0.320396
0.369680
0.002027
0.014738
-0.137275
0.266583
0.132673
0.273811
0.252191
0.111022
-0.099701
-0.157173
-0.325627
0.096564
-0.089174
0.101744
-0.024197
-0.099171
-0.150857
-0.302815
-0.268553
-0.348222
0.257047
-0.072915
-0.232382
-0.194541
0.219980
0.008562
0.061530
0.164808
-0.148846
0.234029
-0.059580
-0.061550
-0.172319
0.183984
0.001086
-0.110606
-0.077087
0.033074
0.131781
-0.118831
0.303746
-0.555465
0.082375
0.167248
0.003300
-0.326587
-0.203279
0.244199
0.068097
-0.010125
-0.243786
0.140673
0.022907
-0.034608
-0.090834
0.200710
-0.082009
0.109238
0.081556
0.025647
0.122530
-0.115760
0.047892
0.072234
-0.069559
0.036654
-0.088389
-0.194523
-0.058493
0.039412
-0.271248
0.118943
0.195513
-0.030166
-0.354724
0.151819
0.184342
-0.414410
0.028585
0.081843
-0.032786
-0.216092
-0.021470
0.300162
0.303105
-0.001273
0.084735
-0.053000
-0.023429
-0.022243
0.424861
0.235151
0.199077
0.118240
0.006161
-0.128907
-0.154353
-0.214777
0.042318
-0.073925
-0.140931
-0.187927
-0.098681
-0.010504
-0.208843
-0.104376
-0.021274
-0.076544
0.061317
-0.051901
-0.069051
-0.270996
0.126154
-0.365637
-0.119725
0.030777
0.152636
0.276222
-0.002122
-0.003311
0.023942
-0.000447
0.174380
-0.486990
0.118873
-0.000792
-0.166674
-0.093579
-0.403563
-0.052503
-0.232137
0.111537
0.005887
0.018132
0.201086
-0.000163
-0.154490
0.314701
0.102846
0.130934
-0.140057
-0.109815
0.092837
0.216582
-0.179345
0.178833
-0.417296
-0.088432
-0.157449
0.136829
-0.311876
-0.062808
0.207950
0.120128
0.020008
0.030216
0.056748
-0.039821
-0.128674
0.092660
0.004657
0.218714
0.245406
0.117374
-0.036888
0.187495
-0.271043
0.061264
0.074644
0.246225
0.053423
-0.086608
0.115782
-0.292060
0.104909
0.224604
-0.046691
0.058063
-0.120823
0.175286
-0.179153
0.003231
-0.145453
0.072419
-0.134930
-0.158988
0.041980
0.311273
0.324931
0.227787
-0.220921
-0.005574
0.020615
-0.255162
-0.014332
-0.047461
-0.018577
0.179829
-0.008220
0.244244
-0.079483
-0.077716
-0.166566
-0.122391
-0.052837
0.214782
0.166558
-0.213226
-0.221892
-0.058029
-0.026202
-0.209553
-0.032787
0.285179
-0.187916
-0.098947
0.171434
0.140749
-0.246453
0.086784
-0.142333
0.114185
0.014881
-0.061932
0.388486
-0.122591
-0.109443
-0.097494
0.062296
-0.113639
-0.056360
0.078291
0.047939
-0.018079
0.057603
-0.059049
0.117956
-0.124295
-0.019704
0.118973
0.175507
-0.220708
-0.058803
-0.146218
0.071702
0.011516
0.173844
0.218812
-0.046627
-0.246354
0.045320
-0.103430
-0.017873
-0.061951
0.186789
-0.166698
0.203361
-0.296646
0.126914
0.012092
-0.038415
-0.051496
0.127885
0.027436
-0.267368
-0.005348
-0.117285
-0.143491
0.048617
-0.180807
-0.017098
-0.562174
-0.167401
-0.101489
-0.056442
-0.156475
-0.091271
0.011721
-0.166964
-0.106815
0.311794
-0.090521
0.160476
-0.254309
-0.132287
0.082065
0.016656
0.289036
-0.047406
-0.231029
-0.053025
-0.377790
-0.200916
-0.103421
-0.286934
0.063885
-0.126644
0.038474
-0.070164
0.012518
0.388237
-0.031724
-0.028110
0.134484
-0.026430
-0.100971
-0.007815
0.073802
0.178662
0.183701
0.264234
0.186097
-0.029549
-0.253691
-0.117290
-0.134568
0.135740
-0.026282
0.100406
-0.005865
0.072085
0.146499
-0.172831
-0.039872
0.023146
-0.036815
-0.014685
-0.131202
0.445526
-0.042613
0.279481
0.079490
0.029699
-0.106458
0.063173
0.044742
0.062387
-0.098674
0.280388
0.297723
-0.065832
-0.127240
0.147303
-0.074110
-0.047401
-0.047849
-0.157337
0.142129
-0.148781
-0.041578
0.121852
-0.119285
-0.019299
-0.069885
-0.080247
-0.336081
-0.162480
-0.046208
0.036396
-0.078440
0.007190
-0.094812
-0.224664
-0.008001
0.148372
0.017098
-0.009243
0.201969
-0.026568
0.072189
-0.052943
0.065363
0.114124
0.086503
0.196818
-0.003739
-0.121112
-0.103454
-0.200160
0.205042
0.170390
-0.054721
-0.249221
0.075515
-0.123879
-0.289356
-0.216629
-0.594356
-0.313609
-0.057302
0.142022
0.230667
-0.010357
-0.071367
-0.221864
-0.044803
-0.065498
-0.052106
-0.031079
-0.057098
0.259121
-0.167646
-0.147392
-0.145754
0.197456
0.150730
0.006800
-0.116076
0.202624
0.049102
-0.058004
-0.239578
-0.226845
0.292126
-0.272675
-0.272989
-0.336301
-0.045170
-0.260608
0.025339
0.248183
0.044637
-0.285341
-0.026558
0.127083
-0.268838
0.187245
-0.134762
0.288703
0.031729
0.284886
-0.089315
0.084401
-0.038414
0.197029
0.181945
0.284556
-0.402561
-0.073159
-0.130438
-0.046993
0.146198
-0.003543
0.033013
0.084161
0.161865
-0.333528
-0.071209
-0.359320
0.146510
-0.127649
0.072073
0.062869
-0.029080
0.113837
-0.015645
-0.059302
-0.214002
-0.270606
-0.084261
0.022840
-0.192963
-0.032691
-0.113493
-0.121954
0.086058
-0.191931
-0.560968
-0.085936
-0.257693
-0.005179
-0.123397
0.304702
-0.139968
-0.253291
-0.509967
-0.165028
-0.087196
-0.179049
-0.110984
0.141275
0.102867
0.117646
0.124437
0.261088
-0.080987
-0.230850
-0.417278
-0.136019
0.060158
0.166848
0.075715
-0.059253
-0.151312
-0.112950
-0.081787
-0.250688
-0.064408
0.000137
0.157709
-0.377440
-0.098221
-0.049868
-0.100255
-0.127050
-0.113843
-0.049471
-0.134000
0.185951
-0.075866
-0.218501
0.120596
-0.108455
0.156057
0.138616
0.021287
-0.166032
0.035813
-0.021455
-0.153145
-0.034661
-0.033161
-0.155142
0.228523
-0.353324
0.059246
0.153189
0.029903
0.171981
0.060506
0.011467
0.168259
-0.140262
-0.134174
-0.356832
0.045785
-0.078480
0.478254
0.208176
0.116108
0.130734
0.146372
-0.089306
0.194743
0.153139
-0.034262
0.013827
-0.093343
0.023998
0.107805
-0.088328
-0.015644
0.058010
0.219922
0.101073
0.113262
0.092284
-0.143399
0.124637
0.142358
0.115556
-0.173251
-0.175315
0.293318
-0.135756
0.155521
-0.198670
0.013790
-0.335108
-0.287840
0.187943
0.295360
-0.095061
-0.103451
-0.331241
0.116969
0.086551
0.072522
-0.122835
0.022412
0.074232
-0.076633
0.084235
-0.166700
-0.063692
0.232777
-0.086153
0.014431
-0.495535
0.013692
0.031838
-0.380585
-0.238401
-0.040160
0.044927
-0.162473
-0.278519
-0.131367
0.067082
-0.175419
-0.009683
-0.022169
-0.192325
-0.107355
0.001572
0.049327
0.270314
-0.097501
0.270670
-0.216370
-0.203338
0.009981
-0.136545
-0.224720
-0.277621
0.042378
0.137047
-0.053165
0.140969
0.022867
0.039367
-0.050083
0.261424
-0.068168
0.062524
0.083032
0.146639
0.021704
-0.002235
-0.178654
-0.004238
0.254654
0.128620
0.021643
0.115777
-0.051533
-0.219988
0.193494
0.245137
0.189046
-0.004970
0.032101
-0.240056
0.106971
0.210503
-0.054730
0.142442
0.093820
0.096902
0.043649
-0.258616
0.158558
0.017680
-0.101990
-0.051274
-0.210435
-0.371798
-0.101988
0.071388
-0.194018
-0.054641
-0.151527
-0.233564
0.108139
0.174941
0.021340
0.044497
0.135880
0.019880
0.218162
-0.030182
-0.110033
0.041572
0.449412
-0.068999
0.270899
0.131821
0.220735
-0.409779
0.007620
-0.036899
-0.177538
0.017090
-0.175569
0.178407
-0.023661
0.102917
-0.052502
0.066246
-0.086546
0.119403
0.361806
-0.076163
0.069992
-0.061736
0.099191
-0.504967
0.063185
0.000562
0.184350
0.052624
-0.147312
0.054701
-0.055036
0.228404
-0.167288
-0.081934
-0.255719
0.053570
0.016266
-0.007909
-0.047839
-0.148453
-0.167253
0.415198
-0.028738
-0.050941
0.068670
0.106857
-0.571118
-0.206226
-0.130178
0.083275
0.072001
-0.876536
-0.295549
-0.016640
-0.007872
-0.182226
-0.050166
-0.269980
0.012195
0.053307
-0.274385
0.152530
0.119943
0.156392
0.034885
0.265859
-0.082844
-0.063961
-0.129441
-0.576248
0.027024
-0.046999
-0.176747
0.338421
0.284545
0.173654
-0.236177
0.026235
-0.071129
-0.016334
-0.129657
-0.030052
0.453697
0.075771
0.052888
0.180302
-0.055311
-0.456745
-0.190329
0.122993
0.099358
-0.147961
0.199895
-0.089829
0.057565
-0.082557
-0.115806
0.164499
-0.010415
-0.074080
0.058144
0.011113
-0.095458
0.079423
-0.077674
-0.075674
0.293208
-0.165234
-0.170243
0.052168
-0.346001
-0.235385
0.010350
-0.024054
0.098907
-0.028627
0.107849
0.012695
-0.350233
0.045690
0.055748
0.070330
0.154227
0.028330
-0.083003
-0.018958
0.302886
0.171786
-0.122368
0.164707
-0.238848
-0.082346
-0.133938
-0.510107
0.131777
0.260122
-0.476134
0.229858
-0.119751
0.174049
-0.206675
0.201440
-0.168595
0.119306
-0.174242
0.180179
0.288238
-0.065300
-0.019713
-0.099688
0.010873
-0.312498
-0.160572
-0.001969
0.442976
0.210694
-0.097481
0.047250
-0.031930
0.092485
-0.086900
-0.159183
-0.151731
0.018923
-0.123422
-0.401617
-0.107243
-0.064013
-0.036569
0.195123
0.167471
-0.140827
-0.056037
0.005369
-0.053368
0.054612
0.010845
0.309112
0.207844
-0.083628
-0.346795
0.091220
-0.127181
0.137301
-0.234779
-0.114278
-0.279989
0.257365
0.182394
0.083332
-0.137040
0.201330
-0.015867
-0.178988
0.177491
-0.277303
0.006097
-0.328394
-0.028303
0.289694
-0.353415
-0.019539
-0.024437
0.194228
-0.123181
0.195820
0.010853
-0.298281
-0.082655
-0.073270
0.291559
0.030969
0.111509
-0.138567
0.140037
0.089338
-0.125949
0.040669
0.235648
0.149343
-0.152081
-0.175756
-0.044682
0.110743
-0.062583
0.095595
-0.039985
-0.084062
0.077168
0.103207
0.151007
0.009867
0.441306
-0.102288
0.038916
-0.104846
-0.422325
-0.236676
0.208971
0.059988
-0.064096
-0.203082
0.035176
-0.110932
-0.111257
-0.054540
0.004128
0.048682
0.018924
0.159545
0.186792
0.098182
0.074485
-0.329156
-0.065391
0.054583
0.105108
-0.038676
-0.167101
-0.242913
-0.134881
-0.011270
-0.427264
-0.196171
0.177284
0.025070
-0.110936
0.136392
0.045099
-0.041027
-0.021652
0.130145
-0.214987
-0.023601
-0.315934
-0.162073
0.084993
0.125526
-0.105395
-0.100466
-0.113751
-0.154865
-0.440015
-0.033469
0.058199
-0.094112
0.017929
0.196425
0.342184
-0.050342
0.081946
0.216260
-0.030648
0.131745
0.086889
-0.093835
0.007634
-0.044872
0.367438
0.098717
0.223119
0.028039
0.289122
-0.026985
0.098666
-0.192087
-0.012795
-0.035094
0.077200
-0.076531
-0.067304
0.118418
0.042060
0.273535
0.330163
0.072414
-0.044982
-0.084969
0.281688
-0.318201
0.092643
-0.143770
-0.216813
-0.072466
0.005088
0.252517
0.012749
0.112760
0.208862
0.044212
-0.144670
0.050070
-0.095180
0.001218
0.154011
-0.001837
-0.013504
0.027847
-0.142689
-0.000400
0.178544
0.082829
-0.085845
0.097857
0.117036
0.123878
-0.202438
0.019392
0.178301
-0.210619
0.027448
0.117479
-0.112955
-0.056108
-0.165854
-0.120012
-0.033323
-0.407693
0.237058
0.189126
-0.092886
0.226659
-0.058557
0.193125
-0.174720
0.137379
0.208030
0.167333
-0.184137
0.172338
0.330768
-0.062904
-0.100291
-0.287824
0.024486
-0.294930
-0.145508
0.032994
0.436059
0.218416
0.254463
0.205668
-0.194848
-0.064385
0.114740
-0.171465
0.168204
-0.104750
0.018403
-0.113646
-0.351512
0.441803
-0.499117
0.161143
-0.022015
0.296978
0.049312
0.214740
0.149978
0.034245
-0.187570
0.009207
0.222429
-0.116964
0.079929
0.233398
0.029200
0.233696
-0.246167
-0.292939
0.031205
-0.016417
-0.024533
-0.127202
0.128362
-0.044672
-0.226974
0.033163
-0.045012
-0.027903
-0.187202
-0.042364
0.267381
0.090055
-0.123237
-0.328717
0.278454
0.183029
-0.309440
0.001570
0.018874
0.124998
-0.146114
-0.108388
0.095976
0.252393
-0.007948
-0.045882
-0.123639
-0.030351
-0.003379
0.369955
0.097607
0.281763
0.132094
-0.181527
-0.027033
0.005339
-0.249122
0.105418
-0.271538
-0.129398
-0.152253
0.126344
-0.029813
-0.150676
0.083846
-0.006329
0.029115
-0.253758
-0.244749
-0.123369
-0.114530
0.166269
-0.518304
-0.117152
-0.010027
0.076480
0.094836
-0.094184
-0.166969
0.026574
0.061641
0.129916
-0.531235
0.124839
-0.093881
-0.070526
0.097839
-0.089924
-0.095687
0.032241
0.065036
0.027074
0.049616
0.280815
-0.007606
-0.199270
0.264837
-0.062359
-0.103425
-0.105937
-0.203111
-0.267145
-0.146969
-0.104002
0.034455
-0.148978
-0.440679
-0.112382
0.330841
0.002380
0.069729
0.230600
0.097221
-0.119545
-0.133620
0.108787
-0.161269
-0.114320
0.266288
0.215566
0.170587
0.070347
-0.022254
-0.162565
-0.088214
-0.280519
0.056635
-0.129995
0.150541
0.029388
-0.045881
-0.024699
-0.401625
-0.046598
0.156804
-0.045094
0.186557
-0.042935
0.207138
-0.153433
-0.184163
0.029245
0.096106
-0.093317
0.023343
0.100196
0.286086
0.142268
0.209994
-0.310682
-0.040954
-0.017414
-0.065403
0.162653
-0.079549
-0.120822
0.205581
-0.048459
0.277061
-0.083137
-0.022280
0.023713
0.221480
-0.217292
0.007534
0.061927
-0.104104
-0.107228
-0.042856
0.047615
-0.053541
0.121365
0.036045
-0.263476
-0.043782
0.173128
-0.017179
0.273339
0.214360
-0.093615
0.038086
0.079120
-0.041712
0.355859
-0.047137
-0.014760
-0.118056
0.119115
0.150238
-0.039829
0.211947
-0.071471
-0.014735
0.194604
-0.049649
-0.031436
-0.097794
-0.046901
0.022678
0.335856
-0.191685
-0.066154
-0.116795
0.165935
0.021287
0.156716
0.058956
0.044407
-0.034901
0.019302
-0.198791
0.028236
-0.044267
0.179013
0.043412
0.050586
-0.280013
0.005935
-0.107594
0.009387
0.034556
0.094573
0.048546
0.043209
0.041421
-0.061866
-0.182931
0.198301
-0.113946
0.086222
-0.508448
-0.123424
-0.276002
0.002212
0.059773
-0.094689
-0.019930
-0.021111
-0.024847
0.315008
-0.170662
0.167081
-0.146609
-0.317879
0.135093
-0.077969
0.095424
0.044238
0.110297
0.055966
-0.277669
-0.015733
-0.262115
0.116589
0.210344
0.102961
-0.038160
-0.248190
0.197087
0.336940
-0.102724
0.039197
0.106094
0.027023
-0.189567
-0.020572
-0.079968
0.299364
0.166331
0.136651
-0.072136
0.041380
0.048849
-0.132219
0.071499
0.149592
0.207465
-0.031164
-0.299229
0.098552
0.203104
0.002117
0.075422
-0.126176
-0.246031
-0.125207
-0.137569
0.292882
-0.576892
-0.073811
0.167785
-0.030217
-0.196714
-0.055919
0.157709
-0.129956
-0.066616
0.059634
0.211223
-0.087726
-0.009460
0.007915
-0.410139
0.102643
-0.023388
-0.264301
-0.097559
-0.286168
0.133693
0.023001
-0.033682
-0.050635
0.208319
0.006793
-0.134648
-0.077289
-0.144896
0.178195
0.155074
-0.073154
0.049230
-0.246562
0.032925
-0.008177
0.172716
-0.076498
0.323483
-0.257906
0.031675
-0.164343
-0.187693
0.094235
-0.005442
0.070683
-0.068491
0.017119
0.077094
-0.158991
0.052717
0.110014
0.045409
-0.062758
0.305531
0.067719
-0.293079
-0.031615
-0.520206
-0.106624
-0.115764
0.132054
0.328154
0.054205
0.059457
-0.141539
0.291211
-0.371397
-0.129215
0.096689
0.223254
0.087240
-0.073088
0.000736
0.081798
0.040030
0.063426
-0.187758
-0.193581
0.507724
0.021395
-0.010880
-0.023471
-0.398995
0.065100
-0.214351
0.237883
0.119922
-0.189770
0.202384
-0.091766
0.518503
0.029080
0.138447
-0.137808
0.053136
0.167749
0.114388
0.003917
0.236346
0.048201
-0.545498
-0.130336
0.092951
-0.097992
-0.311875
-0.031717
0.145150
0.185197
0.469776
0.058330
-0.101147
-0.036083
0.333671
0.123766
0.147049
0.188609
-0.334170
0.189259
-0.461241
0.241185
-0.140324
0.117703
-0.016387
0.128654
0.210993
-0.124159
-0.046905
-0.036151
-0.166649
-0.171528
0.116196
-0.156669
-0.054362
-0.189639
0.129627
0.175720
-0.010485
-0.521649
-0.046485
-0.023383
-0.149164
-0.111183
0.132665
-0.127422
-0.099464
-0.295273
-0.283128
0.018546
-0.114440
-0.254337
0.064300
0.045599
0.044252
0.156561
0.419241
-0.059618
0.081195
-0.322043
0.071373
0.003332
0.236108
-0.297387
0.170945
0.071677
-0.025055
0.085071
-0.117178
0.026426
-0.017278
-0.026569
-0.155326
-0.211370
0.091699
0.240720
-0.119401
-0.119057
-0.165703
-0.203872
0.188931
0.005525
-0.016338
0.070633
-0.115592
0.241001
0.032550
0.218345
-0.152734
0.327115
0.040887
-0.016306
0.169137
0.084468
-0.195804
0.327644
-0.256392
-0.033713
-0.376324
-0.175657
-0.159245
-0.005999
-0.105377
0.184326
-0.121665
0.237683
0.130723
-0.388130
-0.183316
-0.062871
-0.142664
0.014489
-0.029985
-0.452046
0.176241
0.327045
0.109249
-0.046527
0.091678
-0.178216
-0.042238
-0.034906
0.139838
0.050947
-0.601921
0.115230
0.131521
-0.300181
0.243666
-0.092030
-0.326191
0.099261
0.090004
-0.314551
0.039097
-0.186030
-0.034178
0.032293
0.060297
0.418838
-0.336771
0.039516
0.255421
0.268919
0.088427
-0.056144
-0.054611
0.031923
0.232862
-0.348802
-0.195864
-0.016676
-0.145514
-0.246150
0.012642
-0.129532
-0.033462
-0.006682
0.071675
0.007671
-0.257104
0.063181
-0.035510
-0.431935
-0.274668
0.053447
-0.017641
-0.039247
-0.277866
-0.029188
-0.136367
0.060987
-0.009184
-0.080445
-0.120990
0.019843
0.261394
-0.024732
0.049229
-0.187533
0.291442
-0.222745
-0.026629
0.070521
-0.104129
-0.166001
0.094580
0.083583
0.092807
-0.129629
0.016603
0.056943
-0.136306
0.175799
-0.510014
0.000637
-0.044217
0.023195
-0.380816
-0.123839
-0.122534
0.282286
0.058511
0.134147
0.155570
0.020310
0.105403
-0.073987
0.104484
-0.458112
0.139487
0.472335
-0.017102
-0.024166
0.375658
-0.053554
0.002258
-0.148013
-0.084638
0.183216
0.022592
0.101212
0.110807
-0.361266
0.134536
-0.068867
-0.029150
0.172344
-0.160887
-0.012770
0.240409
-0.063035
-0.074215
-0.035608
-0.068572
0.268338
0.004144
-0.101948
-0.010924
0.004944
-0.059771
0.068128
-0.173317
0.148697
0.140077
0.247244
0.209411
0.206367
-0.004769
0.233258
0.007199
-0.159126
-0.021698
-0.175390
-0.014528
0.006040
0.272172
-0.048999
-0.053280
-0.074657
-0.063824
-0.232496
-0.021883
0.189499
-0.018376
0.237560
0.119284
-0.375306
-0.689665
0.141255
0.040393
0.186994
-0.134656
-0.105418
0.057583
-0.090105
0.518581
-0.100959
-0.026850
-0.303807
-0.060200
-0.006203
-0.041449
0.037964
-0.078957
-0.186885
0.253207
-0.099224
-0.066272
-0.026922
-0.007000
-0.368693
-0.318776
-0.050111
-0.051838
0.178122
-0.676691
-0.174093
0.105043
0.072098
-0.097127
-0.080451
-0.262165
0.040939
0.046485
0.048266
0.034737
-0.186828
0.317016
-0.077063
0.137191
0.102859
-0.021395
-0.159781
0.247899
0.071675
-0.039711
-0.086071
0.044823
0.032150
0.340849
-0.038205
-0.216296
0.001172
-0.019663
-0.264924
-0.346104
-0.170523
-0.096251
0.329754
0.000157
-0.013224
-0.528174
-0.061425
-0.140491
0.066189
-0.473299
-0.159146
-0.133728
0.201271
-0.046269
-0.012124
0.261033
-0.116955
0.284355
-0.073584
0.023223
0.053298
-0.062902
0.039199
0.180548
0.215153
-0.134943
0.016204
-0.110104
-0.169703
-0.142182
0.011413
-0.034249
0.047379
-0.198971
-0.385458
0.209535
0.126608
0.065683
-0.044372
0.121700
-0.016064
0.002866
-0.455769
0.033943
0.124698
0.213746
-0.128203
0.181990
-0.325691
-0.089993
-0.175638
0.070053
0.179455
0.283350
-0.317460
0.208451
-0.038731
0.094077
-0.033137
-0.416559
0.108558
0.246333
-0.249312
-0.358469
0.104755
-0.059524
0.003809
0.139862
0.089600
-0.284533
0.101245
0.105287
0.115216
0.019863
0.126955
0.278883
-0.133137
-0.018480
-0.099461
-0.260395
-0.115289
0.083228
-0.473706
-0.355527
0.106240
0.118148
0.052618
0.009505
-0.000337
0.267839
-0.120605
-0.245542
-0.042383
-0.107115
-0.029230
-0.243654
0.116418
0.022543
0.057527
0.226672
0.205484
0.147104
-0.042398
-0.040739
0.064790
-0.032422
0.046856
-0.338865
0.144809
0.292627
-0.159941
0.142137
-0.037929
-0.071554
-0.038572
-0.202175
0.022322
-0.002234
-0.327096
-0.024228
0.011239
0.154610
-0.140807
-0.166197
-0.173418
-0.036898
-0.301840
-0.241513
0.227058
0.031954
0.095327
0.102557
-0.161091
0.098429
-0.064062
0.406055
0.277890
-0.162138
-0.162055
0.011541
0.135540
0.172804
-0.273521
0.005016
-0.197398
0.108825
0.040258
0.243487
0.072020
-0.024920
0.321091
0.093056
-0.042650
-0.344305
-0.698144
-0.287048
0.096345
0.061131
-0.337622
-0.163245
-0.209578
-0.155370
-0.317988
0.058670
-0.092032
-0.080104
-0.117919
0.011350
-0.100480
0.033488
-0.026564
0.030977
-0.283386
-0.009840
0.059542
0.047352
-0.228718
-0.035887
-0.160237
-0.137378
-0.316977
-0.297217
-0.087154
0.165389
-0.083868
0.017832
-0.002603
0.066791
-0.054579
0.118880
-0.239048
-0.071958
-0.349539
-0.101084
-0.003596
0.110581
-0.077385
0.163763
-0.132201
-0.320839
-0.375733
-0.026586
-0.137154
-0.139466
0.074578
0.162380
0.290857
-0.139369
-0.105040
0.077273
0.022496
0.251948
0.209770
-0.135279
0.185958
0.122203
0.236947
0.001600
0.306668
0.016921
0.409646
-0.078495
0.211102
0.020838
-0.085304
-0.016695
-0.007955
-0.150883
0.005560
0.085317
0.074356
0.214602
0.204914
0.155377
0.132929
-0.032946
0.131595
-0.035717
0.145664
0.002430
-0.121279
-0.046217
-0.013935
0.042447
0.235233
-0.010164
-0.123586
-0.040404
0.109149
-0.257493
-0.055082
-0.027905
0.017144
-0.068478
0.007299
-0.084010
-0.068144
-0.035051
0.002635
-0.029141
-0.127726
0.295415
-0.020387
-0.121496
-0.330307
-0.212035
-0.356619
-0.431420
0.154617
0.003604
-0.147743
0.187230
-0.349735
-0.068477
-0.013337
-0.373573
0.096879
0.012799
-0.312052
0.184927
0.204868
0.279777
-0.234523
-0.068186
0.001362
0.277232
-0.085005
0.143542
0.334046
0.074487
-0.206756
0.169208
-0.038712
-0.426303
0.054684
0.081994
0.449450
0.106246
0.314881
-0.168638
-0.185520
0.058752
0.033335
0.092407
0.136279
0.029303
-0.157659
-0.170145
-0.212316
0.177500
-0.619568
0.005555
-0.037683
0.096949
-0.093655
-0.155209
0.062160
0.002471
0.006803
-0.250988
-0.097263
-0.244106
0.083347
0.120829
-0.167924
0.183132
0.229028
0.155372
-0.132911
0.049941
-0.080508
-0.131893
0.216357
0.022759
-0.203177
0.211609
-0.082296
0.146659
-0.377510
0.051348
0.344645
-0.053739
0.262734
-0.229642
0.201001
0.307484
-0.170188
0.057436
0.257450
0.184372
-0.174952
-0.003999
0.072466
0.321224
0.117454
-0.164917
0.181813
-0.033928
-0.033314
0.397081
-0.103450
0.200894
-0.045588
0.021657
0.066026
0.050911
-0.246398
0.139189
-0.297689
0.026333
-0.243629
0.123553
0.042294
-0.072247
0.032457
0.053008
0.034438
-0.244693
-0.214543
-0.050203
0.007824
0.151360
-0.610021
0.036562
0.078811
0.256165
0.051813
-0.054157
-0.202174
0.054380
-0.074410
-0.155604
-0.656625
-0.044812
-0.285569
0.061689
-0.059015
-0.091147
0.047751
0.091373
0.134195
-0.109582
0.153898
0.010121
-0.174303
-0.135827
-0.027179
0.191563
0.166514
-0.128179
0.013531
0.256594
-0.067257
-0.069231
0.212936
0.112959
-0.224754
-0.019008
0.125671
0.104642
-0.022012
0.187507
-0.251290
-0.074195
-0.263912
0.034150
-0.144474
0.096354
0.020944
0.146225
0.122539
0.085663
-0.201744
-0.209881
-0.079224
-0.280745
0.191776
-0.082648
0.192907
0.154748
0.150848
0.129763
-0.507998
0.087325
0.020723
-0.027874
0.151602
-0.063216
0.265719
-0.072809
-0.111516
0.068039
0.014470
0.151685
-0.136655
-0.097339
0.173459
-0.653404
-0.030114
-0.269526
-0.142567
-0.117700
-0.138825
0.005156
-0.090832
0.459594
0.138498
-0.059121
0.250668
0.147012
-0.069780
0.219347
0.167772
-0.016204
0.001808
-0.036812
0.178192
-0.244534
-0.178472
0.083587
-0.114462
0.094205
-0.221611
0.062466
-0.146161
0.124701
0.030184
0.308530
0.129898
-0.079285
0.294589
0.250549
-0.164019
0.402015
-0.033965
-0.055385
-0.107580
0.061695
0.139534
-0.006941
0.116272
0.180844
0.075455
0.280929
0.116328
-0.162083
-0.106696
0.021048
-0.175645
0.210381
-0.172842
-0.018789
0.063403
0.141383
-0.045066
0.042316
-0.110874
-0.122954
-0.060595
-0.086469
-0.202204
0.064004
-0.062631
-0.041379
0.008714
0.070816
-0.220009
-0.002120
-0.059070
0.087120
-0.083220
0.145427
-0.119964
0.111251
-0.110223
-0.051644
-0.154769
0.132791
-0.125809
0.013453
-0.065931
-0.017393
-0.233073
-0.066654
0.055617
-0.218975
0.083430
0.184221
0.053903
0.153092
0.024405
-0.014470
-0.153891
-0.337778
-0.065610
-0.062494
0.248800
0.085416
0.462325
0.233997
-0.158606
0.010597
0.081323
0.292451
0.161654
0.246386
-0.038919
-0.316496
0.093429
-0.093859
-0.005001
-0.101827
0.247558
0.009178
-0.351849
-0.090678
-0.175520
0.266970
0.069482
0.073125
-0.102168
0.081335
0.102551
0.027955
0.094237
0.238630
0.324428
0.019803
-0.067309
0.007776
0.082832
-0.252075
0.195724
-0.061205
-0.260056
-0.106606
-0.101346
0.309728
-0.420174
0.113156
0.208702
0.032352
0.032016
-0.111188
0.177475
-0.006937
-0.094797
-0.415074
0.186929
-0.082020
0.113404
-0.199355
-0.291705
0.148668
0.023379
0.028058
0.047630
-0.185980
0.029566
0.157494
0.115376
0.062200
0.392173
0.148892
-0.120516
-0.184238
-0.118846
-0.067918
0.091589
0.075075
0.107167
-0.070021
0.107033
-0.257913
0.234623
0.103203
0.314886
-0.260524
-0.097627
0.072906
-0.112893
0.062535
-0.229383
0.017742
-0.199500
0.171515
-0.027429
-0.020407
-0.020861
0.173627
-0.421501
0.001632
0.264121
0.186802
0.072187
0.169982
-0.325881
-0.094419
-0.100112
-0.135756
0.299761
0.146405
0.052999
0.018072
0.301909
-0.374774
0.033095
-0.024616
0.056605
-0.123086
-0.045631
0.154049
0.330219
-0.015380
-0.131097
0.087042
-0.075109
0.354989
-0.102235
-0.042985
-0.165372
-0.535734
-0.354116
0.059404
-0.094387
-0.071280
-0.030120
0.254201
0.018216
0.342614
0.020934
0.219631
-0.138330
-0.326009
0.142294
-0.126751
0.225094
-0.154955
-0.100467
0.217600
-0.194946
-0.162423
-0.039394
-0.024216
-0.070162
0.106952
-0.261410
-0.026011
0.074986
0.077025
0.013717
-0.047290
-0.168438
0.023610
-0.135966
-0.049681
-0.098386
-0.432645
0.211838
0.052805
0.082713
-0.200933
-0.083436
0.087400
-0.202859
0.031150
-0.061700
-0.100180
-0.054943
0.059169
-0.029797
0.005334
-0.023590
0.123246
0.195505
-0.029261
-0.407674
-0.078981
-0.057673
-0.122031
0.044211
0.154418
-0.098274
0.022371
-0.573241
-0.253519
0.276352
-0.294634
-0.166777
-0.022695
0.285784
-0.129242
0.141900
0.172278
-0.307289
0.217871
-0.368398
0.088503
0.031018
0.291595
-0.260521
0.200997
0.235056
0.058455
0.239782
0.103887
0.081329
0.064315
-0.203590
-0.163957
0.075053
0.014711
0.113309
-0.021596
0.268907
-0.024376
-0.223019
0.294133
0.098054
0.483268
-0.136838
0.273414
-0.131028
-0.250792
0.300158
0.047701
0.082116
-0.036572
0.119344
-0.154243
-0.043851
-0.155541
0.050437
0.040581
-0.042636
0.175220
-0.300177
-0.076434
-0.111496
0.063461
-0.075012
-0.190398
0.226634
-0.084403
-0.023628
-0.170526
-0.218729
-0.240382
0.019606
-0.120057
-0.734516
0.258221
0.052852
0.175410
-0.009545
0.216983
-0.139991
0.063821
-0.036933
0.244113
0.294151
-0.373005
0.036372
0.023447
-0.211991
0.094647
-0.108905
0.204266
-0.039583
0.005780
-0.479385
-0.002270
-0.458965
0.111111
0.018202
0.131154
0.141562
-0.384998
-0.175906
-0.320996
0.028106
0.072186
0.055883
0.010113
0.208940
0.102660
-0.461556
-0.071014
-0.016323
-0.260590
-0.287973
-0.071040
0.042396
0.045181
0.017993
-0.035892
-0.085380
0.087696
-0.041848
0.051432
-0.148984
-0.213259
0.120419
-0.125294
-0.087329
-0.445256
0.057974
-0.072847
0.284053
0.102379
-0.074991
0.029978
0.108292
0.034281
0.178370
-0.021853
-0.345884
-0.014864
0.082967
-0.060645
0.031336
-0.097627
0.289739
0.140933
0.062883
-0.209276
-0.041822
-0.092397
0.165974
-0.075709
0.105902
0.253750
0.118056
-0.017616
0.018898
0.085248
-0.023311
-0.064684
-0.245484
-0.150112
-0.317707
0.163785
-0.115877
0.038720
-0.116240
0.352018
-0.539328
0.280601
-0.265956
0.059672
0.088433
-0.093595
0.085129
-0.277765
-0.234778
-0.047321
0.239702
0.117270
-0.184589
-0.034877
-0.301957
0.040771
0.029277
-0.080475
0.235903
-0.070953
-0.165868
-0.219889
-0.203403
0.017497
0.189622
0.060335
0.140614
-0.194913
0.247964
-0.142058
-0.059260
0.130867
-0.214573
0.148720
0.206608
0.111308
-0.216937
0.194827
0.215863
0.014027
0.028238
0.146572
-0.111229
0.134083
0.263204
-0.199382
0.256515
0.061146
-0.160969
-0.010873
-0.004295
0.150289
-0.215172
-0.056235
-0.003376
0.044478
0.045620
0.031378
-0.121366
-0.624365
-0.331841
-0.025418
-0.022400
-0.135614
0.036644
0.045685
-0.053555
0.412918
-0.251797
-0.170285
-0.227020
-0.131484
-0.195173
-0.185205
0.004849
0.155830
-0.381262
0.197434
-0.053851
-0.150027
0.021032
-0.059621
0.128516
-0.095404
0.041288
-0.131501
0.101594
-0.571782
-0.142326
0.159480
-0.077547
-0.042808
0.021194
-0.105723
0.007208
-0.174360
0.397905
-0.051027
-0.090966
0.024551
-0.028290
0.034169
0.026610
-0.017541
-0.369268
0.305687
-0.027815
-0.069380
0.060568
-0.154600
-0.108695
0.118021
0.103489
0.134210
0.055791
0.042502
-0.106127
0.298961
-0.192451
0.045965
-0.350335
-0.275888
0.024114
-0.132654
0.075555
0.101174
-0.026752
-0.271301
-0.327332
0.095320
0.029386
0.172284
0.023616
0.130113
-0.213189
0.397125
-0.229170
-0.042857
0.038298
0.059092
0.027457
0.237869
-0.141763
-0.092756
0.051029
0.039151
0.154724
-0.248772
0.032362
0.001241
-0.040871
0.023097
-0.238164
0.276089
0.356433
0.100634
-0.019942
-0.072877
-0.020675
0.339674
-0.053837
0.324493
-0.166419
-0.013812
0.121571
-0.126960
-0.072830
-0.231619
-0.125140
0.033553
0.157053
-0.255147
0.056724
0.022292
0.130957
0.054107
-0.124519
0.077366
0.267277
0.221771
-0.171538
0.060333
-0.005868
0.025140
0.047908
-0.229756
-0.182942
-0.169891
0.065543
0.008061
0.004690
0.230730
0.029923
0.174013
0.302073
-0.093639
0.071453
0.089142
-0.075579
-0.035818
-0.225040
0.293770
0.297521
-0.201653
0.056333
-0.234940
-0.228151
0.329801
-0.111644
0.069936
0.192549
-0.156068
-0.093812
-0.232497
-0.208777
-0.059808
0.287317
-0.211151
0.190260
0.264904
0.151501
0.229409
0.201461
-0.196164
-0.110387
-0.355427
0.051933
0.232455
-0.142379
0.117775
0.143627
0.193617
0.151774
0.101654
-0.075022
0.048207
-0.003340
-0.057249
0.134250
0.157832
-0.222137
-0.142428
-0.025687
0.100142
-0.252375
-0.074434
0.173386
0.043719
-0.059399
-0.128099
-0.209877
-0.067743
-0.199670
0.100035
0.198143
-0.017460
0.259146
0.195657
-0.183417
-0.018592
-0.118954
0.103553
0.084080
0.074038
0.093077
-0.067609
0.111532
-0.097183
0.362791
0.144905
0.212608
0.001764
-0.529061
0.019848
-0.154984
-0.073659
-0.034899
0.177330
0.118738
-0.004278
0.081215
-0.078767
0.074360
0.173733
-0.269405
0.128414
0.016994
0.115457
-0.011062
0.219414
-0.297951
-0.196953
0.272383
-0.155277
-0.237216
0.075730
-0.161094
-0.106731
-0.376085
0.073693
0.098715
0.221723
-0.068188
0.007325
-0.038538
-0.047325
0.049885
-0.132917
-0.446465
-0.202413
0.038547
-0.214059
0.009807
-0.076401
-0.183527
0.156237
-0.027126
-0.267640
-0.375066
-0.010518
-0.140741
-0.080860
0.058558
0.223410
0.124825
0.013001
0.027202
0.132443
-0.019849
0.066600
0.139707
-0.249205
0.253646
0.010911
0.105276
-0.154563
0.287701
0.022949
0.342462
-0.176949
0.279067
0.177117
-0.200925
0.140821
-0.002912
0.031298
-0.163023
0.027108
-0.118087
-0.001786
0.052582
0.192608
-0.075475
0.092743
0.086801
0.136344
-0.030921
-0.238058
0.087544
-0.040697
-0.054732
0.037157
0.449982
0.133022
-0.085549
0.021843
0.216322
-0.291725
0.001737
-0.071954
0.079115
-0.054820
0.063526
0.009834
-0.019294
-0.295124
-0.156328
0.015355
0.088549
0.266748
-0.025092
-0.064595
-0.176265
-0.358350
-0.481326
-0.226807
-0.006288
0.131557
0.000843
0.176799
-0.279407
0.119579
0.147027
-0.149378
0.078214
0.171606
0.022007
0.165337
0.317821
0.193017
-0.327850
-0.028258
-0.008648
0.225879
-0.280257
-0.269967
0.228162
-0.018033
-0.065543
0.145122
-0.037520
-0.246608
-0.076554
-0.100783
0.243161
0.018096
0.139790
-0.132637
-0.071206
-0.056638
0.177142
-0.135395
0.027455
0.072347
-0.174419
0.061983
-0.213738
0.189267
-0.516908
0.022354
0.125756
0.165273
-0.154953
-0.235372
0.275721
0.198656
-0.007156
-0.405618
0.155082
-0.116417
-0.121821
-0.053418
0.054190
0.256924
0.018541
0.053816
0.004864
