# Shape: (128,)
0.001018
0.000736
-0.000216
0.000815
0.000538
0.000478
-0.000184
0.000050
0.000409
-0.001051
0.000832
0.000043
0.000065
-0.001125
0.000714
-0.000358
0.000376
0.000356
0.000413
-0.000951
-0.000843
0.001886
0.000419
0.000323
-0.000327
-0.000495
-0.000197
-0.000177
-0.000695
-0.000668
-0.000752
0.000045
0.000420
0.000607
-0.000323
-0.000313
-0.000033
0.000452
-0.000326
-0.000129
0.000596
0.000621
-0.000439
0.000145
-0.000554
-0.000410
-0.000871
-0.000256
-0.000066
-0.000709
-0.000281
-0.000578
0.000877
-0.000219
0.001104
0.000179
-0.000464
0.000590
-0.000452
0.000713
-0.000380
0.000449
0.000256
-0.001068
0.001010
-0.000326
-0.000146
0.000255
-0.000315
-0.000000
0.001312
-0.000177
0.000347
-0.000407
-0.001271
0.000146
0.000406
0.000016
0.000140
-0.000064
-0.000487
0.000021
-0.000121
-0.001622
-0.000173
0.000011
-0.000054
-0.000516
-0.000248
-0.000145
-0.000978
-0.000637
0.000054
-0.000166
0.000210
0.000755
0.000116
0.000326
-0.000305
0.000852
0.001206
0.000128
0.000754
0.000383
0.000769
-0.000208
-0.000412
-0.000279
-0.000190
0.000128
-0.001100
-0.000389
0.000936
0.000011
0.001483
-0.001290
-0.000469
-0.000881
0.000405
-0.000793
0.001290
0.000286
-0.000393
-0.000581
-0.000311
-0.000282
0.001002
0.000166
