# Shape: (3, 3, 128, 128)
0.113060
0.130999
0.258348
-0.330769
-0.104881
-0.166070
0.078228
0.045217
-0.075551
0.005595
0.032407
0.050239
-0.184619
0.377790
-0.078658
0.128406
-0.061152
-0.166041
-0.099275
-0.088404
0.159572
0.041255
-0.172945
0.354567
-0.106178
0.124694
-0.198434
0.179425
0.200762
0.176959
-0.273445
0.097865
-0.061977
-0.015767
0.296077
0.031783
0.082263
0.268158
0.262981
0.288705
-0.089894
0.039886
-0.114589
0.188826
-0.068775
0.124440
0.034959
0.136496
0.334699
0.153127
0.238992
0.354338
0.075215
0.446495
-0.187047
-0.000454
-0.201913
-0.105857
0.294374
0.198101
0.308830
-0.109395
-0.050938
0.098736
-0.004360
0.224455
0.123998
-0.059731
-0.021055
0.082027
-0.176620
0.140015
0.136150
-0.016173
0.201107
-0.155646
-0.356878
0.123057
0.188213
0.158753
0.260604
-0.311958
0.116971
0.443587
-0.076024
0.432458
0.099003
0.304696
0.000661
0.030399
-0.021273
0.222531
0.279196
0.060078
-0.358729
-0.020286
0.088433
0.231850
0.117514
0.159227
0.228329
-0.124857
-0.153912
0.219296
0.300884
0.188791
-0.200104
-0.025040
0.114068
0.279956
-0.020854
0.200504
-0.066741
0.164881
0.252957
0.316581
-0.001701
0.001459
0.266600
0.331794
0.076341
-0.108054
0.122902
-0.050691
-0.087968
0.052298
0.254014
0.249248
-0.275972
-0.005566
0.268542
0.207011
0.132993
-0.179717
-0.236780
-0.050871
-0.060082
0.189297
-0.223658
-0.094892
-0.050372
-0.189035
0.038478
-0.413752
0.216356
0.231897
-0.110173
0.030453
-0.233005
0.259574
0.038817
-0.292018
-0.188904
-0.020048
0.217037
0.247559
0.444779
-0.129860
-0.218307
-0.379309
0.015929
0.059907
-0.063969
0.100034
-0.312685
-0.286176
0.123026
-0.015894
0.036639
-0.122201
0.202091
0.075462
-0.024418
-0.344468
0.058194
0.209577
-0.439842
-0.066379
-0.061454
-0.067072
-0.149811
-0.127637
0.051444
0.172350
-0.155961
0.009083
-0.117718
0.388573
-0.225960
0.035222
0.185610
-0.136800
0.010043
-0.053881
-0.118738
-0.092160
0.072738
0.063902
-0.310505
0.302211
0.097629
-0.138191
0.183911
-0.124336
-0.096349
0.261993
0.238455
-0.273932
0.088774
-0.085842
-0.432074
0.104893
0.044644
-0.405764
0.046907
-0.218179
-0.086229
0.287355
0.026299
0.354216
0.031251
0.060892
-0.317117
0.000741
-0.203841
-0.655195
0.223062
-0.032133
-0.083792
0.036490
-0.212191
-0.348657
-0.072008
-0.039595
-0.038376
0.110743
-0.145799
0.044428
0.323052
0.043176
-0.155975
0.220291
0.010046
-0.203955
0.109729
-0.030834
-0.207305
-0.495043
0.040262
0.267917
-0.000040
0.253229
0.098837
0.183153
-0.203243
0.105823
0.171322
0.140098
0.306579
-0.042686
-0.092565
-0.212977
0.045361
-0.058240
-0.126195
-0.083774
0.204625
0.033029
-0.001342
-0.105511
-0.089379
-0.191117
-0.151401
-0.246131
-0.035299
-0.245298
-0.139584
-0.162117
0.149835
-0.190469
-0.033634
-0.488143
-0.297226
0.145778
-0.320661
-0.098748
-0.275880
0.100607
0.163785
0.089780
-0.205626
0.108834
-0.219734
0.144431
0.010294
-0.193186
-0.142754
-0.132392
0.018808
-0.086970
-0.068505
-0.215180
0.179321
0.127017
-0.012992
0.031021
-0.174657
-0.072744
0.232240
0.160167
0.119105
0.005596
0.081537
0.120340
-0.255628
-0.013926
-0.144241
0.021616
0.136925
-0.095425
-0.082540
0.086032
0.079254
-0.368294
-0.095278
-0.179046
-0.115579
-0.019622
0.007152
-0.164360
0.119043
-0.528237
0.002265
0.093760
0.213399
0.131828
-0.037321
0.057425
-0.179369
-0.138329
-0.085663
-0.050804
0.020654
-0.176633
0.409065
0.124048
-0.119553
-0.309625
0.037960
0.150884
0.307427
-0.028673
0.013896
0.117393
-0.220737
-0.240902
0.094766
-0.183824
0.078596
-0.401998
-0.204933
0.099834
0.334198
-0.323556
-0.073693
0.224067
0.074347
0.011063
-0.194325
0.084635
-0.248390
-0.057792
-0.086628
0.179045
0.144479
-0.154815
0.039990
0.276947
-0.234978
0.352526
-0.093504
0.100499
0.014592
-0.199410
-0.175188
-0.009696
0.029270
0.186357
-0.382885
0.066244
-0.107662
-0.237037
0.002324
0.278915
-0.067730
-0.106386
0.017453
0.022880
0.104445
-0.227864
0.015051
0.163663
-0.063734
-0.167564
0.157235
0.036924
-0.254773
0.068875
-0.259132
-0.069215
-0.067126
-0.184671
-0.244616
-0.158149
-0.425064
-0.043747
0.101143
0.095659
0.023446
0.044586
-0.289014
0.229174
-0.039904
0.169063
-0.095315
-0.074837
-0.388472
-0.045223
-0.091158
-0.195069
0.109877
0.150002
0.288282
0.238215
-0.277022
-0.021216
-0.175954
0.096794
-0.122957
-0.084211
0.004300
0.020026
-0.237911
-0.129221
0.290434
0.286064
0.129662
-0.108392
-0.281218
-0.386638
-0.221477
0.009800
-0.123485
0.013667
-0.038905
0.075907
-0.031762
-0.356026
-0.010357
-0.131211
0.062115
-0.126761
0.192508
0.013404
-0.411171
0.137798
-0.260922
-0.032702
-0.025972
-0.186528
0.020614
0.263805
-0.064678
-0.054068
-0.095092
-0.293740
-0.062130
-0.012582
0.059570
-0.135906
-0.288882
0.173447
-0.047467
0.001040
0.047961
-0.188045
-0.206791
-0.199740
-0.044975
-0.003554
-0.139720
-0.212886
-0.080875
-0.037563
-0.342102
-0.065977
-0.103502
-0.207162
-0.173934
0.082034
-0.126040
-0.053778
0.316584
0.082053
-0.032174
0.009164
-0.338566
-0.118725
-0.115186
0.391065
-0.081558
-0.334140
0.018727
0.213178
0.199699
-0.376701
-0.184581
-0.243905
-0.248840
-0.108109
-0.127347
-0.426273
0.103163
-0.047113
-0.099519
0.188562
0.043762
0.165293
0.052411
0.031388
-0.182331
0.092689
0.150883
0.183901
-0.084580
-0.010287
0.018834
-0.008030
0.166207
0.146378
0.049220
-0.091642
-0.038053
0.121370
0.098227
-0.207882
-0.067453
0.512217
-0.280784
0.044282
-0.106823
-0.153892
0.068883
-0.213903
-0.317223
-0.034385
-0.258072
-0.192425
0.087150
-0.182989
-0.024843
0.024984
-0.065459
-0.247235
0.344356
0.270627
0.125357
0.055322
-0.117902
0.048220
-0.087827
-0.141580
0.040538
-0.091432
0.013028
0.014788
-0.091130
-0.208785
0.230267
-0.263643
-0.225680
0.075155
-0.086583
0.155269
0.068943
0.175380
-0.001722
-0.146852
-0.176960
-0.204093
-0.059817
0.159849
-0.153918
-0.026037
0.079874
0.091633
-0.002591
-0.339372
-0.046550
0.034368
-0.296107
-0.113628
-0.162817
-0.234315
-0.132551
-0.199683
0.056307
0.005808
0.038588
-0.028242
-0.187647
0.174160
0.234611
0.301050
0.079140
-0.310170
-0.283788
-0.116830
-0.122284
0.016273
-0.008488
0.000442
-0.345796
0.028256
0.154782
-0.097673
-0.218011
0.173732
0.090576
0.257344
0.164133
-0.237958
-0.164490
-0.034509
-0.292452
0.394114
0.155661
-0.224932
-0.168240
-0.147647
-0.164558
0.193003
-0.155906
-0.315874
-0.047684
-0.313213
-0.059067
-0.325610
0.069483
0.124367
-0.004918
0.165319
-0.092901
0.049980
-0.087473
0.091899
-0.186870
0.107554
-0.202646
-0.196405
0.356223
-0.123991
0.074730
0.195559
-0.276485
-0.221923
0.098052
0.124307
-0.439040
0.035913
-0.092050
0.184086
-0.267911
0.035562
0.150701
0.094687
-0.053667
-0.073890
-0.255301
0.116005
0.095147
-0.173937
-0.122867
-0.091989
-0.264731
-0.119213
-0.023634
0.153045
-0.194256
0.305244
-0.182107
0.125574
0.422667
0.192355
-0.202714
0.140837
0.046857
-0.022786
-0.245413
0.185732
-0.114515
-0.061068
0.137093
0.105999
0.230441
-0.323120
0.044568
-0.347382
-0.504987
0.135932
-0.231016
0.148205
-0.098307
0.031961
0.300391
-0.068374
-0.011245
0.093417
0.145678
0.208480
-0.348188
-0.139369
0.011649
-0.003975
0.033954
0.101619
-0.426391
0.363667
0.260423
0.206852
0.082450
-0.090660
0.288763
-0.104576
0.253695
-0.108760
-0.086129
0.047276
-0.236032
0.168506
-0.201737
-0.198271
-0.355160
-0.107232
-0.143663
-0.144303
-0.240273
-0.147943
-0.174698
0.484632
-0.156494
0.082020
-0.168396
-0.158697
-0.224649
0.051502
0.113825
0.362639
-0.129214
-0.420743
-0.240494
0.192000
-0.207826
-0.117712
0.191386
-0.359706
-0.277486
-0.043844
-0.029345
-0.317279
-0.183650
-0.069145
-0.017189
-0.266521
0.058789
-0.080308
-0.145601
0.044175
-0.171250
0.121196
-0.363904
-0.065247
0.310900
0.029111
0.334408
-0.087294
-0.020524
-0.267977
0.206651
-0.053062
0.022211
0.089223
-0.270708
0.182270
0.168999
0.163858
0.080290
0.172840
-0.257460
0.135847
-0.373734
-0.218021
-0.214940
0.050801
0.143768
-0.024877
0.027152
-0.144070
0.162613
0.228392
0.070359
0.104123
-0.189276
-0.285638
0.173854
-0.224446
-0.145711
-0.262429
-0.079825
-0.201295
-0.335731
-0.151141
-0.319693
-0.075651
0.225808
-0.128530
-0.009803
0.121318
0.101555
-0.111136
0.039074
-0.101400
-0.119956
-0.068916
-0.256685
0.055502
0.151686
0.264589
-0.050867
-0.045759
-0.409157
0.032728
0.084266
-0.150756
-0.021164
-0.090083
-0.152696
-0.150808
-0.316466
-0.079366
0.158667
-0.029523
-0.014443
-0.069436
-0.110031
-0.225194
-0.149784
0.071522
-0.162469
0.164304
-0.284124
-0.228669
-0.434015
-0.051213
0.153983
-0.076303
-0.092771
-0.209849
-0.329691
0.043494
-0.215443
0.180810
0.103145
-0.359530
0.014317
-0.150089
0.162444
-0.183456
-0.025290
0.212977
-0.085249
-0.255896
-0.104869
-0.465461
0.173919
0.020217
-0.530227
-0.279530
-0.149789
-0.111074
0.219826
-0.391575
-0.204612
-0.064689
-0.272500
-0.123110
-0.190145
0.343709
-0.248950
-0.011777
-0.109899
0.001408
-0.192792
-0.416594
0.312053
-0.373429
-0.098025
0.020155
-0.244957
-0.235147
-0.030014
0.015287
-0.153785
-0.024172
-0.101183
0.394232
0.372481
-0.104397
0.115071
0.394246
-0.164338
0.435432
-0.065412
-0.196179
-0.065537
0.506961
0.365065
0.410593
0.009729
-0.064502
0.172156
-0.078244
0.363104
0.264353
-0.102160
-0.355611
0.049631
0.212413
0.065929
-0.076987
-0.363968
0.679877
0.369176
-0.142471
0.270469
0.122180
-0.586996
0.065353
0.291963
-0.052637
0.016341
0.165885
0.003699
-0.285682
0.357882
-0.467221
-0.174029
0.094063
-0.085027
0.322014
0.220975
0.348196
0.192636
-0.464235
-0.031933
-0.024450
-0.019637
-0.165033
0.178512
0.028334
-0.461729
0.426765
-0.156259
0.225575
0.030368
0.175915
-0.118247
0.171165
0.584872
0.029923
-0.113104
0.265597
-0.117725
0.355967
0.115409
-0.120711
-0.128793
-0.411764
-0.140648
-0.150497
0.221008
-0.058948
0.077390
0.566353
-0.270303
-0.162466
0.125475
-0.063959
-0.221271
0.531460
-0.199727
-0.031478
-0.326301
-0.334565
0.010636
-0.011715
-0.189224
0.017537
-0.122994
0.221387
-0.307362
0.061110
-0.268633
-0.261848
0.500045
0.175770
0.101248
0.233623
0.307027
-0.103051
-0.302768
-0.240157
0.353726
0.075672
-0.161486
0.041067
-0.208594
-0.083817
0.195172
-0.060025
-0.276149
-0.371444
0.094500
-0.156687
-0.347157
0.057113
-0.027212
-0.031177
0.164808
0.113575
-0.075153
-0.018457
-0.097483
0.169805
0.003203
-0.104024
0.090424
0.177912
0.002034
-0.106202
-0.123337
0.260480
0.050130
-0.040624
-0.301958
0.456200
-0.234610
0.250682
-0.175089
0.048461
0.000098
-0.109173
-0.070442
-0.222876
0.301043
-0.072448
-0.042425
0.146873
-0.155724
0.122332
0.188723
0.070489
-0.093306
0.025585
-0.162354
-0.066475
0.017405
-0.063999
0.383554
-0.115102
-0.084230
-0.057305
0.026355
0.028667
-0.294569
-0.103551
-0.107418
-0.036683
0.030680
-0.161699
0.119214
-0.227233
-0.030184
-0.186274
-0.331629
-0.069660
-0.054627
-0.073131
-0.151026
-0.382681
-0.404234
0.026005
-0.031781
0.141291
-0.223956
-0.248365
0.037765
0.114768
-0.143227
-0.619719
0.210993
0.274515
-0.027366
-0.009491
-0.244016
-0.123419
-0.048541
0.083034
-0.116258
-0.071216
-0.160669
-0.017534
-0.201077
-0.248565
-0.010275
0.119481
-0.134891
0.084541
0.167145
-0.105594
0.022107
-0.501964
-0.195630
0.145359
0.094011
-0.094662
0.132991
0.264231
-0.119374
-0.156037
0.044775
-0.174961
-0.029610
-0.233048
-0.054466
-0.079442
0.043006
0.043530
-0.134991
-0.147005
0.156355
-0.169286
0.036488
-0.051679
-0.011110
-0.114910
0.065868
-0.169056
-0.215183
-0.044149
-0.189997
-0.013261
-0.419624
0.078718
-0.125831
-0.101064
-0.148257
-0.171941
0.058281
-0.014541
-0.202420
-0.043014
-0.142455
-0.358632
-0.093793
-0.304543
-0.092727
-0.269884
0.148014
-0.051633
0.039149
0.091878
-0.385230
-0.066099
0.034165
-0.128093
-0.212805
-0.151992
-0.160972
-0.069004
0.017398
0.154651
-0.103590
-0.237367
-0.005658
0.329895
0.093312
-0.221895
0.009902
0.162488
0.020140
0.059672
0.049648
-0.027946
-0.015261
-0.054771
0.053146
-0.240343
-0.188671
-0.135820
-0.049253
0.061940
0.076563
-0.080234
-0.036497
-0.355146
0.057721
0.059759
-0.131388
0.110152
0.020890
-0.373731
0.135944
0.063675
-0.228645
-0.088815
-0.320694
-0.264483
-0.015804
0.057276
-0.407030
0.055732
-0.018555
-0.212583
-0.037128
-0.060286
-0.024204
0.342291
-0.276809
-0.073885
0.042799
0.120788
-0.007756
-0.395820
0.075179
-0.130733
0.022556
0.070087
-0.237055
-0.190456
0.001721
0.067766
0.158610
-0.135747
-0.001444
-0.176688
0.086997
-0.155894
-0.025935
-0.186138
0.071490
0.203517
0.081389
-0.006235
0.238604
-0.206224
0.196764
0.112526
-0.263689
0.084512
0.264804
0.063663
-0.129529
0.059490
0.112207
-0.205724
0.034990
0.033268
0.002892
0.210670
-0.300485
0.100893
0.135685
-0.049228
0.007166
0.051910
-0.187207
-0.096738
-0.297048
-0.111954
-0.038007
-0.002358
0.031584
0.084930
0.048719
0.288261
-0.222052
0.125805
-0.211927
-0.150065
0.108844
-0.020948
-0.097625
0.183482
0.064833
-0.167855
0.021180
-0.170644
-0.359235
-0.127477
-0.200487
-0.128772
-0.375564
0.130652
-0.134485
-0.220818
0.155247
-0.196066
-0.326601
0.408103
0.023568
0.251108
-0.411530
-0.276348
-0.114140
-0.374812
-0.223385
-0.374208
-0.237623
-0.252408
-0.138336
0.019365
0.190765
-0.187300
-0.143529
0.265527
0.028854
0.222013
-0.329172
0.340778
-0.006712
-0.173583
0.510753
0.113249
-0.180562
-0.079154
0.183414
-0.496908
-0.179492
-0.064122
-0.029171
0.274962
-0.126140
-0.087877
0.356363
-0.067136
-0.088031
0.276206
-0.341912
-0.189733
-0.138290
-0.193669
0.006108
-0.341344
0.111722
0.047047
-0.121945
-0.042247
-0.430660
0.281934
0.137242
-0.296143
0.146895
-0.069009
0.144298
-0.240151
-0.263384
-0.257318
0.215469
0.111417
-0.262202
-0.230871
-0.092292
-0.225135
-0.194742
0.120279
0.006870
0.174432
-0.042375
-0.047397
-0.223957
0.035810
-0.330514
-0.183456
-0.072364
-0.037815
0.186956
0.217002
0.038343
-0.146781
-0.177407
-0.235746
0.162412
0.084627
0.115950
-0.351346
-0.254300
-0.055797
-0.024278
-0.060184
0.380511
0.314810
0.190722
0.187444
0.054773
0.106093
0.174132
0.083786
-0.024589
0.263736
-0.035024
-0.108101
-0.019321
-0.164787
0.134278
-0.053607
0.157488
0.044045
0.042639
-0.066431
0.258183
-0.228179
0.052748
0.145060
-0.115354
0.072086
0.170109
-0.092145
-0.186319
0.148412
0.034423
-0.338002
0.330334
-0.156192
-0.067110
-0.188646
0.013776
-0.039531
-0.167619
0.308716
-0.205371
0.245546
0.073668
0.145474
0.160394
0.043907
0.271578
-0.026076
-0.076624
0.332790
-0.040512
-0.095203
-0.172120
0.162697
0.038414
0.130162
-0.129630
0.247032
0.034447
-0.039352
-0.157627
0.110120
0.037696
-0.102386
0.023838
0.025031
-0.073072
0.202128
0.240791
0.066865
0.158595
-0.458058
-0.029456
0.042692
0.066069
0.099419
0.224351
-0.256583
0.073103
-0.164577
0.034518
0.355795
0.129052
0.162414
0.212488
-0.064772
0.072016
-0.248607
-0.052104
-0.033935
-0.155062
0.180947
0.248964
0.081739
-0.160669
-0.145761
-0.064225
0.032442
-0.253502
0.179311
0.010095
0.004201
0.236601
0.247192
-0.075337
-0.132512
0.264188
-0.067945
0.044362
0.185255
0.000039
0.250954
0.035219
-0.053974
0.108324
-0.229325
-0.282036
0.235465
0.037034
0.165979
-0.055545
-0.282975
-0.385199
0.016876
0.089634
-0.217393
0.298232
0.223938
0.170554
-0.084662
-0.538210
-0.032175
-0.077146
-0.081431
-0.114398
-0.112194
-0.014645
-0.244602
-0.201231
0.028316
-0.077171
-0.027363
-0.123926
0.056511
-0.096390
0.179193
-0.073792
0.119634
0.162589
0.064895
-0.031962
0.033924
-0.286259
0.085661
-0.270494
0.017321
0.097781
0.142464
0.370082
-0.092409
-0.107326
0.020664
-0.024580
0.154177
-0.178727
-0.052995
-0.088074
-0.006411
-0.235104
-0.339950
-0.023068
0.259865
-0.039806
0.088777
0.036135
-0.091876
-0.193186
0.047945
0.414037
-0.099324
-0.380291
0.124673
0.054615
0.266889
-0.063563
-0.145454
0.009013
0.074726
-0.083630
0.226195
0.130564
-0.253795
-0.222662
-0.081512
-0.258111
-0.099226
-0.043072
0.112417
0.067152
0.211097
0.044644
0.249428
-0.142376
0.070590
-0.308649
0.169145
-0.086154
-0.006236
0.239694
-0.268555
-0.003625
0.158760
-0.207817
0.072798
-0.245074
0.076020
0.069558
-0.012245
-0.148166
0.104587
0.045885
0.065910
0.020660
0.181083
-0.037394
0.212917
0.258833
-0.250872
-0.054680
0.051320
-0.259877
0.057819
-0.315151
0.021229
-0.337228
0.012444
-0.389930
0.046051
-0.486370
-0.081882
0.123297
0.091229
-0.115060
0.025028
-0.158477
0.079710
-0.127970
-0.064155
-0.040399
0.245233
0.168353
0.036103
-0.157991
0.148897
-0.086730
0.013079
-0.209900
-0.061782
-0.285327
-0.127503
-0.318935
0.035935
-0.087244
-0.256900
-0.072592
0.242157
-0.323160
0.023436
-0.277277
0.059578
-0.117551
-0.148033
-0.039339
-0.273489
0.460329
-0.144091
-0.377819
0.052660
-0.078701
0.126480
0.001290
-0.316027
0.030549
0.021390
-0.217374
-0.047599
-0.060842
-0.183009
0.247622
-0.025161
0.208161
-0.128900
-0.192273
0.325447
-0.103624
-0.080333
-0.079051
-0.021830
-0.128631
0.197780
0.259549
-0.217788
-0.066350
0.215014
-0.158936
0.028373
0.145843
-0.044333
-0.294067
-0.149160
-0.096886
0.138224
-0.084368
0.172773
0.080295
0.173334
0.039335
0.298552
-0.146113
-0.311477
0.094997
0.022719
-0.432627
0.355254
-0.133569
-0.157394
-0.185225
0.049856
0.033139
0.065120
-0.106075
-0.439523
0.109038
0.015528
0.151363
-0.291770
0.001081
0.023287
-0.107325
0.115960
0.083966
0.154363
-0.033141
-0.402712
-0.526552
-0.156536
0.204833
0.030463
-0.225808
-0.108914
0.093638
-0.011846
0.256903
-0.089349
-0.177103
0.167665
-0.131028
0.144509
0.055088
-0.185748
-0.033317
-0.207349
0.145473
-0.376996
0.050414
-0.315605
-0.012036
-0.282126
-0.147169
0.134319
-0.075497
-0.090987
0.120004
-0.325157
0.251291
-0.270940
0.107906
0.282907
-0.030722
0.051868
0.233515
0.026374
-0.253001
-0.045797
-0.052567
0.416234
0.117911
-0.099968
-0.051897
0.082638
0.170290
-0.100404
0.134857
-0.168510
0.220380
0.192196
0.066111
0.101260
-0.068918
0.228811
-0.095233
-0.174891
-0.074369
0.014540
0.092301
-0.387168
-0.001255
0.039728
-0.161302
0.056455
0.040150
-0.049069
-0.274274
0.100492
0.003292
0.181782
0.021238
0.082598
-0.076881
0.025182
-0.048789
-0.117577
0.039991
-0.094227
0.027076
-0.300245
0.409815
0.324574
-0.185489
0.105893
0.134656
-0.093149
-0.216157
0.139888
-0.141247
-0.042792
-0.071667
0.090466
-0.090410
0.057294
0.038228
-0.239092
0.162403
0.341647
0.124810
-0.104051
0.055265
0.023919
0.147209
-0.032648
-0.061100
-0.330543
0.108190
-0.420934
0.191293
-0.138219
-0.137249
0.006514
-0.217895
-0.221967
0.225938
0.204339
-0.144313
0.012323
-0.003782
0.000207
-0.148620
0.029069
0.100351
-0.074167
0.042624
0.157829
0.293789
0.116668
0.211800
0.076762
-0.185244
0.154806
0.071606
-0.086813
0.095217
0.146605
0.275881
-0.078407
0.200556
-0.058733
0.001820
0.088829
-0.009200
0.115303
0.058117
0.026612
0.281787
0.106874
-0.035290
0.279992
0.005091
-0.271282
-0.129562
-0.151697
0.111609
0.217255
0.155250
0.071884
-0.152566
0.002517
-0.012067
-0.277392
0.516549
-0.154996
0.085919
-0.290861
-0.248667
-0.195075
-0.004354
-0.090438
-0.263919
0.117280
-0.172011
-0.291088
-0.407833
0.008488
-0.097233
0.004573
0.315639
0.012942
-0.157029
0.253266
-0.208422
0.110009
0.377400
-0.010579
0.015988
0.002989
-0.040579
-0.120157
-0.131703
0.012464
-0.099836
-0.053510
0.126682
0.277782
0.014451
0.229171
0.360769
0.013064
0.150131
-0.211876
-0.043618
-0.078031
0.224803
-0.106850
-0.186697
0.311671
-0.147359
0.207937
0.059343
-0.086237
-0.156068
0.029118
-0.425624
0.195982
0.328917
0.126422
0.366538
-0.030180
0.055124
-0.087784
0.094263
0.126074
0.070111
-0.060526
0.055171
0.090462
0.337615
0.061885
-0.025891
-0.179675
-0.009259
-0.224610
0.060661
0.175226
0.211034
-0.108352
-0.355285
0.027966
-0.101283
-0.150297
0.011096
-0.035558
0.078464
-0.105507
0.254411
-0.117201
-0.282470
0.060070
-0.186729
-0.064415
0.247013
-0.033591
0.318211
0.034286
-0.087499
0.082398
0.143899
-0.120507
-0.061637
0.109878
0.123964
-0.209476
-0.107098
-0.123993
-0.240976
0.209707
0.115669
0.240897
0.007529
-0.361188
-0.300270
0.276263
-0.183640
0.209539
0.124942
-0.063548
-0.112110
-0.008520
0.125434
-0.174795
-0.227569
0.288518
0.032958
0.076240
-0.031360
-0.271160
0.353089
-0.452065
0.149237
-0.000194
-0.020049
-0.146396
-0.170817
0.075078
-0.231671
-0.358150
-0.227192
0.106455
0.001214
-0.123276
-0.273722
0.059347
0.059574
-0.041596
0.156806
-0.270876
0.059480
-0.059000
-0.141334
0.054095
0.040071
0.064548
-0.199911
-0.276716
-0.332779
-0.197260
0.058381
0.146400
-0.183005
0.200054
0.109349
0.015574
-0.104436
0.020116
-0.039640
-0.029101
-0.027982
0.073215
-0.180040
-0.051182
-0.138802
0.109629
0.301131
-0.245584
-0.327570
-0.030204
-0.020787
-0.018891
0.119518
-0.007631
-0.111259
-0.056110
-0.064213
0.122122
-0.138457
0.013299
0.057417
-0.166786
-0.256600
-0.053531
-0.253706
-0.147643
0.008176
0.156672
-0.083087
0.212771
-0.145943
-0.219730
0.092106
-0.064275
-0.022012
-0.041682
0.006221
0.029997
-0.062695
-0.067608
-0.234095
-0.187179
-0.064217
0.137436
0.170543
-0.066495
0.157166
-0.129602
-0.090838
0.027576
-0.074295
-0.013828
0.051359
0.198119
-0.199186
-0.111273
0.162998
-0.291197
-0.408649
-0.272426
0.109006
0.145145
-0.252862
0.109314
-0.170158
0.114460
-0.101752
0.090180
-0.039622
-0.012019
-0.270907
-0.407107
-0.205824
-0.270230
-0.043810
0.144179
-0.156701
-0.265347
-0.051081
0.063841
0.108566
0.095449
-0.399554
-0.017178
-0.155011
0.052802
0.144153
0.004151
0.154172
-0.088188
0.074097
0.268902
0.110680
-0.253119
-0.439935
0.081495
-0.098781
0.255456
-0.108764
-0.014171
0.005530
-0.421089
-0.134476
-0.076790
-0.362598
0.084068
0.079438
0.094771
0.213629
-0.071362
-0.075337
-0.257210
-0.056081
0.226231
-0.073625
0.014467
-0.057720
-0.141562
-0.075059
0.143666
0.028203
-0.283110
-0.069280
0.001773
-0.168346
-0.171506
-0.043208
-0.155801
-0.374473
0.054386
0.279675
-0.097856
-0.226045
-0.047952
-0.164383
0.040159
-0.055986
-0.289511
-0.324078
0.115200
-0.266602
-0.159291
-0.024734
-0.075828
-0.079894
-0.156529
0.055092
-0.072743
-0.159463
-0.123468
0.243512
-0.068572
-0.057000
-0.095426
-0.197814
-0.327894
0.125482
-0.172495
-0.112283
0.110726
0.157915
0.030519
-0.201653
-0.214848
-0.328801
-0.249286
-0.244666
0.020869
-0.192501
-0.264505
0.110608
-0.222745
0.041258
-0.122256
-0.120530
-0.107137
-0.313892
-0.260827
0.122704
-0.147085
-0.510482
-0.028359
-0.064741
0.043337
0.116702
-0.034855
-0.101627
0.058488
-0.077497
0.175449
-0.242888
-0.082271
0.365617
-0.061088
-0.036096
0.000159
-0.086080
-0.459024
0.076200
-0.483335
-0.052005
0.004324
-0.257048
-0.186641
-0.081306
-0.323183
-0.296959
-0.026006
-0.121221
-0.343199
-0.115066
-0.177057
-0.011686
-0.107389
-0.095727
0.053515
-0.127663
0.140529
0.190404
-0.289919
-0.378457
0.110453
-0.245559
0.029678
-0.113792
-0.153457
-0.157659
0.338823
-0.096716
-0.231383
-0.520622
-0.062454
-0.024704
-0.036123
-0.310326
-0.389657
0.163359
-0.094706
-0.148542
-0.481579
0.156083
0.313264
-0.183612
-0.165976
0.024325
0.056771
-0.079027
-0.156823
-0.038968
0.058408
-0.102093
0.168598
0.198341
-0.115930
-0.109920
0.252776
-0.157177
0.393143
0.263767
-0.156104
-0.279658
-0.205090
0.498246
-0.068605
-0.001575
-0.247625
0.020744
-0.020287
-0.035048
-0.099419
0.055977
0.170600
0.112094
0.441584
0.087978
0.278297
-0.155346
-0.084471
0.166247
-0.303262
-0.214505
0.166931
-0.005139
-0.407805
-0.475984
-0.128072
0.056129
0.026965
0.165676
0.207357
0.142695
0.095626
-0.174702
0.162346
0.022708
-0.057673
-0.057963
-0.053099
-0.053280
0.071283
-0.022114
0.027589
-0.234140
0.057931
-0.000669
0.372206
-0.263375
-0.230374
0.053193
-0.085911
-0.033384
-0.035866
0.089132
0.099364
0.069328
0.046897
0.296212
0.073353
-0.159567
0.676959
0.325018
-0.087059
0.029298
0.067876
-0.029301
-0.008861
0.092437
-0.082116
0.331035
-0.230741
0.012463
0.083321
0.160921
0.007080
0.381286
0.421627
-0.271772
0.029595
-0.083196
-0.049011
0.400200
-0.496595
-0.185603
0.284625
-0.134814
-0.040452
-0.185443
-0.113808
-0.080127
-0.057982
-0.177912
0.176127
0.130010
-0.225068
-0.119550
0.327564
0.145553
-0.229943
-0.204516
-0.079811
-0.057230
0.055594
-0.050317
-0.104637
0.086176
-0.035023
-0.258773
-0.063820
0.101960
0.085955
-0.253736
0.014359
-0.049168
-0.079200
0.281336
-0.030109
-0.190397
-0.172076
-0.196025
-0.069757
0.119357
-0.388773
-0.081348
-0.013496
-0.148665
0.058897
0.058637
-0.249717
-0.178313
-0.174490
0.040646
0.054785
0.081574
0.291225
-0.009482
-0.140286
0.163249
-0.010051
0.066336
-0.286927
-0.087710
0.028644
0.034248
-0.039818
0.095586
-0.016086
-0.018827
-0.179190
0.057740
0.044481
-0.402272
-0.129640
-0.180388
0.084128
-0.235715
-0.073740
0.266476
-0.128594
-0.070034
0.275192
-0.045327
-0.043968
-0.287843
-0.594637
0.181897
-0.198819
-0.095462
-0.120484
0.058044
0.069973
-0.287680
0.113811
-0.365981
0.059831
-0.022337
-0.055118
-0.072623
0.185638
-0.190678
-0.030875
0.034525
-0.334326
-0.212317
0.107261
0.005393
0.003988
-0.135089
-0.119104
0.076825
-0.233390
-0.083842
-0.190312
0.175529
-0.039277
-0.111274
-0.327751
-0.019821
-0.121625
-0.060748
0.062817
0.107923
0.272882
0.121742
-0.301288
-0.158506
-0.033417
0.314223
0.094397
0.076553
-0.392163
0.004916
0.129250
-0.109975
-0.038446
-0.001681
-0.206607
-0.132046
0.183893
-0.079941
-0.046252
-0.117620
-0.027100
-0.179476
0.247249
-0.048821
0.245938
-0.007605
0.292876
-0.129236
-0.005982
-0.098223
0.032737
0.067826
-0.046615
-0.255929
0.022829
0.078255
-0.044917
-0.074550
0.210805
-0.279798
-0.003478
0.104238
0.236362
0.040634
-0.052171
-0.082391
-0.015312
0.164099
-0.007593
-0.064049
-0.132706
-0.147411
-0.055524
-0.081432
-0.109740
-0.007202
-0.518564
-0.154410
0.145608
-0.001441
0.064012
0.105525
0.118057
0.017133
-0.215794
-0.030054
-0.315381
-0.175181
0.012027
0.019271
-0.011096
0.176791
-0.336221
-0.202087
-0.120284
-0.050862
-0.124506
0.032189
0.007814
0.072329
-0.213140
-0.181352
-0.345435
-0.091641
0.133904
-0.084342
0.191438
-0.333572
-0.204045
0.255450
-0.021403
0.143341
0.155124
0.059430
-0.236615
-0.164974
-0.057523
-0.105125
0.032762
-0.184114
-0.087105
-0.313365
-0.129951
0.079373
-0.165334
-0.301394
-0.239706
-0.144057
-0.262784
-0.304516
-0.021689
-0.001593
-0.016766
0.016127
0.148281
0.252427
-0.103204
0.059754
0.044190
0.099090
-0.063340
-0.272449
-0.113360
-0.419581
0.201260
0.014993
-0.129307
-0.159119
-0.164647
-0.300207
0.026753
0.143724
0.133686
0.240671
0.209809
-0.262487
-0.089876
0.005713
-0.043021
-0.148491
-0.305271
-0.186995
-0.015074
-0.072154
0.037776
0.051733
-0.074278
0.224935
-0.073113
0.124433
-0.145094
-0.230353
-0.063672
-0.439633
0.012714
-0.178356
-0.098416
0.180244
-0.272727
-0.145946
-0.127790
-0.070486
0.074875
-0.147833
-0.335715
0.198452
0.150574
0.118953
-0.260241
-0.149869
-0.008136
-0.057700
-0.317447
0.055120
-0.135617
0.008504
-0.104282
0.133329
-0.178290
0.029199
-0.132826
-0.010273
0.118772
0.026586
-0.108664
-0.013518
0.265209
0.364014
0.148188
-0.199260
0.125740
0.097174
-0.087761
0.169160
0.009641
-0.016720
-0.106444
-0.070975
0.353903
-0.152677
0.052185
-0.044718
0.014638
-0.075807
-0.206296
-0.004982
-0.118488
0.239538
-0.028093
-0.381122
-0.085861
0.110271
0.056461
0.271156
-0.030227
0.108979
0.037825
0.076249
-0.059508
-0.102969
0.136670
0.021251
-0.137626
-0.146096
-0.044609
-0.070413
-0.023808
0.108377
-0.070717
0.083018
0.049732
0.034387
0.144148
0.031079
-0.478391
0.092213
0.151547
0.157387
-0.026126
-0.246749
-0.158585
-0.220094
-0.042510
-0.102570
-0.008749
0.171753
-0.145658
-0.048381
0.005260
-0.064635
0.084061
-0.081748
0.435449
0.035546
-0.037910
-0.015517
0.143839
-0.050186
-0.192284
-0.226591
-0.519225
-0.044126
0.119354
0.033151
0.240197
0.097385
-0.124423
-0.185737
0.032738
0.072782
0.269557
0.150735
-0.017756
-0.108662
0.152060
-0.088910
-0.181723
0.051618
0.139946
-0.147968
0.097317
0.136781
0.010777
-0.052231
-0.358797
-0.035294
0.454232
-0.138976
-0.057113
-0.029568
0.046249
-0.246292
-0.385346
0.158745
-0.389095
-0.176011
-0.076512
0.067706
-0.055946
0.148825
-0.048749
-0.122792
0.198528
0.176799
0.112222
0.129755
-0.445690
0.034261
-0.416281
0.204324
-0.260000
0.107825
0.003844
0.147263
-0.051016
-0.013602
0.417745
-0.078067
0.185926
-0.127867
-0.043083
-0.295062
-0.052120
-0.212375
-0.172407
-0.068357
-0.278419
-0.285848
-0.293198
-0.196031
0.239718
-0.111838
0.105137
0.048309
-0.006588
-0.014563
0.151981
-0.109341
-0.159128
0.071974
-0.279067
0.048976
-0.034872
0.257037
-0.174777
-0.367285
-0.120072
0.224942
-0.171254
0.061566
0.042809
-0.284439
0.111294
0.142216
-0.111869
-0.113921
-0.114178
0.117893
-0.188214
0.037521
-0.306309
0.217764
0.108898
-0.169073
0.089819
-0.450343
0.042553
-0.018136
-0.071970
0.220550
-0.254422
-0.195342
-0.158129
-0.187300
0.149810
0.085144
0.102281
-0.250752
-0.122937
0.042090
-0.230116
0.016445
0.310603
0.057472
-0.069426
0.048045
-0.001170
0.049075
-0.370442
-0.209564
0.343735
0.153413
-0.132273
-0.129455
-0.084674
0.009177
-0.291928
0.260583
0.088229
-0.180269
-0.071962
-0.360791
-0.199712
-0.303828
-0.003665
0.111312
-0.176507
-0.087367
0.026027
0.145312
-0.031070
0.020361
-0.042563
0.065850
-0.081312
0.194449
0.051254
-0.025108
-0.478959
-0.244409
-0.089478
0.003761
-0.158063
-0.058339
-0.104102
0.116918
0.199440
0.018265
-0.208229
-0.115515
-0.373295
-0.169613
0.169935
-0.015786
-0.131971
-0.259291
-0.302206
0.019146
-0.104302
-0.193678
-0.027851
0.063150
0.372531
0.326269
-0.063018
-0.495789
-0.033829
0.056657
-0.082154
0.038893
-0.108651
-0.412583
0.064037
-0.094243
-0.182968
-0.088049
-0.220371
-0.055855
0.222532
-0.008680
-0.064784
0.042448
-0.183499
0.181910
0.145052
-0.008069
-0.080711
0.211813
0.130157
-0.132910
-0.005055
-0.310919
-0.022398
0.045915
-0.181935
0.125083
-0.086846
0.132925
-0.061979
0.114116
-0.307253
-0.334793
-0.165642
0.157114
-0.441883
-0.025214
0.210979
-0.025725
0.142420
-0.040791
0.079739
0.386889
-0.230990
0.230816
0.089043
-0.269457
-0.328482
-0.125748
-0.221563
-0.161464
0.000541
0.184867
-0.037783
0.055557
-0.207694
0.160065
-0.110738
-0.010386
0.164589
0.316540
-0.079566
0.105796
0.092841
-0.113638
-0.057695
-0.025223
-0.026246
0.201182
-0.224542
0.068544
-0.023157
0.204535
-0.268212
0.065822
-0.156663
-0.251911
0.146734
-0.262053
-0.104172
0.015931
-0.041234
0.019586
-0.377302
-0.225440
-0.375868
-0.133672
0.057968
0.052754
0.048472
-0.182742
0.309747
-0.255487
-0.147124
-0.243265
-0.028359
-0.061549
0.253771
-0.064510
-0.116045
0.046158
0.262669
-0.233108
-0.310814
0.040077
0.046105
-0.101237
0.052029
0.126881
0.329695
0.401884
-0.155319
0.172249
-0.005154
0.127879
0.024156
0.312021
-0.038378
-0.084411
0.121216
-0.005212
-0.235824
0.099211
0.337954
0.167311
-0.096916
0.004236
-0.027845
-0.173296
-0.082585
0.471099
0.137386
0.056576
0.241144
0.037229
0.053644
-0.187380
-0.043911
-0.086792
0.080416
-0.062388
0.312110
0.007198
-0.048245
-0.022983
-0.276709
-0.333790
0.176673
-0.023375
0.051433
0.237112
-0.158414
-0.136399
-0.212592
-0.064386
0.245248
0.164045
-0.247507
-0.045485
0.190844
0.224562
-0.000417
-0.323256
0.038283
0.029408
0.036026
0.058263
-0.101284
-0.042589
-0.179609
-0.337035
-0.033542
0.140524
0.016012
-0.118388
0.371667
-0.028823
0.015245
-0.068868
-0.019425
0.072335
-0.113259
-0.184265
0.029454
0.001602
-0.211594
-0.186698
-0.012638
-0.325187
0.295860
-0.091267
0.168843
0.144675
0.032871
-0.135138
0.037947
0.202766
0.102025
-0.180904
0.245072
0.011964
-0.180107
0.029673
-0.576586
0.024286
0.035328
0.063700
0.043029
0.217535
0.119468
-0.035991
-0.428764
-0.179186
0.199981
0.020685
0.165805
0.144083
0.172162
-0.025113
0.167255
0.320839
-0.180364
-0.212535
-0.349727
-0.045366
-0.012447
0.185431
-0.206949
0.055605
-0.239239
-0.155280
0.192056
0.028132
0.085744
0.128737
0.034526
-0.216123
0.285736
0.027552
-0.079017
-0.050935
0.065141
-0.060805
0.086398
0.157533
-0.173054
0.063063
0.064164
-0.055761
0.141176
-0.368836
0.028684
0.112827
0.020766
0.126181
0.048400
0.106257
0.155714
0.204230
-0.061606
-0.019450
0.209960
0.024072
0.056068
0.123494
0.160289
0.036324
0.095175
-0.044209
0.311184
-0.251963
-0.352474
-0.125046
-0.080573
-0.126276
-0.121847
0.016705
-0.123898
0.216458
-0.060755
-0.103417
0.139407
-0.125615
-0.108582
0.110688
-0.111445
-0.138514
-0.085848
0.152487
-0.290706
-0.014830
0.130955
0.015364
-0.079668
-0.073942
-0.124318
-0.105059
-0.009365
0.058220
0.057838
-0.039595
0.031435
0.171850
0.062131
0.022715
0.169528
0.036769
0.081292
-0.088868
0.154067
-0.161132
0.172334
-0.281144
-0.193675
-0.107391
-0.354822
-0.038253
-0.153953
-0.166083
-0.059867
0.083654
-0.025180
-0.161814
-0.119466
-0.117674
-0.185419
0.094540
0.044484
0.092710
0.171025
-0.070182
0.057283
0.120154
0.196837
-0.270796
-0.298695
-0.013732
0.069242
0.389091
0.159593
-0.191357
-0.049128
-0.230601
0.052534
0.010595
-0.175185
-0.099508
0.287444
0.174371
0.139547
0.230466
0.167628
-0.209549
0.088761
-0.080907
0.272268
0.206536
0.198295
0.112097
-0.299050
0.438020
0.058195
-0.059025
-0.087728
0.050419
-0.042620
0.143511
-0.368244
-0.106552
0.704521
0.143214
0.137561
0.124018
0.317831
0.383830
0.055606
-0.172562
0.061363
0.141782
-0.323151
0.140437
-0.080620
0.150704
0.015266
0.239575
-0.246204
0.102910
0.191833
-0.017002
0.506935
0.184459
0.175298
-0.223459
0.132364
-0.069298
0.097133
0.056639
-0.080286
-0.116041
-0.448511
-0.243182
0.126227
-0.089471
0.197759
0.194240
-0.128682
0.176787
-0.209215
0.153313
-0.105889
-0.412019
0.090868
-0.131252
0.016575
-0.024747
0.090709
0.465418
-0.164433
0.184131
0.019513
-0.005723
-0.042123
0.151046
0.019179
-0.119695
-0.033611
0.076868
-0.222418
-0.111267
-0.110795
-0.164452
-0.022513
0.123632
0.301837
-0.154649
0.225109
-0.065004
-0.079974
-0.030216
0.243347
-0.000052
-0.105660
-0.278566
-0.296473
-0.363919
0.299878
-0.208807
-0.036420
0.081539
0.396482
0.031203
0.389207
0.092501
-0.030367
-0.098332
-0.210255
-0.327067
0.223362
0.159499
0.220352
0.045184
0.036780
0.062636
0.272884
0.012105
-0.225225
-0.332877
0.213215
-0.087810
0.047924
-0.279794
0.049667
0.040408
-0.104370
0.072662
-0.219827
0.021239
0.040551
0.093857
-0.014365
0.137251
0.033594
0.200140
-0.032580
-0.140123
0.302158
-0.094967
0.143495
0.040808
0.033473
-0.151068
0.099452
0.162382
-0.120912
-0.023751
-0.266907
-0.241362
0.090996
-0.088001
0.085202
-0.288020
-0.084724
-0.153768
0.070268
0.065884
-0.097885
-0.041527
0.101092
-0.223969
0.064666
0.101876
0.023437
0.048102
-0.200093
-0.334844
0.002879
-0.314780
0.009326
-0.122239
-0.004808
0.101466
-0.006896
-0.240502
-0.033259
0.025255
-0.128988
-0.038055
-0.009122
0.006992
-0.105165
0.075832
-0.018616
-0.075265
0.122421
-0.288436
0.011806
-0.008083
0.045684
0.000767
0.029153
-0.029189
0.121683
0.042211
-0.292552
0.127046
-0.113761
0.103481
0.000253
-0.184938
-0.055555
-0.060150
-0.289870
-0.044818
-0.472171
0.022301
-0.016845
0.115569
0.169405
0.109801
0.343665
-0.286389
-0.084046
0.141194
-0.104789
0.029132
0.121696
-0.421918
-0.238129
-0.004020
-0.046430
-0.295329
0.015993
-0.152208
0.089599
-0.452807
-0.111560
-0.065260
0.303508
0.137185
0.191822
-0.328284
0.003923
-0.041213
0.055104
0.101725
0.323261
-0.113120
-0.444875
-0.169687
0.038235
-0.170221
-0.066094
-0.126129
-0.001531
0.081856
0.047508
0.054864
0.126464
0.182016
-0.008936
-0.299787
-0.127953
-0.155078
-0.102564
0.095387
-0.080364
-0.041798
0.064571
0.042269
-0.011788
-0.182165
0.049607
-0.340626
-0.217826
-0.086081
-0.044824
-0.264975
-0.184631
-0.039329
-0.284367
-0.085532
0.136444
-0.276834
-0.281324
-0.137990
-0.166143
-0.261506
-0.137445
0.063900
-0.409357
0.115831
0.164764
0.061740
0.163030
-0.114977
0.155275
0.087810
-0.096925
-0.170561
0.023474
-0.000605
0.058825
-0.374091
-0.077864
-0.324283
-0.383704
0.374416
-0.288442
0.030330
-0.187893
0.082685
-0.122635
0.156374
-0.087214
-0.368260
0.243885
0.041796
0.000464
-0.085189
-0.270456
-0.141797
-0.148533
0.127489
-0.144053
-0.395729
-0.172249
-0.069119
0.025777
-0.160796
-0.293490
-0.032740
-0.124127
-0.237763
0.017716
0.058646
0.140350
-0.138652
-0.391871
-0.270239
-0.103545
-0.116671
0.097477
-0.137071
-0.380994
-0.203827
-0.163999
-0.081353
-0.000040
-0.068570
0.103972
-0.198889
0.023659
-0.119398
0.039522
0.198832
-0.043155
-0.280191
-0.425548
-0.142279
-0.393579
0.066089
0.085588
-0.074467
-0.062730
0.227135
-0.178411
-0.284781
-0.474820
-0.289536
-0.022842
0.180641
-0.160634
-0.133354
-0.268537
-0.079435
0.269652
0.025437
0.023839
0.080251
-0.199243
-0.253874
-0.019011
-0.016862
0.250858
-0.210113
-0.226073
-0.033766
-0.042617
-0.122690
0.015648
-0.184101
0.148941
-0.393936
0.053055
0.074831
0.281594
0.158467
0.027104
-0.191560
-0.198025
-0.180257
-0.179591
-0.072400
0.075687
0.195424
-0.065080
-0.143828
-0.085892
-0.044004
0.039061
-0.045042
-0.146931
0.183085
0.302196
0.197536
-0.016964
0.006064
0.290942
-0.010641
0.238284
-0.260897
0.053044
-0.019161
-0.402250
-0.116402
-0.547384
0.348784
-0.182884
-0.000798
-0.314588
0.239865
0.197748
-0.245339
-0.156614
0.180415
-0.075664
-0.141799
0.179971
0.242517
0.171540
-0.052486
-0.168125
-0.122750
-0.037129
-0.083009
0.228747
0.092125
0.030814
-0.072192
0.301436
-0.320371
-0.313743
-0.023159
-0.120205
-0.151642
-0.054747
-0.216677
-0.083106
0.154545
-0.311300
-0.062002
0.150921
0.036871
0.098516
-0.005898
0.068581
-0.068764
-0.226879
0.200702
-0.050929
0.036619
-0.170084
-0.105272
0.144829
-0.003560
-0.199791
0.301727
-0.153027
-0.322037
-0.205426
-0.350233
0.034492
-0.039933
0.059566
0.219751
-0.369282
0.072985
-0.075521
0.035568
0.126491
0.351720
-0.039857
-0.065663
0.194466
-0.136552
-0.149350
-0.035935
0.205053
-0.136532
-0.043462
-0.086282
-0.077745
0.132060
0.024490
-0.227047
-0.204917
-0.088867
0.004493
-0.054694
0.032759
-0.083522
0.041604
-0.144668
0.069536
0.039111
-0.151195
-0.122153
0.225619
0.123742
0.060674
0.042465
0.156816
0.128763
-0.045746
0.271516
0.069185
-0.187595
-0.143016
-0.156134
-0.296011
-0.147417
-0.106267
0.088626
0.083455
0.220692
-0.000971
-0.018821
0.044405
-0.134012
-0.012752
0.285836
0.002565
0.294432
-0.204230
0.084654
0.066840
0.163816
0.005398
-0.116978
0.010413
-0.022020
-0.173577
0.100602
-0.108584
0.103962
0.029746
-0.129249
0.114571
0.165886
0.132461
0.203640
-0.288245
0.071927
-0.164236
-0.074387
0.173334
-0.006932
0.343107
0.041968
-0.102927
-0.135610
0.026049
0.094964
-0.190955
-0.124319
-0.015325
-0.038230
0.047919
0.079728
-0.088445
0.296255
0.044334
-0.250615
-0.186350
-0.128374
0.148232
0.085389
0.026089
0.260324
0.429918
0.072578
-0.047182
0.083970
0.145677
0.227849
-0.334558
-0.187947
0.052268
-0.327782
-0.292775
-0.235776
-0.320203
-0.021112
-0.079668
0.055018
-0.217917
0.027022
0.325136
0.199142
0.138222
0.130918
0.178142
-0.411453
-0.177450
-0.056080
-0.090790
-0.219764
-0.206114
0.086123
0.080279
0.013206
0.012470
0.346560
-0.064125
0.149482
-0.017996
-0.262952
-0.002048
0.242542
-0.309160
0.181108
-0.101359
0.030059
-0.135589
-0.090421
-0.030634
-0.415285
-0.111633
0.006412
-0.016602
-0.187503
-0.235697
0.022243
0.128456
0.380564
-0.185180
-0.222455
-0.088268
-0.142063
-0.168754
-0.306779
0.062589
0.116039
-0.033606
0.102909
-0.122131
-0.069690
-0.096033
-0.266129
-0.069495
-0.191158
0.025380
-0.308397
-0.085906
-0.194808
-0.054868
-0.119303
-0.081986
-0.082048
-0.018142
-0.104081
-0.128642
-0.192616
-0.283909
0.052913
-0.086503
-0.430060
-0.350299
-0.246562
-0.133748
-0.079327
-0.197023
0.065918
-0.125664
-0.286630
-0.255066
0.334721
-0.037095
0.019206
-0.134217
-0.266104
-0.059053
-0.317152
-0.540556
0.158060
-0.239837
-0.162959
-0.091274
-0.215164
-0.637067
-0.054718
-0.209344
-0.289466
0.164291
-0.032521
-0.124485
-0.161866
-0.009350
-0.116297
-0.119416
0.052769
-0.317131
0.036295
-0.259746
-0.061196
-0.083903
0.166894
0.049056
-0.114142
-0.150099
-0.096314
0.028233
-0.104748
-0.200974
-0.239300
-0.121153
-0.118500
0.176281
-0.247362
-0.187351
-0.031511
-0.012693
-0.044529
0.084243
-0.060276
-0.172115
-0.211037
-0.212479
-0.237059
-0.280666
-0.148146
-0.135357
0.015558
0.051482
-0.374495
-0.431956
0.148178
-0.012012
-0.309947
-0.206110
-0.132946
-0.257932
-0.107156
-0.336512
0.050620
0.154360
-0.513479
0.038244
0.073035
0.189285
0.031433
-0.115176
0.107611
0.397107
0.204020
0.091010
0.045699
-0.086943
-0.206527
0.009455
-0.097480
-0.022152
-0.071892
-0.145032
-0.444095
0.045860
-0.207208
-0.161697
0.007959
-0.070819
-0.105939
-0.201279
-0.291380
-0.163266
0.023846
0.035155
-0.256851
0.165180
0.086438
0.091578
-0.095784
-0.040052
0.079161
-0.082272
0.161474
-0.153691
-0.168840
-0.288250
-0.092149
-0.035456
-0.207036
-0.142202
-0.139102
-0.302339
0.046211
0.048622
0.000900
-0.006350
-0.052259
0.123186
-0.148537
0.061240
-0.009512
-0.092079
-0.196421
-0.031052
-0.095027
0.038371
-0.066722
0.040501
0.140114
-0.020125
0.119554
-0.299208
-0.022640
-0.294756
0.085247
0.045392
-0.124951
-0.042561
0.121262
0.126590
-0.137473
0.119452
0.027716
0.048398
0.085456
-0.319414
0.043502
-0.332594
0.125126
0.127713
-0.173036
0.016309
0.127638
-0.109162
0.126498
0.143913
-0.046479
0.032625
0.180684
-0.064809
-0.096759
-0.187388
-0.053755
-0.018479
0.164846
0.034992
-0.157536
0.013599
-0.056155
0.209042
0.077353
-0.082371
-0.011480
-0.214779
-0.185593
0.196567
-0.269987
-0.258660
-0.031103
0.124349
0.045849
-0.051480
0.144012
0.308369
0.012233
-0.124510
-0.142661
-0.046691
0.061452
0.112482
0.173000
0.065712
0.060844
0.137296
-0.254383
0.127369
0.131937
-0.089087
0.090650
-0.079457
-0.017807
0.208490
0.187330
0.087954
0.281222
0.309699
0.331521
-0.077560
0.096044
0.067103
0.165077
0.046232
0.021294
-0.053681
-0.082369
0.000876
0.199743
0.098327
0.111641
-0.337412
0.189478
-0.247230
-0.150417
-0.278193
-0.187745
-0.075125
0.303359
-0.412624
-0.210612
-0.061298
-0.192524
0.117750
0.225341
-0.268345
0.074696
-0.085051
0.169506
0.094511
0.018398
0.216899
0.200905
-0.102992
-0.174018
0.183580
0.235594
0.168284
-0.077544
0.248284
-0.056248
0.298603
0.296342
-0.070939
-0.170259
-0.117284
0.402502
0.182811
-0.027908
0.247056
-0.103284
-0.344963
0.174141
0.260249
-0.035600
-0.084768
-0.109435
-0.149536
0.134926
-0.267295
-0.285988
0.131451
0.077869
-0.387126
0.254411
0.038652
-0.293958
-0.040234
-0.205704
-0.008362
-0.159694
0.123905
0.189172
0.130356
-0.259071
-0.173982
0.062803
0.052036
0.358771
0.066169
-0.048503
-0.069977
-0.010939
-0.101847
0.224710
-0.045866
-0.162198
-0.368785
0.143198
0.128832
0.208410
0.182476
0.169592
-0.047315
0.190144
-0.053108
-0.566404
0.216445
0.001176
0.087249
0.102010
-0.100925
0.181891
0.109550
-0.002271
-0.433224
0.198487
-0.011123
0.089887
-0.030505
0.167935
-0.407145
0.016359
-0.116210
0.421606
-0.008323
0.257431
-0.135225
0.012318
0.067091
-0.078935
-0.231267
0.085864
0.018321
0.071370
0.310868
-0.076496
0.210687
0.144678
0.023787
0.166008
-0.138868
-0.181516
-0.217848
0.291569
0.292314
-0.309352
-0.287717
-0.064579
0.370803
-0.182876
0.418249
-0.125586
0.080763
0.302251
0.153465
-0.070060
0.605092
-0.007708
0.120200
0.188829
-0.374709
-0.192704
0.209036
-0.261990
0.566988
0.109480
-0.038993
-0.288548
-0.077429
-0.193364
-0.002113
0.027819
0.343422
0.102352
-0.017840
-0.335564
-0.398751
0.021426
0.095291
-0.117444
0.257805
-0.277611
0.053948
0.216849
-0.142172
0.301471
-0.257344
-0.309754
-0.240403
-0.032945
-0.202769
-0.085242
0.089349
-0.156422
-0.107559
-0.260813
-0.008792
-0.002038
0.103728
-0.246783
0.165569
-0.200122
-0.077301
0.283532
0.001801
-0.125573
0.474028
0.480058
0.287309
-0.153344
0.148705
-0.469893
-0.088843
-0.062068
0.008018
-0.077576
0.075288
0.025408
-0.148192
-0.272749
-0.198095
-0.337077
0.152655
0.498665
0.657949
0.015946
0.217600
0.265258
-0.142556
-0.124435
-0.092578
0.028420
-0.202544
-0.099418
0.022632
-0.253808
-0.142553
-0.511507
-0.057816
0.003931
-0.157652
-0.268151
0.060702
0.151984
0.399637
-0.026436
0.275988
-0.029944
-0.219673
-0.052497
0.395977
-0.396530
-0.268217
-0.127521
-0.016116
-0.181358
0.046045
-0.127621
0.028251
-0.045834
-0.210541
-0.211335
0.088294
0.042154
-0.358457
0.040394
-0.086874
-0.155831
-0.217208
-0.142431
-0.036452
0.161519
-0.076655
-0.459864
-0.116863
0.315408
0.251716
-0.278296
0.020614
-0.054293
-0.144040
-0.080992
0.072015
-0.041758
0.101361
-0.081985
0.035519
-0.219307
-0.060859
-0.143057
0.167669
-0.183946
0.124112
-0.229727
-0.075392
-0.248800
-0.184961
-0.079602
-0.036046
-0.299933
-0.101988
-0.015498
-0.168592
-0.086179
-0.338998
-0.402553
-0.207197
-0.078746
-0.272713
-0.073327
-0.113555
0.014418
-0.061144
-0.007586
-0.204104
-0.216729
-0.225962
0.221184
-0.109111
-0.213827
-0.246301
0.020786
-0.200579
-0.010173
0.122297
-0.039213
0.092906
-0.183764
-0.057221
-0.010555
0.164733
-0.330196
-0.166289
-0.127176
-0.076086
-0.351433
-0.085457
-0.207159
-0.226476
-0.286885
-0.298198
-0.099019
0.042867
-0.179053
-0.202653
-0.456241
-0.414828
-0.301009
-0.141664
-0.243561
-0.159205
0.205978
0.204837
-0.250889
0.160288
0.073846
-0.120910
-0.040322
-0.202526
-0.142297
-0.100928
-0.243546
-0.203708
-0.043771
-0.205442
-0.210444
-0.172447
-0.355964
-0.121365
-0.415244
-0.066152
0.062575
0.077417
0.082360
-0.450221
-0.049236
0.099572
-0.329477
0.408734
-0.056428
-0.014378
-0.189439
-0.268118
-0.057088
0.083233
-0.130800
-0.076083
0.070275
-0.306063
-0.157928
0.011979
-0.541551
0.029430
-0.249495
0.122695
-0.008566
0.390817
-0.246507
0.201892
-0.266532
0.165716
-0.073426
-0.218574
0.004484
-0.013354
-0.263979
0.398075
-0.490944
-0.062562
0.712525
0.051806
0.148725
0.066222
-0.165849
0.270265
0.187535
-0.243253
0.139207
0.274181
0.231991
0.168891
-0.229146
0.374579
0.226411
0.010358
-0.196259
0.036638
0.078486
0.053199
0.161872
-0.369257
-0.007676
0.327910
0.088753
0.158751
0.259861
0.673589
0.256896
0.147546
-0.061069
0.226007
-0.060344
0.132897
0.042322
-0.034072
0.098648
-0.041026
-0.100812
-0.012022
-0.002482
-0.468168
-0.255985
-0.080941
-0.259009
0.135211
-0.069122
0.195996
0.034951
-0.295102
-0.222613
-0.120854
-0.257233
0.276958
-0.181721
-0.458531
0.027697
0.157165
-0.060965
-0.004379
-0.069635
0.602188
0.069523
-0.086079
-0.290692
-0.067821
0.271122
-0.039254
-0.177806
-0.108003
0.057427
0.152802
0.321235
0.101141
0.209641
0.221481
-0.532270
0.055118
0.027806
0.018568
-0.159285
-0.424685
-0.049163
0.055051
0.046663
0.101290
0.069128
-0.339976
0.004763
0.358130
-0.304331
0.359029
0.215605
-0.063977
-0.010321
0.097049
-0.074986
0.093075
0.064434
-0.246420
-0.060803
0.094419
0.108515
-0.324258
0.101257
-0.215337
0.045308
-0.097528
0.030801
0.168092
0.045658
0.191945
0.029987
0.000270
-0.189994
-0.104493
-0.159923
0.107743
0.042177
-0.054296
-0.199524
0.185091
-0.145828
-0.372983
-0.055120
0.023397
0.046572
0.170486
0.183010
0.161449
0.032276
-0.259197
0.162469
0.188320
-0.061885
-0.336877
-0.245611
0.121959
0.067212
-0.323465
-0.154874
-0.215497
0.246563
0.079518
-0.068894
0.333200
0.025438
-0.011837
0.118545
0.092770
-0.058522
-0.417472
-0.166955
-0.036698
-0.158010
0.039984
-0.130921
-0.065668
0.075978
-0.228791
0.153875
0.196627
-0.155530
0.133743
-0.035379
0.049237
0.478455
0.146793
-0.138131
-0.045164
0.326044
0.095010
-0.106930
-0.169821
0.040398
0.277237
-0.071737
-0.170018
-0.391103
-0.044439
-0.183853
-0.115955
-0.143883
0.051629
-0.015965
0.034878
0.083875
-0.006178
-0.093460
-0.246568
-0.234606
0.176622
0.202420
-0.087530
-0.241841
-0.105810
0.231461
0.033448
0.129830
-0.121690
-0.201129
-0.324229
-0.189655
-0.004050
0.120436
-0.069213
0.050398
0.113503
0.114384
-0.217103
-0.301682
-0.120487
0.210615
0.057516
-0.072735
-0.087807
0.071721
-0.115171
0.020502
-0.119199
-0.099703
0.310955
-0.230091
-0.041703
0.195280
-0.329061
-0.198521
0.070080
-0.016544
0.093483
-0.014367
0.052936
0.158623
0.115773
-0.180557
0.017164
-0.283246
-0.085464
-0.070998
0.040627
-0.008553
0.095496
-0.186916
-0.018502
-0.188054
-0.071938
-0.155676
0.009566
0.100414
-0.085017
-0.053084
0.159941
-0.161010
-0.199287
-0.088289
-0.174565
-0.371456
-0.282126
0.031929
-0.183249
-0.171490
-0.239707
-0.164955
0.000578
-0.011818
-0.035402
-0.078708
-0.029805
-0.133186
-0.296055
-0.101491
-0.143272
-0.077027
0.113393
-0.332916
-0.159320
-0.044321
0.048824
-0.171603
0.009738
-0.060009
0.064648
0.028813
0.225454
-0.569330
0.057338
-0.202560
0.195621
-0.385647
-0.026353
-0.052047
0.062143
-0.197220
-0.041718
-0.534965
0.008195
-0.081957
-0.186691
-0.254166
0.068621
0.078212
0.019708
-0.115183
-0.136180
0.072567
-0.050127
-0.172987
-0.368287
-0.220117
-0.001529
0.075819
0.190344
-0.097904
-0.065336
0.106007
0.140956
-0.168147
-0.217217
0.097014
-0.296130
-0.415527
-0.233010
-0.099218
-0.198679
-0.055659
-0.345880
-0.027680
-0.082948
-0.350859
-0.100232
-0.208868
-0.118881
-0.031097
-0.024664
0.093210
-0.071158
-0.108578
-0.066922
-0.296869
-0.263362
-0.125088
-0.361464
-0.110932
0.081460
-0.358057
0.065446
-0.016927
0.105008
-0.222097
-0.298591
-0.047621
0.089010
0.060593
-0.134786
0.009903
0.239744
-0.317487
-0.131250
-0.389771
0.014992
0.118260
0.130296
0.087662
-0.007813
0.014740
0.048296
0.143141
0.043539
0.073042
-0.261616
-0.086915
-0.136935
-0.035769
-0.078908
0.014936
-0.252066
-0.011460
0.130859
-0.128586
0.015019
-0.331812
-0.097488
-0.229617
0.001122
-0.158820
-0.148267
0.036422
0.077287
-0.072364
0.172993
0.108310
-0.114593
0.070560
0.072477
-0.265497
-0.008589
0.124537
-0.009536
0.083867
0.089672
-0.067683
0.031506
0.001270
-0.047452
-0.059343
-0.164740
0.013259
0.140246
-0.015436
0.042223
-0.100094
0.054799
0.209976
0.107985
-0.174131
-0.043893
0.225505
0.119388
-0.130250
-0.302129
0.065609
0.012915
0.066029
-0.050025
0.072524
-0.262536
-0.033195
-0.216341
0.030885
0.134015
0.161792
-0.188813
-0.086098
-0.449311
0.002033
-0.389545
0.082440
0.161523
0.227647
-0.253747
-0.065969
-0.166186
0.039694
0.133033
-0.081411
-0.084012
0.308210
-0.242848
-0.052700
0.237630
0.311353
-0.102387
0.224160
0.037118
0.035282
0.015819
0.028419
-0.284038
0.059421
0.046964
-0.229989
-0.139079
-0.217491
0.203143
0.010400
-0.119217
-0.180029
-0.021683
-0.057911
0.185312
0.141674
-0.178826
0.185721
0.040887
-0.130798
0.047422
0.080212
0.098617
0.363684
0.030777
-0.304190
0.008097
-0.121134
-0.110281
0.306112
0.189842
0.005178
-0.286917
-0.326502
0.194764
-0.008895
0.116155
-0.002458
-0.113953
0.059158
-0.313476
-0.024416
-0.265115
-0.232294
-0.142530
-0.026579
0.225639
0.002165
0.198004
0.065540
-0.105151
0.281993
0.028175
0.028165
-0.304745
-0.114738
-0.191281
-0.192965
-0.272199
-0.235782
-0.126349
-0.315425
-0.078349
0.055942
-0.393088
-0.007686
-0.046488
-0.019864
0.192548
0.181554
-0.120728
-0.212691
0.312195
0.321649
-0.196948
-0.075245
0.051924
0.110357
-0.172863
-0.122492
-0.015416
0.054497
0.131427
-0.242348
-0.256258
-0.117398
-0.453831
0.020266
-0.309474
0.059928
-0.345086
0.101408
-0.082429
0.051978
0.052168
-0.281724
-0.226155
0.147157
0.233619
0.254142
-0.412441
-0.154573
-0.193945
-0.173386
-0.126647
-0.470620
0.023509
0.016055
-0.084997
-0.203586
-0.084400
0.243579
-0.200865
-0.125538
-0.384287
-0.407561
0.106982
-0.044549
-0.239634
-0.121997
0.176630
-0.153282
-0.357975
-0.253018
0.008545
-0.099930
-0.094672
-0.072654
0.094951
-0.445754
0.065488
0.185374
-0.087870
-0.235559
0.067941
0.071757
-0.284685
-0.266907
-0.018675
0.274181
-0.354638
-0.137886
-0.288703
0.384562
0.198052
0.176564
-0.430359
0.101113
-0.013415
0.213148
-0.051868
0.169834
-0.388312
0.026523
0.099967
-0.037590
0.121345
-0.047030
-0.001246
0.053408
0.214883
0.177804
0.229625
0.303010
-0.045198
-0.026851
0.266467
0.247060
0.484133
0.086386
0.073068
-0.129998
-0.149843
-0.072671
0.223399
0.132586
0.223201
-0.031059
-0.094347
-0.013329
0.007610
-0.111557
-0.235081
0.067590
0.004542
0.004586
0.132536
-0.250191
0.057677
-0.231113
0.078379
-0.026562
0.171399
0.210575
-0.233756
-0.056240
0.093724
-0.154723
0.108772
-0.346473
0.536432
-0.071925
0.142977
-0.031074
-0.290331
-0.084201
0.026500
-0.237040
0.287641
0.143482
0.239670
-0.161390
0.127148
-0.177548
0.033310
-0.026579
-0.067572
-0.170537
0.204291
-0.029810
0.169957
-0.100489
0.109216
0.193527
0.046735
-0.012830
0.074605
0.154271
0.037718
0.234576
-0.001144
0.082665
0.031602
-0.037759
-0.325300
-0.003054
-0.004151
0.001949
0.252791
0.040884
0.013934
-0.344593
0.186491
-0.279515
0.115523
-0.024344
0.216511
0.197997
0.133985
0.288751
-0.040078
-0.142531
0.019694
-0.095447
0.254785
-0.212948
0.088836
0.273003
-0.013294
0.149532
0.253383
-0.162802
0.020949
0.059827
-0.303518
0.345444
-0.170017
0.041292
0.122799
-0.068333
-0.065814
0.163650
0.391506
0.035792
-0.258183
-0.041144
0.128296
-0.054922
0.083102
0.105051
0.044147
0.266481
0.074246
0.287780
0.127900
-0.088327
-0.086867
-0.246974
-0.067903
0.022134
0.091289
-0.125164
0.117048
-0.382522
0.014925
-0.000232
-0.039608
-0.239821
0.073801
0.239183
-0.162084
-0.204121
0.095137
0.082431
0.035518
0.201402
-0.001045
0.320015
0.114890
-0.321192
-0.238514
0.098878
0.097010
0.025505
0.105925
-0.461249
0.280070
-0.146929
-0.054442
0.009052
-0.197036
-0.041866
0.308170
-0.022996
0.208374
-0.221233
-0.105001
0.152466
0.103209
-0.158440
-0.108538
-0.330229
-0.164776
0.165457
-0.014348
-0.162975
-0.103602
0.112004
-0.031865
0.183694
-0.223058
-0.045946
0.090228
-0.029031
0.007756
-0.013855
-0.100867
-0.495890
0.069163
-0.192694
0.132425
-0.194723
-0.352278
-0.082852
0.011366
-0.273086
0.348170
-0.073239
0.264947
-0.056348
-0.289741
0.247032
0.182181
-0.419420
0.189555
0.070042
0.050799
-0.014635
0.062457
0.137792
-0.105843
-0.068680
-0.083398
-0.108684
-0.153422
0.042305
-0.109340
-0.099112
0.065817
0.049271
0.153101
-0.024947
0.013605
0.185192
0.173445
-0.078181
0.204245
0.241405
-0.172969
-0.119229
0.000659
0.061940
-0.375727
-0.121588
0.174019
-0.017060
-0.089851
0.109090
-0.145521
-0.179111
-0.074122
-0.415785
-0.153633
0.123029
0.265408
0.100503
-0.392855
-0.197709
0.201535
-0.010495
0.378522
-0.058073
0.264063
0.205614
-0.030388
-0.196552
-0.201855
0.037984
0.109688
0.224389
-0.170409
0.167955
-0.054042
-0.129653
-0.068347
0.021507
0.027876
-0.234929
0.215569
0.047752
-0.060837
-0.019115
-0.061613
0.208717
-0.113550
-0.022352
0.087351
0.038901
-0.195954
-0.106225
-0.156441
-0.691890
-0.276923
0.249376
-0.307594
-0.224310
-0.074901
-0.107567
0.143335
-0.241014
-0.131249
0.056123
-0.246220
0.041583
0.057886
-0.034330
0.028672
-0.179558
0.050240
0.102143
-0.204640
-0.071383
-0.076748
0.129827
-0.225188
0.143134
0.118414
0.069843
-0.016475
0.159705
0.182158
0.165497
0.140879
0.084607
0.122808
0.124155
-0.099149
0.146838
0.048352
-0.204825
0.086217
0.104962
-0.234909
0.301400
-0.180065
-0.030275
-0.056019
0.081756
0.097709
0.158032
-0.188725
-0.369813
-0.541301
0.019899
-0.344162
0.053203
-0.194170
-0.127249
-0.066639
0.260652
-0.000896
0.104387
-0.040899
-0.024188
-0.123852
0.126726
0.166824
0.386783
0.059958
-0.006654
0.053130
-0.064362
-0.388026
0.233312
-0.199184
-0.000651
0.080120
-0.480599
-0.329644
0.066423
0.143087
0.121992
0.012316
0.079294
-0.113478
0.078937
0.239783
0.008432
-0.124631
0.143981
0.213449
-0.103040
-0.178505
-0.033656
0.222572
0.074222
0.050412
-0.061008
-0.069695
-0.057964
-0.421864
-0.148489
-0.196682
0.169315
-0.044117
0.250686
0.472043
0.332838
0.065128
-0.050029
0.179622
0.048219
0.525003
0.338012
0.103638
-0.272124
0.137885
-0.098396
-0.000156
-0.090963
-0.299222
0.059274
0.135833
-0.232661
-0.253822
-0.017397
0.083936
-0.118483
-0.136316
0.107022
0.154368
0.258169
-0.210033
0.067431
-0.286441
0.398781
-0.094703
0.072315
-0.131571
0.122292
-0.252055
0.080347
0.040626
-0.204241
-0.067375
0.092079
-0.115611
0.126445
0.036221
-0.205105
0.407254
0.265336
-0.240994
0.108259
0.150133
-0.111076
-0.275748
0.355736
0.114609
0.151859
0.057426
0.027922
0.108066
0.185746
0.086741
-0.081409
0.171556
0.317196
-0.221767
-0.296126
-0.440370
0.054485
0.053209
0.148760
0.044813
0.038005
0.141732
0.231527
0.073245
0.448334
0.046810
0.363547
-0.033467
-0.411699
-0.068013
0.073217
0.089593
0.009588
-0.172492
0.234271
0.150428
0.161951
-0.199452
0.216956
-0.034460
-0.050981
0.063489
0.283019
0.274813
0.018119
-0.112914
0.291269
-0.216159
-0.042789
0.014626
-0.023366
-0.168533
0.024117
0.024354
0.138486
0.025419
0.158764
0.091504
0.198030
-0.169030
-0.025586
0.157463
-0.153147
-0.248500
-0.175179
0.060251
-0.003262
0.025031
0.084838
0.250553
-0.157316
0.093546
-0.005923
-0.180637
0.190047
0.078639
-0.161656
-0.207138
0.009014
0.063294
-0.001349
-0.038561
-0.137074
-0.034658
-0.133942
-0.118455
-0.232640
-0.092116
-0.020877
-0.171119
0.173746
0.359694
-0.086580
0.156908
0.168546
-0.287715
-0.085389
0.092448
-0.069129
-0.172444
-0.009421
-0.189818
-0.077496
-0.117301
0.145153
-0.201882
-0.136318
-0.078132
0.082460
0.042599
-0.391196
-0.138835
-0.294215
0.119909
0.196136
-0.051083
-0.113875
-0.034404
-0.081387
-0.133269
-0.045787
-0.212526
-0.322686
0.025365
-0.039755
-0.167139
0.169844
-0.408802
-0.310704
-0.021417
0.119268
0.065161
0.175742
-0.213930
0.074922
-0.090831
0.052001
-0.050949
0.241184
-0.137540
-0.128234
0.076917
0.232439
0.084090
0.218779
-0.289242
-0.109679
-0.043303
0.079977
-0.042946
-0.138603
0.023903
-0.093000
-0.208704
-0.088486
-0.079092
-0.006459
-0.074521
-0.109035
-0.061411
-0.357156
0.018039
0.132913
-0.122261
-0.158164
-0.061196
0.042218
-0.108622
-0.050737
-0.323881
0.106985
0.099450
-0.298006
-0.005732
-0.397666
0.004333
0.197800
-0.002013
-0.031810
0.108731
-0.339411
-0.295222
-0.275189
-0.149557
-0.015669
-0.100478
0.027647
0.297386
-0.201560
-0.279608
-0.112187
0.059594
-0.134856
-0.064994
-0.168157
0.185027
-0.281565
-0.203108
-0.172118
-0.021459
-0.110822
-0.212189
-0.053991
0.023867
0.060511
0.059495
-0.071565
-0.056353
0.000461
0.323974
0.010580
-0.335330
0.134745
-0.365025
0.233073
-0.146030
-0.250642
0.083604
-0.245311
-0.096336
0.109812
-0.030408
-0.281206
-0.324559
-0.349968
0.093587
-0.244714
-0.275174
-0.212652
0.083088
-0.188532
-0.016986
0.129469
-0.258162
-0.332690
0.073701
-0.316510
-0.061511
-0.181275
0.145545
-0.490475
-0.210567
0.035012
0.094626
-0.165152
0.047393
-0.156167
0.141801
0.089829
-0.050776
-0.231469
-0.022116
-0.147795
-0.106279
0.048460
-0.034264
-0.264986
0.037735
-0.337013
-0.086357
0.211853
-0.065444
-0.126820
-0.106613
-0.110193
0.166643
0.040920
0.073038
-0.573150
0.018957
0.254360
0.142966
0.050545
0.024996
0.020682
0.069666
-0.123219
-0.245813
0.005438
-0.024613
-0.300633
-0.139530
0.032390
-0.133102
0.110770
-0.187469
-0.213808
-0.054893
-0.291268
0.077365
-0.236465
-0.161238
-0.148154
-0.078419
-0.131126
-0.438786
-0.052509
-0.029032
-0.037588
-0.164200
-0.178216
-0.220921
-0.176439
-0.143313
0.045481
-0.197455
0.036882
-0.313530
-0.059538
-0.087599
0.000142
-0.241150
0.020099
0.000175
-0.363855
0.064395
0.029990
0.064925
0.170274
-0.118663
0.015059
-0.043208
0.307108
-0.020552
0.245789
0.124045
-0.293656
-0.213710
-0.062008
0.209925
-0.152426
-0.352753
0.134395
-0.268423
0.048067
0.130111
-0.025625
0.051261
-0.119377
0.118239
0.021704
0.225218
0.142650
-0.095866
-0.327236
-0.154039
0.254804
0.097405
-0.112158
-0.249346
0.020038
-0.182237
-0.023308
-0.204284
0.061584
-0.434249
0.176687
-0.157648
-0.033267
-0.009681
0.165926
-0.332777
0.182865
-0.359840
-0.104780
0.132146
0.030532
-0.164207
-0.162493
-0.348107
0.203880
-0.036168
-0.114887
-0.027968
-0.248307
0.053853
-0.008099
-0.142996
-0.338956
0.338478
-0.207586
-0.118195
-0.065711
-0.191275
-0.086167
-0.260732
0.185887
0.022545
-0.011179
-0.011586
-0.095163
0.114085
-0.025465
-0.154112
-0.305658
-0.072469
0.156071
0.066835
-0.096708
-0.161899
-0.177844
-0.171202
0.331683
-0.103005
0.042399
-0.241714
0.197330
0.172802
0.260319
0.133320
0.247420
-0.307253
-0.406277
0.189299
-0.040139
-0.082823
0.062168
-0.196411
-0.073525
-0.180424
-0.136314
-0.059180
0.129662
-0.331141
-0.067201
-0.077641
0.002926
-0.125091
-0.326607
-0.185985
-0.043623
-0.158439
-0.257892
-0.112259
-0.204730
-0.276606
-0.326907
0.096489
-0.112380
-0.213685
-0.237153
0.387588
-0.324252
0.083651
-0.199854
-0.096366
-0.014623
0.083668
0.134596
0.050469
-0.103477
-0.083300
-0.091714
0.193595
-0.037514
-0.057599
0.086524
-0.025313
-0.124346
0.274257
-0.147211
0.149761
0.007920
0.074119
0.332067
0.141868
-0.315021
0.309881
-0.215302
-0.031831
0.030670
0.237959
-0.269385
0.216174
-0.134643
0.161338
-0.245835
0.009619
0.102422
0.000377
-0.003142
-0.131004
0.187776
0.281893
-0.263230
0.552815
0.089484
0.146311
0.133937
-0.038233
0.154043
0.039218
-0.098658
0.255998
0.025538
-0.428586
0.146433
-0.135702
0.120070
0.036161
-0.253370
0.153795
0.132303
0.243473
0.197730
0.363985
0.354446
0.015903
0.230618
-0.005327
0.097231
0.367578
0.040991
0.012972
-0.236368
-0.009742
-0.078020
-0.244818
-0.016729
-0.002727
0.195717
-0.019067
0.053239
0.229465
-0.056053
0.115994
-0.123399
-0.108585
-0.020037
0.058458
0.277838
-0.123195
0.018718
-0.067013
-0.055899
0.143199
0.109724
-0.169330
-0.144317
0.094840
0.094517
0.079970
0.215909
0.141434
0.087796
0.308020
0.136238
-0.042242
0.123021
-0.005550
0.006716
-0.082600
-0.233238
-0.067435
-0.008580
-0.064022
-0.103882
-0.028345
-0.065933
0.178723
0.183922
0.065592
0.203963
0.042478
0.249599
0.131428
0.089943
-0.271005
0.051080
0.059346
-0.087391
0.025388
-0.032021
0.131067
0.278775
-0.091983
0.015438
-0.374076
0.121256
0.073695
0.375953
0.003577
0.190816
-0.031934
-0.258996
-0.111798
-0.011763
0.265032
-0.011052
-0.226256
0.100814
-0.203434
-0.118393
-0.069755
-0.207131
0.115518
-0.224835
0.163129
-0.057146
0.116359
-0.064657
-0.041755
0.241162
-0.366715
0.215250
0.087735
-0.115238
-0.340199
-0.003630
0.382061
-0.033350
-0.270258
0.255986
0.156833
-0.123299
-0.028345
0.106112
-0.048129
0.220726
0.015928
0.081471
0.012667
-0.075704
0.418571
0.078228
0.347269
0.261780
-0.235986
-0.097875
0.141748
0.298828
-0.188445
0.253463
0.022869
0.030315
0.169098
0.235739
-0.113447
0.080194
-0.016918
0.030638
0.104956
-0.212053
-0.090238
-0.524768
-0.185225
0.350476
-0.265119
-0.004016
0.100263
-0.045957
-0.192241
0.169696
0.188572
0.003947
-0.045042
0.070422
0.247681
0.124182
0.153517
-0.121252
-0.400804
0.046404
-0.060487
-0.004804
0.026944
-0.013072
-0.442783
-0.125566
0.049243
0.003295
0.088966
-0.038678
0.479003
0.041265
-0.076614
0.095176
0.023972
0.073767
-0.374494
-0.024887
0.058019
-0.012505
0.106723
0.353720
-0.028105
-0.029561
0.285905
0.244133
0.210269
0.047093
0.336693
0.064988
0.000136
0.113336
0.107323
-0.159588
-0.286391
-0.053194
0.179513
0.117756
-0.095690
0.178672
0.294849
-0.281666
-0.003216
0.023633
0.148089
0.014552
-0.371180
0.081487
-0.129291
-0.004006
0.225011
-0.021190
0.183406
0.186393
0.300670
-0.276698
-0.308820
0.181460
-0.028670
-0.537783
-0.095749
-0.216874
0.225974
-0.190415
-0.139589
-0.078149
0.097205
0.020962
0.441986
-0.238137
-0.079921
-0.076937
0.100599
-0.194101
-0.096551
-0.208640
0.111856
-0.408305
-0.018727
0.287301
-0.082707
0.203312
0.007172
-0.139565
-0.009188
-0.049648
0.172206
-0.210847
0.035293
-0.225566
0.034146
-0.081619
0.056079
0.310879
0.016060
-0.193178
0.017634
0.047824
0.138363
-0.043485
0.018803
-0.000037
-0.019876
0.061346
-0.156401
0.099565
0.100738
0.052863
0.011151
-0.093533
0.077155
-0.177568
0.198530
0.147712
0.201140
0.147993
0.163509
-0.050132
0.050938
0.246146
-0.173821
-0.259174
0.127197
-0.086809
0.480714
-0.054453
0.070271
0.305407
-0.046176
-0.026973
-0.216495
0.121568
0.263010
0.130117
0.129119
0.079775
0.239994
0.062052
-0.052969
0.320159
0.301600
0.244213
-0.084554
0.051802
-0.084370
0.022810
-0.224817
-0.024644
-0.311787
-0.145024
-0.007781
-0.091684
0.228607
0.120346
-0.006624
-0.126325
-0.178672
0.028526
0.173253
-0.153897
-0.403214
-0.070539
0.103055
-0.003819
-0.215069
-0.178573
-0.220472
-0.027809
0.042251
0.118693
0.114727
0.136052
0.224530
-0.262228
-0.044532
0.087280
0.019788
0.234544
-0.061025
-0.135012
-0.011737
-0.179165
0.129114
-0.242333
-0.189323
-0.052771
-0.385484
-0.109127
-0.112747
0.093122
0.071544
-0.169230
-0.269839
0.358710
-0.161535
0.228971
0.067245
-0.133281
0.207461
-0.027882
0.017866
-0.186804
0.027394
-0.066553
-0.197462
-0.030820
-0.073369
0.191797
0.139291
-0.008898
0.017941
0.036917
-0.118607
-0.354851
0.135355
-0.012976
0.098448
-0.134900
-0.154562
-0.067271
-0.076296
0.170281
0.073465
-0.081653
0.084052
-0.042868
-0.082527
-0.417540
-0.011257
0.223651
-0.030218
0.098177
-0.097024
-0.175431
0.024102
0.089274
0.000358
-0.002812
0.099992
0.194016
0.073631
-0.331036
0.234787
0.086647
-0.372248
0.054558
0.116875
-0.111601
-0.240023
-0.059246
-0.518849
-0.145031
-0.062174
-0.076216
-0.107012
0.113618
-0.008820
-0.023740
-0.108910
-0.077273
0.035622
-0.026186
-0.066119
-0.012886
0.018207
0.195600
-0.239581
0.273624
-0.054056
-0.014352
-0.145286
0.137855
0.273565
0.093968
-0.053037
-0.268504
-0.152378
-0.093678
-0.136372
-0.464900
-0.170827
-0.113016
0.001880
-0.218095
-0.196188
-0.350340
-0.050638
-0.027065
0.109191
0.047786
0.054852
0.322313
-0.092712
-0.465135
0.105809
0.047027
0.164817
0.425909
0.261173
0.049686
-0.008219
-0.319024
-0.230587
0.388087
-0.082719
0.178417
0.043679
-0.093698
0.088084
0.185623
0.001490
-0.060906
-0.289916
-0.458037
0.007198
-0.020264
0.288446
-0.243987
-0.001546
0.129582
0.231468
-0.076533
-0.180776
-0.069735
0.220692
0.192802
0.267056
-0.188181
-0.084394
0.014409
0.098805
0.090555
-0.195969
0.294919
0.190837
-0.010983
-0.128072
0.048514
-0.077820
0.032260
-0.065096
-0.020163
-0.046406
-0.240176
-0.404678
-0.131672
-0.136585
0.013673
-0.076907
-0.114390
-0.277493
-0.006374
0.275147
0.120964
0.214585
0.003687
-0.210594
-0.265516
0.069760
-0.564034
0.005267
0.057291
0.258858
-0.401385
-0.285444
0.057914
0.017655
-0.178995
-0.204541
0.050487
-0.089561
0.052472
0.131654
-0.384883
0.223771
0.120191
0.048163
-0.070374
-0.003953
0.159619
0.213050
0.131484
-0.208145
-0.081884
0.043095
0.109646
-0.016885
-0.136764
-0.068912
0.010426
-0.048935
-0.230161
0.221292
-0.600293
0.137622
-0.036675
-0.287167
-0.021524
0.174511
0.274221
0.030551
-0.273672
0.063813
-0.100569
-0.074440
0.114643
-0.321430
-0.154391
0.117666
-0.248795
0.077437
0.324750
0.052637
0.160621
0.078699
-0.036300
0.110684
0.076548
-0.117968
0.213951
0.036256
-0.136512
0.037868
-0.103711
-0.339286
0.031234
-0.192278
-0.129424
0.122128
0.017240
-0.219641
-0.220894
-0.038194
-0.140982
0.242563
0.020039
-0.089166
0.200885
-0.312557
-0.128361
0.270791
0.087773
0.089195
0.046870
0.208805
-0.172545
-0.128044
0.239524
-0.262451
-0.156482
-0.136124
-0.232635
0.175977
-0.006191
0.464701
-0.227367
-0.066156
-0.099640
0.255005
0.277318
-0.274767
-0.096089
-0.124434
-0.102297
-0.172044
0.622541
-0.245844
-0.134093
0.181137
0.002420
0.053674
-0.059728
-0.087040
-0.090008
-0.027829
0.152400
-0.249217
-0.069486
-0.140820
-0.107690
-0.014182
0.174502
0.025095
0.085365
0.350626
-0.084187
0.064256
0.285849
-0.093005
0.129842
-0.072044
0.152641
-0.027095
0.016935
-0.195669
-0.286902
-0.239251
-0.225542
-0.062171
0.007019
0.133584
0.043195
-0.122410
0.030717
0.101333
0.173590
-0.154929
0.101072
-0.052774
0.318303
0.031224
-0.065964
-0.113111
0.223222
-0.065230
-0.293115
0.155662
0.094960
-0.150300
-0.078841
-0.474774
-0.133220
-0.123328
-0.131930
-0.205226
0.143156
0.153651
-0.134167
0.002081
-0.374071
-0.414902
0.096526
0.052165
-0.267256
-0.279619
-0.243999
0.016064
0.118057
0.041868
0.125343
0.130023
-0.065766
-0.027700
0.076464
-0.112161
-0.056375
-0.030070
-0.112810
0.037174
0.158765
0.042481
-0.104789
-0.141503
-0.060171
0.066419
0.081538
0.104287
0.294506
-0.044771
-0.149628
-0.032406
0.390938
0.019862
0.314935
-0.005626
-0.211470
0.094219
0.182813
-0.113942
0.293651
-0.063213
-0.020538
-0.089299
0.127786
0.088237
0.001752
0.063921
-0.021502
-0.247527
-0.134775
-0.073026
0.050886
-0.131293
-0.031396
-0.091335
0.070105
-0.202034
0.177883
-0.019614
0.074086
0.077883
-0.077504
0.026082
0.082188
-0.236103
0.168711
0.607885
-0.051896
0.072151
-0.125232
-0.082629
-0.151041
-0.058327
0.077398
-0.207090
0.021684
0.131133
-0.018919
-0.028577
-0.022461
0.406000
-0.040320
0.108079
0.221328
-0.262150
0.080918
-0.053983
-0.188206
-0.212159
-0.134151
-0.415210
-0.061011
-0.214789
0.036410
-0.356482
-0.037551
-0.292755
-0.019074
0.061515
0.064288
0.162090
0.181037
0.134967
0.090966
0.010577
0.090044
0.081432
-0.130394
-0.040892
0.087549
0.038526
0.018692
-0.143228
-0.193724
-0.348321
-0.191055
-0.170844
-0.017386
-0.068699
-0.199981
0.082881
-0.201013
-0.373798
-0.154525
-0.238851
0.130346
-0.356672
-0.500490
0.040863
0.109756
0.134878
-0.223602
0.089292
0.059243
0.035064
-0.295940
-0.258685
-0.024027
0.039298
-0.079111
0.010514
-0.182613
-0.197444
-0.152766
-0.023627
-0.142904
-0.107104
0.183264
0.191445
0.078052
-0.196464
-0.307364
-0.205293
-0.054483
0.243881
-0.037242
-0.092939
0.105829
-0.144496
-0.405609
0.291788
0.079194
0.282865
-0.085317
-0.322621
0.166417
-0.026595
0.087328
0.223135
-0.120255
-0.009761
-0.388698
0.166185
-0.020685
0.094457
-0.070562
0.117650
-0.100222
0.015281
-0.228926
-0.062561
0.093004
0.117128
-0.339367
0.048891
0.178396
-0.242666
0.067679
-0.330540
-0.424173
-0.024617
-0.339532
-0.281407
-0.276046
-0.058931
0.010798
-0.096613
0.003778
0.173855
-0.016246
-0.305208
-0.050233
-0.035034
0.373421
-0.113454
0.021021
-0.001999
-0.163386
-0.195914
0.073093
-0.128027
-0.076523
-0.201084
-0.184717
-0.217082
0.219665
-0.014952
0.183910
0.347292
0.276785
0.134824
-0.125448
0.204190
-0.185875
0.055918
-0.093073
0.032158
-0.236910
-0.364531
-0.243404
0.038639
-0.173259
-0.012720
-0.182054
-0.150309
-0.010508
0.161817
0.212000
-0.166276
-0.160031
0.215860
-0.132516
-0.149821
-0.157320
-0.103297
0.071530
-0.142408
0.266906
-0.167849
-0.054800
-0.280677
-0.348172
0.044011
0.009881
-0.173872
0.060817
0.132388
-0.003864
-0.197103
-0.093046
-0.193710
-0.246633
0.075689
-0.277808
-0.126632
0.192801
-0.171652
-0.109309
-0.037614
-0.173517
-0.197156
0.092122
-0.036364
-0.359384
0.107949
-0.133311
0.135108
0.086735
-0.404657
-0.195576
-0.015443
-0.126931
-0.128246
-0.114616
0.210069
-0.230405
-0.005582
0.255795
-0.007497
-0.148458
0.091526
-0.012348
0.126940
-0.434679
0.165417
-0.176150
-0.340457
0.045549
-0.293084
0.164936
-0.004072
0.006098
-0.113857
-0.214621
-0.039121
-0.201241
0.126165
-0.488646
-0.087743
0.068561
0.080981
-0.189846
-0.389758
0.308409
0.270778
-0.335505
-0.091163
0.332872
-0.057428
-0.178158
-0.050578
0.168404
-0.204671
0.081958
0.232495
0.352393
-0.114069
0.004910
-0.174265
-0.243317
0.165065
0.066703
-0.205292
0.013718
-0.283799
-0.048513
0.286431
-0.207546
0.114060
0.268803
0.021828
-0.046038
-0.213444
0.233925
-0.107817
-0.004944
0.067505
-0.093087
0.235569
-0.257664
0.053033
0.198227
-0.030404
0.169973
0.142368
0.094256
-0.138367
-0.208889
-0.093101
-0.013346
-0.447390
0.254404
0.361278
-0.171872
-0.199168
0.153377
0.395985
-0.167104
-0.110680
-0.219463
-0.077469
-0.076298
0.043531
0.212735
-0.044259
0.162886
0.297235
-0.146525
0.374918
0.258162
-0.004636
0.329112
-0.153024
0.264157
0.232393
0.089640
-0.049366
-0.066507
0.171367
-0.392081
-0.301767
-0.128781
-0.159153
-0.263238
0.263135
-0.366222
-0.310597
-0.110703
-0.234242
-0.004886
0.266701
0.029664
-0.271989
-0.113438
-0.405758
-0.320416
0.265603
-0.013188
-0.051285
-0.116955
0.185745
-0.270372
-0.129642
0.099724
0.063969
0.460154
-0.120721
0.119358
0.495223
0.131925
0.369088
-0.131976
0.010792
-0.095195
-0.130175
-0.085392
0.225595
0.108405
-0.212478
0.059219
0.001296
0.353138
0.042231
0.272713
0.377552
-0.375512
-0.059207
0.140167
0.124395
-0.013571
-0.400256
0.204393
0.195634
-0.506207
0.463020
0.022243
-0.184526
-0.031816
0.120313
0.089448
0.155667
-0.111042
0.381136
-0.190033
-0.166377
0.023543
-0.066810
0.070868
-0.152958
0.047541
0.205443
0.123183
0.147832
-0.103728
0.456390
0.136254
0.467293
-0.065270
0.095419
0.065391
0.229501
0.034948
0.065300
-0.319663
-0.009605
-0.182830
0.105474
0.024402
-0.141286
-0.082798
-0.098334
0.371520
0.410724
-0.140595
0.373600
0.104929
-0.431698
-0.048785
-0.272894
0.050123
0.240211
-0.018515
0.114329
-0.365562
0.368900
0.154659
-0.028556
0.201335
0.196326
-0.016362
-0.167073
0.366458
-0.282362
0.094699
0.311017
0.117060
-0.022082
0.080263
0.051599
0.203652
-0.127322
0.160048
0.097128
-0.216080
-0.160820
0.172299
0.484228
-0.060223
0.378140
-0.221085
-0.319472
-0.462747
0.458743
-0.290931
0.003039
-0.028593
-0.162771
-0.332413
0.003466
0.080589
0.046514
-0.214356
-0.016876
0.168260
-0.058528
0.160586
-0.268895
-0.106703
0.268450
0.275835
0.309736
-0.020485
-0.079564
-0.035661
-0.276425
0.215055
0.327136
0.012071
0.236695
0.051473
-0.245078
-0.054479
-0.039153
-0.393338
-0.275664
-0.129924
-0.050614
0.154842
-0.197326
-0.462333
0.129371
-0.181505
0.214549
-0.201985
-0.045390
-0.192686
-0.285596
-0.080054
-0.039888
-0.126970
-0.086313
-0.058267
0.425323
-0.219471
0.039478
-0.383097
-0.007074
0.160947
0.126194
-0.007422
-0.308001
-0.084395
0.106371
-0.088917
-0.098886
-0.070686
-0.044410
0.257247
-0.392118
0.013972
0.075729
-0.136462
-0.133954
0.004963
-0.250120
0.044687
-0.027881
-0.155134
-0.197037
0.037246
0.184311
-0.469885
0.040375
-0.000214
-0.107812
-0.004925
0.053529
0.239668
-0.120016
0.043025
0.113761
-0.156660
0.131271
0.139309
-0.128181
-0.517647
0.038224
0.076525
0.099240
-0.304940
-0.031499
0.110379
-0.133067
-0.370417
-0.083479
-0.288435
0.007019
-0.106361
-0.347789
0.091736
0.203629
0.049771
0.392505
-0.352385
0.001154
0.004697
-0.051176
0.398516
-0.031800
-0.208755
-0.171060
-0.033935
-0.383001
0.023380
-0.069923
-0.348940
0.154001
-0.160281
-0.076976
0.116170
-0.194013
-0.192368
0.204312
-0.063412
-0.142785
-0.000285
-0.061504
-0.466320
0.237763
-0.284432
-0.200161
0.014158
-0.022616
-0.178131
-0.176565
-0.040356
0.147341
-0.204624
-0.208066
-0.093537
-0.010511
-0.041088
-0.282168
-0.249033
0.077263
-0.195477
0.148698
0.102759
0.110601
-0.021276
-0.047850
-0.169318
0.138435
0.016595
-0.020462
0.037009
0.107427
-0.434369
0.237113
-0.070735
-0.024183
0.187718
0.305179
-0.109877
0.139871
0.242101
-0.022794
-0.047404
-0.007351
0.255958
0.101764
-0.094907
-0.030045
-0.198495
0.161490
0.069777
-0.173059
-0.026609
-0.360546
0.055643
0.188530
0.485150
0.157955
-0.301397
0.283708
0.132484
-0.147257
-0.062912
0.077930
-0.366296
0.250861
0.257097
-0.096729
0.238548
-0.125664
-0.017278
0.249604
0.077933
-0.113478
-0.007298
0.080660
0.016259
0.022253
0.370694
-0.025313
0.003340
-0.279207
-0.007177
0.292681
-0.076474
0.067342
0.163382
-0.207617
0.027545
0.155523
0.144610
-0.044242
-0.013053
0.065656
-0.240758
0.005809
-0.051815
-0.024785
-0.240545
0.166095
0.022196
0.104861
0.244615
-0.302463
-0.118214
0.230886
0.045916
0.368087
-0.106236
0.062074
0.130335
-0.412324
-0.090529
-0.078908
-0.151208
-0.124306
0.372959
0.144186
0.166484
0.241478
-0.076161
0.134973
0.152050
0.430317
0.290239
-0.013833
0.134748
-0.101894
-0.055346
-0.271225
-0.205444
-0.035347
0.220213
0.102362
-0.017609
-0.017882
-0.097813
0.080725
0.043786
-0.044155
-0.062873
0.061149
0.164622
0.158728
-0.023203
-0.158843
-0.054573
-0.238772
-0.134424
0.032747
-0.286899
-0.226337
-0.086443
0.104466
-0.061840
-0.278995
-0.211021
-0.058634
-0.043254
-0.294845
-0.092723
-0.073921
-0.181727
0.030159
0.000252
-0.051344
-0.076546
-0.247605
-0.143472
-0.132071
-0.167588
0.023398
-0.178682
-0.214800
0.098407
0.019104
-0.195431
-0.324104
-0.108056
-0.355594
-0.102843
-0.319590
0.039238
-0.004491
-0.103505
-0.004242
-0.137654
-0.089729
0.109272
-0.072765
-0.112512
0.100515
-0.439334
-0.216132
-0.042469
-0.205004
-0.082261
0.020149
-0.327715
-0.253613
-0.085076
0.009157
-0.020441
-0.172588
-0.156704
0.167278
-0.081383
-0.048835
0.074025
0.001463
-0.051362
-0.063686
-0.187416
-0.230838
0.034093
0.310806
-0.008526
-0.029040
-0.176571
0.034770
-0.057253
-0.111922
-0.095448
-0.281253
-0.193089
-0.154030
-0.270298
0.071112
-0.050347
0.084204
-0.051201
0.049537
-0.142184
-0.153240
-0.036930
0.184264
-0.254905
-0.202626
-0.015447
-0.072882
-0.068492
-0.391964
-0.458083
-0.008699
-0.279610
-0.096122
-0.272730
-0.319705
-0.128132
-0.000471
-0.069713
-0.350748
0.073975
-0.113384
-0.088386
-0.266552
0.141176
0.054227
-0.210871
0.089118
-0.293710
-0.091363
0.007119
0.107567
0.037367
-0.252406
-0.077723
-0.099346
-0.453087
-0.104023
-0.267433
-0.203517
-0.073641
0.128327
-0.329965
-0.139836
-0.328829
-0.256045
-0.168301
-0.034690
0.168718
-0.126160
-0.007302
-0.309934
0.246451
-0.094019
-0.196173
-0.183173
-0.177907
0.129599
0.422070
-0.284741
-0.089106
0.007764
0.013678
0.152001
-0.036404
0.013325
-0.062585
-0.093454
-0.227678
-0.078212
0.010257
0.018689
0.105448
0.170235
-0.148962
0.085605
-0.207960
-0.187039
-0.294427
0.284409
0.201637
-0.033365
-0.215099
0.089905
0.236067
-0.379228
0.012874
0.088559
0.061292
-0.056167
0.068192
0.069490
0.105008
0.079060
-0.161202
-0.174660
-0.234759
-0.148102
-0.182329
0.088540
-0.232001
-0.162264
-0.032390
0.253341
-0.031432
0.242351
0.035538
-0.028519
-0.185356
-0.091025
-0.125020
-0.181760
-0.186984
0.026371
0.052614
-0.156651
-0.276876
0.052064
0.271774
0.027939
-0.168293
-0.144129
0.010300
-0.140368
-0.155898
-0.365696
0.111372
0.039837
0.197017
-0.041201
-0.026220
0.028055
-0.212369
-0.604765
-0.090903
-0.405231
0.088486
-0.212590
-0.157858
0.017705
-0.012260
-0.128314
-0.038902
0.148815
-0.379360
0.280668
-0.463416
0.167387
-0.233407
-0.074801
-0.150791
0.043773
-0.307690
-0.199738
-0.029951
0.143687
-0.352141
-0.482311
0.047661
-0.115107
0.048946
0.204215
-0.254867
-0.238610
-0.237100
-0.010333
0.422631
-0.182746
-0.147139
-0.220333
-0.253794
-0.162651
0.046250
-0.195439
0.325115
-0.057576
0.206655
-0.352334
0.239335
-0.045805
0.141078
0.163971
-0.103962
0.077600
-0.054292
-0.056135
0.269931
0.076394
-0.194001
0.015713
0.257020
-0.233016
0.103934
-0.019206
0.039801
0.031835
0.232887
-0.095049
0.094062
0.181016
0.147270
-0.175994
0.268296
-0.157038
0.053001
0.245159
0.082293
-0.306653
-0.007645
-0.279992
0.145293
0.229528
-0.013355
0.183731
0.090682
-0.160573
0.139888
-0.030893
-0.387452
0.157923
0.270235
-0.233416
0.003387
-0.036613
0.016251
-0.385819
0.269443
-0.159383
-0.144702
0.156569
-0.095989
0.295306
0.003925
-0.026260
0.243892
-0.033550
0.331395
-0.210432
-0.197784
0.123496
-0.368201
0.152559
-0.216098
0.078338
-0.060655
-0.244730
0.466174
0.057972
0.089027
0.273516
0.104588
-0.164987
-0.463523
-0.178083
0.094291
-0.219566
0.191687
-0.078652
-0.023233
-0.238161
0.040678
0.147255
0.208203
-0.190154
0.078494
0.003377
0.512081
-0.088431
-0.091650
0.020270
0.057963
-0.018476
0.055707
-0.028915
0.006331
0.180832
-0.141773
-0.067612
-0.021922
-0.018211
-0.006561
0.473113
-0.212381
-0.242856
-0.300330
-0.441442
-0.523483
-0.160859
0.145172
-0.106365
0.026964
-0.059399
-0.400482
0.045017
0.300720
0.114186
0.247268
0.131379
-0.083893
0.026715
0.247719
0.127111
0.229044
0.051672
-0.013979
0.231991
0.231906
-0.020086
0.089290
0.280359
0.165473
0.025981
0.189613
-0.008902
0.127208
0.000198
-0.053093
-0.020922
0.227966
0.063234
-0.085749
0.032127
-0.161414
-0.156605
0.388723
0.312545
0.036644
-0.123084
-0.071482
-0.174984
0.037837
-0.064936
-0.086014
0.126301
0.153280
-0.127814
0.143560
0.075592
0.068747
-0.320839
-0.259659
0.143579
0.091102
0.311040
0.068278
0.215969
0.234249
0.001264
0.215805
0.118969
-0.007545
0.268659
-0.249005
0.264351
-0.118461
-0.192111
0.488756
-0.165038
-0.239229
-0.258122
-0.018266
-0.080756
0.067922
0.116767
-0.172607
-0.281010
0.037406
-0.128281
-0.060376
-0.193653
0.146010
-0.194069
0.344849
-0.111538
-0.244273
0.187530
0.115442
0.136528
-0.083200
-0.111391
-0.113659
0.172005
-0.248220
0.156860
0.135303
0.273028
-0.004158
-0.156641
0.333554
0.256123
0.135636
0.339070
-0.262789
-0.095299
-0.011680
-0.301962
-0.143003
0.108922
0.018615
-0.202194
-0.026430
0.312488
-0.010979
0.174631
0.292344
0.288994
0.039677
-0.034086
0.029748
-0.068218
-0.016906
-0.230502
0.120056
0.187096
0.130556
-0.149093
-0.203313
0.050501
0.238743
-0.287538
-0.155325
-0.026625
0.014829
-0.199490
0.118344
0.191045
0.000107
0.174842
0.236907
-0.257490
-0.107026
-0.167411
0.045422
0.150786
0.132726
0.038758
0.115833
-0.040098
0.342844
0.236685
0.327942
-0.071252
0.175312
0.111086
0.126050
-0.090378
0.104149
-0.062075
-0.029766
0.203397
-0.200847
-0.069300
0.025083
-0.074702
-0.072795
-0.213787
0.154574
-0.157306
0.129482
-0.100749
-0.157514
0.276325
-0.235121
0.232876
0.077145
0.009540
-0.095021
-0.030840
-0.267019
0.183895
0.077844
0.007931
0.010219
-0.131727
0.064318
-0.150727
-0.039950
-0.123111
0.199539
-0.355509
-0.185501
-0.142203
0.055962
0.207727
0.029323
-0.089271
0.080748
-0.046132
-0.289179
0.406514
0.212690
0.190529
-0.206157
-0.129944
-0.254842
-0.422417
-0.213878
0.135426
0.028619
0.105875
-0.178653
0.621583
0.089602
0.296254
0.112720
0.206509
0.093920
0.054614
-0.049822
0.179393
0.089330
-0.134385
0.337676
-0.128623
0.097402
-0.348846
-0.054260
-0.071291
0.215407
0.296266
0.267743
0.137432
0.324253
-0.047846
0.189185
-0.014792
-0.080420
-0.069067
0.076824
0.165310
0.114871
0.306453
-0.069146
-0.175548
-0.049972
-0.008588
0.177374
-0.214307
0.112126
0.136176
-0.037221
-0.282605
0.027186
0.380242
0.159139
0.054832
-0.040360
-0.121438
-0.364219
-0.023633
0.086319
0.046657
0.135832
0.029819
-0.071715
-0.061397
0.230563
-0.230126
-0.297988
0.058398
-0.089362
-0.058349
-0.498470
-0.120652
-0.105823
-0.026712
-0.218393
0.214233
0.024519
-0.050241
0.406089
-0.201409
-0.188644
-0.108511
0.128718
-0.152048
-0.357734
0.188325
-0.229235
0.063769
0.243034
-0.235200
0.385879
0.144244
-0.003020
0.095581
0.099804
0.156768
-0.029216
-0.030825
-0.129115
0.178958
0.388993
-0.116449
-0.152104
-0.063086
0.345250
-0.035780
0.075569
-0.044224
0.220554
-0.226634
0.008970
-0.072287
0.190548
0.178945
0.155036
0.020639
0.093978
-0.204923
-0.097765
-0.460871
-0.135107
-0.073584
0.035797
0.359346
0.171076
0.279567
-0.021837
-0.281292
0.059578
0.235227
-0.046372
-0.197805
0.032452
-0.003980
0.004322
-0.131727
-0.594255
0.091537
0.053225
-0.160649
-0.222405
0.191756
-0.190807
-0.035686
-0.126653
-0.286098
0.103437
0.190956
0.046153
-0.273570
0.003784
0.009647
-0.137521
-0.147587
0.053574
-0.441874
-0.009292
-0.170996
-0.303536
0.193783
0.093894
-0.031431
-0.079097
-0.140231
-0.213312
0.397933
0.122905
0.279703
0.086937
-0.333575
0.101598
-0.171338
-0.292037
0.026908
0.203206
-0.270269
-0.016221
-0.425915
-0.285638
-0.058264
0.130704
0.091752
-0.211706
-0.321340
-0.203122
-0.146972
0.433359
0.099753
-0.116298
-0.021612
-0.348636
0.139742
-0.066928
0.225723
0.063717
0.035492
0.115190
-0.052093
0.002550
-0.146301
-0.006298
-0.207600
-0.081986
0.029279
-0.110488
0.192532
-0.164521
0.096576
-0.128737
-0.029088
-0.201402
-0.314895
-0.126242
-0.010935
-0.276490
0.080964
-0.017932
0.155473
-0.047073
-0.061319
0.011691
-0.093903
-0.265500
0.366144
0.251032
-0.068100
-0.002411
0.126141
-0.111573
0.282129
0.466484
0.111849
-0.236455
-0.152037
-0.306803
0.157980
0.206522
0.219450
0.055036
0.155036
0.292214
0.036435
0.255544
-0.062408
0.129627
0.386524
-0.118149
-0.037766
-0.118766
0.310547
0.166275
-0.039017
-0.016835
-0.116850
0.225290
-0.050712
-0.074278
-0.025272
-0.193105
-0.100686
-0.025062
-0.407908
-0.080699
0.308164
-0.103859
0.146259
0.016249
-0.353174
-0.253185
-0.100946
0.057475
0.203555
0.163943
-0.007124
-0.198560
0.029879
-0.261865
0.264843
-0.108813
0.212453
0.073717
-0.031030
-0.062537
-0.135211
0.001080
0.126373
-0.254435
0.327778
-0.064619
0.207839
0.214184
0.122974
0.351630
-0.215382
-0.079749
-0.255776
-0.115502
-0.095826
0.241972
-0.162374
-0.059648
0.140077
-0.043624
-0.102757
0.046152
0.110116
0.000977
0.062403
-0.402087
-0.034916
0.487526
0.322283
0.032567
-0.128117
-0.173751
0.214608
-0.119877
-0.206364
0.095613
0.059842
-0.204291
-0.133369
0.153334
0.091442
0.182356
0.025902
-0.396391
-0.028744
0.039756
0.055700
-0.152440
0.114046
-0.094025
-0.068469
0.164848
-0.138825
-0.079061
-0.164787
-0.048015
-0.067310
-0.424487
-0.010304
-0.044270
-0.224649
-0.021335
-0.060700
0.047741
-0.177874
-0.015754
-0.325283
-0.173423
-0.221611
-0.035584
0.036051
-0.063114
-0.233742
-0.206216
-0.384410
0.139467
-0.150896
-0.221306
-0.283383
-0.195169
-0.278878
-0.035389
-0.129910
-0.081926
-0.037005
-0.113570
-0.212530
-0.310954
-0.228833
-0.059807
-0.161922
-0.177852
-0.150829
-0.231846
-0.144755
-0.162337
-0.133911
-0.367236
-0.012304
-0.293591
-0.076272
-0.128839
-0.029939
-0.155076
0.159623
-0.163045
-0.053582
0.086976
0.031548
0.046493
-0.204638
0.154196
-0.396231
-0.007205
-0.275446
-0.010453
-0.338898
-0.138388
0.185065
-0.206624
-0.029582
0.020109
-0.079686
0.237722
-0.138129
-0.040146
-0.016680
-0.305500
-0.014220
-0.059607
-0.004132
-0.080373
-0.261857
-0.302735
-0.208949
-0.108682
-0.380487
-0.169444
-0.063467
-0.049300
-0.252363
0.098074
0.099477
-0.023628
-0.164789
0.171005
0.060981
-0.120112
-0.296438
-0.088793
-0.389588
0.019982
-0.248216
-0.058816
-0.234513
-0.277810
-0.039516
-0.238144
-0.135073
-0.253418
-0.112683
0.058588
0.248576
-0.003961
-0.031994
-0.218512
0.375840
-0.294709
-0.065079
-0.153709
-0.010797
-0.222515
-0.084323
-0.180829
0.123514
0.031751
0.061073
0.048145
0.211523
-0.043652
-0.035579
-0.153394
0.077079
-0.131115
-0.050560
0.116554
0.029046
-0.207562
0.115604
-0.162464
0.348140
-0.019497
-0.201129
0.038288
0.078801
-0.012931
0.220680
0.199516
-0.306528
-0.007089
-0.356959
0.150249
0.030766
-0.157107
0.069087
-0.082094
0.124395
-0.177981
-0.079296
0.110677
-0.193766
0.084348
-0.196437
0.183949
-0.104465
0.286542
0.241662
0.102837
0.063769
0.108195
-0.049804
-0.046302
-0.019031
0.052786
0.075219
0.066279
0.285217
0.043708
-0.050065
-0.164266
-0.046763
-0.329377
-0.026001
-0.172132
-0.069051
0.015260
-0.112575
-0.107426
-0.119850
-0.018543
-0.009227
0.114448
-0.354245
-0.251655
0.048661
-0.232978
-0.007465
0.079668
0.035988
0.173244
0.164811
-0.023989
0.196863
-0.014561
-0.065724
-0.171076
-0.086665
0.360532
-0.122608
-0.411742
-0.120565
0.096146
0.014464
0.103917
-0.024454
0.082880
-0.198330
-0.051190
0.113699
-0.074568
-0.036671
-0.151733
-0.014714
-0.094588
-0.077910
0.190721
0.023763
-0.279101
-0.282034
0.129900
0.212648
0.103083
0.174689
0.074706
0.067356
-0.276963
-0.064653
0.125085
0.000684
-0.254778
-0.449358
-0.181137
0.141871
0.179776
0.062364
-0.225594
0.064077
-0.067061
-0.286612
-0.067602
0.128188
0.086200
0.056390
-0.048813
0.049462
-0.287861
0.155662
0.208737
0.113299
0.090109
-0.118020
0.047770
0.091672
0.083754
-0.120992
-0.342704
-0.145753
-0.230926
-0.088983
0.115907
0.057207
-0.015653
0.226979
-0.156716
-0.111202
-0.055606
0.018997
0.100933
-0.256784
0.189953
-0.097920
-0.108503
-0.179327
0.089170
-0.047646
-0.022378
0.081005
0.058095
0.411920
0.072137
0.006989
0.382567
0.057979
0.161372
-0.124187
0.062098
-0.071968
0.044636
0.035168
0.058526
-0.097877
0.144570
0.259311
0.166902
-0.126767
-0.058307
0.334569
0.219461
-0.059168
-0.136745
-0.284267
-0.192997
0.054287
-0.193938
0.077042
0.018559
0.008727
-0.027629
-0.095943
0.275958
-0.335213
0.253273
0.036506
-0.091109
0.111006
0.003736
0.051774
0.014979
-0.135315
0.189817
0.333580
0.051957
-0.147470
-0.044736
-0.152826
-0.002640
-0.265865
0.050446
0.003479
0.058958
0.141540
0.069369
-0.101974
-0.037743
0.222832
-0.287589
0.194106
-0.020058
-0.044186
-0.274710
-0.318822
-0.048926
-0.030545
0.030547
-0.084812
-0.173671
0.085226
-0.171721
-0.479043
-0.031811
-0.145818
-0.117231
-0.063900
-0.006308
0.211970
0.282297
0.042889
-0.196312
-0.160056
0.213665
0.094157
-0.193596
0.239024
0.076288
-0.318798
-0.092662
-0.266747
-0.077447
-0.072760
-0.026406
-0.000411
-0.238392
0.183570
-0.172008
0.120777
0.396590
0.106207
0.063445
0.257737
0.028557
0.042085
0.183200
0.066034
-0.253879
0.200001
0.112127
0.133825
-0.094665
0.365940
-0.381335
0.142003
0.207142
-0.113125
0.047360
-0.199489
0.002715
0.249384
0.039656
0.090525
-0.047671
0.073199
0.355775
0.318659
0.127908
-0.247963
-0.077094
0.186672
-0.142593
0.136694
-0.166588
0.024807
-0.171937
0.053233
0.224082
0.110456
0.234026
0.333964
-0.187810
-0.129593
0.066456
0.293987
-0.072111
-0.210927
0.093692
0.357781
0.332711
-0.035782
0.117469
-0.262863
0.026918
0.238456
-0.285461
0.095456
0.024767
0.338296
0.163535
-0.219123
-0.229740
-0.017708
0.267716
0.340283
-0.260136
-0.260971
0.183156
0.260984
-0.175118
-0.078277
-0.091204
0.457678
0.149519
-0.159695
0.150769
-0.180075
-0.185550
-0.194724
0.038703
-0.164400
0.274262
0.096234
-0.015011
0.156837
-0.106987
0.066032
0.064855
-0.064176
-0.026975
-0.076284
0.177705
-0.249016
-0.025615
0.249746
0.114304
0.159563
-0.153106
0.003021
-0.267423
-0.117289
0.175746
0.390647
-0.299427
-0.287458
-0.101788
0.489796
0.251562
-0.034179
-0.116291
-0.221692
-0.345237
-0.071241
0.033857
-0.126521
0.013782
-0.009719
-0.084002
0.196755
0.263394
0.288188
0.414761
0.408412
0.154776
0.029509
-0.321778
0.008019
-0.277576
-0.090758
-0.124805
0.081294
-0.135853
-0.100193
-0.156984
-0.060120
0.090808
0.135263
0.140256
-0.317464
0.111868
-0.173538
0.270416
-0.094048
-0.084764
-0.105792
0.163288
0.233664
-0.028489
-0.045282
-0.196526
0.068709
0.095247
-0.284611
-0.047497
-0.088707
-0.228771
-0.162082
0.309186
0.178913
0.044281
0.128406
0.122940
0.201308
0.179562
-0.097929
-0.036538
0.067951
0.235355
-0.186274
0.174796
-0.245019
-0.164387
-0.384513
0.013216
0.022354
-0.029900
-0.045024
-0.039293
-0.151062
-0.141452
-0.106097
-0.101127
-0.136110
0.348983
0.005478
0.293020
-0.233108
-0.024983
0.036446
0.071521
0.088373
0.010742
-0.150761
0.168214
0.201142
-0.155893
-0.165632
-0.063191
-0.116201
-0.057733
-0.134587
0.135580
-0.176968
-0.044726
-0.266488
-0.134940
-0.063085
-0.019825
0.133260
-0.310732
-0.007498
0.097508
0.029961
0.382605
-0.047067
0.022729
0.106772
-0.075347
-0.214415
-0.113804
0.030482
-0.360311
0.002281
-0.392940
-0.309558
0.065178
0.131150
0.018738
-0.182811
-0.182372
0.210082
0.341483
0.143827
-0.052565
-0.054872
-0.366077
-0.075411
0.010753
-0.025973
-0.009442
0.015919
-0.135414
-0.371419
-0.071104
-0.041484
0.209163
-0.014947
-0.376053
-0.157243
0.105758
0.024865
-0.307361
0.173280
-0.317161
-0.219134
-0.109714
0.025936
0.439892
-0.333076
-0.356788
0.064915
0.087374
-0.174453
0.026793
-0.176245
-0.171103
-0.200783
0.093695
0.186859
0.027846
-0.042650
-0.025200
-0.225181
-0.196266
-0.058789
-0.234766
0.057011
-0.163674
-0.093200
0.010227
-0.142228
-0.004611
0.042615
-0.060629
0.020713
-0.013116
-0.318671
0.106231
0.060955
-0.218005
-0.265246
-0.252018
-0.274052
-0.057644
0.160525
0.034669
0.062521
0.174889
-0.135220
0.072482
0.154441
-0.087391
-0.174087
-0.133668
-0.311621
0.155347
-0.315570
-0.066969
-0.167977
0.080964
-0.209816
-0.195659
-0.086179
0.168719
-0.071722
0.273371
-0.360265
-0.201312
-0.093560
0.050810
-0.084366
-0.199522
-0.228080
-0.185493
-0.161040
-0.050021
-0.354276
0.023207
-0.044652
-0.183502
-0.038866
-0.196422
-0.328971
-0.009687
0.019358
0.072045
-0.032991
-0.130831
-0.310389
-0.139218
-0.285138
-0.126647
0.010882
-0.105224
-0.441750
-0.271593
-0.252161
-0.158993
-0.163618
-0.187481
0.152772
-0.062578
-0.373945
-0.174664
-0.113762
-0.141773
-0.018089
0.258135
0.190898
-0.409639
-0.509604
-0.109238
-0.074910
-0.075909
-0.078932
-0.129023
0.056062
-0.259738
-0.240262
-0.072258
-0.186482
-0.010569
-0.188712
-0.070028
-0.127221
0.137142
-0.205042
0.148255
-0.252395
-0.050256
-0.043605
-0.120906
0.191527
0.012998
0.055353
0.098025
-0.326985
0.015059
-0.143881
-0.037857
0.068108
-0.027498
-0.113317
-0.073173
0.172141
-0.105581
-0.142079
0.060029
-0.055867
0.096847
-0.058097
-0.105005
0.004659
-0.263570
0.002442
-0.293066
-0.260977
0.149146
-0.185089
0.306065
-0.281539
-0.154390
0.047602
-0.024981
-0.287502
-0.104553
0.020387
-0.249119
-0.221897
-0.225161
-0.375440
-0.044979
-0.151914
-0.150333
0.091468
0.131634
-0.247799
0.234738
0.073360
-0.128420
-0.324638
-0.185736
0.005740
0.118662
-0.196821
-0.117409
-0.132118
-0.019729
-0.018816
-0.414169
0.054764
-0.135672
0.004661
0.019208
-0.104822
-0.032646
-0.108660
-0.006477
-0.358641
0.072954
-0.024543
-0.278012
0.044232
-0.065667
-0.212776
-0.368374
0.075913
0.092824
-0.018586
-0.110246
0.051051
-0.068233
-0.465118
-0.127528
-0.357998
-0.114228
-0.365555
-0.017282
-0.209541
0.129775
-0.025285
0.094126
-0.222973
0.080298
-0.069253
-0.062794
-0.176900
0.048179
-0.093183
0.094709
-0.316225
-0.001387
-0.415536
-0.128742
-0.128268
0.066331
-0.171755
0.005095
-0.294828
-0.172925
-0.081976
-0.236111
0.095213
-0.016859
0.138059
-0.197991
0.017493
0.061214
-0.164576
0.171774
0.180269
0.426085
0.182441
-0.051909
0.300081
0.183066
0.275101
-0.071029
-0.005061
-0.177982
0.104034
0.199773
-0.180702
-0.071152
-0.014851
-0.238459
0.063681
0.082378
0.148735
0.130044
0.028370
0.387045
-0.223701
-0.079814
0.125303
-0.136044
-0.138983
-0.074031
-0.229736
-0.039146
0.030122
0.223322
-0.227809
-0.042280
-0.034707
-0.025326
0.149016
0.009220
0.274891
-0.151808
0.208665
0.155876
0.087458
-0.052106
-0.098097
0.160146
0.063563
0.222385
0.287241
0.248096
-0.100342
0.019684
0.003512
-0.019289
0.182231
0.022870
-0.042311
0.205305
0.396779
0.090072
-0.055214
-0.190450
-0.206912
0.008001
-0.305126
0.035281
0.209893
0.201445
-0.061071
0.302906
-0.107067
0.080952
0.133233
-0.064142
0.200440
-0.042012
-0.087836
0.155409
-0.057977
-0.092431
-0.126284
0.207153
0.082174
0.342865
0.199241
-0.094727
0.256974
0.100577
-0.188173
0.164892
0.300102
-0.145810
-0.074573
-0.025863
-0.097996
0.247942
-0.024614
-0.232348
0.156282
0.080065
0.183137
-0.077100
-0.127402
0.224774
-0.123574
-0.160646
-0.136035
-0.135787
-0.078640
-0.171930
0.252657
0.125670
-0.038662
-0.195356
0.045627
0.086416
-0.126548
0.093265
0.246357
-0.160288
-0.206369
-0.092489
-0.048615
-0.241735
0.212610
-0.075478
-0.245451
-0.160843
-0.038988
0.202375
0.108837
-0.045446
0.019157
0.137008
0.167392
0.030766
0.241470
0.047614
0.149836
-0.066454
-0.252814
0.109844
0.164024
0.291091
0.039942
0.180569
-0.071605
-0.034055
-0.076490
0.157566
-0.046175
0.236456
0.193423
-0.030411
0.004057
0.070021
-0.179521
-0.173065
-0.361846
0.041052
-0.095670
0.146688
-0.112091
0.108145
0.166207
0.183404
0.283551
-0.038672
-0.101896
-0.375692
0.406058
0.141385
0.174150
0.151881
-0.119186
0.048377
0.017546
0.012138
-0.139153
-0.033802
-0.153748
0.072399
-0.093820
0.024092
0.141184
-0.035445
-0.025254
-0.032920
0.253368
0.051752
-0.065788
-0.231568
0.109633
0.014120
-0.199797
-0.062149
-0.003754
0.068764
0.086901
-0.117212
0.070782
0.096038
0.114051
0.059792
-0.245723
-0.067673
0.018456
0.211771
0.270849
-0.125286
0.034295
0.110553
0.373543
-0.117612
-0.057824
0.172855
-0.198284
0.031700
0.152641
-0.140096
-0.095865
0.009516
0.304351
0.341109
-0.126599
-0.120977
0.060998
0.004359
0.052226
0.105208
-0.061343
-0.053970
-0.083265
0.025116
0.213259
-0.094090
0.199579
0.167768
0.258600
-0.227537
0.243968
0.000182
-0.051469
0.313216
-0.042653
-0.014052
-0.303295
0.076645
-0.184037
0.108067
-0.023709
0.024774
0.203838
-0.037990
0.042031
0.037938
-0.126054
0.262673
0.265678
0.057484
0.168517
0.206776
0.241199
0.328795
0.081268
-0.136571
0.232505
0.234130
0.085941
-0.140336
-0.100034
0.307067
-0.234698
-0.117190
-0.022929
-0.241870
0.140069
0.104828
0.134219
0.178678
-0.255703
0.027543
0.172560
0.164461
0.038850
0.119270
-0.360142
0.076139
0.063718
0.156103
0.035861
-0.107091
0.306564
0.190303
-0.180047
-0.070912
0.075513
0.052572
-0.015545
-0.222905
-0.464834
-0.005086
-0.195666
0.174126
-0.127471
-0.122402
0.011139
-0.276968
-0.039355
0.030695
-0.244243
0.107492
-0.061647
0.252965
0.071011
-0.030302
-0.006073
0.122392
0.176124
-0.058870
0.136273
0.054621
-0.049269
0.054134
-0.161820
-0.192230
0.307832
0.167656
-0.148420
0.511621
0.260338
0.085417
0.061290
0.095653
-0.086013
0.087318
-0.196471
-0.216552
0.162861
0.057945
-0.051548
0.081916
0.021425
0.194714
0.073931
0.084494
-0.052609
0.008492
0.038504
0.156133
0.106250
0.419013
0.163205
-0.094859
-0.217432
0.007810
0.193998
0.235338
-0.209918
0.051679
-0.002914
-0.416469
0.024214
-0.107209
0.211303
0.183653
-0.418434
-0.023580
0.205836
0.056800
-0.045510
0.184238
-0.067512
-0.207987
-0.387824
0.350052
0.030663
0.141080
0.111100
-0.105952
-0.109382
-0.249958
0.007785
-0.282421
0.114038
-0.094666
0.038575
-0.122362
-0.057786
-0.044743
-0.282316
-0.162555
-0.177393
-0.104399
0.165707
0.170739
-0.167762
0.250703
-0.231419
0.060724
-0.123820
0.208162
0.305639
-0.325006
-0.176563
0.020792
0.088784
-0.443136
0.153318
-0.004023
0.134440
-0.048300
0.084321
-0.021664
-0.264585
0.098011
0.111442
-0.043045
-0.003693
-0.276381
0.258139
0.106147
0.149860
-0.064660
0.100241
0.045050
-0.316395
0.067320
-0.297328
-0.042189
0.383466
0.084119
0.049565
-0.040781
0.280640
-0.270240
-0.089026
-0.248641
-0.050511
0.020429
0.121582
-0.236956
0.070097
0.019501
-0.153080
-0.032534
-0.222796
0.091678
0.127555
-0.280517
-0.048959
-0.183604
-0.236011
-0.204459
-0.060073
0.044687
-0.222203
-0.483228
0.072189
-0.211743
0.231468
-0.107058
-0.097293
-0.038550
0.288406
0.051850
-0.024784
-0.034320
0.257823
0.028766
0.044367
-0.286626
0.145673
0.060201
0.045292
-0.051184
0.131182
0.410436
0.021743
0.012613
-0.192695
0.011853
-0.062377
-0.017278
0.248515
0.150116
-0.186011
0.298277
-0.150937
0.051965
0.289635
0.185737
-0.101607
-0.167665
0.161390
-0.356087
-0.010764
-0.206715
0.069471
-0.083480
-0.258575
0.161286
-0.154816
0.074235
0.025587
-0.276089
-0.039729
-0.060163
-0.018501
-0.037976
-0.230324
-0.016364
0.108079
-0.005969
0.173404
-0.072017
-0.053013
0.104298
-0.105190
-0.078281
0.049305
-0.178036
-0.104768
-0.148763
-0.136749
-0.389562
-0.166222
0.096901
0.123066
-0.307335
-0.317986
0.252820
0.117544
-0.036297
-0.367787
-0.088799
0.163426
0.430594
-0.129745
-0.098460
-0.220374
0.269164
0.001694
0.079186
-0.451958
-0.229981
-0.127292
0.203640
0.105413
-0.364596
-0.137729
-0.043689
0.135435
0.059104
0.088032
0.016485
0.369026
0.234296
0.141249
0.119180
0.145478
0.150591
-0.284554
0.216256
-0.087287
-0.242397
-0.019641
-0.152029
0.118373
-0.073663
-0.136131
0.078493
0.164474
0.204643
-0.063708
0.035090
0.042201
0.123286
-0.214697
0.163632
-0.194889
0.120799
-0.240132
0.109923
-0.224191
0.204676
0.448301
0.065125
-0.213877
-0.112643
0.096053
-0.184861
-0.056367
-0.142956
-0.047642
0.019917
-0.017870
0.244599
0.137823
-0.253240
-0.348621
-0.138996
-0.057115
0.262446
0.060060
-0.329743
-0.226970
0.026751
-0.256225
0.263097
-0.122542
0.254385
0.025769
0.142087
-0.265857
0.043842
-0.216216
-0.197890
0.365171
-0.213754
-0.101703
0.068419
0.064002
-0.137004
-0.048334
-0.024914
-0.230174
0.321822
0.121977
0.396971
0.307206
-0.082990
0.075920
-0.147224
-0.197759
0.176416
0.159534
-0.075241
0.170422
-0.023899
-0.226838
-0.484639
-0.103418
-0.018332
-0.077651
-0.098644
-0.133233
-0.154013
0.191517
-0.349388
0.040354
0.207848
-0.308255
0.472902
0.038286
-0.368073
-0.336883
0.181255
0.370051
-0.056936
-0.138136
0.162958
-0.201431
-0.216773
-0.118093
-0.034262
-0.051388
0.422432
-0.167452
0.344083
-0.464690
-0.102304
0.078665
-0.225521
0.188246
0.077367
0.128617
-0.280168
-0.039939
0.178831
-0.077560
0.161156
-0.335767
-0.153082
0.065745
-0.164320
0.120060
0.190332
-0.324594
0.193828
0.190976
-0.193105
-0.069318
-0.014934
0.151134
-0.145489
-0.208843
-0.136832
0.043192
-0.556599
-0.192302
-0.231344
-0.272648
-0.002655
-0.105666
-0.148715
0.331897
0.098980
0.214285
0.076744
0.032200
0.087781
-0.260364
-0.209890
-0.028704
0.275459
-0.009543
0.132636
-0.120178
-0.194511
-0.028424
-0.158342
0.077805
0.073299
-0.236814
0.290994
-0.254827
-0.146248
0.135033
-0.211227
-0.031713
0.265023
0.172265
0.190313
-0.098847
-0.128320
-0.243765
0.153698
-0.216746
0.301242
-0.156532
0.185348
-0.376796
0.016581
-0.359377
-0.151729
-0.017971
-0.153111
-0.150464
0.060851
0.112153
-0.112563
0.164897
-0.013688
0.293289
-0.119952
-0.110547
0.130160
0.064114
-0.200369
0.316378
-0.073974
0.108146
-0.135660
-0.135280
-0.039181
0.281264
0.114161
-0.049321
-0.158270
0.029448
-0.231470
-0.013435
0.190951
-0.017016
-0.295521
0.322975
-0.226721
-0.034936
-0.180162
-0.422684
-0.050598
-0.461110
0.064439
0.082026
0.057596
0.049400
-0.117671
-0.129295
-0.031105
0.228909
-0.111964
0.012691
0.173938
-0.173463
0.381548
0.200205
-0.156410
0.133294
0.037634
-0.157370
0.066692
-0.128591
0.292765
0.043894
-0.001620
0.269502
-0.223530
-0.064081
-0.188341
0.179331
-0.014245
0.128480
-0.023999
0.109185
-0.081629
-0.160586
0.095989
-0.175868
-0.080447
0.031721
-0.043904
-0.100266
-0.110827
0.187163
-0.350770
0.043529
-0.196839
0.148521
0.004517
-0.209678
0.162195
-0.135524
-0.272395
0.472555
-0.042268
0.167512
0.222839
-0.082413
0.280350
0.166612
0.034240
0.273359
0.292910
-0.309309
-0.133810
-0.045725
0.142989
0.140475
0.069554
0.125392
-0.161914
-0.006979
0.206308
0.287372
-0.157097
0.017597
-0.184411
-0.096541
0.155685
-0.046578
0.114451
-0.095514
-0.410031
-0.148128
-0.137948
-0.217188
-0.084615
0.280313
0.055948
-0.188660
0.031253
-0.280413
-0.178631
0.400140
-0.130441
0.153286
-0.020550
0.259286
-0.185357
-0.179492
-0.020167
-0.033686
0.077293
-0.065741
-0.018867
0.221294
0.181253
0.153348
-0.102554
-0.230585
0.074698
0.296660
0.225580
-0.051933
-0.022438
-0.123450
0.298430
-0.109335
-0.271921
0.102541
0.010032
0.087177
-0.035663
0.154431
-0.472541
0.415919
0.010715
-0.205916
-0.160529
0.051339
-0.003837
0.005453
-0.468162
-0.131172
-0.215497
-0.079210
-0.198604
0.170894
0.217768
0.079542
0.037748
0.038261
0.078703
-0.095404
-0.131241
-0.218775
0.101037
0.073531
0.114067
-0.114234
-0.006126
0.485350
0.283365
-0.368601
-0.014290
0.140596
0.284561
-0.063333
-0.167608
-0.099643
0.167029
-0.144162
0.247472
-0.082099
0.131697
0.101266
0.094413
0.003736
-0.180507
-0.145944
0.174992
0.085760
0.252367
0.062622
-0.020017
-0.176730
0.003276
-0.113214
-0.048331
-0.243439
0.188349
-0.009683
0.137792
-0.158886
-0.018391
-0.147843
0.106736
-0.349741
-0.253545
-0.196373
-0.213878
-0.158723
0.051492
-0.253731
-0.036542
0.189183
0.013007
0.273676
-0.165660
0.327961
-0.057025
-0.302675
0.030609
-0.224236
0.435919
0.019130
-0.094663
-0.036850
-0.203267
