# Shape: (128,)
0.639649
0.255391
-0.071222
-1.022059
0.840316
0.951512
1.164700
-0.500232
1.897564
1.219532
0.779250
0.946315
1.671583
0.957272
0.593364
0.453571
0.926891
0.757634
-0.263656
0.748987
0.037941
0.693007
0.575312
0.435168
0.945991
0.520353
-0.663979
0.522993
-1.061699
0.675448
1.239323
1.996748
1.096132
0.043231
-1.223004
1.031561
0.186402
0.568619
1.108315
0.454872
0.353197
-0.258358
1.334236
0.504888
0.116752
1.035493
0.040277
1.339826
-0.216289
0.855022
0.993979
0.412438
-0.054491
0.331487
0.835178
0.364276
-0.948008
-0.018538
1.267496
0.362895
1.224875
-0.368183
-1.425810
-0.425162
1.361418
1.987736
0.649351
0.540609
1.450318
0.761698
-0.294265
0.345919
-0.851356
0.908186
0.826086
1.254995
1.792822
-0.171456
1.722350
0.447103
1.067019
0.828604
-0.395227
0.737030
0.027978
0.059324
-0.537714
0.635294
-0.536698
0.123059
0.798630
0.963443
0.494148
0.427500
0.356877
1.454170
0.822464
0.483055
1.623192
0.291453
0.980141
0.876082
0.655439
-0.818443
-0.541127
0.083561
1.072136
1.884661
1.264058
0.151897
1.456952
1.042801
1.443658
0.482423
0.442740
-0.817906
0.585586
1.145337
0.438967
0.402513
-0.875104
0.894634
0.989966
0.801737
-0.231151
0.558890
1.005347
-0.214738
