# Shape: (3, 3, 3, 32)
0.311289
0.141275
0.477764
0.595609
2.168735
0.047216
0.049566
-0.717404
-0.549268
-0.734843
-3.175841
2.084697
-0.104000
-0.644683
2.235957
1.157807
0.093923
-2.473405
-1.625821
5.077061
0.181492
-1.960957
0.843430
-1.119919
-3.716022
0.380263
0.764156
0.036707
0.181953
-1.019348
1.253522
-0.719409
0.025451
-0.432998
0.330849
0.457407
-4.261665
-0.031762
0.056681
-0.668558
-0.299919
-0.010688
2.009334
-6.348463
-0.536874
-0.782174
0.362893
1.633325
0.081570
-0.473736
2.459230
1.120613
-0.025061
-3.128359
-0.822528
0.843471
-0.245324
-0.747555
0.265788
-0.945718
0.163364
-0.117647
-0.141698
-0.491456
0.238072
0.208619
-0.133540
0.642002
3.522535
0.445818
-0.032245
1.167230
-0.662862
-0.010193
2.499315
3.599137
-0.591858
-1.319101
-4.796237
3.016539
0.089486
-0.215757
0.692027
-3.212655
0.084036
0.043606
0.660048
-0.254186
4.478404
0.663552
0.605504
-0.253146
-0.094498
-0.193703
1.342954
-0.538453
0.143446
-0.394293
-0.262630
0.223813
-1.066949
-0.202819
0.014925
-0.851198
0.000134
-0.283268
-3.180455
7.091079
-0.220956
2.344628
3.344036
0.812274
0.052298
-1.801524
1.616659
3.095453
0.700007
1.667574
0.744620
-0.049284
0.105197
-0.080132
0.273101
-0.231194
-0.713610
-0.223068
1.103725
-0.022989
0.058116
-0.480692
-0.514765
0.579718
-0.958662
-0.024685
0.020839
0.231873
-0.022857
-0.292124
-0.639899
-7.107610
-0.500138
-2.230652
2.523354
0.913967
0.461684
-1.192254
1.878751
1.303912
0.354975
0.544325
-1.923446
0.988502
-0.202041
-0.291694
-0.078850
-0.582580
-0.441084
0.014162
0.521777
-0.588183
0.083413
-0.214064
-0.379536
0.387624
2.051805
0.314105
-0.110081
1.037756
0.036829
-0.059956
2.682958
8.997563
-0.849278
-1.041838
-3.545709
0.149900
-0.633479
1.976672
-0.332176
-1.641978
0.256722
-1.920087
0.186647
1.184546
-0.565899
0.457603
0.147265
0.463254
-0.029003
0.219225
1.442271
-0.455561
0.126432
-0.441874
-0.482932
0.246530
-2.750887
-0.212945
-0.129256
0.874418
0.198342
-0.170711
-6.254340
1.216680
0.006988
3.621108
-4.350467
1.259392
0.113082
-0.545881
-0.102133
0.866749
0.958772
5.486820
0.619931
1.683198
1.219933
0.156512
-0.658640
-0.232386
-0.683833
-0.191512
-0.364742
0.738155
0.176890
-0.462129
-0.383678
0.095689
2.880523
-0.144809
-0.219081
0.249547
0.594717
0.257687
2.467359
-5.947287
-0.246748
-1.649692
2.935989
-0.654119
0.035439
2.317114
-2.844289
2.273896
-0.266290
4.573582
-1.438211
2.129303
0.677971
-0.028352
-0.697252
-0.934556
-0.351801
0.476485
0.409404
0.347715
0.009171
0.386294
-0.185040
-0.123974
0.442887
0.016977
-0.031809
0.449883
0.548520
0.265499
3.897053
-1.323657
-0.739023
-1.733473
1.071920
-1.251312
-0.555436
0.946205
-0.973072
-2.847851
0.113918
0.749692
0.442655
0.568012
-2.350694
-0.379196
0.143951
0.298555
0.225298
0.569758
-0.005127
-0.086996
0.094231
0.100307
0.820443
0.371081
2.421731
-0.115554
-0.096289
-1.209543
-0.310167
-0.656845
1.638642
6.734103
-0.061282
-0.752868
4.008309
-1.047476
0.132574
1.644973
-3.007379
1.375718
0.064848
-0.298510
1.244157
-0.710262
-3.557084
0.121632
0.787866
0.342974
0.262005
0.381912
-0.061576
-0.521170
-0.347805
-0.067087
0.921342
-0.032834
-4.104823
0.119125
-0.144592
-2.215848
-0.333129
-0.020232
-2.308289
5.423488
-0.523476
0.590577
0.875546
-0.141132
0.643749
2.454162
2.515851
-2.897937
-0.347320
1.303028
-1.157888
0.867724
-1.184251
-1.009320
0.700726
-0.252312
0.195276
-0.454680
-1.371563
-0.900946
-0.377378
-0.130377
0.763813
0.396918
1.944093
0.468291
-0.039392
0.004649
-0.457284
0.046815
-0.780911
0.901507
-0.390410
2.349808
-0.804950
1.635615
-0.465138
3.419491
0.238967
-3.519520
-0.022954
2.813624
1.003972
-0.008325
-0.272821
-0.256567
0.363261
0.509968
0.133156
-0.477771
-0.249215
0.136782
0.218534
-0.337503
-0.916531
0.255479
-0.766187
-0.257078
0.517341
-0.157132
0.302698
-0.409681
0.836359
-13.024197
-0.666749
0.659892
-0.857792
-2.504808
0.515316
-3.339231
-2.210386
-5.267334
0.636318
-1.033500
0.924427
-1.975603
-0.379999
-1.024678
-0.108818
0.647175
-0.674418
0.552551
-0.243580
-0.061299
-0.232567
-0.593697
-1.119010
0.058978
-0.466375
0.085061
0.272335
-1.557672
0.424078
-0.234265
0.661092
-11.596463
-0.337656
2.003175
-3.962634
-2.933184
0.572127
-3.063976
-1.451464
-3.120120
-0.128792
-2.423641
-1.379459
-1.217704
-1.306432
-0.652261
-0.076781
-0.187864
-0.205587
0.061603
-1.036991
0.315038
-0.159097
-0.119714
-1.268379
-0.265484
-2.645345
0.638718
0.078980
0.330831
0.027639
-0.056985
-2.436242
-9.813694
-0.245788
0.476895
-1.864273
-0.513059
-0.838442
-3.314903
-2.295774
0.302955
-0.319816
-1.271838
-0.576384
-1.479587
-1.881058
-0.401815
0.309610
1.471740
-0.544237
-0.474353
-0.038659
-0.038008
0.089140
-0.214626
-0.796529
-0.246549
-3.105330
-0.067608
0.082792
-0.128432
0.223707
-0.656581
-0.565929
4.793409
-0.060200
1.280362
-1.762035
0.988649
0.342867
1.118509
2.157897
-1.257676
0.574625
-2.047378
1.267461
-0.085941
5.154683
0.441461
-0.763407
0.271325
-0.565477
-0.220005
0.405878
0.993174
-0.048470
0.241273
-0.000877
0.043890
2.841014
-0.187749
-0.082007
-1.655895
0.435244
-0.355300
-0.136408
6.095773
-0.014979
-1.687284
2.055922
-1.330275
0.475087
2.566790
-2.603191
-0.701143
-0.154227
-2.793036
-1.421742
-0.285683
1.947755
1.317249
-0.906796
-0.019569
-0.516052
-0.187480
-0.231919
0.646679
-0.015185
0.787944
-1.053231
0.103540
-3.556596
0.297093
0.034911
-0.239369
0.464939
0.347966
2.135293
9.951656
0.047770
-1.456379
1.403677
-1.868388
-0.325360
0.520132
-0.961884
3.635524
-0.457156
-2.545786
0.190330
-0.146515
-0.366957
0.057076
-0.312664
0.946858
-0.352056
0.181849
0.804253
1.024695
0.055656
-0.013798
0.625361
-0.436812
1.176430
-0.018339
0.062342
1.801905
0.096966
-0.100417
4.736402
-1.518351
0.589710
-2.598466
0.674439
-0.268652
-0.133154
-0.878404
-2.535809
2.089131
-0.166282
-1.502591
-0.023321
0.584641
1.414984
-0.114108
0.285201
0.072213
-0.073831
0.812614
-0.438329
-0.417270
-0.354157
-0.176316
0.628041
-0.503938
-1.135096
0.099922
-0.064659
0.018811
-0.154835
0.237590
-2.724824
6.844110
0.794358
0.730838
1.764043
0.803704
0.226319
0.075781
1.019416
-0.585431
-0.240409
2.085432
-0.968010
-0.542432
4.295573
-0.454089
0.349569
-0.521925
0.331992
-0.433414
-1.377797
-0.752882
-0.790122
-0.170018
1.059625
-0.559230
-1.326883
0.080213
-0.071681
1.395127
-0.381700
0.269143
-3.620108
-4.986723
0.551678
2.272186
4.314567
0.803277
-0.183866
1.395683
0.741919
0.690953
0.100255
0.239550
-0.136285
-0.309623
5.707155
-0.381359
-0.074193
0.290296
-0.032156
-0.525753
-0.666381
-0.217142
-0.073690
0.587288
0.038851
-0.525019
2.012726
-0.344308
1.246638
0.747556
-0.268221
0.305873
6.486703
2.332330
0.839383
-3.441897
-3.180676
-1.756976
0.143138
-0.687383
1.020640
-2.325752
-0.073785
-0.167789
-0.129667
-0.338149
-0.147412
-0.316153
0.392290
-0.120031
-0.064377
0.952913
-0.401287
0.088073
-0.745160
0.570526
0.407357
-0.167628
1.628760
0.038175
0.257000
-0.598927
-0.003301
0.531525
0.378683
4.729372
0.826978
1.325381
-5.044411
0.017095
0.290010
0.364201
-0.076496
2.215041
-0.388991
1.603661
-1.121655
-1.907026
-4.166041
-0.518762
0.011687
-0.611004
0.200012
-0.642255
-0.590688
-0.124474
-0.643007
0.575006
0.628002
-0.426716
-1.180176
0.269619
0.197522
1.277472
-0.267474
0.789594
-0.815162
-3.617652
0.990784
-0.507791
0.714653
-0.203704
-0.918187
-2.729551
-0.065627
4.399280
-0.210926
2.774810
-0.062238
-0.984067
-2.548453
0.041193
-0.143818
0.555784
0.251576
-0.223958
-0.562267
0.127169
-0.119377
0.112510
0.430112
-0.126893
-1.104944
-0.169638
0.377133
1.912629
0.037489
-0.247776
2.641836
-6.958808
0.164018
-0.933601
0.081829
2.052630
-0.497585
3.627952
4.822350
-4.344319
0.625382
-1.210488
1.125993
2.034035
0.585442
0.760416
-0.671653
-0.036875
0.135136
0.426103
0.151604
0.311691
-0.142927
0.803522
-0.061474
-0.511041
6.712920
-0.231382
0.126434
-1.397724
-0.041133
-0.309998
-3.252633
6.863721
0.687440
1.059596
-2.092111
0.156526
-0.195690
1.201381
0.093295
-0.056572
-0.019727
-1.221242
0.482137
-0.502489
-1.884145
1.156786
-0.829067
-0.471596
-0.068535
0.207869
0.457803
0.230590
-0.433599
0.932790
0.330846
-0.430638
-2.651942
-0.045025
0.021139
0.508284
0.377822
0.192677
-2.162738
-1.902670
0.786295
0.705781
3.726006
-0.785922
-0.803958
-2.608501
2.843118
3.826389
-0.202932
-0.898274
1.138695
0.958585
-1.169115
-0.445946
-0.480887
-0.333883
0.365929
-0.071318
0.080075
0.770084
