# Shape: (3, 3, 3, 32)
0.209491
0.062410
0.138498
0.294533
0.155903
0.037375
0.045066
-0.124023
-0.289592
-0.359389
-0.219604
0.066707
-0.034106
-0.066815
0.150639
0.153995
0.039973
-0.228321
-0.148220
0.342813
0.098285
-0.165948
0.157261
-0.189325
-0.273134
0.120654
0.274870
0.011870
0.108989
-0.369888
0.317763
-0.243863
0.017128
-0.191284
0.095909
0.226191
-0.306357
-0.025142
0.051535
-0.115578
-0.158128
-0.005227
0.138942
-0.203140
-0.176062
-0.081064
0.024448
0.217242
0.034716
-0.043731
0.224199
0.075666
-0.013572
-0.264741
-0.153364
0.142591
-0.018032
-0.237192
0.095605
-0.305820
0.097854
-0.042690
-0.035920
-0.166592
0.160218
0.092161
-0.038712
0.317475
0.253223
0.352893
-0.029317
0.201787
-0.349483
-0.004985
0.172823
0.115166
-0.194094
-0.136711
-0.323128
0.401218
0.038085
-0.019917
0.063090
-0.216924
0.045509
0.003690
0.123069
-0.042971
0.329170
0.210539
0.217803
-0.081861
-0.056604
-0.070289
0.340433
-0.182523
0.096536
-0.174185
-0.076133
0.110677
-0.076699
-0.160544
0.013570
-0.147152
0.000071
-0.138538
-0.219923
0.226903
-0.072460
0.242997
0.225292
0.108037
0.022258
-0.166300
0.147385
0.209011
0.379080
0.141121
0.138838
-0.008332
0.007732
-0.025425
0.098236
-0.074762
-0.427450
-0.080944
0.279790
-0.007793
0.039111
-0.212353
-0.149224
0.286675
-0.068915
-0.019539
0.018947
0.040086
-0.012051
-0.142869
-0.044248
-0.227432
-0.164015
-0.231184
0.170001
0.121563
0.196492
-0.110058
0.171279
0.088043
0.192232
0.046064
-0.358635
0.167109
-0.014850
-0.092552
-0.028363
-0.188391
-0.264208
0.005139
0.132268
-0.199380
0.056135
-0.094566
-0.110023
0.191683
0.147497
0.248634
-0.100086
0.179404
0.019418
-0.029323
0.185522
0.287907
-0.278512
-0.107976
-0.238878
0.019938
-0.269607
0.182468
-0.030283
-0.110869
0.139024
-0.162490
0.034801
0.200250
-0.041595
0.145193
0.052972
0.149804
-0.017373
0.079549
0.365610
-0.154424
0.085086
-0.195205
-0.139996
0.121911
-0.197752
-0.168559
-0.117520
0.151167
0.104572
-0.083490
-0.432477
0.038932
0.002292
0.375291
-0.293096
0.167507
0.048127
-0.050391
-0.009311
0.058525
0.519211
0.464329
0.115589
0.284549
0.089667
0.049660
-0.236916
-0.075147
-0.409613
-0.069493
-0.092460
0.250217
0.119044
-0.204153
-0.111223
0.047319
0.207071
-0.114625
-0.199189
0.043141
0.313554
0.126027
0.170614
-0.190303
-0.080918
-0.170974
0.197801
-0.087002
0.015083
0.213894
-0.259304
0.153538
-0.144206
0.387045
-0.268161
0.359964
0.049832
-0.008996
-0.250805
-0.302211
-0.210727
0.172901
0.103782
0.117867
0.006172
0.170652
-0.053641
-0.061306
0.031838
0.013438
-0.028921
0.077774
0.289198
0.129847
0.269474
-0.042355
-0.242355
-0.179657
0.072216
-0.166432
-0.236393
0.087345
-0.088712
-0.192292
0.061691
0.063444
0.082535
0.096024
-0.172780
-0.120315
0.051780
0.096545
0.134953
0.206747
-0.001300
-0.029490
0.063415
0.044312
0.237836
0.183502
0.174090
-0.091468
-0.087546
-0.209102
-0.163531
-0.321243
0.113309
0.215480
-0.020097
-0.078027
0.270044
-0.139321
0.056423
0.151848
-0.274172
0.092891
0.035118
-0.025262
0.231978
-0.120072
-0.261452
0.038593
0.283399
0.110909
0.156940
0.138584
-0.015609
-0.176664
-0.234065
-0.029637
0.267086
-0.016236
-0.295082
0.094295
-0.131464
-0.383069
-0.175637
-0.009895
-0.159614
0.173543
-0.171668
0.061207
0.058987
-0.018771
0.273978
0.226545
0.229361
-0.195674
-0.188087
0.110270
-0.215893
0.146691
-0.087044
-0.320248
0.252054
-0.081591
0.116970
-0.164989
-0.347685
-0.305399
-0.253967
-0.057596
0.221420
0.196279
0.139754
0.370682
-0.035815
0.000804
-0.241095
0.022896
-0.053999
0.028847
-0.128031
0.243533
-0.054230
0.217547
-0.197962
0.315655
0.021786
-0.237645
-0.012430
0.238106
0.187195
-0.001407
-0.020053
-0.081406
0.130667
0.164910
0.079760
-0.173368
-0.063175
0.046366
0.147069
-0.149097
-0.265691
0.126336
-0.055079
-0.203493
0.470369
-0.027165
0.159592
-0.200363
0.057833
-0.416753
-0.218653
0.068391
-0.057790
-0.333155
0.219318
-0.308246
-0.201513
-0.355660
0.344590
-0.087461
0.172363
-0.333980
-0.027931
-0.325121
-0.039142
0.209279
-0.403974
0.200503
-0.061746
-0.020779
-0.156513
-0.262275
-0.324387
0.029165
-0.033526
0.067331
0.247608
-0.269285
0.223588
-0.114572
0.045713
-0.371068
-0.110731
0.207609
-0.266967
-0.390131
0.243496
-0.282837
-0.132325
-0.210676
-0.069746
-0.205104
-0.257206
-0.205856
-0.096025
-0.206956
-0.027618
-0.060750
-0.123146
0.022354
-0.262873
0.106790
-0.107069
-0.052886
-0.367687
-0.131284
-0.190165
0.505586
0.071809
0.057193
0.014572
-0.027869
-0.168462
-0.314022
-0.080603
0.049425
-0.125598
-0.068240
-0.356839
-0.306000
-0.209298
0.020456
-0.173192
-0.107631
-0.107469
-0.250128
-0.138261
-0.127492
0.111368
0.475922
-0.325996
-0.172127
-0.009800
-0.012884
0.059989
-0.094815
-0.230904
-0.121920
-0.223232
-0.053516
0.075275
-0.022203
0.117946
-0.321114
-0.039133
0.153381
-0.019742
0.132696
-0.118710
0.131496
0.145923
0.103250
0.196728
-0.084921
0.311181
-0.173262
0.236323
-0.014529
0.378878
0.140071
-0.274601
0.087739
-0.338718
-0.079833
0.102888
0.336662
-0.032619
0.106586
-0.000254
0.021704
0.204231
-0.148615
-0.074561
-0.286266
0.229475
-0.173766
-0.009432
0.195055
-0.004912
-0.174870
0.138510
-0.176935
0.202196
0.236942
-0.237324
-0.047342
-0.083520
-0.236364
-0.265090
-0.048295
0.143163
0.417951
-0.326179
-0.006328
-0.309113
-0.068030
-0.058791
0.219209
-0.010219
0.348087
-0.305319
0.051202
-0.255672
0.235168
0.031741
-0.041381
0.245132
0.170179
0.147652
0.318437
0.015666
-0.150939
0.094567
-0.248507
-0.138473
0.048014
-0.087692
0.245477
-0.247567
-0.215440
0.035488
-0.024769
-0.026972
0.018110
-0.112467
0.306189
-0.210880
0.065987
0.203875
0.347347
0.037455
-0.006096
0.181284
-0.216007
0.084570
-0.014516
0.056682
0.311508
0.051124
-0.049111
0.327514
-0.048585
0.193389
-0.269304
0.045438
-0.035732
-0.056670
-0.081086
-0.231181
0.141062
-0.090048
-0.127159
-0.004348
0.098835
0.104004
-0.036205
0.102588
0.023352
-0.044224
0.294871
-0.111114
-0.141445
-0.238340
-0.077891
0.182061
-0.249201
-0.081598
0.079095
-0.058789
0.003252
-0.081634
0.116198
-0.188417
0.219000
0.260501
0.075744
0.118846
0.106897
0.096321
0.006995
0.092937
-0.039529
-0.130190
0.176482
-0.180490
-0.091699
0.315732
-0.144078
0.125742
-0.168777
0.198862
-0.157272
-0.349266
-0.255209
-0.531735
-0.075108
0.307172
-0.276543
-0.095385
0.063494
-0.065172
0.241185
-0.201245
0.131630
-0.250324
-0.159567
0.180917
0.235489
0.290677
0.106841
-0.078253
0.128836
0.067638
0.046654
0.054292
0.020272
-0.025411
-0.052342
0.419486
-0.121002
-0.026688
0.093874
-0.019262
-0.190779
-0.168925
-0.073606
-0.049592
0.259444
0.011263
-0.259626
0.144688
-0.272542
1.133449
0.129235
-0.141415
0.149593
0.448544
0.074631
0.275267
-0.356717
-0.214286
-0.233689
0.060919
-0.063453
0.093048
-0.157039
-0.039957
-0.014199
-0.024177
-0.057165
-0.010835
-0.100312
0.141109
-0.038815
-0.038561
0.345781
-0.101725
0.029855
-0.501477
0.252039
0.118088
-0.082893
0.117086
0.030218
0.233666
-0.103541
-0.001740
0.259953
0.026185
0.151332
0.271199
0.137362
-0.339848
0.002274
0.123428
0.033620
-0.006974
0.149564
-0.210653
0.135712
-0.209137
-0.322387
-0.306211
-0.164598
0.004204
-0.197582
0.119806
-0.233053
-0.149737
-0.042194
-0.432730
0.254018
0.182050
-0.211014
-0.084839
0.213420
0.179588
0.220845
-0.141021
0.386166
-0.056367
-0.115759
0.324917
-0.052627
0.048147
-0.027094
-0.390779
-0.251966
-0.005983
0.297048
-0.114224
0.234822
-0.011605
-0.166359
-0.187316
0.013070
-0.051732
0.179726
0.150693
-0.081267
-0.142532
0.043107
-0.080338
0.049703
0.124684
-0.062749
-0.079431
-0.134279
0.342892
0.330649
0.019765
-0.121179
0.182678
-0.222670
0.053788
-0.096758
0.005513
0.273012
-0.211771
0.334898
0.439637
-0.293336
0.338668
-0.102439
0.209946
0.343858
0.043031
0.241273
-0.241597
-0.011924
0.080946
0.154619
0.038431
0.105656
-0.096187
0.354969
-0.017820
-0.252714
0.482570
-0.183153
0.114954
-0.241634
-0.021687
-0.151611
-0.224914
0.219628
0.225439
0.109816
-0.140948
0.020819
-0.083285
0.110900
0.008505
-0.003820
-0.010683
-0.103349
0.089897
-0.084947
-0.138488
0.367037
-0.298219
-0.152502
-0.041052
0.075429
0.116051
0.078165
-0.291803
0.412075
0.095908
-0.212953
-0.190639
-0.035640
0.019220
0.087870
0.199200
0.094232
-0.149550
-0.060882
0.257857
0.073147
0.251025
-0.104532
-0.342163
-0.240792
0.259197
0.258365
-0.109895
-0.076018
0.212315
0.162051
-0.085932
-0.141494
-0.172977
-0.107969
0.219190
-0.025879
0.020299
0.261040
