# Shape: (3, 3, 64, 128)
-0.006572
-0.145615
0.264564
-0.169253
0.206301
0.258574
0.248534
0.314954
0.010287
-0.024239
0.213211
-0.036532
0.248804
-0.449564
-0.023872
-0.001631
0.007893
0.050185
0.330107
-0.006710
0.022432
0.119203
-0.016319
0.137843
0.353656
0.029978
0.104447
0.089077
-0.043851
-0.099156
-0.203040
-0.315283
-0.134586
-0.270360
-0.137388
0.002740
-0.380160
0.357229
-0.068219
-0.302132
0.170523
0.087525
-0.069080
0.021785
0.035611
0.122950
-0.106594
-0.258875
-0.207358
-0.107471
-0.409544
-0.176787
0.036909
-0.138372
0.269660
0.153029
-0.210779
-0.054852
-0.109197
0.040553
-0.064092
0.036499
0.155671
0.389829
-0.276696
-0.017122
-0.062612
-0.123301
-0.138868
-0.028942
0.247308
-0.089732
-0.079376
0.050770
-0.409589
0.071332
-0.111108
-0.057856
-0.024098
0.284190
0.043412
-0.203391
-0.167129
0.252372
0.118205
-0.057440
0.201802
0.066076
-0.564897
-0.066968
-0.261275
-0.262422
-0.168553
0.039742
0.305213
-0.520481
-0.077781
0.093152
-0.054355
-0.318143
-0.040859
0.055205
-0.111355
-0.174311
-0.408535
0.132538
0.088860
-0.381127
-0.075762
-0.161675
-0.039048
0.173222
-0.140460
0.106669
-0.184423
0.029382
-0.020335
-0.104245
-0.121277
0.107241
-0.018402
-0.105171
0.008449
-0.003493
0.111502
0.100886
-0.121565
-0.184504
0.059064
-0.192723
0.129416
-0.015114
-0.036720
-0.150135
0.076852
-0.045671
0.008893
0.142402
0.081547
-0.515755
0.044722
0.346773
-0.001063
-0.097016
-0.050432
-0.027078
0.299133
0.086241
-0.068172
-0.064725
-0.057276
-0.070137
0.159584
0.163668
0.115734
-0.226880
-0.001419
-0.133407
-0.008652
0.169888
-0.091013
0.027415
-0.252268
-0.035937
0.574178
-0.177419
0.163998
0.014927
0.242900
0.086231
-0.019044
-0.217370
-0.072801
-0.280501
-0.009079
-0.076378
-0.001030
0.306404
0.002708
0.122931
-0.047026
-0.136901
0.040673
0.089970
0.029194
-0.279753
-0.253310
0.141721
0.118710
-0.030462
-0.185381
-0.189072
-0.330775
0.043556
0.257171
0.089992
0.177038
0.198858
-0.018363
0.003711
0.070232
0.114205
-0.090434
0.039222
0.104086
-0.095312
0.173599
-0.241607
-0.281028
0.019230
0.136700
-0.282235
-0.192117
-0.039053
0.215462
-0.081959
-0.217025
-0.214630
0.035633
-0.382232
-0.065416
0.167072
0.073571
0.202101
0.045793
0.237209
-0.380985
0.193754
0.150549
-0.030279
-0.094471
0.181720
0.274327
0.064554
-0.105283
0.114964
-0.008196
-0.087514
-0.192149
0.145271
0.080112
0.351175
-0.216206
-0.095009
-0.021268
-0.134699
-0.233212
0.124864
-0.207457
0.113339
-0.338231
0.112441
-0.562985
-0.147998
0.023768
-0.260105
0.245073
-0.077411
-0.015849
0.131510
-0.126787
-0.130163
-0.064601
0.240888
-0.150613
-0.307980
-0.366784
-0.052794
0.208492
-0.013180
0.197208
-0.358441
0.049664
0.077212
0.002007
0.471077
-0.115581
-0.112148
-0.032627
0.043948
-0.044859
-0.340937
-0.013589
-0.094336
0.160317
0.019689
-0.008762
-0.004223
-0.023395
0.416412
-0.023685
0.293306
-0.143396
0.105753
-0.239338
0.051526
0.358669
0.017692
-0.072534
-0.377087
-0.081499
-0.086262
0.300573
0.159137
-0.075167
-0.167072
-0.138640
0.229593
0.240111
0.154386
-0.094425
0.074104
0.054447
-0.170580
-0.018857
-0.100755
-0.095463
-0.122510
-0.076008
-0.267501
-0.338400
-0.116181
0.405400
-0.013050
-0.157199
0.120312
-0.343021
-0.123222
0.013612
0.347560
-0.039097
-0.041790
-0.106332
0.322636
-0.026218
-0.146741
0.070793
-0.016568
0.199015
-0.138001
-0.033932
0.338178
0.015625
0.032689
0.306305
-0.142836
-0.143569
0.020488
0.127064
-0.186858
-0.020546
-0.098617
0.130376
0.082838
0.005767
0.426148
0.246863
0.086795
-0.337593
0.184918
0.064166
0.104809
0.116905
0.382364
-0.192399
-0.006601
0.032424
0.386350
-0.165736
-0.021733
0.393621
0.046538
0.310428
0.191972
0.108723
-0.203369
0.127263
-0.094326
-0.070986
0.048448
-0.498691
-0.154895
-0.006337
0.056276
-0.143574
-0.109645
-0.445878
-0.045924
0.317761
-0.097459
0.136749
0.046981
0.120542
0.250301
-0.202113
-0.235053
0.115229
0.224562
0.004456
0.025950
-0.252279
-0.016399
0.008240
-0.046725
-0.232243
0.215826
0.145536
0.036144
0.023803
-0.161854
0.067768
-0.220002
-0.079754
0.021642
-0.045378
0.208231
0.295693
-0.343428
0.117696
0.017079
0.284465
-0.065001
-0.025592
0.166623
0.371414
-0.032256
-0.220731
-0.070720
-0.197730
-0.009713
-0.101350
-0.062280
-0.107116
-0.225912
0.072263
-0.165864
0.124582
-0.314453
-0.126023
0.005757
0.012056
-0.244427
0.376617
0.093462
0.178426
-0.154931
-0.264979
-0.417779
0.124744
-0.128654
-0.017781
-0.099889
0.112613
-0.273146
-0.104072
-0.350610
0.024573
-0.215397
-0.056295
0.309868
0.113601
-0.305090
-0.186293
-0.361104
-0.143354
0.087495
0.137094
-0.196797
-0.106177
-0.334796
-0.128141
-0.232495
0.376347
-0.340319
-0.044234
-0.090776
0.258275
0.163689
-0.172586
0.268896
0.219897
0.112183
-0.079893
-0.128307
0.176873
0.179969
0.099422
0.164239
-0.096335
-0.007206
-0.240120
0.147788
-0.422641
-0.153965
-0.134172
0.201843
-0.212153
-0.188515
-0.284409
-0.384089
-0.009876
-0.109705
0.004204
-0.263309
-0.181108
0.057777
0.096293
-0.219870
0.222866
-0.044058
0.029247
-0.229451
-0.277901
-0.070083
-0.074513
0.092347
-0.031290
-0.379674
-0.062086
0.062544
-0.080086
-0.176793
-0.182558
0.129476
0.231183
-0.408008
0.035495
0.087707
-0.000087
0.300462
-0.267247
0.038566
-0.252404
0.058357
-0.447881
-0.158197
0.034768
-0.019174
0.209671
-0.020284
0.013818
0.106203
-0.052702
0.187730
0.116636
0.078158
0.446495
-0.078914
-0.524156
-0.038245
-0.126247
-0.192783
0.053725
-0.217305
-0.098166
-0.095890
-0.138133
0.336468
-0.014355
-0.169670
-0.066617
0.016260
-0.547144
0.057610
-0.190218
0.054567
0.116653
0.049043
-0.214972
-0.310792
-0.189962
0.093712
-0.057921
-0.199117
0.101843
0.199348
0.039792
0.132360
-0.224963
0.143429
-0.206549
-0.100500
-0.207697
0.266857
0.088858
0.112067
0.137953
0.088733
-0.094633
-0.247329
0.341304
0.103231
-0.218139
-0.007702
-0.214000
0.057685
-0.241460
0.249400
0.126411
-0.237339
-0.196042
-0.289532
0.221806
-0.061275
-0.300556
-0.314171
0.191610
-0.118761
-0.060061
0.173433
0.121299
-0.093911
0.030286
-0.321146
-0.252870
-0.391842
-0.163606
0.264791
0.149679
-0.213477
0.012471
-0.031951
0.048286
0.102785
0.035870
0.114484
0.136642
0.152756
-0.290622
0.014179
-0.025346
0.196803
0.067508
0.039139
-0.444962
0.268813
0.065123
0.010406
0.299793
0.009094
-0.133335
0.023130
-0.070943
-0.068378
-0.172283
0.120833
0.032238
0.327174
0.363587
-0.114816
-0.017977
-0.460282
-0.154221
-0.408321
-0.136097
0.098706
0.076778
0.072383
-0.237236
0.140029
0.216620
-0.232332
0.190485
-0.072418
0.130541
-0.064803
-0.031409
-0.167686
-0.264518
-0.250749
0.181552
0.202562
0.029082
-0.108189
0.210875
-0.035956
0.178090
0.058890
-0.014252
0.043505
0.174297
0.068427
-0.242079
-0.080357
-0.416683
0.145234
0.024408
0.055301
-0.083763
-0.166977
-0.036216
0.072485
-0.144297
-0.168983
0.115028
0.087954
0.190076
0.096241
0.130546
-0.223460
-0.051737
0.212905
0.009030
-0.131120
-0.044038
0.045922
-0.087852
-0.007711
-0.235131
0.205788
0.226931
-0.090451
0.191890
0.171676
-0.106673
-0.071575
-0.218688
-0.120525
0.085113
-0.491419
-0.041943
0.039230
0.112881
0.032390
0.115711
-0.075463
0.006170
0.072350
0.048086
-0.007845
-0.182519
-0.141869
0.228462
-0.017439
0.070675
-0.385889
-0.052523
-0.069369
0.386218
-0.023440
-0.103402
-0.026354
-0.429876
-0.137628
-0.364296
-0.099332
-0.057146
-0.239227
0.303575
-0.178622
-0.008437
-0.007132
-0.289934
-0.304704
-0.051692
0.165453
-0.101386
0.145756
-0.074140
-0.237361
-0.015665
-0.152583
-0.078927
-0.453248
-0.015892
0.063676
-0.032937
-0.141505
-0.284395
0.075666
0.008618
-0.117163
-0.075209
-0.147585
0.141684
-0.291604
0.242883
-0.078750
-0.105662
-0.189793
-0.033760
-0.038224
0.004164
-0.001469
-0.035370
0.272592
-0.295792
-0.039332
-0.016112
0.055617
-0.037679
0.243897
-0.146241
-0.053970
0.167112
0.202639
0.121118
0.006822
-0.115206
0.371519
0.108362
-0.104199
0.050377
0.074067
0.028694
0.071935
0.200151
-0.001561
-0.223769
-0.034950
0.195708
0.069469
0.076239
0.306099
-0.049259
0.067379
-0.205279
0.091080
-0.414431
0.003593
-0.101313
0.069291
-0.049891
0.198118
-0.173369
-0.086577
-0.343878
-0.091927
-0.176351
0.497040
-0.025760
0.003915
0.134460
0.097332
-0.336550
0.136559
-0.335701
0.054405
-0.006408
0.132401
0.083729
-0.093527
0.010027
0.262687
0.092377
-0.368070
-0.293251
-0.168375
-0.059056
-0.286782
-0.064441
-0.114697
0.058995
-0.034847
0.164791
0.031070
-0.040218
-0.119222
0.080042
0.039328
-0.213678
-0.033938
-0.075950
-0.135545
-0.109950
-0.060394
0.431880
0.143188
-0.174316
-0.013858
-0.405072
-0.290949
0.199120
0.117831
-0.038334
-0.145290
0.131723
-0.169753
-0.205271
0.083082
0.028855
-0.032818
-0.112558
0.237521
-0.209047
0.212678
0.117839
-0.144511
0.255609
-0.151038
-0.286132
-0.152824
0.210779
-0.285274
0.053591
-0.076524
-0.063804
0.043233
-0.216442
0.382445
0.099247
-0.116356
0.516234
-0.300390
-0.007391
0.020977
-0.002819
0.230245
-0.014945
-0.127814
-0.137328
0.048566
0.336577
-0.202914
-0.214935
0.069630
-0.300785
0.007993
-0.028181
0.129787
-0.126918
-0.139082
-0.146702
0.108890
0.071826
-0.286482
-0.250561
-0.295552
-0.011241
-0.167176
0.150837
-0.095810
-0.557673
0.089445
-0.313028
0.052579
-0.152562
-0.254986
0.079216
0.101790
0.072466
0.155239
-0.103822
-0.198931
-0.118542
0.236476
-0.425035
0.307698
-0.164692
0.162174
0.172089
-0.537623
-0.168882
-0.413554
-0.009499
-0.007750
0.390285
0.068603
0.274412
0.078336
-0.165182
0.156651
-0.151692
-0.082093
-0.055059
-0.223472
0.024919
0.045833
-0.110663
-0.280659
0.043584
0.161910
0.291834
0.256782
0.095271
0.169215
-0.222423
0.173087
-0.156834
-0.060824
-0.091506
0.055047
0.014920
-0.218955
-0.071872
-0.234017
-0.304062
-0.174174
0.023723
0.254278
0.092319
0.223601
0.137628
-0.105200
-0.254060
-0.019476
0.085417
-0.024442
-0.141481
0.135451
-0.273814
0.120608
-0.212948
-0.344386
-0.192119
-0.266360
-0.183843
0.153347
0.067442
-0.086422
0.274131
-0.076208
-0.145965
-0.083757
-0.056277
0.324116
0.065823
0.207491
0.286990
0.081473
0.054030
0.374333
-0.125027
-0.192337
-0.010471
-0.375595
0.224943
-0.303023
0.238967
0.509323
-0.093969
0.298339
0.171053
-0.103834
0.327963
0.016162
0.036415
-0.019034
-0.083205
0.117680
-0.100378
-0.196286
-0.151009
0.278263
-0.172203
-0.087893
-0.040913
-0.211753
0.390891
-0.118760
0.028999
-0.053112
-0.209180
0.102389
-0.135761
-0.016233
-0.029216
-0.097091
0.124312
-0.049336
-0.144755
-0.081336
-0.193393
0.113097
0.135798
0.095110
-0.174312
-0.160330
-0.215147
0.073511
-0.051074
0.140572
-0.219452
-0.102268
-0.036674
-0.161236
-0.079969
-0.128938
0.142352
-0.080924
0.290905
-0.107104
0.262489
-0.088283
0.131425
-0.122316
0.226448
0.114889
-0.218970
-0.181255
-0.156161
0.073542
-0.251120
-0.062428
0.257139
-0.080759
0.044899
0.083764
-0.175752
0.323275
-0.008241
-0.144259
-0.104900
0.180745
0.076002
0.016802
0.108738
-0.319056
0.217571
-0.091815
-0.056666
-0.138683
-0.165732
-0.126009
0.191888
-0.143473
-0.212062
-0.129000
0.004157
-0.659627
0.218004
0.362194
-0.039081
-0.154016
0.187720
0.124013
0.078322
-0.166473
-0.282571
-0.143436
0.031861
-0.174390
0.023750
0.039575
0.039822
-0.035726
0.081933
-0.160844
-0.205516
-0.123995
0.078665
-0.100620
0.005157
-0.110690
0.094872
-0.210994
0.033041
0.173292
0.117655
0.195868
0.283792
-0.101750
0.263874
-0.314318
-0.105854
0.154696
-0.183727
-0.121440
0.015678
0.357602
0.089625
0.346579
-0.016349
0.184576
0.036178
-0.308932
-0.002342
0.082456
0.061059
0.124415
-0.040469
0.118358
-0.107586
0.204433
-0.117059
0.166885
0.341681
0.109533
0.037367
0.012967
0.054187
0.196470
0.116760
-0.169451
-0.040955
-0.375296
0.102598
0.061671
0.068437
0.088535
-0.022439
0.374890
-0.293328
-0.157218
-0.583855
-0.109038
-0.167183
0.208936
0.245399
0.305197
-0.080587
0.142122
-0.036127
-0.152607
-0.147828
-0.109293
-0.117859
-0.028926
0.018141
0.192870
0.138366
-0.290529
0.049599
0.029430
-0.018648
0.156886
-0.138202
-0.268764
0.412342
-0.085243
-0.050155
0.091272
-0.224669
0.094789
-0.377733
-0.155419
-0.188937
-0.326546
-0.113603
-0.320134
0.058122
-0.050653
-0.020098
-0.032505
0.412197
0.174352
-0.027929
-0.008908
0.007332
0.229228
-0.232730
0.029010
-0.175287
0.515712
0.018195
-0.026515
-0.001141
-0.272671
0.083290
0.113617
-0.021328
-0.380961
0.100221
0.000906
-0.130341
0.006041
-0.347963
0.121790
0.568002
0.274718
0.035101
0.206225
0.024446
-0.481189
0.044955
-0.425794
-0.017938
-0.161274
0.204396
0.218064
-0.271443
0.192535
-0.280156
-0.079335
0.416374
-0.078275
0.081977
0.059081
-0.194376
0.143974
-0.040142
-0.011037
0.187506
0.265470
0.314970
0.135427
0.191589
0.241262
-0.237560
-0.179676
0.146099
-0.176716
-0.089614
0.263505
-0.176023
0.004580
-0.014583
0.004582
0.264640
-0.037799
0.281265
-0.123151
0.461122
-0.207374
0.146972
-0.160593
-0.023236
0.349902
0.226386
-0.260003
-0.381933
0.075779
-0.134370
0.085373
0.151789
0.354650
0.118426
-0.202035
-0.249634
0.047930
0.167720
-0.054753
-0.140516
-0.012424
-0.041953
-0.073006
0.127575
0.066867
0.033242
-0.077835
-0.067448
-0.139691
0.358494
-0.012113
0.226364
-0.077459
0.243267
-0.023541
0.230161
0.040154
0.247913
-0.167643
0.232673
0.182408
-0.458434
-0.406206
0.187640
0.034918
-0.024227
-0.186239
-0.235151
-0.104636
-0.057628
0.219772
-0.155984
0.050754
-0.040944
-0.136024
-0.233596
0.281352
0.298579
-0.206615
-0.157588
-0.307972
0.138020
0.109313
-0.166611
0.163770
-0.160350
-0.086974
0.318506
-0.070184
-0.155996
-0.287484
0.093438
0.179115
0.175205
0.018381
0.022094
0.215602
0.001427
0.003837
-0.181193
0.139526
-0.192955
0.203599
0.174807
-0.100578
-0.221810
0.353970
-0.318270
0.045590
0.074170
-0.159568
0.212862
-0.039560
0.279838
-0.292090
-0.146927
-0.141280
0.068945
-0.272136
-0.145140
0.303604
-0.060080
-0.185365
0.023932
0.165097
-0.334599
-0.189539
-0.003528
-0.112225
0.324217
0.317943
-0.121061
-0.136195
0.192648
0.169066
0.183458
-0.169246
-0.022784
-0.401870
-0.163107
0.138898
-0.117393
-0.082774
0.074696
-0.097313
0.176322
-0.032417
-0.088908
0.304772
0.114537
-0.102655
0.547390
-0.083360
-0.052466
0.145160
-0.084113
-0.066952
0.188762
-0.157367
-0.014873
-0.020259
0.193856
0.089570
0.008824
-0.219382
0.360637
0.144789
-0.070279
-0.024261
-0.064383
0.116986
-0.330261
-0.192551
0.090818
-0.377904
0.031039
0.105730
-0.015481
0.089988
-0.049188
0.280713
-0.032002
-0.657249
0.107507
-0.185345
0.101534
-0.085848
0.119075
-0.091287
-0.156725
-0.291906
-0.180964
-0.108687
-0.063890
-0.117409
0.095774
-0.273322
0.269494
-0.124672
-0.373473
-0.249329
0.296961
-0.067006
0.198299
0.197007
-0.095345
-0.127731
-0.020703
-0.036107
0.289935
-0.341866
-0.038405
0.163399
-0.016699
-0.170223
-0.268707
-0.171511
-0.182285
0.018947
-0.185255
-0.398037
0.208509
0.171055
-0.094321
-0.098015
0.186997
-0.219762
0.038045
-0.178304
0.304692
-0.004955
-0.349424
-0.353747
-0.180175
-0.264223
-0.032474
-0.319969
-0.330363
-0.013160
0.035461
-0.005584
0.104943
-0.069173
0.184977
0.248772
0.120878
-0.243493
-0.390395
-0.322207
0.227705
0.100071
-0.346684
-0.339660
-0.146907
0.013889
-0.314400
0.325125
0.103239
0.139331
-0.067181
-0.192168
-0.094053
-0.008511
0.245494
-0.011812
-0.046646
0.057922
-0.211455
-0.152593
-0.049699
-0.070206
0.376136
-0.194565
-0.252637
0.148651
-0.385762
0.094321
-0.270962
-0.415426
-0.244813
0.076223
0.161912
0.387254
-0.364281
0.249249
0.218667
-0.265307
-0.320540
0.112443
0.016058
0.168770
0.214618
0.241316
-0.117261
-0.512948
0.349759
-0.174063
0.082241
0.193919
0.003581
-0.122792
-0.155895
-0.135478
0.191010
0.070406
0.054201
-0.197337
0.032389
0.082845
0.239226
0.165861
0.158887
-0.152995
-0.027493
-0.160239
-0.071771
0.212645
-0.097971
-0.276961
-0.395029
-0.200567
0.213329
-0.178016
0.174673
-0.525312
0.061336
0.128426
-0.085023
0.094322
0.068516
-0.008507
-0.515338
-0.102868
-0.254310
0.185255
-0.077278
-0.089892
0.024765
-0.366256
-0.168178
-0.094659
-0.071198
-0.229534
-0.368889
-0.057059
0.067254
-0.100173
-0.256990
0.236612
0.032426
0.094312
-0.264482
-0.061004
-0.408390
0.013085
0.185754
-0.057559
-0.047656
0.084443
-0.068233
-0.072247
-0.159965
0.015183
0.218872
0.249017
0.168145
0.059361
-0.218359
0.093126
-0.145478
-0.051067
0.085732
-0.005795
0.050284
0.088932
-0.046434
0.104183
0.200111
0.175263
0.447698
0.232160
0.168687
-0.157097
-0.248809
-0.106675
0.025879
-0.006709
0.283725
-0.025645
-0.073797
0.069074
-0.019207
-0.242923
-0.154570
0.232760
-0.180746
-0.090945
0.259037
-0.402970
0.441753
-0.267574
0.021281
0.062831
0.133635
0.509404
-0.070451
0.233393
-0.091347
0.043783
0.077405
0.246307
0.017195
-0.208770
0.172991
-0.152050
-0.019884
-0.250301
0.144740
-0.063835
-0.041999
0.153626
0.292191
0.169606
0.005410
-0.316902
-0.112758
0.130627
-0.325181
-0.360778
-0.347814
0.303130
-0.107656
0.217883
0.018302
0.019957
-0.424599
-0.629035
0.176779
0.188526
-0.264140
-0.011211
-0.126653
0.397813
0.034800
-0.057596
-0.049971
0.077886
-0.294277
-0.170824
0.104100
0.172151
0.127596
-0.190596
0.266436
0.089409
-0.354204
0.058910
0.032672
0.109712
-0.070970
0.109573
-0.263036
-0.094048
-0.111220
-0.364003
0.055504
-0.165855
-0.288956
0.348295
0.041031
0.110304
-0.399535
0.258525
0.231612
0.092212
-0.116738
-0.049597
0.177703
-0.146546
-0.255007
-0.420206
-0.093725
-0.022883
-0.047310
0.126042
-0.691166
0.301112
0.152915
-0.002621
-0.387857
0.008491
-0.052446
-0.037068
0.219403
-0.094497
0.267040
-0.210201
0.104691
-0.245115
-0.414145
0.086683
0.221377
-0.153846
0.175362
-0.374505
-0.062570
-0.003476
-0.508923
-0.112551
0.019419
-0.358548
0.120978
-0.136624
-0.307849
-0.238007
0.200005
-0.233577
-0.025767
0.108319
0.068032
0.260784
0.082533
0.397254
-0.034942
-0.107618
0.036922
0.124396
-0.025528
-0.047055
-0.256297
0.210306
-0.163251
0.212453
0.171275
0.023043
-0.407311
-0.154260
0.014886
-0.480057
0.105580
-0.170712
0.193894
0.235316
-0.228499
-0.233290
0.120010
-0.158993
0.250268
0.140846
0.053156
0.135596
-0.195520
0.394634
0.117105
-0.096649
-0.044413
-0.010175
-0.019550
-0.158714
-0.297688
0.077228
0.126612
0.156866
-0.044764
-0.218572
-0.154474
0.056363
-0.144482
-0.034880
-0.402105
-0.006657
0.287141
-0.220621
-0.397689
-0.159148
0.109374
0.214996
-0.161616
0.040178
0.080894
-0.200972
0.208375
0.062365
0.103155
-0.039185
-0.333022
0.058286
0.366686
-0.072002
0.150590
0.184938
-0.373686
0.122446
-0.204331
0.015633
-0.258476
-0.057502
-0.486451
-0.196571
-0.285580
-0.041023
0.231510
-0.179666
0.319268
0.297197
-0.383572
-0.114385
-0.340650
-0.046029
-0.003146
-0.142539
0.146610
-0.045118
-0.077524
-0.123928
-0.050026
-0.025371
-0.220602
-0.242737
-0.086739
0.008825
0.299574
0.238986
-0.085814
0.042200
-0.323087
-0.224529
-0.060515
-0.018541
0.154148
0.243515
0.017463
0.181872
0.066733
-0.012548
0.174252
0.066652
-0.040394
0.176653
0.036872
-0.346339
-0.331931
-0.298793
0.332958
-0.345387
-0.080277
-0.104261
0.140643
0.097641
0.004002
-0.622175
-0.070476
-0.206781
0.055791
0.007637
-0.042442
-0.068035
0.111654
0.224652
-0.075814
0.386579
-0.209398
0.204319
-0.246155
0.160994
-0.153139
0.226062
0.031403
0.033477
0.282603
0.012966
-0.333044
-0.114571
-0.159820
0.338381
0.183828
-0.037581
0.203175
0.240210
0.148366
-0.193727
-0.065979
-0.198316
-0.111170
0.099181
-0.085740
0.003878
-0.201724
0.061888
-0.126720
-0.025504
0.156887
-0.032770
0.012316
-0.263778
-0.333225
0.015387
-0.163222
0.164398
-0.058559
-0.257304
0.021381
0.122298
-0.348055
0.142448
0.115398
-0.017450
0.400196
-0.371939
0.137782
0.051589
-0.225088
0.071293
0.140082
-0.064769
0.059678
-0.015210
0.090651
0.437383
-0.154130
-0.089153
-0.008914
0.003596
0.016994
-0.031724
0.133446
0.177033
-0.392354
-0.388309
0.236407
0.013637
-0.069776
0.143462
-0.154823
-0.486320
-0.402417
0.076392
0.170257
-0.425963
0.068638
-0.075964
0.170409
-0.006167
-0.158101
-0.368530
0.118092
-0.410950
-0.042128
0.391369
0.065859
0.409462
0.050602
-0.220661
-0.289452
-0.116075
-0.128375
-0.056486
0.182034
0.139933
-0.320469
-0.249689
0.024547
0.153006
0.165427
0.208853
-0.308728
0.262229
0.186065
-0.061413
0.337528
-0.073954
0.060123
-0.121241
0.032761
0.073649
0.119662
0.026290
0.118705
0.269909
-0.003056
-0.157211
0.138245
0.019245
-0.138618
0.323316
0.157299
0.000490
0.156792
-0.194172
0.255698
0.053119
0.345437
-0.111982
0.031925
0.046260
-0.110977
0.580397
0.091571
-0.262273
-0.028046
0.094949
-0.151148
-0.211019
0.143480
-0.019615
0.137478
-0.141633
0.324285
0.089070
-0.315462
0.011916
0.144172
-0.164400
-0.220536
0.112282
0.060563
-0.159990
0.063244
-0.139840
0.146550
0.269456
0.055735
-0.211960
0.122846
0.035612
0.260268
-0.034016
-0.314164
0.001886
-0.009164
-0.146239
0.004203
0.358215
-0.273761
-0.053199
0.027622
0.109859
-0.006107
0.077813
0.011516
-0.018119
-0.142394
-0.293275
-0.185806
-0.187364
-0.057032
-0.124697
-0.000498
0.269936
-0.306473
-0.094295
0.287486
-0.245089
0.260575
-0.077184
-0.148512
0.032489
-0.071547
0.047535
0.325125
0.116873
-0.061051
0.079277
0.085095
-0.282152
-0.054804
0.050963
-0.166070
-0.265091
0.385424
0.044628
-0.045432
-0.073941
0.058876
-0.336583
0.062166
-0.078928
-0.107950
0.009121
-0.009877
0.368554
-0.101257
0.126027
-0.047146
-0.152714
-0.063273
0.033504
0.013384
0.126000
-0.188669
0.050470
0.393898
-0.206044
0.184514
-0.230681
0.243832
0.167909
0.395749
0.154869
0.275686
0.124879
0.299628
-0.045485
-0.143538
-0.051002
0.226918
-0.069366
0.019495
-0.136241
0.104294
0.158309
0.390181
-0.323435
0.053425
-0.251816
-0.098230
-0.046569
0.143648
-0.089472
-0.069148
0.069506
0.005007
0.041721
0.085325
-0.125099
0.033209
-0.313057
-0.020810
0.107381
0.462811
-0.136485
0.130368
0.378510
-0.208183
-0.226295
0.126784
0.042480
-0.276002
0.107601
0.084469
0.118791
-0.180850
-0.036995
-0.100181
-0.248366
-0.221858
-0.170827
-0.025550
0.001541
-0.038266
0.083854
0.170789
-0.091781
0.049097
-0.016101
-0.373095
0.067281
-0.028803
-0.223488
0.315919
0.042771
-0.092372
0.012169
0.013122
0.248158
-0.402635
-0.150656
-0.390914
0.206031
-0.274971
0.104248
-0.178693
-0.221507
-0.497931
-0.093423
-0.058395
0.306423
-0.027330
-0.007487
0.060752
0.130568
-0.130868
-0.050803
0.141622
0.282297
0.010766
0.040332
0.078897
-0.451576
0.278937
0.044918
0.307990
-0.458971
0.139115
0.077114
0.072537
0.034272
0.185439
-0.270393
0.272417
-0.098432
0.074043
0.006066
-0.004169
-0.260430
-0.399390
0.234953
-0.050426
-0.101138
0.095734
0.050933
-0.179954
0.026132
-0.112076
-0.457943
-0.040597
-0.218825
0.238339
0.197678
0.247183
-0.113309
-0.185353
0.117162
0.191488
0.031269
0.007366
-0.176045
0.049339
-0.187782
0.048900
-0.156129
0.009068
-0.405009
0.074141
0.163919
0.157568
-0.027647
-0.278380
0.021565
0.175979
0.078629
-0.041226
-0.059959
0.088627
-0.098968
-0.140726
0.083853
-0.121351
0.105808
0.207094
-0.021963
0.108302
0.449626
-0.039046
0.190253
-0.066926
0.125749
0.387580
0.008731
-0.001478
-0.028711
0.231091
-0.070033
0.177156
-0.187111
0.208276
0.040357
-0.112659
0.022300
-0.256422
0.040109
0.251386
0.183829
-0.323723
-0.303147
0.172920
-0.146948
-0.076781
0.065019
-0.142443
0.013002
-0.021372
0.287924
-0.205246
-0.185595
-0.115948
-0.115755
-0.057172
0.279724
0.033443
0.269516
-0.085360
0.022005
0.145185
0.118120
0.102041
0.196968
0.046630
-0.000618
-0.195285
-0.348607
-0.162140
0.203367
-0.412117
0.151195
0.137536
0.122479
0.031235
-0.014083
-0.266190
-0.288134
-0.181202
-0.026372
0.141083
-0.227215
-0.070086
0.163183
0.001273
-0.281932
-0.353371
-0.140479
-0.287942
0.317061
-0.077988
0.247525
0.115967
0.023503
-0.049538
-0.075350
0.114261
0.178127
-0.293408
0.172956
0.007470
0.293839
-0.021948
0.095832
0.115427
0.255694
-0.444534
0.005656
-0.057806
0.084357
-0.058324
0.145212
-0.101405
-0.422818
0.036179
0.212147
0.085920
-0.027957
0.025451
0.087857
-0.004658
-0.103098
0.074122
-0.435655
-0.173756
0.097846
-0.088249
-0.084024
0.228841
-0.396833
-0.099670
-0.223796
0.009132
-0.117453
0.001041
0.320677
0.300220
0.218475
-0.349148
-0.214919
0.101753
-0.025282
0.016395
0.062648
-0.025662
-0.380649
-0.238123
0.104227
0.020511
-0.029190
0.280808
-0.121614
-0.033189
-0.177249
-0.122840
-0.032024
0.226645
0.225582
0.152100
-0.185716
0.078429
0.094715
-0.106710
0.183253
-0.334378
0.054661
-0.141545
0.014337
-0.264002
-0.198955
0.376703
-0.083934
-0.220690
-0.633429
-0.231456
0.060926
0.459527
-0.183427
0.118245
-0.041620
-0.100542
0.027417
0.259904
-0.020495
-0.081136
-0.243981
-0.278658
0.302544
-0.208340
-0.054701
-0.094336
0.267140
0.028361
-0.260038
0.253877
0.209809
-0.084489
0.161872
-0.199844
0.176919
0.317418
-0.041001
-0.058145
0.028290
0.176105
-0.186575
-0.069055
0.122962
0.139793
-0.069887
0.131406
0.114123
0.125393
0.220013
-0.035144
0.045937
-0.004028
-0.206730
-0.099868
-0.102256
0.100829
-0.031422
-0.050983
0.066474
-0.028922
-0.122248
0.218790
-0.174532
0.033643
0.096770
0.251978
0.048436
0.131537
0.060920
0.035982
-0.002660
-0.266329
-0.108355
0.211534
-0.088254
0.081559
0.040107
0.226444
0.066788
0.029349
0.125343
-0.001197
0.196802
-0.263139
0.102247
0.252307
-0.227630
0.055409
-0.169146
-0.264860
0.027357
-0.143064
-0.047426
0.094838
0.024564
0.108599
0.075289
-0.205959
0.155976
-0.118030
0.271575
-0.170774
0.257825
-0.098290
-0.507726
-0.036757
-0.191837
0.313692
0.183398
-0.230923
-0.170339
-0.076632
-0.035620
0.326137
0.002045
-0.245068
0.066988
-0.267424
-0.089545
-0.123750
0.118839
-0.116356
-0.108352
-0.037435
-0.278252
0.112378
-0.270071
-0.250062
0.194123
-0.131952
0.152920
-0.213358
0.045311
-0.128875
-0.147842
0.018229
-0.481997
-0.187150
0.018593
0.331456
-0.266405
0.238962
-0.058283
-0.444461
-0.135787
0.195293
-0.147673
-0.228227
-0.061736
-0.059261
0.143980
0.175268
-0.075296
-0.036536
-0.174660
0.033976
0.262003
0.344196
0.019465
-0.123164
-0.304288
0.043164
0.112109
0.032054
-0.033211
0.047302
-0.384664
0.070802
-0.032954
-0.298103
0.051555
-0.344095
0.143832
0.003214
-0.127702
-0.074100
0.220241
-0.095298
0.303885
0.053873
-0.291481
-0.198599
-0.099625
0.373112
0.064306
-0.268165
-0.143310
0.207002
0.007939
0.078362
-0.095295
-0.038442
-0.052293
0.459653
-0.302856
0.118423
-0.318806
-0.013912
-0.046887
-0.118772
-0.161724
-0.022838
-0.134202
-0.090874
-0.053800
-0.146592
-0.089234
-0.299703
0.309123
-0.405502
0.069898
-0.129555
0.032398
-0.015832
0.332614
0.228588
-0.098689
-0.342899
-0.170843
-0.030639
0.061993
-0.037315
-0.321635
-0.029060
-0.199322
-0.434080
0.014325
0.251743
-0.124059
-0.016942
-0.048580
-0.109088
-0.056020
0.019406
0.148071
-0.258372
-0.208197
-0.058756
-0.014564
0.052321
-0.452815
0.334834
0.020541
0.070679
0.266501
-0.024141
-0.177160
-0.152508
-0.136800
0.090450
0.102475
-0.012815
-0.105101
-0.292564
-0.146482
0.060142
-0.043049
0.493751
0.532261
-0.041449
0.002636
-0.135886
-0.161041
0.235391
-0.005438
-0.100710
0.001319
0.425347
0.276628
-0.051940
-0.284348
-0.035779
0.113483
-0.347888
-0.017568
0.037466
0.196731
-0.159746
-0.307739
0.033702
0.187356
-0.252784
0.146208
0.102897
0.013859
-0.275605
-0.570964
-0.035283
-0.457364
0.089910
-0.155967
0.158063
-0.245725
-0.111291
-0.015945
0.138593
-0.059251
-0.082057
-0.044095
0.048832
-0.096509
-0.316752
0.005485
-0.165605
-0.243853
-0.026692
0.177314
-0.202386
0.180609
-0.658862
0.323152
0.152001
-0.235974
0.052468
0.123693
0.100156
-0.093663
-0.003055
0.099241
-0.080360
0.139140
-0.022054
-0.626181
0.241033
-0.162690
-0.217098
-0.269646
0.191920
-0.205813
-0.099236
0.022496
0.034372
-0.144513
-0.284706
-0.196201
-0.032952
0.079514
0.132456
-0.075150
0.086622
-0.107784
0.147385
0.030276
0.305452
-0.350750
-0.211314
0.014267
0.238461
-0.293325
0.173633
-0.207003
-0.203634
-0.062091
-0.050585
0.103331
0.223312
-0.118992
-0.269190
0.029268
0.165252
-0.075872
0.152995
0.099220
-0.008361
0.375774
-0.139817
-0.153139
0.124235
-0.263058
-0.227222
0.266183
0.102282
0.131964
-0.309333
0.044928
-0.020558
0.041034
-0.053675
-0.127835
-0.109170
0.029337
0.035319
0.002157
0.040279
-0.039531
0.036030
0.105660
0.072718
-0.129113
0.049358
0.035738
0.040496
-0.087532
-0.132574
0.363898
0.111304
0.191335
0.508641
-0.148971
0.165466
0.140924
-0.098069
-0.132487
-0.262273
0.081733
-0.019800
0.013008
-0.038098
-0.032889
-0.020016
0.180295
-0.210207
-0.370459
-0.041731
-0.161149
-0.015339
-0.311497
0.039487
-0.171347
0.142633
-0.089546
0.054891
-0.148846
-0.118594
-0.078288
0.002987
-0.241573
-0.215848
-0.049045
0.033832
-0.117958
0.391385
0.134094
-0.008477
-0.219607
0.435550
0.265740
-0.376536
0.048974
0.088298
-0.056700
-0.033126
-0.620944
-0.048550
0.076535
-0.115087
0.414730
0.053503
0.095651
0.174942
0.015302
-0.280450
0.091898
-0.324152
0.437819
0.122414
-0.213952
0.004723
0.072466
0.120811
0.158161
0.241007
0.012725
-0.004848
-0.213629
-0.021786
-0.113013
0.238094
-0.042409
-0.279013
-0.308771
0.074270
0.236225
-0.260378
-0.044656
0.277684
-0.066835
0.109268
-0.087609
-0.066890
-0.128491
-0.047610
-0.199843
-0.126893
-0.080174
-0.215482
0.079309
-0.029970
-0.252993
-0.077402
-0.319544
0.131365
-0.052321
-0.205153
0.002256
0.248840
-0.124996
0.291825
-0.262483
0.165064
-0.025609
0.226090
-0.002593
0.062977
0.244186
-0.110820
-0.045839
-0.154510
0.157257
-0.049967
-0.111973
-0.041607
-0.025916
0.132171
-0.165288
0.028432
-0.056041
0.126224
-0.169567
0.118646
-0.071198
0.255114
0.026757
0.347741
-0.123753
-0.408917
-0.190028
0.116488
-0.118730
0.097990
-0.141021
0.013018
-0.249029
-0.004126
0.013418
-0.241688
0.022540
-0.267704
-0.032262
-0.033004
-0.174408
0.295092
0.041303
-0.209008
-0.145159
-0.244679
0.150018
-0.017884
-0.205434
-0.014112
0.000186
0.224257
0.114097
0.224508
0.043651
-0.279945
0.097165
0.213076
-0.315462
0.172478
-0.015080
-0.090468
-0.419721
-0.174023
0.248544
0.172768
-0.007148
0.064676
-0.347660
-0.075466
0.068700
-0.006015
0.061659
0.129285
-0.299405
-0.151373
-0.032075
0.422126
-0.042143
-0.335892
-0.222318
0.079767
-0.248155
-0.573340
-0.051605
0.274451
-0.087967
0.193837
0.025577
0.278667
0.180691
-0.117631
-0.146331
-0.059527
-0.211034
0.293090
0.041064
0.071399
-0.303629
-0.007286
0.273131
0.107832
0.091606
0.070659
-0.230699
0.011444
-0.047790
-0.055732
-0.190971
-0.293096
-0.087384
-0.056746
0.569509
-0.247415
0.158218
0.024062
-0.167020
-0.008264
0.094954
-0.138779
0.167105
-0.053970
-0.145943
0.136100
-0.139457
-0.146382
-0.075252
-0.228179
0.352648
-0.179242
-0.497670
-0.009355
0.157900
-0.241303
-0.110853
0.090458
-0.036350
-0.011249
-0.407770
0.105080
-0.034582
-0.178831
-0.169146
-0.057918
0.097843
0.334884
0.296133
-0.164393
-0.695521
0.153532
0.064772
-0.062941
-0.142144
0.152789
-0.083012
-0.132338
0.091875
-0.019875
0.071488
0.004580
-0.175541
-0.025641
-0.192073
0.131220
0.221118
-0.152275
-0.078470
-0.284116
0.075355
0.402636
-0.078527
0.153985
0.291108
-0.148409
0.231535
-0.127373
-0.160344
-0.072949
0.129098
0.190214
-0.005815
-0.085222
-0.384023
-0.215273
0.105602
0.070754
0.006164
-0.177159
-0.168533
-0.222545
0.099905
-0.049890
-0.319878
-0.137478
0.062538
0.293951
0.051049
-0.213412
-0.282250
0.037112
-0.105816
-0.043920
0.128680
0.142801
-0.078527
0.174801
-0.062162
-0.271625
0.051466
-0.209419
0.246633
-0.076576
-0.064827
0.181819
0.102458
0.049409
0.187981
-0.148400
-0.183321
-0.046060
-0.175982
0.016975
0.000885
-0.069744
-0.313787
0.351586
-0.556208
-0.140313
0.150476
-0.192943
0.079827
0.020010
0.022731
0.067301
-0.167724
-0.037881
-0.330448
0.092368
0.029935
-0.200458
-0.082132
-0.020509
-0.017809
-0.318089
-0.129242
-0.099014
-0.314220
0.334752
0.219916
-0.122230
-0.053482
0.387554
0.249068
-0.241564
-0.161307
-0.188654
0.048948
-0.514007
0.177308
0.004731
0.198179
0.145765
0.103039
-0.009896
0.055032
0.006698
-0.234446
0.251699
0.011746
-0.446921
-0.503201
0.080844
0.285858
0.166204
-0.131210
-0.181761
-0.372686
0.098639
0.029014
0.078603
-0.455542
-0.055726
0.091300
-0.261517
0.285200
-0.053152
-0.037531
0.082602
0.023433
-0.127423
-0.042354
0.047396
-0.072114
-0.036632
-0.205670
-0.048755
0.082818
-0.145943
0.001792
0.160076
0.018155
0.193135
-0.104058
-0.265943
0.243649
-0.165901
0.043456
0.110596
-0.286634
0.422045
-0.195510
-0.003331
-0.021829
-0.193155
0.285327
-0.179702
0.128601
-0.007581
-0.055611
0.260621
-0.099395
-0.052881
-0.078142
0.028702
0.384223
-0.237402
-0.014260
-0.149166
-0.203352
-0.045614
0.158853
-0.004141
-0.072346
-0.137043
0.011079
0.168411
-0.243762
-0.042566
-0.047997
0.023017
-0.073255
0.003542
-0.249171
0.262565
-0.015086
-0.358233
-0.276266
-0.079357
0.112104
0.109274
0.175979
0.175257
0.186923
0.160548
-0.098547
-0.367585
0.041267
-0.384137
-0.473899
0.327544
-0.048974
-0.155746
-0.107067
0.170634
0.055373
0.475662
0.074580
0.120870
-0.043048
-0.084059
0.015400
-0.312765
-0.066353
-0.144017
0.387345
-0.017933
-0.005303
0.068699
0.054283
-0.013075
-0.091769
0.156930
-0.016107
0.241793
-0.053472
-0.001239
-0.102530
0.162927
-0.180434
0.028569
-0.300613
-0.151153
-0.087571
-0.063596
0.086136
-0.159697
0.056328
0.209456
0.226108
-0.039723
-0.095325
-0.025903
-0.302773
0.282873
0.153103
0.253825
0.072879
0.010321
0.069731
-0.174398
0.066680
0.132876
0.179425
0.135808
0.000619
0.232701
-0.000234
-0.121219
0.003000
-0.118742
0.045087
-0.035443
-0.364191
-0.108466
0.100681
0.074607
0.059148
0.148396
0.123905
0.036809
-0.233238
0.051709
0.186670
-0.092241
-0.075323
-0.050930
0.037575
0.014208
0.000430
-0.090816
0.317136
-0.062987
-0.241011
0.302751
-0.117107
0.278692
0.016292
0.074902
-0.010723
-0.338987
-0.077796
0.051576
-0.039325
-0.305994
-0.124912
-0.169571
-0.100364
0.171937
-0.004911
-0.235634
-0.029941
-0.231948
0.129258
0.047905
-0.033739
-0.440920
-0.298771
0.145912
-0.538666
0.145778
-0.179334
-0.013196
0.074893
-0.295573
-0.220799
-0.155258
0.045122
-0.068605
-0.016475
0.108078
0.232882
0.116692
0.125483
-0.073621
0.138263
-0.177668
0.165759
0.066832
0.099253
0.075032
0.060016
-0.165210
-0.033602
-0.213452
-0.010963
0.098883
0.354404
-0.286715
0.163026
0.144037
-0.130754
0.110767
-0.033964
-0.019030
-0.268669
-0.056963
0.177135
0.146842
-0.043776
-0.055399
-0.310411
0.021540
0.206178
-0.008955
-0.222126
-0.258661
-0.142242
-0.158885
0.013555
-0.009256
0.087626
-0.125055
0.408659
0.021011
0.167511
-0.078839
-0.157030
0.051492
-0.195884
0.171862
0.142359
-0.131247
-0.513586
-0.005084
0.073118
0.105531
0.015785
0.162140
-0.187685
-0.351709
-0.010916
-0.220278
-0.045391
-0.312376
0.057248
0.185298
0.083420
0.174994
-0.109113
-0.104928
0.136672
0.299658
0.048675
0.129239
0.238497
0.231734
0.277222
-0.221615
-0.240978
-0.371504
0.057111
0.272252
-0.023652
0.040886
0.001867
-0.238872
-0.355424
0.124465
-0.097140
0.098778
0.209583
0.056179
0.024807
-0.046666
0.064401
-0.127018
-0.292539
-0.052575
-0.011226
-0.051657
0.233447
0.178559
-0.282388
-0.132218
-0.015664
0.183125
0.106183
-0.086103
-0.044831
0.166250
0.037408
-0.225096
0.027996
-0.063391
0.139739
0.169447
-0.116562
0.000283
0.208021
0.074752
0.133339
-0.130028
-0.021675
0.283026
-0.093434
-0.156861
-0.390724
0.195406
0.204308
-0.050553
0.166883
-0.019464
0.225686
0.415406
0.075402
0.191900
0.267222
-0.197957
-0.071146
0.169346
0.159058
0.138670
-0.266415
0.196513
0.039910
-0.554792
0.117335
-0.055421
-0.010608
0.183818
0.013127
0.004215
0.273718
0.166465
0.068472
-0.064822
0.063868
-0.043176
0.073001
0.155175
-0.099118
0.284757
-0.063487
0.050505
-0.165024
0.211640
0.112020
-0.273109
0.236763
-0.056800
-0.164252
0.015406
-0.017828
0.221181
0.197893
-0.210159
-0.454994
-0.201428
0.087913
0.054941
0.001569
-0.108983
-0.068763
-0.177582
0.315197
-0.191993
-0.082327
-0.223912
0.140059
-0.022132
0.077776
-0.106017
0.159241
-0.125902
-0.254300
0.330134
0.089644
-0.124214
0.001014
-0.026328
-0.031473
-0.407324
-0.158439
-0.088224
0.101164
0.298680
-0.078877
-0.107577
0.086599
-0.047807
0.208991
0.109600
0.095113
0.162525
0.067081
0.094662
0.436734
-0.062485
-0.586069
-0.089604
-0.197587
-0.111848
-0.080773
0.128280
-0.042476
-0.039819
0.258300
0.451190
0.252876
0.002657
0.008751
-0.198105
-0.103204
-0.134287
0.095097
-0.259160
-0.081693
-0.060903
0.242801
-0.323991
-0.019858
0.099861
0.107031
0.003079
-0.199622
-0.125892
-0.208061
-0.079983
0.096205
0.253880
-0.004174
0.063517
0.061060
-0.057862
0.295165
0.262608
-0.072706
0.416799
-0.524528
0.311844
-0.070419
0.079588
0.190717
0.205142
0.080728
-0.124350
-0.008244
-0.184270
0.450430
-0.025498
-0.253331
0.178205
-0.338515
-0.038707
0.259040
-0.311321
-0.015648
0.073085
0.010348
0.252770
-0.065306
0.142373
0.255137
-0.098610
-0.180739
-0.201394
0.385468
0.042510
-0.156034
0.120811
-0.214218
-0.040763
0.097043
0.323223
0.095689
-0.117870
0.131170
0.442883
0.032644
-0.377613
-0.211425
0.042888
-0.297571
0.248943
-0.074304
-0.159608
0.312903
-0.057176
-0.063218
0.200436
-0.051122
0.453853
0.061558
0.102728
0.034113
-0.014667
0.043977
-0.223867
0.259270
-0.103163
-0.114021
0.150584
-0.417034
0.257935
0.437622
0.056717
0.214156
0.063486
0.115426
-0.423840
0.229894
-0.076734
0.077195
-0.032031
-0.175303
0.043485
0.052611
0.200491
-0.098867
0.026180
-0.087451
-0.033377
-0.082385
0.126708
-0.161092
0.034008
0.266875
0.256725
0.188949
-0.009548
-0.188126
0.177226
-0.025372
-0.142787
-0.315336
0.418955
-0.003566
-0.012583
-0.306827
-0.086399
0.210416
-0.041704
0.032385
0.067363
0.265675
0.134878
-0.342865
-0.434919
0.280949
0.386262
0.111435
0.000233
-0.066552
-0.141957
0.177541
-0.028661
0.015534
0.174531
0.304858
0.257873
-0.091800
-0.073471
0.378009
-0.066844
0.083482
-0.009837
0.239195
0.190228
0.024010
-0.079840
0.037285
-0.005656
0.488847
-0.086066
0.122624
-0.042489
-0.115893
-0.024254
0.162336
0.360416
-0.102920
0.058310
-0.078858
0.332452
0.122436
-0.177883
0.285151
0.057562
0.283133
-0.067859
0.314251
-0.179897
-0.004656
0.174334
-0.182727
0.164429
0.011458
-0.026468
0.330224
-0.003231
-0.089206
-0.284090
-0.337994
-0.185687
-0.148033
-0.273232
0.176489
0.168482
-0.047724
0.344829
0.002453
0.125480
-0.143509
0.279065
-0.331674
0.422005
-0.080543
0.035150
0.227685
0.151447
0.463106
0.225374
-0.034905
-0.260966
0.180152
-0.097025
-0.019338
0.192469
0.159039
-0.282913
0.006773
0.023669
-0.129974
0.175177
0.155805
-0.230003
-0.156045
0.042900
-0.070808
-0.029966
-0.194856
0.029378
-0.084659
-0.046371
-0.082414
-0.117536
0.068140
-0.046164
-0.156295
0.234924
0.083850
-0.090909
-0.297853
-0.320113
-0.393962
-0.102330
0.142805
0.247586
0.028042
-0.197312
0.279349
-0.332358
-0.008246
0.005823
0.012308
0.094715
-0.349409
-0.147951
-0.164089
-0.373984
-0.117344
0.266405
-0.073323
0.013588
0.060621
-0.135386
-0.094867
-0.126122
0.125578
0.078122
-0.181802
-0.037186
0.109500
-0.197783
0.320175
-0.313800
0.187221
-0.003691
-0.153505
0.079717
0.424874
0.131013
0.315678
0.012115
0.309533
0.488444
-0.094154
-0.127947
0.124876
-0.047159
0.011966
-0.077678
0.204439
-0.013925
-0.076570
-0.195725
0.368396
0.161705
0.195748
0.056598
0.237728
0.219313
-0.479008
-0.418846
0.169012
-0.192512
-0.340210
-0.054914
0.142913
-0.170480
-0.226386
-0.244585
0.113166
-0.247602
0.097021
-0.372390
-0.146856
0.070603
-0.146986
-0.164452
0.013482
-0.094986
0.337254
0.121644
0.113362
-0.140903
-0.293342
0.073151
0.027101
0.172690
0.261249
0.429538
0.278170
0.231545
-0.313372
-0.216129
0.006498
0.044794
-0.041761
-0.009153
-0.081049
-0.110307
-0.352557
-0.056768
-0.239793
-0.292532
-0.070516
0.030233
0.127522
-0.085218
0.198677
-0.510282
0.055418
0.058397
0.133668
0.338081
-0.067966
0.174436
-0.120732
0.344516
0.002479
0.316010
-0.043543
-0.127683
0.007142
-0.035214
-0.156757
-0.062186
-0.041427
-0.176118
0.036828
0.140193
-0.288784
0.014018
0.250451
0.152024
-0.005995
-0.017888
0.041251
-0.261425
-0.122482
-0.208686
-0.195123
-0.197644
-0.324897
-0.227878
0.007425
-0.309460
-0.057879
-0.350901
0.191311
0.139924
-0.026315
0.021922
-0.253843
0.066260
-0.148473
-0.093478
-0.511476
-0.013222
-0.079626
-0.106401
-0.181924
0.010697
0.097823
-0.135832
-0.171618
0.169029
0.073157
0.141910
0.605367
-0.162762
-0.058202
-0.080816
0.171531
0.218325
-0.104665
0.304877
-0.068325
0.069930
0.273760
0.035852
-0.240872
0.081221
-0.062475
0.234531
0.108698
0.101630
-0.192165
0.073052
0.055805
0.158368
-0.009893
-0.076054
-0.157559
-0.174521
0.013674
-0.203142
0.184572
-0.068873
-0.057078
-0.059316
-0.174702
0.002687
-0.253864
-0.065199
0.139114
-0.021485
0.341520
-0.115018
0.178401
-0.004712
-0.014726
-0.001612
0.093869
-0.047311
-0.283629
-0.330113
-0.046202
-0.188193
0.271562
0.400285
0.018907
0.112068
-0.211577
-0.276331
-0.074287
0.364259
0.301613
-0.135911
-0.076382
-0.138118
0.184369
-0.015371
-0.095618
0.075707
0.001027
0.038928
0.258736
0.115432
0.002084
-0.078770
-0.008669
-0.062546
0.092152
0.014361
0.085013
0.073667
0.126258
0.328182
-0.013101
-0.044140
0.178071
0.005891
-0.058147
-0.147848
-0.036967
-0.153673
0.118982
0.018123
-0.412500
-0.352150
-0.094125
-0.001628
0.077171
-0.124502
-0.143998
0.015800
-0.244302
-0.123448
-0.143099
-0.209423
-0.362290
-0.032866
0.234582
0.036124
-0.153726
-0.216620
-0.133618
-0.668887
0.668992
0.188333
-0.014639
0.163876
0.144484
-0.043267
-0.103926
-0.278118
-0.002547
0.190607
-0.034503
0.066591
0.130459
0.294430
0.039036
0.465428
0.097969
0.073568
-0.313499
0.196742
-0.067970
-0.054987
0.385756
-0.016436
-0.530157
0.122908
-0.144275
0.376621
-0.417284
0.105155
-0.176365
0.203544
0.415535
-0.338012
0.293602
0.052167
0.149467
-0.037560
-0.270341
0.238514
-0.297225
0.121322
-0.016176
0.174933
-0.010890
0.241944
0.067441
-0.080144
-0.011083
0.280835
-0.003553
0.064411
0.063472
0.240490
-0.145047
-0.064061
-0.112134
-0.080391
0.197317
0.213747
0.259807
0.062052
-0.028383
-0.001002
-0.450781
-0.140543
0.255172
0.038491
0.154132
0.045593
-0.349670
0.147775
-0.207061
0.227527
-0.162812
-0.076027
0.245796
-0.155881
-0.231356
0.493489
0.161337
-0.001975
0.091616
-0.305628
0.206491
0.033988
-0.118508
-0.361062
-0.164712
-0.367792
0.208172
0.030790
0.148229
0.175676
-0.169998
0.400935
0.129362
0.119661
0.023181
-0.019512
-0.075777
-0.241578
-0.053211
-0.098722
0.232152
-0.122546
-0.069764
0.095089
0.016037
-0.043871
-0.177275
0.238004
-0.262677
0.057073
0.163233
-0.411800
-0.220190
0.199247
-0.173062
0.066911
0.284367
-0.150732
0.060905
0.035647
0.020866
-0.227583
-0.067175
0.112487
-0.104616
0.138346
-0.005595
0.224543
-0.363599
-0.080184
-0.271631
-0.119699
-0.076679
-0.112067
-0.140158
0.059795
0.038810
-0.153525
0.165386
-0.298805
-0.063822
-0.013922
-0.128571
0.127074
0.040373
0.214347
-0.018550
-0.219679
-0.118724
-0.287737
0.194777
-0.221124
-0.024607
-0.112361
-0.058491
0.160100
-0.070941
0.171310
-0.018111
-0.055098
0.087407
-0.183157
-0.111772
0.072777
0.164629
0.123990
0.134507
-0.077270
-0.470323
0.004692
-0.426177
0.349705
0.201084
-0.090415
0.040589
-0.010192
-0.242324
0.057573
0.176624
0.030391
-0.186979
0.036144
0.022342
-0.002277
0.086645
-0.152542
0.142536
0.011849
-0.058476
0.089956
0.031119
-0.192042
-0.238540
0.097131
-0.051579
0.064589
0.075475
0.122321
0.289095
-0.206795
0.000905
0.068249
0.192640
-0.238127
-0.218556
-0.180131
0.081710
-0.016554
0.040500
0.390286
0.213341
-0.219516
0.045586
0.100302
0.022617
-0.286709
0.045447
0.145419
-0.109564
-0.014630
0.067011
0.173834
0.184565
-0.279932
0.100806
0.304606
-0.046649
0.082548
0.047815
0.066336
0.177824
-0.208916
-0.176985
0.050851
0.010773
-0.027704
-0.032887
-0.183996
-0.021082
0.141829
0.074255
-0.236070
0.099289
0.149932
0.060356
-0.289670
0.211987
-0.072383
0.013827
-0.046006
-0.053781
-0.042829
-0.299488
0.018278
-0.179773
0.334813
0.053560
-0.034577
-0.246628
0.127002
-0.208878
0.039248
-0.030158
-0.300813
-0.159068
-0.204645
0.075832
-0.153290
-0.034865
0.003130
-0.086380
-0.033606
-0.083462
0.098455
0.114836
-0.368427
-0.251662
-0.140176
0.057654
-0.034393
-0.241872
0.104370
-0.001108
0.016823
-0.031956
-0.086192
-0.047762
-0.146547
0.017108
-0.117014
-0.130145
0.022966
-0.067849
-0.071221
0.014070
-0.155176
-0.257322
0.017933
0.216035
-0.013416
-0.113568
0.155017
0.268689
0.260805
-0.281197
0.036770
-0.225138
0.432631
-0.374596
0.170327
-0.224765
-0.258748
-0.052860
-0.108373
-0.343066
-0.192581
0.026888
-0.081758
0.061356
-0.103392
0.129653
-0.022818
-0.085163
-0.073177
-0.058300
0.024249
0.000024
0.030363
-0.214610
-0.099942
-0.173982
0.068859
0.073969
0.090016
0.202321
-0.093779
-0.248084
0.051969
0.001612
-0.026912
0.188009
0.121517
0.258311
-0.079390
-0.117350
0.012262
-0.436534
-0.473039
-0.150239
-0.042164
0.249272
0.205404
-0.310999
0.044628
-0.060148
-0.240479
0.084893
0.013442
-0.006820
0.181177
0.061897
-0.004004
-0.036496
0.008185
0.141973
-0.119576
0.021742
-0.465492
0.009359
0.214727
0.044617
-0.310450
-0.143833
0.051473
-0.015814
-0.067944
-0.042524
-0.258990
-0.217815
0.139952
0.040170
0.065741
-0.225484
-0.435680
-0.153885
-0.133354
0.134986
-0.130502
0.153130
-0.028235
-0.230821
-0.014627
-0.282981
-0.185631
0.024136
0.124470
-0.029736
-0.215994
-0.479652
-0.269492
-0.166923
-0.043807
0.095334
-0.407469
0.084318
-0.332724
-0.091407
0.043345
0.049131
0.126452
-0.055078
-0.090933
-0.192689
-0.095181
0.031972
-0.185000
-0.196145
-0.155334
-0.077979
-0.020705
-0.229538
0.042075
-0.303107
0.106860
0.089895
0.234288
-0.206887
0.167946
0.068271
-0.256103
0.178000
0.265739
0.069987
0.021189
-0.004001
-0.150502
0.011077
0.104449
0.108090
0.096482
0.177594
0.114685
0.040506
-0.203789
-0.105753
0.425304
0.204847
0.220203
-0.111777
-0.127713
0.039807
0.109455
0.090341
0.030618
-0.420644
-0.231029
0.098552
-0.133220
-0.286864
0.155678
0.245748
-0.015847
-0.379529
-0.386720
-0.147239
-0.192381
-0.008896
-0.171001
-0.327410
-0.159246
0.049337
-0.064329
-0.019877
-0.091306
0.149703
0.171873
0.342386
-0.122225
-0.080454
-0.306312
-0.255526
0.126888
0.023711
0.139750
0.025304
-0.440604
-0.307758
0.208466
0.035182
-0.416336
-0.029459
-0.003308
-0.326587
-0.075673
0.109011
0.049291
-0.270518
0.022397
-0.220316
-0.049048
0.261608
0.028195
-0.115494
0.167638
-0.042773
0.080605
0.453579
-0.027882
-0.091769
-0.008610
-0.137549
0.034844
-0.557481
-0.378335
-0.078224
0.319541
0.086149
-0.104321
-0.373942
-0.282801
0.023712
-0.203042
0.210735
-0.065746
0.092841
-0.001362
0.241051
0.133688
-0.034652
-0.031695
-0.086606
-0.097480
-0.142114
-0.379594
0.139225
-0.090676
0.164876
0.224142
0.050842
-0.102414
-0.212571
-0.006752
-0.048756
0.099978
0.146617
-0.039792
-0.143863
-0.226621
0.100737
0.364290
0.249893
-0.157688
0.337276
-0.182591
0.023939
-0.143763
0.377487
-0.121560
0.059301
0.472759
-0.284484
-0.218054
-0.032849
0.183841
-0.001546
-0.114330
-0.002648
-0.043551
-0.382476
-0.151956
-0.143518
0.187602
0.106948
0.227888
-0.117567
-0.167109
0.230611
0.188605
0.202106
0.268479
0.102807
-0.031425
-0.077200
-0.035059
0.251922
0.281480
-0.012718
-0.379069
0.151401
-0.230950
-0.127371
0.395342
-0.191303
0.181440
0.248241
-0.115875
-0.138209
0.306752
0.189888
-0.278450
0.015677
0.001301
0.085300
-0.066014
0.093241
-0.114536
0.055437
0.153419
-0.044435
0.032874
-0.036300
-0.002837
0.209489
0.210305
0.078995
0.148801
0.055394
0.142743
-0.194792
0.234150
0.078638
-0.116894
0.017429
0.219874
-0.154218
0.455002
0.163914
-0.017642
-0.105675
0.429254
0.269471
-0.238581
-0.196340
0.233482
0.169928
0.123741
0.123012
-0.118605
-0.144401
-0.001609
-0.031456
0.030838
0.254268
0.015877
-0.110062
0.151637
0.046420
-0.096758
-0.079324
-0.109665
0.024324
-0.110362
-0.194247
-0.437318
0.026137
-0.249332
0.245131
-0.271551
0.076948
-0.090921
-0.185126
-0.288627
0.169320
-0.013652
0.304490
-0.017043
-0.020864
0.011820
-0.223154
0.082235
-0.285419
0.129059
0.092993
-0.030738
0.000646
0.087995
-0.180819
0.168696
0.052877
-0.023759
0.053918
-0.024124
0.190425
-0.001914
0.149882
-0.282614
-0.128758
0.011162
0.195394
-0.129990
0.171546
-0.176143
-0.039247
0.088868
-0.299712
0.138596
0.080943
-0.110624
0.076416
-0.014207
-0.133264
0.079939
0.023173
-0.065085
0.010095
0.111973
-0.184082
-0.201252
0.106792
-0.016721
0.042578
-0.233595
0.131276
0.133814
-0.196375
-0.042861
-0.189569
-0.171197
-0.039586
-0.011491
0.024749
0.210063
0.057821
-0.039682
-0.153775
0.115550
-0.238919
-0.116634
-0.367296
0.004430
0.076068
0.077095
-0.038386
0.094329
0.033849
-0.009700
0.093257
0.152111
0.007738
0.174491
0.343574
-0.027979
0.143849
0.199488
0.020182
-0.118040
-0.192783
0.169577
0.273822
-0.040937
-0.156471
-0.313568
0.083682
-0.062734
-0.170453
0.313850
0.322888
0.219616
0.376962
-0.064437
-0.018063
0.148909
-0.140740
-0.346867
0.170246
0.335876
-0.084034
0.005649
-0.137354
-0.175727
-0.295545
-0.035038
-0.153698
-0.074749
-0.221044
-0.019459
-0.083805
0.138318
-0.146552
-0.296332
0.125864
0.097995
-0.112682
-0.152161
0.002702
0.130194
-0.265218
-0.134003
-0.150048
0.197111
-0.053076
-0.279286
0.112235
0.272666
0.280487
0.069180
-0.035398
0.069055
0.134224
0.015645
-0.028162
0.279714
-0.074147
0.327137
0.238885
-0.175051
0.260202
0.145485
0.007983
-0.113576
-0.143489
-0.091558
-0.222117
0.205562
0.164878
0.233092
-0.021379
0.037043
0.060905
0.094433
-0.390910
-0.244285
0.037291
-0.097057
0.381541
0.000040
-0.110237
0.253708
0.134760
-0.166914
-0.122881
-0.054451
0.135154
0.114438
-0.358785
0.416239
-0.164083
0.059049
0.132863
0.003120
-0.117915
-0.133191
-0.136715
-0.155574
-0.070265
-0.038201
0.200829
0.151564
-0.179607
0.159444
-0.054597
-0.071764
0.112432
0.165431
-0.008290
-0.027069
-0.351267
-0.141535
-0.309946
0.320631
-0.119421
0.160707
-0.009709
-0.083723
-0.119020
-0.068871
-0.283724
-0.272141
-0.344719
0.019146
-0.217058
0.072606
0.046343
0.433187
-0.012947
0.235170
0.281583
0.292368
0.000395
-0.063321
0.361268
0.162528
0.092466
-0.029312
-0.309934
-0.468575
-0.233638
-0.076133
-0.234677
-0.429802
0.106846
-0.155904
-0.100340
-0.092055
-0.055261
0.060454
-0.057675
-0.150398
-0.011157
-0.518434
0.071570
-0.344637
0.162010
-0.014572
-0.245991
-0.028589
-0.302970
0.369369
-0.078354
0.059417
0.207236
-0.116506
-0.287473
-0.369620
-0.203313
-0.163159
-0.125023
0.187881
0.270696
0.116137
0.032118
-0.139225
-0.147889
0.099834
-0.233432
-0.151925
-0.094016
-0.027799
0.336871
-0.104568
0.024811
0.126998
-0.176431
0.037145
0.037316
-0.169433
0.039989
-0.047023
0.191377
-0.064184
-0.384070
0.059428
-0.199478
0.157061
-0.031288
0.068006
0.152561
-0.034443
-0.044831
0.135237
-0.233945
0.000408
0.157151
-0.354902
0.181734
-0.004460
-0.074651
0.002367
-0.142759
-0.220031
0.027312
0.296208
-0.042094
0.194731
-0.031982
0.125638
0.088193
0.171863
-0.117903
-0.260533
0.357019
0.114983
0.292921
0.082908
-0.072586
0.082734
0.043128
0.096192
-0.069565
-0.156173
-0.133038
0.255443
-0.016881
0.014555
0.004235
0.110397
0.295688
-0.156542
0.079254
-0.101140
-0.057312
0.075718
-0.034781
-0.229572
-0.137343
-0.210434
0.010266
0.041311
-0.147375
0.394014
-0.111050
0.048866
-0.246541
-0.237058
0.144326
-0.200281
0.133311
-0.005803
0.208310
-0.420626
-0.123997
-0.077692
0.002254
-0.099275
-0.022003
0.065915
-0.247999
0.189146
0.316285
-0.124747
0.188496
0.079428
-0.102022
-0.182880
-0.241382
0.129089
0.101635
0.113700
-0.189162
0.038393
0.075856
0.039455
-0.040875
-0.008986
-0.332020
0.106055
-0.094671
-0.028840
-0.134297
0.007371
-0.223435
-0.259424
0.217498
0.214410
0.133013
-0.171521
0.163582
-0.292191
0.052186
0.097984
-0.100839
0.093079
0.079778
0.011021
-0.162237
0.088671
0.132078
-0.155081
-0.109640
0.041051
-0.128930
-0.059610
0.442273
-0.080673
0.196988
0.264316
0.003256
-0.292012
-0.267774
0.330527
0.019183
0.266064
0.167822
-0.130660
0.135494
-0.102098
0.143754
0.180713
0.042927
0.003671
0.093266
-0.038479
0.014324
0.040847
-0.069647
0.058326
-0.005920
-0.157582
0.006739
-0.254654
-0.098818
0.515770
-0.091844
-0.023223
-0.326775
-0.212166
0.248821
-0.186793
0.025839
0.101560
0.345458
0.133529
-0.083210
0.185726
0.063737
0.005846
0.029325
-0.207853
-0.177450
0.129422
0.311108
-0.275958
0.164737
0.264989
0.095261
0.110468
0.021591
0.114502
-0.243234
-0.149667
-0.019307
-0.363937
0.109050
0.173052
-0.122081
0.285783
0.149156
-0.132664
0.305509
-0.144404
0.264402
0.203182
-0.298016
0.122740
0.171785
0.298433
-0.169131
-0.017486
0.117396
-0.030519
0.060713
-0.300543
0.031777
0.124124
-0.127963
-0.155980
0.061916
-0.035450
-0.274173
-0.015170
-0.214788
0.174786
-0.009117
0.397880
0.052109
0.184626
0.220651
0.143684
-0.076659
-0.042181
0.193460
0.087828
0.129673
-0.126525
0.003942
-0.053499
-0.031135
-0.351404
0.023932
-0.142584
0.076569
-0.070591
0.043684
0.066631
0.123819
-0.045863
-0.046340
-0.099694
-0.320416
0.043364
-0.067369
0.008521
-0.101892
-0.095245
0.323439
-0.193089
-0.187035
-0.115033
0.112082
-0.166681
0.092106
-0.347284
-0.197322
0.140869
-0.380107
0.239427
0.253511
0.282769
0.165238
-0.103760
0.469899
-0.093560
0.138010
0.061967
-0.196836
-0.011851
-0.166877
0.079883
-0.280119
-0.242251
-0.002465
0.203706
0.187444
0.314769
-0.013624
-0.148940
-0.385476
-0.058092
-0.056137
-0.018844
0.025365
0.194504
0.253853
0.050759
-0.267302
0.014472
0.042650
0.216108
-0.131079
0.247228
-0.132489
0.105480
-0.170405
-0.000569
0.157498
0.039281
-0.071825
-0.168012
0.207130
-0.259954
0.046620
-0.181966
0.160722
0.098136
0.219197
0.095694
0.082539
-0.342364
0.050023
-0.001736
-0.159884
-0.271804
0.175921
0.035415
0.156215
-0.053589
0.043652
0.278343
0.026047
-0.062921
-0.068986
0.072541
0.203268
-0.129536
0.255984
-0.283912
-0.218297
0.361144
0.067621
-0.035827
0.078719
0.052552
0.023880
-0.015284
0.094485
-0.026160
-0.217321
-0.054204
-0.559211
0.124050
-0.331640
-0.213080
-0.116595
0.409497
-0.222440
-0.018408
0.112090
-0.047729
-0.069661
0.054265
-0.341395
0.259353
-0.046702
0.138814
0.100702
-0.079228
-0.120320
-0.343627
-0.048256
0.284839
-0.033668
0.075379
-0.029258
-0.277374
0.545551
0.257376
-0.349001
0.008566
-0.150970
-0.020127
0.109904
-0.071387
0.099841
-0.043424
0.014740
-0.147209
-0.162019
0.040811
0.240293
0.177154
0.170250
-0.064260
0.655746
-0.091449
-0.069979
0.025961
-0.042091
-0.181602
-0.164437
0.320087
0.074205
-0.175677
0.069744
-0.284709
0.082021
0.063196
-0.055980
-0.329645
0.113013
0.037528
0.250738
-0.172846
0.100124
0.108202
0.226735
0.408267
0.205529
0.115315
-0.183837
0.018751
-0.471251
0.134957
0.323925
-0.005713
-0.453817
0.013223
0.283672
-0.095988
-0.071645
-0.109806
0.221207
0.145079
0.272365
-0.110044
-0.210460
-0.140413
-0.387056
-0.091755
0.127772
-0.099165
0.021031
0.134686
-0.037880
-0.151075
-0.269570
-0.115278
0.092504
0.138892
0.069922
0.170226
0.332798
0.055408
-0.076036
0.077681
-0.189208
-0.269543
-0.017186
-0.021448
-0.205034
-0.089381
-0.097503
0.103639
-0.332622
0.028062
-0.228557
0.043567
0.006894
-0.111776
0.113834
0.238597
-0.007776
-0.106767
0.058906
0.191567
0.301588
0.422427
-0.174698
0.311939
0.076724
-0.313840
-0.073217
-0.285320
-0.120106
0.072139
-0.010820
-0.050027
0.207031
-0.176376
0.206376
0.096885
-0.328306
0.021795
-0.336424
-0.131840
0.155270
-0.161114
0.082076
0.061006
0.151329
0.036817
-0.257966
0.142647
-0.118618
-0.130343
0.333796
-0.324770
-0.014819
0.029464
-0.053575
-0.012582
0.119551
0.212467
-0.333281
-0.145123
0.169915
0.101541
0.218297
-0.103733
-0.154981
0.037429
-0.235813
0.139682
0.180782
-0.152922
0.533513
-0.080227
-0.019113
0.009535
0.125017
-0.420692
-0.257222
-0.067653
0.149201
0.119554
-0.108767
0.168048
0.416741
-0.118212
-0.157209
0.017835
-0.138195
0.156337
-0.204128
-0.207286
-0.304780
0.272467
0.042846
-0.351221
0.000517
-0.039590
0.113071
-0.232014
0.155685
0.240204
-0.100286
0.272766
-0.142588
-0.099480
0.052777
0.056779
-0.059483
-0.010665
-0.155080
0.279279
-0.151355
0.025440
-0.115218
-0.000543
-0.051019
0.341066
0.095781
-0.028858
0.166810
-0.124115
0.357253
0.344548
-0.009787
-0.112563
0.194536
0.163878
-0.107673
0.284132
-0.046852
0.086153
0.169221
-0.098993
-0.148083
0.079806
-0.130991
0.213005
-0.201956
0.135067
0.042611
0.160375
-0.054689
0.213654
0.016842
0.068657
0.260803
0.164765
-0.155271
0.094308
-0.119989
-0.207844
-0.060842
0.038352
-0.302180
-0.090086
0.227019
-0.003263
-0.003477
-0.032046
0.173721
-0.029391
-0.045772
-0.035981
0.202349
0.107069
-0.000058
0.052514
-0.427489
-0.400703
0.133394
0.028132
0.007420
-0.073865
-0.345561
0.057105
0.396712
0.320558
-0.424875
-0.040408
-0.001139
0.387167
0.286357
0.005280
0.325834
0.071102
-0.014570
0.233144
-0.121890
0.032963
-0.248903
0.218689
-0.216401
0.030517
0.178535
0.339683
-0.024124
0.077946
0.071247
0.055115
0.014619
-0.039532
0.112622
0.517530
-0.073313
-0.029890
-0.236638
-0.218720
0.297556
0.054840
0.034576
0.043852
0.114875
-0.134233
-0.058171
0.167853
0.329118
-0.140048
-0.122037
-0.175265
-0.045403
-0.160717
0.111654
-0.178991
-0.087806
-0.303145
0.082202
-0.306027
-0.274177
0.254223
-0.108450
0.268422
0.017472
-0.438038
0.178878
-0.044135
-0.414846
0.084018
-0.141328
0.080732
0.047291
0.220540
-0.345831
-0.136185
-0.135822
0.107879
-0.233416
-0.065740
-0.169513
0.112384
-0.189882
-0.066489
-0.220045
0.004933
0.054579
-0.082612
-0.271953
0.002784
0.174335
0.259392
-0.131805
-0.129790
-0.306406
0.083154
-0.012842
-0.247433
-0.318064
0.097431
-0.076497
0.023757
0.209942
0.101738
0.010201
-0.027365
-0.030755
-0.073831
0.081609
-0.239760
-0.027001
0.220746
0.116168
-0.211873
-0.413200
0.087105
0.054081
-0.049280
-0.194477
-0.268764
-0.412919
0.137517
0.072006
-0.136339
-0.265970
0.368515
0.175984
0.032346
-0.121247
0.256431
-0.202707
-0.012029
-0.191105
-0.175953
-0.191295
0.111403
-0.146383
-0.163080
0.297754
-0.214015
0.313650
-0.035532
0.210485
-0.030251
-0.383616
0.229624
0.150575
0.048625
-0.058451
0.006257
-0.162975
0.199927
-0.055696
0.251536
0.157344
0.060150
0.380144
-0.219706
0.301837
-0.093998
-0.148059
0.194752
0.282827
0.219098
0.064885
-0.105648
0.024638
0.035492
0.091977
0.172314
-0.101431
-0.165836
-0.154478
-0.204242
-0.058140
-0.018912
0.182837
0.305458
0.058144
-0.067782
-0.132395
-0.074634
0.021848
0.211801
-0.240671
0.240748
-0.083402
-0.022170
-0.091685
0.014026
0.259964
-0.158357
0.228099
-0.095684
0.215834
0.079263
0.147555
0.141210
-0.245453
-0.208705
-0.009193
-0.010685
0.297017
-0.036097
-0.252776
-0.267509
0.013626
-0.074192
-0.104530
-0.297279
-0.083200
-0.081819
-0.041298
0.105368
0.254421
-0.597326
-0.120599
0.029858
0.148126
0.082253
-0.018679
0.361250
-0.306366
0.312180
0.060497
-0.375149
-0.414731
0.177194
0.017087
0.046799
0.167014
0.050646
0.227653
0.092881
-0.029315
-0.387715
0.056816
0.345769
-0.199612
0.104384
0.198190
0.286223
0.226374
-0.068430
-0.348380
-0.345954
-0.024845
-0.013765
-0.419037
0.003515
0.242023
0.133483
0.136431
-0.224285
-0.229096
0.152735
0.112849
0.075569
0.110035
0.103151
-0.067999
-0.165759
0.182061
0.363211
-0.105792
0.045237
0.006023
0.063869
-0.017332
-0.263200
0.192230
-0.053014
-0.117061
-0.210114
-0.059514
0.288829
0.067599
-0.110759
0.227149
-0.081012
0.359767
-0.220227
0.113135
0.201838
-0.387612
0.036575
0.128662
-0.239678
0.192334
-0.089893
-0.207924
0.042454
-0.048230
0.145280
-0.095281
-0.135325
0.094717
0.079871
-0.328119
0.095455
-0.049563
0.035134
-0.152860
-0.142620
0.147285
0.006648
0.054329
0.094681
-0.015645
0.063932
0.426268
0.104788
0.328112
-0.036401
-0.117828
-0.001229
-0.033867
-0.344130
-0.122203
-0.034451
-0.059544
0.285052
-0.208309
-0.206222
-0.007114
-0.083291
0.026823
-0.128112
0.028757
-0.046950
-0.263387
0.152957
-0.042295
0.368365
-0.055656
0.093635
0.115878
0.041827
0.097794
0.025029
-0.076346
0.133547
-0.342873
-0.094905
-0.192539
0.045902
-0.148522
0.318814
0.351707
-0.255216
-0.008716
0.051210
0.142596
-0.260855
0.065071
0.050137
-0.174496
-0.003319
-0.374447
-0.195917
0.167448
-0.046534
-0.146673
-0.260816
0.197590
-0.042671
0.174725
-0.107893
-0.100889
-0.167767
-0.320480
0.151963
-0.264233
0.209397
-0.003347
-0.058601
0.148288
-0.061782
-0.320928
0.150180
0.166719
0.124369
-0.177598
-0.289670
-0.218319
0.244779
-0.883098
-0.177447
0.000501
0.039664
0.009707
-0.379107
0.115762
0.109174
0.028504
0.065607
-0.027377
0.197693
-0.170148
-0.198731
0.354767
-0.102035
0.321922
-0.481506
-0.142210
-0.098145
-0.204138
0.224149
0.001437
0.131242
-0.139871
0.005943
-0.045974
-0.164665
-0.300559
0.005129
0.004259
-0.189859
0.159121
-0.003022
-0.018485
-0.144107
0.207765
0.009591
0.162713
-0.143793
-0.154145
-0.248538
-0.186784
-0.113157
-0.051282
0.219915
0.239738
-0.051571
-0.208733
-0.299413
-0.293837
-0.151262
0.124463
0.051874
-0.134591
0.135417
-0.108377
-0.048814
0.115736
-0.145143
-0.132406
-0.093100
0.161473
0.063715
-0.161236
0.186065
0.122935
-0.063554
-0.196946
0.027258
0.413977
0.238337
-0.216797
-0.048611
0.255660
-0.224159
0.211196
-0.074983
-0.150643
-0.123198
-0.107448
-0.045928
0.007213
-0.155075
0.041721
0.205454
-0.082753
-0.163353
0.314901
-0.382147
-0.087779
-0.449195
-0.011323
0.232519
-0.249872
0.451978
-0.059896
-0.100773
0.107145
0.240487
-0.076637
-0.104880
-0.010205
-0.015890
-0.150634
0.431493
-0.039381
0.086085
-0.109140
0.021784
-0.105914
0.052580
-0.128500
-0.088670
0.074453
0.118481
0.175872
0.000372
-0.190735
-0.348498
0.016017
-0.197041
0.140096
-0.082497
-0.005592
0.333126
0.218747
-0.301742
0.011885
-0.003181
0.363736
0.221519
-0.018893
0.229878
-0.343072
-0.214499
0.074678
-0.209695
-0.134222
0.034314
-0.257256
-0.204955
0.080123
-0.171612
0.100892
-0.116856
-0.053909
0.068336
0.209463
-0.122176
-0.124116
-0.114916
-0.078525
-0.104274
-0.437640
0.342950
0.032983
0.084675
-0.068066
0.072984
0.095303
-0.045607
-0.185855
0.109789
-0.054065
0.079275
0.066960
0.157776
-0.170944
-0.433873
0.039039
0.358121
-0.225714
0.034385
0.232631
-0.208500
0.307520
-0.140327
0.029870
0.067372
0.054831
-0.073711
-0.036884
0.254467
0.008850
-0.034051
-0.066957
-0.064831
0.001676
0.198103
-0.032149
0.146294
-0.172295
-0.016407
-0.205714
-0.010889
0.026946
-0.110330
-0.090396
-0.270523
-0.006388
-0.095529
0.004162
0.089131
-0.103308
-0.169794
0.008663
0.022555
0.213692
0.055366
-0.279493
-0.293495
-0.308962
0.027672
0.117558
-0.079828
0.083492
0.003305
-0.052084
-0.307859
0.097987
-0.292339
0.006565
0.223310
0.072421
-0.238785
-0.048780
0.121033
-0.086185
-0.287316
0.030151
-0.104472
-0.330094
-0.183220
0.031475
-0.222698
0.101609
-0.585724
0.009366
0.138361
-0.020186
0.062915
-0.100975
0.201489
-0.379564
-0.007477
0.370955
0.131336
-0.174556
-0.270481
-0.003307
0.090533
-0.207568
-0.312896
-0.046480
0.088443
0.079948
-0.005841
0.041461
-0.226416
0.075757
-0.050843
-0.567787
-0.028429
-0.028002
0.126964
0.199685
0.118581
0.205651
-0.154189
0.196019
-0.098800
0.285372
0.155859
-0.099670
0.034180
-0.096404
0.215037
-0.064135
-0.122695
-0.264761
-0.111253
-0.289584
0.183621
0.016993
-0.506894
0.077039
0.093146
-0.340346
-0.387813
0.057483
-0.282166
-0.014164
0.161217
0.089659
0.170213
0.094793
-0.003517
0.164694
-0.482994
0.138474
0.327053
-0.036061
0.080921
-0.027279
-0.480450
-0.327189
0.199015
0.142091
-0.275405
-0.031715
0.205627
0.268574
0.006182
-0.005326
0.168158
0.066671
-0.114891
0.004606
-0.057081
-0.184248
0.407950
0.348689
0.253358
0.109332
0.007822
0.227367
0.230732
0.066628
0.192276
0.313275
0.228750
0.177341
-0.429285
0.356834
-0.087106
0.298029
0.103247
-0.019285
0.304640
0.021261
-0.305258
-0.081553
0.246946
0.035909
0.049153
-0.077114
0.086976
-0.023831
-0.137928
-0.153495
-0.161480
-0.164971
-0.045913
0.118114
0.171234
0.489698
0.468731
-0.073258
-0.093407
0.443017
0.135487
-0.193599
0.141604
-0.014238
-0.201089
0.026388
-0.003599
-0.168706
0.179852
0.205394
-0.270167
-0.144287
-0.062870
-0.032494
-0.232098
-0.251864
0.276531
-0.368674
-0.072373
-0.203733
-0.156482
-0.178452
0.084296
-0.106231
-0.097739
-0.063289
-0.051759
0.178321
-0.068451
0.204453
-0.049030
-0.006350
-0.141045
0.196260
-0.121681
-0.011272
0.059875
0.280957
0.138721
0.054869
-0.472680
-0.300236
-0.112661
-0.033821
-0.125771
0.142466
-0.081005
0.128879
0.313651
-0.049779
-0.124218
-0.165107
0.063616
0.139957
-0.148716
0.198829
-0.256752
0.035798
-0.159769
-0.333099
0.214401
0.225075
-0.119725
0.174152
-0.148930
-0.036755
0.173881
0.045629
-0.426486
-0.075135
-0.083485
0.006952
-0.262437
-0.078835
-0.015151
-0.159876
-0.084499
-0.133806
-0.074242
-0.060127
0.196567
-0.209150
-0.054749
0.040485
0.138264
0.217446
0.089351
0.026130
0.176396
0.222906
-0.156120
-0.026166
0.112778
0.056244
0.189945
-0.085383
0.135376
0.423183
-0.287441
0.192931
0.184816
0.031057
0.110253
-0.252269
0.109103
0.248201
-0.176772
0.209813
0.047976
0.021258
0.086558
0.311127
0.081049
0.030324
-0.375202
-0.124115
0.239600
0.161582
-0.053781
0.132128
0.121534
-0.436548
-0.201855
-0.004411
-0.253652
0.102225
0.044276
0.056094
-0.111019
0.216966
0.169500
-0.160107
-0.188906
-0.078994
0.246544
-0.069625
-0.122723
0.011119
0.097624
-0.014279
0.003840
-0.191715
-0.091161
0.196076
-0.087613
0.065468
0.423802
0.242707
0.087285
0.138442
0.006625
-0.176374
0.110536
0.254694
-0.064680
-0.067653
0.205333
-0.210672
-0.115458
-0.380086
-0.086929
0.055372
0.011668
0.244046
0.106569
0.080604
-0.307565
0.114022
0.031799
0.042971
-0.286532
-0.185745
-0.226066
-0.384532
-0.102661
0.109960
-0.050468
0.146469
0.057783
-0.222109
-0.091840
-0.290750
-0.058120
-0.169008
0.185826
-0.038826
-0.022967
-0.365983
0.034804
-0.136203
0.118579
-0.027792
-0.145645
-0.351684
-0.075505
-0.320681
-0.013985
-0.002534
0.252201
0.130075
-0.077593
0.147637
-0.282609
0.012507
0.149234
-0.018701
0.268241
-0.036777
0.036838
-0.214462
0.211297
0.206747
0.008038
0.031007
0.378874
-0.183869
-0.111102
-0.220534
0.190424
-0.012413
0.041877
-0.141766
0.138622
0.034702
0.424555
0.061783
-0.639672
-0.065377
0.495707
-0.074696
-0.064674
-0.412033
-0.036853
0.001295
-0.359964
-0.279834
-0.123763
0.088884
0.359052
-0.152693
-0.293409
-0.161245
-0.214903
-0.014631
-0.037243
-0.350875
-0.014383
-0.471238
-0.109565
-0.062397
-0.080692
-0.487974
-0.213641
-0.264465
-0.021061
0.323846
-0.229817
0.318870
-0.155840
0.166374
-0.521817
0.118549
-0.194582
-0.231890
-0.176979
0.033264
-0.035492
0.056052
-0.154202
-0.149965
0.387883
0.262756
-0.075983
0.005012
0.161131
0.176250
0.021487
0.192037
-0.278824
0.243070
0.001335
0.053149
-0.104276
0.185980
-0.155532
0.152489
-0.286610
-0.061241
0.065947
0.151521
-0.017611
0.274022
0.189465
-0.208644
0.038008
-0.292612
0.158239
-0.086388
-0.333873
0.152062
0.212682
0.452645
0.241158
0.221252
-0.061418
-0.035605
0.282552
0.060574
0.208318
0.155724
0.337022
-0.228863
0.097129
-0.181457
-0.190077
-0.153773
-0.204324
0.014013
0.179347
-0.023918
0.288804
-0.047921
0.194456
0.074672
0.004574
0.075349
0.364218
-0.021447
-0.205426
-0.310651
0.119667
-0.030614
0.157877
-0.057130
-0.286319
0.183589
0.170268
0.227906
0.116142
0.259012
0.075177
-0.208376
0.202009
-0.074742
-0.072442
0.109012
0.300665
0.056903
-0.334194
0.098982
-0.168653
0.014482
-0.083346
0.030467
0.385303
-0.119136
-0.136620
0.009836
-0.201469
0.057421
-0.063967
0.040773
0.262327
-0.190420
-0.014142
0.024602
-0.110422
-0.043048
-0.008072
0.145185
0.238254
0.271495
0.039869
0.069830
0.058641
0.075500
0.452206
0.059672
0.049665
0.404045
-0.124848
-0.163503
-0.073501
0.123201
-0.144094
0.023510
-0.022317
-0.146768
-0.315620
0.051720
-0.147866
-0.081355
-0.167477
-0.167270
-0.000084
-0.102285
-0.282874
0.197415
-0.102994
-0.004334
0.095501
0.039190
0.089859
-0.116553
0.123204
0.260871
-0.052235
0.209781
0.050659
0.171704
0.281759
-0.282635
-0.037681
-0.144248
-0.287634
0.286083
0.018781
-0.258699
0.011039
0.018491
0.069573
-0.037087
-0.141698
-0.189319
0.443302
-0.172660
0.049712
0.138103
-0.040967
-0.143401
0.038104
0.150814
-0.209117
-0.258521
-0.090682
-0.057675
0.210709
0.053593
-0.083644
0.043440
0.029672
-0.047275
0.049712
0.118630
-0.444911
0.097869
-0.035450
-0.351714
-0.124080
-0.143999
0.263523
0.012927
-0.039781
-0.149628
0.158944
0.015488
0.427808
0.409998
0.044102
-0.093427
-0.035768
-0.000333
-0.424463
0.345095
0.146253
0.003064
0.029052
-0.016438
0.022341
-0.076984
0.255800
0.095906
-0.266660
-0.070716
-0.295612
0.041259
0.066041
-0.075130
-0.086509
-0.029314
-0.003361
-0.128102
0.182286
-0.498595
-0.031909
-0.082124
0.357727
0.137001
-0.233607
-0.246656
-0.069802
0.071125
0.007824
0.107924
0.139109
-0.210255
0.194539
0.174656
0.153440
0.099470
-0.097532
-0.081480
-0.063454
-0.326392
-0.349879
-0.048893
-0.017359
-0.067622
-0.079035
0.117515
-0.095153
-0.189689
0.094069
0.072830
-0.325365
0.198065
0.013958
0.131919
0.205682
-0.169641
0.198982
-0.488337
0.297111
-0.098384
0.177987
-0.172599
0.044200
-0.003192
0.109292
-0.125172
-0.079858
-0.064907
-0.021572
-0.000674
0.082305
-0.095523
-0.392507
-0.030158
0.251503
-0.094824
0.110164
-0.167311
-0.495345
-0.000995
0.047054
-0.097338
0.146135
-0.043974
-0.084618
0.003319
-0.016058
0.276412
-0.082304
-0.260583
0.030984
0.187285
0.015223
0.358572
0.010607
-0.352382
0.239478
0.026892
-0.292068
-0.191988
0.344619
0.138305
0.008011
-0.229931
0.007194
-0.005243
-0.169724
-0.046251
-0.004699
-0.068885
-0.219750
-0.132687
0.109638
-0.336037
0.025870
-0.206700
0.128916
-0.003044
0.132666
-0.023954
-0.157992
-0.270991
0.451376
-0.073305
-0.237237
0.008233
0.140301
0.074992
-0.285493
0.022477
-0.019109
-0.106087
0.059682
-0.068392
0.139771
-0.214862
0.221071
-0.174530
0.299162
-0.210103
0.075951
0.175319
-0.368551
0.176575
0.071805
0.236240
-0.000417
0.057214
-0.181317
0.009194
-0.364015
-0.116401
-0.101894
0.156605
0.049272
-0.359060
0.381825
-0.102447
-0.259479
0.160386
-0.005258
0.168761
-0.059430
0.081106
0.288401
-0.031684
0.117806
0.208907
0.317258
0.012484
0.006471
0.226821
-0.293095
-0.190432
-0.103190
0.382191
0.064241
-0.041899
0.148272
-0.469646
-0.149804
-0.520730
0.154674
0.128514
0.107851
0.131358
-0.177787
0.048180
0.232948
0.342713
0.015839
-0.206269
-0.038479
-0.132918
0.080388
0.008314
0.404455
0.196783
0.233395
-0.073012
-0.163076
0.122798
0.088629
-0.022690
0.203606
-0.111592
-0.232937
0.023167
-0.090232
-0.040953
-0.000157
-0.099321
0.113044
0.014297
-0.247458
-0.240062
0.318357
-0.016351
-0.033646
0.179760
-0.148052
-0.392583
-0.448789
0.006214
-0.050982
-0.312958
0.405454
0.343779
-0.225044
0.172751
-0.091628
-0.288731
0.006042
0.113989
0.288333
0.243589
0.258238
0.103887
0.003140
-0.127069
-0.402983
0.086025
-0.128226
-0.108478
-0.072171
0.035847
-0.138877
-0.119693
-0.304705
-0.065001
0.112655
0.163006
0.013434
-0.354387
0.261608
0.040920
0.093962
-0.044816
0.241889
0.104781
0.260025
-0.290929
0.402589
-0.015102
-0.117566
0.211104
0.101774
-0.053446
-0.232644
-0.168212
-0.219928
0.353751
-0.227132
0.088977
-0.192536
0.254853
0.063451
-0.052721
-0.161999
0.075688
-0.303071
-0.066607
-0.356395
0.103775
0.191327
-0.214941
0.386158
-0.053620
0.069795
0.010246
-0.202917
0.154390
0.191790
0.070778
0.229298
-0.058113
0.066250
-0.133919
0.012657
-0.081318
0.044596
0.273951
0.231174
-0.273439
0.393630
-0.202582
0.277297
-0.054827
-0.313330
0.171391
0.348357
0.118096
-0.074235
0.005593
-0.155479
-0.067975
-0.078246
0.079037
0.516148
-0.035377
0.039921
-0.196059
-0.066512
0.058853
0.234072
0.118556
0.175234
0.190226
0.260668
0.150422
0.146034
-0.063847
-0.152186
0.233416
0.060037
0.213596
0.227019
-0.176744
0.245233
-0.283377
-0.176657
0.267092
0.086703
-0.061107
0.247826
0.123960
0.084994
0.000028
-0.410265
0.093585
0.094946
-0.083388
-0.112843
0.071405
-0.223594
-0.072817
0.428159
0.068241
-0.105140
0.210105
-0.135822
-0.060489
-0.113230
-0.037226
-0.212660
0.048467
-0.367794
0.047862
-0.161811
-0.258350
-0.048074
0.216439
-0.214300
-0.393721
-0.292912
-0.213637
0.210285
0.047136
0.055104
-0.040940
0.035601
0.054615
-0.230202
-0.081445
-0.176615
0.202591
0.050675
-0.085330
0.165725
0.309698
0.127181
-0.304712
-0.103727
0.089439
-0.375142
-0.024391
0.053854
0.074788
0.023706
-0.122452
-0.311168
0.162845
0.213338
0.254592
-0.003438
-0.071671
-0.238280
0.294184
-0.120523
-0.204747
-0.322019
-0.321149
0.263677
0.007964
-0.027681
0.060359
0.231628
-0.058416
-0.080230
-0.064488
0.057357
0.002670
-0.070981
0.449352
-0.433983
-0.014251
-0.010196
-0.101847
-0.195352
-0.182882
-0.283515
0.108098
0.235774
0.152939
-0.206233
-0.022638
0.298442
0.107648
0.064107
0.297549
-0.160022
0.033808
0.182453
-0.232729
0.032263
0.053766
-0.027562
-0.162664
0.113252
-0.305659
0.186771
0.482803
0.194866
0.031164
0.121912
0.130620
-0.077576
0.188101
-0.018652
-0.289064
-0.269393
0.003875
-0.135695
0.081274
0.109625
0.221325
0.258817
-0.099899
0.094341
-0.029674
0.238926
-0.049679
0.162592
-0.034761
-0.144951
0.258056
-0.297482
0.409834
0.018172
-0.084956
-0.340728
-0.105083
-0.049245
-0.254245
0.400642
0.290167
0.152614
0.038648
-0.525944
-0.426785
-0.075187
-0.706894
-0.499682
0.028421
-0.331138
0.252764
-0.171238
0.357560
0.098980
0.203185
-0.245025
-0.399575
-0.092705
-0.183570
-0.005480
-0.101246
0.205829
-0.015610
-0.007657
0.198697
-0.129290
0.007864
0.218904
0.131652
0.079480
-0.020914
0.072848
0.077414
0.134935
0.136950
-0.145672
-0.003829
-0.296957
-0.187923
-0.352083
0.140850
0.143990
-0.047424
-0.139982
-0.171364
0.370194
-0.018650
-0.457674
0.036759
-0.161091
0.001073
-0.084274
0.045046
-0.052035
0.276645
-0.313668
-0.104949
-0.249230
-0.358387
0.218281
-0.090741
0.253980
0.056120
0.065998
-0.021308
0.089542
-0.177173
-0.187400
0.133084
0.023434
0.266646
0.117296
-0.120532
-0.178496
-0.136256
-0.207192
-0.012712
-0.133889
0.084936
0.089039
0.340605
-0.424885
0.404879
0.021272
-0.200870
0.234523
-0.530386
0.043030
-0.015206
-0.158480
-0.127422
0.164930
0.181488
-0.134673
-0.136795
-0.122293
0.013474
0.122603
0.122524
0.196392
-0.040497
-0.265748
0.123008
0.113490
0.089436
0.039577
0.027216
0.073126
0.051762
-0.081568
-0.183916
-0.010228
-0.177128
-0.027405
0.078861
-0.320668
-0.127332
0.058455
0.159310
-0.138676
-0.084717
0.012167
-0.230170
-0.041840
-0.118948
0.180797
0.440382
-0.257691
0.410236
-0.245124
0.005108
-0.098452
0.019883
0.114400
-0.265179
0.061491
0.047783
0.314703
-0.255495
-0.131581
-0.147775
0.030102
0.003141
0.162836
-0.119055
0.161583
-0.222184
0.137462
0.248230
-0.366116
-0.063806
0.202484
0.205286
-0.289907
0.128537
-0.160627
0.216739
0.047223
-0.347592
0.100601
0.232194
-0.194344
0.189216
-0.056813
0.266383
-0.200584
-0.238464
-0.352319
-0.023077
-0.187418
-0.078221
-0.256550
-0.300236
-0.115143
0.000722
0.065496
0.002959
0.232891
-0.175706
0.236573
-0.202825
0.054256
0.100993
-0.091078
0.192278
-0.019185
-0.351128
0.252406
-0.116019
-0.066415
-0.097242
-0.052253
0.086972
-0.149570
-0.022438
-0.013459
-0.271903
-0.157721
-0.331141
0.066189
0.278203
-0.065075
0.003252
-0.317871
-0.189252
-0.031202
-0.012132
-0.022602
-0.059381
0.028723
0.069251
-0.010687
-0.445709
0.025012
-0.191248
-0.352670
0.007963
-0.250671
0.229680
-0.050020
0.030228
-0.309552
-0.185112
0.115108
-0.102942
0.062453
0.019341
-0.100792
-0.162315
0.187763
0.142082
-0.146713
-0.353968
-0.201097
-0.098884
0.069959
-0.231233
-0.136160
0.281493
-0.035747
0.062189
-0.317191
0.097450
0.031320
-0.005310
0.016184
-0.051668
0.168031
0.109572
0.061826
-0.264802
0.031152
-0.033462
-0.049419
0.335984
-0.112833
0.018181
-0.087887
-0.003750
-0.156770
0.177584
0.261711
0.034260
0.074432
0.106225
0.316414
-0.203604
-0.071579
-0.050428
-0.223984
-0.014857
-0.350499
-0.252811
-0.015877
-0.212577
-0.244897
-0.210363
-0.079615
0.002815
-0.090946
-0.048743
-0.078787
0.139822
0.107356
-0.065782
-0.024705
-0.156424
-0.050699
-0.251425
0.162685
0.001593
0.104978
-0.033372
0.130406
-0.104204
0.104876
0.324953
-0.230364
0.134241
-0.029487
0.217456
-0.022027
-0.049456
0.139606
0.143663
-0.073900
-0.176981
0.259764
-0.155652
-0.194477
-0.046284
0.436184
-0.066570
0.223342
-0.306742
0.193286
-0.026774
0.038928
0.064133
0.343575
0.087265
0.238526
-0.044430
0.124909
-0.079567
0.088946
-0.389497
0.007104
0.040097
-0.160180
-0.080811
-0.144546
-0.001266
0.058463
-0.149889
0.044826
-0.120506
0.127161
0.066423
-0.200136
-0.057183
0.044071
0.185947
0.060039
-0.097498
-0.085113
-0.015243
-0.231253
-0.189233
0.190507
0.078820
-0.033105
-0.092921
-0.090802
-0.228631
-0.046093
0.128895
0.191306
-0.083512
0.006509
-0.043552
-0.163850
0.239482
-0.054870
0.167508
0.012841
0.168657
-0.199955
0.005550
0.028668
0.220910
-0.369002
-0.112295
-0.219015
-0.046305
0.083635
0.238817
-0.209868
-0.233889
-0.006994
0.098589
-0.113911
0.242158
0.059660
0.016895
-0.039612
-0.210239
0.050055
-0.178013
0.113291
-0.061293
0.200281
0.137319
0.115859
-0.131215
-0.092798
-0.000546
-0.455323
0.107618
0.075201
-0.095627
0.241508
0.232202
-0.116274
-0.457901
-0.032813
0.002909
0.326239
-0.465875
-0.017532
0.279219
-0.006135
0.306476
0.136087
0.105486
-0.003409
-0.276297
-0.078114
0.186725
-0.001138
-0.058583
-0.192103
0.177647
0.149396
-0.058789
-0.043640
0.244568
-0.072626
-0.031289
-0.328803
-0.088058
-0.038166
0.317285
-0.268998
-0.367456
-0.249675
-0.185513
0.149457
0.038141
-0.298915
-0.161240
-0.299292
-0.066837
0.043331
0.224371
-0.105393
0.078898
0.000463
-0.088966
-0.112417
0.085677
0.114210
0.381880
0.169722
0.070380
-0.088790
-0.291919
-0.239168
0.288862
-0.279843
0.076611
0.289743
-0.104093
-0.094894
-0.271082
-0.356409
-0.093985
-0.175836
0.166546
-0.210832
0.026885
-0.257062
0.011900
-0.058470
-0.213278
-0.078426
-0.238274
0.188263
0.108980
0.047745
-0.405937
-0.076955
0.000868
-0.244679
0.042485
-0.183950
-0.186413
0.036672
-0.137761
-0.226823
-0.085165
0.059002
0.311185
-0.054719
0.167432
-0.326290
-0.007199
-0.137069
0.071567
0.060418
0.045826
-0.242076
0.036916
0.374735
-0.132505
0.234683
-0.060679
-0.102976
-0.261052
-0.064689
0.020171
-0.426468
-0.374836
0.001485
-0.066129
0.131627
0.256049
-0.074788
0.143034
-0.365145
0.183057
0.139912
0.170903
0.142501
0.127946
-0.473962
-0.046849
-0.153991
-0.237883
0.052317
-0.259549
-0.241066
-0.050798
-0.110639
0.026088
0.245867
-0.446903
0.156571
0.156376
-0.321791
0.263023
0.138134
0.091432
-0.070672
-0.073806
-0.212070
-0.121138
0.109622
-0.178528
0.168593
-0.084312
0.143040
0.025992
-0.088122
-0.034245
-0.221034
-0.070937
-0.067752
0.039340
-0.189751
0.124476
-0.215277
0.116403
0.050132
-0.029630
0.084301
-0.272599
-0.110079
-0.049460
-0.215969
-0.153698
0.290456
-0.248297
0.071063
-0.171642
0.361048
-0.193526
-0.135114
0.068971
-0.053323
0.150439
-0.037638
-0.167634
0.045664
0.067809
-0.182372
0.007517
-0.019879
0.128249
0.133734
-0.202196
-0.138913
-0.224290
-0.156791
0.045751
0.127288
-0.085533
-0.158373
-0.357763
-0.014797
0.046029
-0.425347
-0.272594
-0.172865
0.119799
0.256254
-0.147837
0.363474
-0.110597
-0.165648
-0.118204
0.058548
-0.197573
-0.307623
-0.078891
-0.038561
0.142667
-0.168254
-0.081589
0.024415
0.098513
-0.043219
0.228345
0.160256
0.225708
0.120312
-0.077288
-0.107158
-0.191013
-0.186880
0.048300
-0.196207
0.173091
-0.141858
0.180437
0.115990
-0.259054
-0.016552
0.073974
-0.104801
0.106536
-0.282742
-0.106327
0.325292
-0.212084
-0.070888
-0.308109
0.046387
0.027511
-0.023402
0.113597
-0.044662
0.118806
-0.152986
0.130556
0.061398
0.053897
-0.137565
-0.054611
-0.007054
-0.320919
0.173257
-0.076659
0.323706
-0.424623
0.050243
-0.014690
-0.109104
0.136539
-0.164415
0.096129
0.134939
-0.044654
-0.242200
0.172700
-0.132037
-0.003757
-0.350071
-0.103313
-0.198766
0.116722
0.012563
-0.035796
0.102776
-0.002734
0.158888
0.159630
-0.337797
0.146416
-0.012872
-0.406341
0.180742
-0.176583
-0.057687
0.000419
-0.578424
-0.345711
0.391817
-0.171273
0.264120
0.143309
0.118268
-0.170135
-0.013557
-0.009327
-0.218944
0.040075
-0.042651
0.226518
-0.274712
-0.040530
-0.324836
-0.201597
0.000693
-0.085923
-0.169824
-0.028451
0.003789
0.229650
0.087485
-0.121551
-0.487409
-0.369783
0.111462
-0.386177
0.036992
-0.257466
-0.552504
-0.107015
-0.209995
-0.045479
-0.053067
0.305724
0.091503
-0.027176
-0.075941
-0.184576
0.075613
0.179784
0.124847
0.064277
0.198779
-0.033219
0.233366
0.024577
-0.048807
-0.006591
-0.108098
-0.233880
0.693312
0.264593
-0.235114
0.241368
0.116668
-0.013721
0.172031
0.162302
0.170768
0.094362
0.050533
0.031984
-0.245008
-0.471536
0.050126
-0.339631
-0.090369
0.000983
-0.250829
0.250985
-0.076906
-0.174573
-0.043890
0.280839
0.095451
-0.117495
-0.218652
-0.026268
-0.069973
-0.368240
-0.002230
-0.035722
-0.253072
-0.205997
-0.144252
-0.153193
0.013656
0.223157
-0.411371
-0.081156
-0.175100
-0.034961
-0.209290
0.045929
-0.046071
0.364387
0.005640
-0.213868
0.303718
-0.133659
-0.107445
0.027514
0.024680
-0.092731
-0.127220
-0.145405
-0.163116
0.091458
-0.400600
0.101784
-0.073279
0.258921
0.112791
-0.366904
-0.072035
0.367509
-0.090450
0.046772
0.002265
-0.153100
-0.189651
0.077785
-0.091550
0.068058
-0.270193
-0.148873
0.127926
-0.446354
-0.063743
-0.049467
0.004125
-0.211148
-0.229552
0.088524
0.072428
-0.113377
0.004578
0.202725
0.229317
-0.007511
0.186264
-0.033151
0.024497
-0.021335
-0.021706
-0.178346
-0.145037
-0.057658
0.219700
-0.037538
-0.133311
0.007196
0.117794
-0.238383
-0.205215
0.161544
-0.048720
0.046373
-0.267447
-0.078550
0.264804
-0.170375
0.171989
-0.033152
-0.000920
-0.141345
-0.097868
-0.043842
-0.202423
0.188807
0.079034
-0.063836
-0.002698
0.245124
-0.004071
0.260092
0.138940
0.197602
0.021275
0.111441
-0.119692
-0.263723
-0.078628
0.040970
-0.053873
0.169912
-0.017403
0.014731
0.017429
-0.066464
0.022959
-0.034534
0.056989
-0.071939
-0.047371
-0.165930
-0.001954
0.010653
-0.003495
0.026742
0.192666
0.263165
-0.004187
-0.061223
-0.189041
-0.057861
0.012119
-0.085056
-0.102889
0.206561
0.117564
0.148902
0.048469
-0.057930
-0.113764
-0.205930
-0.068458
-0.113204
0.018717
0.114631
-0.055596
-0.105325
-0.023160
-0.215834
-0.137841
-0.221815
0.426769
0.172570
0.134884
0.225241
-0.213229
0.114119
-0.027152
0.050029
0.075723
0.196110
0.286525
-0.060434
0.070452
-0.351996
-0.097622
0.109779
0.053955
-0.080230
-0.199889
0.297062
0.290299
0.089132
0.022212
-0.103245
0.338952
-0.108120
-0.248269
0.290768
0.029123
0.051298
-0.013784
0.335166
-0.613527
0.118138
-0.188504
0.114661
0.099875
0.259064
0.053066
-0.063710
-0.214179
0.172879
0.035113
0.117355
0.024847
0.100368
0.083563
0.101478
-0.328716
-0.012624
-0.064584
0.103787
0.022198
0.191389
-0.127470
-0.013330
-0.398800
0.091549
-0.539620
-0.118495
-0.016584
-0.093215
0.058604
0.079883
0.070078
0.039558
0.148953
-0.008158
-0.089712
0.164491
-0.216527
-0.244747
-0.141333
0.122743
0.399072
-0.086101
-0.200086
-0.086479
-0.102828
0.135993
-0.278333
0.191705
0.254995
-0.079860
-0.158418
-0.070614
0.031981
-0.038440
0.169265
0.218423
-0.166266
0.078122
-0.094579
-0.172657
0.085859
0.260004
0.374704
0.301739
-0.203495
-0.092076
0.004937
-0.236197
0.173106
0.098106
0.037205
-0.412335
0.056707
-0.090001
0.117874
0.241398
-0.052168
-0.251216
-0.014762
0.293206
0.194337
0.170998
-0.041077
-0.202863
0.122550
0.007312
-0.075177
0.011420
0.054548
-0.039307
0.041372
-0.349477
-0.067493
-0.224632
0.023047
-0.134004
-0.161791
0.025682
-0.346022
-0.044629
0.094854
0.032882
-0.009146
0.070329
0.078107
-0.219047
0.113240
-0.147263
0.035933
-0.204834
0.025713
-0.139526
-0.004423
0.250528
0.072861
0.047073
0.260033
0.068527
0.104889
0.276307
-0.014223
-0.212515
-0.061897
0.181120
0.105994
0.198567
0.049323
0.170042
0.161235
-0.001336
0.001832
0.143641
-0.022307
-0.117185
0.061190
0.201148
-0.219891
-0.005547
0.107499
0.360518
-0.113644
0.013943
0.443183
-0.127313
0.008627
0.167600
-0.240269
0.051887
0.151920
0.167325
-0.119577
0.011521
-0.206365
0.144404
0.049011
0.058542
0.085502
-0.142776
-0.161826
-0.374875
0.102304
-0.056043
0.017725
-0.209537
-0.268232
0.476080
-0.366372
-0.316940
0.025239
0.024150
0.164717
-0.066971
-0.160720
0.094514
-0.164066
0.049985
-0.359699
0.240291
-0.012708
0.008151
-0.224836
0.011017
0.003496
-0.034571
-0.253470
-0.006954
0.099301
0.325774
0.089118
-0.143394
0.100526
-0.222585
-0.114245
0.125666
0.068528
0.290245
0.278036
-0.006625
0.029223
0.155541
0.063025
0.042967
0.161853
0.194262
-0.100974
0.063108
-0.089659
-0.135939
0.104278
-0.059871
-0.377743
-0.243848
-0.037021
-0.261870
0.043408
0.136976
0.058550
-0.262063
-0.241252
0.172167
-0.226920
-0.180814
-0.078001
0.039847
-0.053491
-0.152355
-0.015854
-0.162596
0.004393
0.007916
0.317621
0.083154
0.000206
-0.027794
0.021088
-0.012702
-0.327808
-0.003168
0.167720
-0.134166
-0.294681
-0.292348
-0.011529
-0.216325
-0.095103
-0.241960
0.145274
-0.207207
0.092735
0.079454
-0.185786
0.222102
-0.200526
0.194976
-0.327409
-0.011031
0.037194
0.195207
0.252215
-0.242756
0.137316
0.106349
-0.081397
0.096654
-0.352756
-0.225543
0.189746
-0.002552
-0.181877
-0.010665
-0.136244
-0.168657
0.101412
0.317362
0.080109
-0.059239
-0.090520
-0.056189
0.134367
-0.311108
0.015473
-0.087114
-0.129631
-0.148745
-0.297475
-0.022761
-0.032373
0.146487
0.048330
0.022615
0.021735
0.310394
-0.136060
0.155474
-0.154671
-0.018663
-0.083106
-0.132650
-0.078174
0.109171
-0.053116
0.067782
0.136564
0.105339
0.189920
-0.165432
-0.021430
-0.042207
0.221924
0.157855
0.276803
0.025093
-0.123997
0.125051
0.044444
0.073386
-0.017325
0.171784
0.109876
0.049543
-0.020926
0.264949
-0.047910
-0.194751
0.070538
-0.010250
-0.093105
-0.449941
-0.002427
0.213783
-0.285781
-0.081200
-0.017199
0.150099
0.100930
0.246799
-0.124096
-0.087539
0.360573
-0.011036
-0.209775
-0.199441
-0.017356
-0.024199
-0.209938
0.004689
-0.147148
0.083426
0.196997
-0.043835
-0.371415
0.048163
-0.340422
-0.086548
0.099459
0.118728
0.039079
-0.281448
0.235743
0.141176
-0.049279
-0.199410
-0.190144
-0.024560
0.002859
-0.172926
-0.221848
0.153968
-0.101644
0.020593
-0.012716
-0.044012
0.207128
0.101014
0.123705
0.013213
-0.149112
-0.150121
0.093544
-0.019394
0.018562
0.104296
0.090960
-0.134333
-0.002821
-0.025010
0.160376
-0.195287
-0.079601
-0.000422
0.329985
-0.131298
0.036186
0.015734
0.022176
-0.031087
-0.242202
-0.160068
-0.000811
-0.108949
0.071283
-0.010083
0.000387
0.053343
-0.004011
-0.164012
-0.326790
0.094802
-0.113015
-0.011459
0.207818
0.046350
-0.021954
0.064424
0.022177
0.034791
0.119830
-0.015322
-0.033356
-0.053742
0.172999
0.090871
0.064645
-0.124436
-0.243846
-0.256851
-0.174957
0.150280
0.064438
0.095113
0.048167
0.157516
0.111552
0.043739
0.116224
0.052255
0.094404
0.134053
0.048060
0.108026
-0.138143
-0.033970
0.080166
0.125603
-0.031250
-0.258904
-0.151160
-0.036655
0.247654
0.136997
0.011993
-0.046603
0.018895
0.115282
-0.372820
0.074844
-0.227642
0.020230
0.296288
0.068530
0.185208
-0.106109
0.005728
0.102466
-0.089215
0.089215
0.157393
0.082522
0.180787
0.055599
0.213286
-0.162576
-0.272335
0.215512
-0.051123
-0.084280
0.016497
0.080591
-0.161561
-0.104639
0.141597
0.055224
-0.001941
-0.153649
-0.077328
0.194641
-0.031835
-0.041106
-0.104267
-0.005850
0.159983
-0.257775
0.220102
0.063098
-0.004360
-0.051780
-0.093703
0.047843
0.171834
0.100786
0.204751
0.062523
0.089624
-0.058817
0.101619
-0.132224
-0.148813
0.004149
0.160865
0.041492
0.220299
-0.030934
-0.092348
-0.105429
-0.080307
-0.154818
-0.148112
-0.328004
-0.005920
0.101612
-0.102828
0.082700
-0.123960
-0.329500
0.041062
-0.156309
0.046821
-0.135676
-0.287980
0.028405
-0.223455
-0.110865
0.003665
-0.193331
0.174825
-0.258087
-0.044927
-0.025192
0.011570
-0.115432
0.084220
0.104511
-0.194917
-0.181468
0.137726
0.070820
-0.167872
0.084737
0.202528
0.180005
-0.207849
-0.148314
-0.156048
-0.225125
-0.373698
-0.009787
0.060196
0.101545
0.214993
-0.273895
0.130496
0.162378
-0.023447
-0.043894
-0.049257
-0.066989
0.098489
-0.034789
-0.153117
0.324567
-0.074215
0.153500
0.065991
-0.389667
-0.078024
-0.016527
0.224427
0.197269
0.124243
-0.059537
-0.052889
-0.327462
-0.059282
-0.112366
0.259393
0.099685
0.170777
0.495631
0.104803
0.163873
0.152581
-0.019458
-0.143698
-0.061011
0.015447
0.271918
0.048349
-0.235349
-0.105374
-0.118550
-0.385083
0.458283
-0.161190
-0.019330
0.014690
0.072621
-0.032887
0.176073
-0.110651
0.214289
-0.130043
-0.011996
-0.093269
-0.121467
-0.088326
0.066929
0.161254
-0.107016
-0.071278
-0.418086
0.094780
-0.162163
0.101888
0.131723
0.075680
-0.252607
-0.041287
0.113301
-0.111958
-0.037498
-0.319656
-0.006555
0.227047
0.233566
0.057954
0.008529
-0.112595
-0.085567
0.256195
0.001380
-0.062814
0.041970
-0.099124
-0.309545
0.341151
-0.027033
-0.034862
-0.339364
-0.079535
-0.115142
-0.041295
-0.292827
-0.119957
0.092847
-0.005587
0.037547
-0.318503
-0.115996
0.113829
-0.206117
0.037713
-0.336606
0.030540
-0.396960
0.070714
-0.032163
-0.163900
0.227748
-0.096610
0.179726
-0.293845
0.361072
-0.002417
-0.037921
0.078211
-0.082273
-0.314390
-0.164414
-0.180252
0.122586
-0.244880
-0.002057
0.081872
-0.031566
0.106620
-0.084515
-0.061300
-0.144418
0.088320
-0.164277
-0.054524
-0.076488
0.162916
0.233396
0.024295
0.094814
-0.022540
-0.066853
-0.112954
-0.454371
0.101135
-0.267922
0.069732
-0.310297
0.200747
0.142784
-0.239253
0.029581
-0.161880
-0.150013
-0.250353
-0.245212
-0.002899
0.319208
-0.144240
-0.168129
-0.130801
0.090850
-0.260917
0.162577
-0.031059
0.190023
-0.015572
-0.332574
-0.169492
-0.545489
-0.159833
0.011059
0.266700
0.140125
-0.030510
0.214333
-0.058694
-0.105323
0.124975
0.020629
-0.223517
-0.069288
0.011732
-0.043061
-0.158214
-0.104976
0.027468
0.230472
0.497955
-0.310468
-0.023414
0.125548
-0.397067
-0.505237
-0.098756
0.011467
-0.085862
-0.185596
-0.197870
-0.061737
-0.027270
-0.346803
-0.127713
-0.330607
0.083714
0.008694
-0.195702
0.108144
0.133856
0.172126
0.156223
0.050564
-0.097109
0.153863
-0.005573
-0.248309
-0.190460
0.038076
-0.117573
-0.091873
-0.065311
-0.362581
-0.102660
0.144633
0.141686
-0.098818
0.200608
-0.162051
-0.154731
0.099018
0.040540
0.067387
0.140284
0.109889
-0.193937
0.043874
-0.163986
-0.140836
-0.333247
0.065227
-0.042724
-0.054642
-0.031257
-0.225257
0.032187
0.085405
0.020572
0.161175
0.190688
-0.084252
0.326067
0.035567
-0.058241
-0.090001
-0.117252
-0.345600
-0.135052
-0.175603
-0.437616
0.410171
-0.128535
-0.229020
0.012139
-0.081439
0.164665
0.065342
0.109345
-0.096930
0.050689
0.057385
-0.254317
0.012626
0.126803
-0.211708
0.045787
0.034972
-0.177547
-0.271362
0.129643
0.062950
0.253368
-0.119462
0.010149
0.027024
-0.090099
-0.000003
-0.111998
0.054545
-0.249847
-0.194776
-0.212152
-0.048041
-0.143736
0.024407
0.098170
-0.057995
-0.103804
0.057588
-0.090215
-0.095465
-0.047037
-0.088314
0.239904
0.050917
-0.072714
-0.220972
-0.118279
-0.075215
-0.027069
-0.131944
0.145099
-0.002146
-0.090748
-0.054596
-0.151059
0.417055
-0.035602
0.104010
-0.070766
0.038035
0.265661
-0.173027
-0.079010
-0.122476
0.200776
-0.116307
-0.021722
-0.008623
-0.096034
-0.047951
0.200392
-0.193589
0.052198
0.012209
0.122300
-0.402546
-0.025767
0.152881
-0.148746
-0.187864
0.116872
0.147395
-0.107263
-0.188631
-0.050732
0.202134
0.008036
-0.210242
0.070232
0.043292
0.082309
0.152398
-0.067013
-0.057298
0.042239
-0.181494
0.048115
-0.086286
0.030767
0.064330
0.048829
-0.225647
0.048855
-0.078080
0.153990
0.149519
0.128880
0.148919
-0.089079
-0.364158
-0.202525
-0.020531
-0.021453
-0.329195
0.010357
0.129620
-0.176988
0.253810
0.094511
-0.059357
-0.002097
-0.273031
0.306130
-0.056264
-0.149610
0.139183
-0.037539
0.013246
-0.187790
0.178127
-0.087139
0.084602
0.200290
0.074702
-0.009781
0.000689
0.116432
-0.054503
0.196576
-0.119338
-0.108917
0.007503
0.178709
0.119518
0.008907
-0.083283
-0.162805
-0.156337
-0.356178
-0.056854
-0.374823
0.022102
-0.134639
-0.092666
0.161829
-0.015490
-0.123775
0.018585
0.031335
-0.162065
-0.089097
0.006198
-0.152281
-0.082020
0.087052
0.050992
0.041599
-0.273821
0.108309
-0.115731
0.007779
0.203695
0.002483
-0.241312
0.395442
0.002030
-0.098395
0.023894
0.004833
0.038720
-0.195847
-0.231697
-0.127255
0.114983
0.109792
-0.118711
0.196499
-0.377771
-0.049100
-0.189819
0.033499
0.214309
0.035542
0.114662
0.131876
0.214036
-0.089924
-0.242616
-0.055965
0.261324
0.015488
-0.067317
0.064794
-0.125470
-0.001446
-0.129126
-0.195719
0.067683
0.206177
0.012387
-0.011296
0.203227
-0.309277
-0.028432
0.215376
0.179194
-0.007107
0.370437
0.111697
0.177219
0.017531
-0.097360
0.022773
-0.020484
0.002532
-0.092628
-0.024925
-0.187576
-0.281054
0.024297
0.277140
0.139893
0.223690
-0.029563
-0.477949
0.085112
-0.085261
0.044198
0.067612
-0.121360
0.026608
0.090622
0.370961
0.070825
-0.210479
-0.050186
0.103921
0.268428
0.113489
0.199885
0.060633
-0.236041
-0.285702
0.066902
-0.038252
0.108155
-0.124965
-0.314286
-0.099890
0.043272
0.150826
0.093039
-0.022218
-0.021540
0.200217
-0.440900
-0.290727
-0.098281
0.088837
0.028939
0.112694
0.197552
-0.043286
-0.167169
-0.124541
0.142796
-0.017364
-0.158069
-0.177094
0.176595
-0.205520
-0.011345
0.393277
0.049087
-0.225598
-0.138625
-0.111001
-0.294521
0.149929
0.125153
0.340729
0.112176
0.013794
0.112967
0.207158
0.029915
0.099173
-0.095305
0.033564
-0.056655
-0.372897
-0.486081
0.169996
-0.230628
0.178670
-0.208270
-0.041398
-0.209640
-0.050363
0.095826
-0.004724
0.091222
0.296201
-0.040739
-0.120141
0.208058
0.240912
-0.021770
-0.047586
-0.177048
0.127155
0.119050
-0.116290
0.080259
-0.199330
-0.017541
0.251871
0.045161
0.196614
0.069329
-0.063446
0.400048
0.058040
0.056144
-0.212194
0.028839
-0.114335
0.019948
-0.205265
0.007875
-0.160949
-0.188903
0.319441
-0.048496
-0.280239
0.146916
0.290594
0.085489
0.009078
-0.043104
0.072263
0.052449
-0.072927
-0.030008
0.118182
0.022748
0.249193
-0.000636
-0.144721
0.015981
0.113676
-0.100655
0.146186
0.251275
-0.039341
-0.226650
0.068472
-0.560056
0.164915
0.243138
-0.027262
-0.120008
0.001167
-0.093767
0.066370
-0.447813
-0.018712
-0.414289
0.051027
0.261935
-0.123760
-0.103986
0.320346
0.111403
0.107091
0.027854
-0.076833
0.110416
0.197886
-0.080786
0.251913
0.109165
-0.035934
0.006035
-0.285777
-0.086756
-0.020336
-0.097885
-0.283787
0.100943
0.212588
0.092992
-0.138206
0.110917
0.085927
0.148370
-0.017553
-0.106720
0.261693
0.023456
-0.081678
0.016317
-0.088136
-0.246583
0.065558
0.093555
0.007076
0.075830
-0.111486
0.073152
-0.057154
-0.471871
-0.312767
-0.094541
0.021919
-0.210790
0.051829
-0.006413
-0.027156
-0.221457
0.028425
-0.070028
-0.188257
-0.094910
0.213222
-0.417850
-0.050671
-0.113760
-0.231634
-0.011299
-0.035686
-0.043847
0.174449
0.398949
-0.032871
0.188785
0.245156
-0.133416
0.291721
-0.202572
0.053167
0.236703
-0.129494
0.136700
-0.317981
-0.343603
-0.016279
-0.133872
-0.135508
0.014050
0.176465
0.079512
-0.059762
0.044119
0.100531
-0.052954
-0.089238
-0.406587
-0.074184
-0.035534
-0.059891
-0.195674
-0.112623
-0.155624
0.065762
-0.159951
-0.199786
-0.122948
-0.062582
0.193062
-0.025025
-0.141031
0.112865
-0.158989
0.128258
-0.192800
-0.159258
-0.209610
0.101919
0.171222
-0.198868
-0.436815
-0.032908
-0.133787
0.010884
0.174683
0.028948
-0.023608
0.055132
-0.195415
-0.002707
0.151497
0.164223
0.058945
0.141434
0.184962
0.380637
-0.122087
0.008191
-0.184524
0.156626
0.183547
-0.221501
0.076167
-0.234353
-0.001916
-0.370216
-0.381608
-0.273716
0.165337
0.161845
0.060273
-0.086470
0.041060
0.088247
-0.131072
-0.287033
0.102730
-0.538169
0.025419
0.099017
0.156585
-0.005120
-0.228133
0.295553
0.162947
0.004474
0.005996
-0.068047
0.020632
-0.429103
-0.298923
-0.144388
0.051116
0.007789
-0.281283
-0.124424
-0.101468
0.027786
0.232481
0.227235
-0.178331
0.247743
-0.074142
0.197207
0.134368
-0.241220
-0.224778
-0.332671
-0.184004
-0.108178
-0.110656
0.078340
-0.450271
0.093960
0.055935
-0.122042
0.217264
-0.302387
0.117207
0.054961
-0.252109
-0.047309
0.003524
0.094821
-0.080216
0.043067
-0.088806
0.044647
-0.100873
-0.296159
-0.136419
-0.308240
0.001185
0.257533
-0.183110
-0.119006
0.066649
-0.037046
-0.123753
-0.053640
0.036692
-0.340262
-0.137946
-0.298679
0.048867
0.023901
0.024925
-0.139331
-0.137799
-0.025700
0.063701
0.047250
0.151959
0.162370
-0.022398
-0.108436
0.069201
-0.103530
0.101660
0.196345
-0.064702
0.160379
0.006550
-0.179146
0.100457
0.189761
0.085866
0.123713
0.121223
-0.028972
-0.348556
0.080202
-0.092621
-0.286977
0.006097
-0.158835
-0.138241
-0.096572
-0.101477
0.005885
0.034195
0.090944
-0.084980
0.055093
-0.118915
-0.016144
-0.085902
0.443989
-0.145922
-0.081302
0.171373
0.114099
0.060764
-0.217600
-0.019771
-0.241714
0.118563
-0.010328
-0.087976
0.021662
-0.198940
0.031395
0.096057
-0.372549
0.122920
-0.146834
-0.057947
-0.192992
0.024345
-0.104812
0.010150
-0.029650
0.051273
0.027367
-0.054907
0.194826
0.126986
-0.503142
0.184703
-0.316211
0.154272
-0.044065
-0.391402
-0.198710
-0.264755
0.067709
0.020153
-0.091699
-0.040894
-0.204702
-0.537149
0.083601
0.116755
-0.066185
-0.120662
-0.163436
-0.003140
-0.017988
-0.026501
0.102488
-0.079966
0.087318
-0.064449
-0.131442
0.074077
-0.036605
-0.006557
0.025890
0.162914
-0.048150
0.281725
-0.124734
-0.318997
0.145746
0.112776
-0.088967
0.123055
-0.135151
0.093304
-0.069993
0.080721
0.048694
-0.053811
-0.128760
0.325406
-0.001183
-0.310518
-0.321889
0.145735
-0.230041
-0.061416
-0.084120
-0.189232
-0.314860
0.045800
0.191298
0.010913
-0.007083
0.036945
0.082887
0.042940
0.077417
0.151663
-0.107281
-0.106161
-0.022465
0.134446
-0.242290
-0.119422
0.205707
-0.054579
0.116664
-0.126030
-0.222815
-0.197955
-0.528594
-0.115988
0.137231
0.042896
0.031453
0.086954
0.280952
-0.115932
0.341862
-0.327640
-0.245078
-0.062331
0.155741
0.236832
0.066989
0.034110
-0.206108
0.105451
0.224255
0.028592
0.109326
-0.157604
-0.126585
-0.018693
-0.239217
0.031399
-0.131544
0.016124
-0.459750
0.035425
0.203431
-0.344377
-0.006216
-0.012614
0.284110
0.185320
0.176169
-0.073169
-0.178865
-0.024160
0.072180
0.162445
-0.022477
-0.097853
-0.092544
0.382053
0.154807
0.296579
-0.111800
-0.102162
-0.046839
0.094137
-0.305682
0.061619
-0.205442
0.015594
-0.104042
-0.220373
-0.183122
-0.331100
0.017997
-0.041119
-0.196273
0.064828
0.270305
-0.029961
-0.219010
-0.201482
-0.169419
0.041332
-0.330503
-0.000225
-0.061497
0.022407
0.112279
-0.046401
0.148918
-0.128738
-0.116759
-0.077345
-0.050507
0.057716
-0.192567
0.127832
-0.285277
-0.007196
-0.195174
-0.265392
-0.224010
-0.258520
0.017481
-0.220321
0.112356
0.027699
0.060678
-0.183266
0.180611
-0.003679
0.129448
-0.381823
0.050434
-0.144629
-0.272711
-0.249442
0.011107
0.035281
-0.077739
-0.216413
0.199832
-0.162331
-0.112251
-0.306903
0.097222
0.012742
0.255527
0.003350
0.047300
0.134009
-0.004516
-0.235096
0.146516
0.135604
-0.018043
0.113786
-0.024090
-0.090252
0.078691
-0.064452
0.214821
0.076421
0.159133
0.101828
-0.146667
-0.228352
0.090260
-0.077469
-0.087525
-0.008770
-0.189345
0.029423
-0.034503
-0.014382
0.011722
-0.193530
0.229931
0.084797
0.074841
0.002021
-0.131916
-0.257572
-0.195871
0.293999
0.198335
0.157590
-0.011937
-0.013000
-0.351136
0.002052
0.066790
0.058373
-0.057243
-0.101873
0.386009
0.156363
0.145343
0.127795
-0.073219
0.113220
0.184812
0.210750
0.394526
0.204352
0.210411
0.095738
0.046778
-0.047845
0.137886
-0.034613
-0.050766
-0.035092
-0.012483
0.394260
-0.168596
0.115415
-0.097311
0.040582
0.092020
-0.119116
-0.096120
0.074902
-0.002880
-0.013080
-0.297087
-0.035939
0.127307
0.026379
-0.263586
-0.181308
0.080899
0.182163
0.113813
0.000711
-0.056802
0.096912
-0.097238
-0.027302
0.083537
-0.220696
0.209042
0.122238
-0.145236
0.118356
-0.066992
-0.082138
-0.077475
-0.045825
0.057179
-0.124217
0.392568
0.136995
-0.339850
-0.280703
0.208939
0.163625
-0.029199
0.043378
-0.183574
-0.258465
-0.495301
-0.209728
-0.185413
-0.266216
-0.161190
-0.020999
0.191389
-0.012697
-0.044831
0.102185
-0.022541
-0.227542
-0.332001
-0.064396
0.095066
0.190888
0.059449
-0.013812
-0.194970
0.130195
-0.260811
-0.015379
-0.049041
0.143995
-0.177663
-0.126124
0.213995
0.283822
0.033604
-0.036369
0.164513
0.043948
-0.146172
0.129081
0.298930
-0.202004
-0.406683
-0.037114
0.325666
0.146246
0.100216
0.092662
-0.197271
0.212731
0.082342
-0.068255
-0.023806
-0.036961
-0.279247
0.231332
0.321398
-0.108255
0.035536
-0.199025
0.027945
0.175643
-0.006713
0.220406
0.117912
0.303830
0.041224
-0.120226
0.046334
-0.215367
0.068703
-0.227840
0.376290
-0.054497
-0.199675
-0.086601
-0.055771
-0.093864
0.053746
-0.158676
-0.082217
0.076001
0.025741
-0.016472
0.151784
-0.154665
0.179549
-0.047178
0.020901
-0.041956
-0.124466
-0.019309
-0.062020
-0.175538
-0.188621
0.161883
0.184223
0.097344
-0.398821
0.010174
0.085447
-0.064042
-0.024780
-0.061395
0.154133
-0.130429
0.215184
0.196891
-0.122757
-0.169996
0.251294
0.019010
0.203891
-0.107404
-0.083866
0.089282
0.102091
-0.191899
0.072214
0.292895
-0.122293
-0.128296
0.106420
-0.181662
-0.024107
0.007397
-0.007911
-0.036749
0.320042
-0.181431
0.240288
-0.086223
0.173252
0.214316
0.228983
-0.143119
-0.092857
0.018902
0.026197
-0.074704
0.039885
-0.219037
-0.037490
0.001134
-0.054981
-0.092689
0.243336
-0.229515
0.026448
0.061034
-0.011028
0.042169
0.022126
0.129706
-0.049564
0.053397
-0.007087
-0.143221
0.086369
-0.203141
-0.034116
0.192011
0.029006
-0.175547
-0.024799
0.068601
0.192130
-0.000975
0.395881
-0.196329
0.071591
0.064547
0.232504
-0.206408
0.023516
0.073811
0.340244
0.009389
0.055402
0.235534
0.074544
0.216867
0.318949
-0.105076
-0.253867
-0.010061
0.165657
-0.005648
0.057472
0.082153
0.121343
0.321355
-0.191788
-0.297450
0.061560
0.236630
-0.041541
-0.127413
-0.146033
0.135572
0.083573
-0.101723
0.000634
0.106633
-0.026576
-0.138171
0.131260
-0.080125
-0.281906
-0.216125
-0.040859
-0.104213
-0.137376
0.095924
0.006317
-0.296867
-0.190660
-0.114633
-0.014083
-0.015470
0.046589
0.250038
-0.040773
-0.217052
-0.169089
0.001789
0.033416
0.081371
0.001897
0.113543
0.214651
0.063710
0.163560
0.097228
-0.009920
0.011232
-0.070029
0.103085
-0.153494
-0.031105
-0.022583
-0.061934
-0.113916
0.002203
-0.235550
0.095060
0.021004
0.171059
-0.099598
0.198671
-0.076947
0.304674
-0.078899
0.118795
-0.126789
0.028484
0.181728
-0.073907
0.129975
-0.232596
0.001455
-0.255750
0.070807
-0.110746
0.041090
0.211139
-0.147915
0.186823
-0.080848
0.033621
0.125760
-0.089064
-0.063565
0.114329
0.054517
-0.130850
0.088803
0.345016
-0.145593
-0.180305
0.037276
0.006081
-0.018316
-0.088629
0.041438
-0.244373
-0.148660
-0.231289
0.218911
0.081393
