# Shape: (128,)
-0.213094
0.956362
-1.053580
0.487869
-0.412119
0.182300
-0.766402
0.562890
-0.717962
-0.672893
0.383266
0.542324
1.250178
0.822206
0.048188
0.055513
-0.047460
-0.526572
-0.770746
-1.165426
-0.230315
0.205651
0.665082
-0.187541
-0.483520
0.572258
0.609321
0.639227
1.121337
-0.862823
0.096432
-0.447865
-0.856764
0.994340
-0.343105
-0.644911
0.278399
-0.554381
0.814622
-0.219736
0.054351
1.199694
0.123581
-0.287731
-0.228503
-0.513136
-0.068935
0.707390
1.145673
0.281962
0.089416
0.705122
0.898843
-0.138198
-0.269447
1.024802
0.585606
1.163331
-0.351139
0.380683
0.511670
1.345961
0.668887
0.083054
1.048869
0.837566
-0.576503
-0.966864
1.036127
0.452923
0.282817
0.298794
-0.948618
-1.052620
1.448739
-0.522263
-0.385898
-0.720513
-0.085330
-0.151559
-0.544136
-0.299771
-0.188496
0.235651
-0.658932
-0.413918
-0.215539
1.243577
1.185308
-0.329052
0.007309
0.648306
0.414033
0.518259
0.696705
0.280251
-1.316080
-0.270133
0.833509
0.018187
0.998861
-0.344898
-0.199944
0.600163
-0.102213
-0.699787
0.098653
-0.021338
0.866304
0.512450
-0.245166
0.144825
0.098672
-0.621285
0.268143
1.061004
0.560813
-0.365097
0.205186
0.016061
0.406512
1.009833
-0.678484
0.910371
-0.027787
0.693119
1.560845
0.769199
