# Shape: (128,)
0.000634
-0.000412
-0.000611
0.000428
-0.001518
-0.002449
-0.002032
0.000381
0.000428
0.000687
-0.000702
0.000968
0.000806
-0.001602
0.001572
-0.000325
-0.000454
-0.000286
-0.001324
0.001177
0.003007
0.001104
0.000746
-0.000427
0.001002
-0.001295
-0.000033
0.001860
0.001953
0.000563
-0.000340
0.000078
-0.000075
-0.000607
-0.001192
-0.000109
-0.000438
-0.000807
0.000502
-0.000524
-0.000161
-0.002044
-0.000193
0.001258
0.001117
0.001910
0.000280
-0.001232
0.000116
-0.000346
-0.000197
0.000245
-0.000247
0.000458
0.000093
-0.000258
-0.000800
0.000275
-0.000496
0.000213
0.001142
0.000626
0.000046
0.000402
0.001223
-0.000229
0.002368
0.000682
0.000140
-0.000500
0.000356
-0.000395
0.001028
-0.000544
0.000803
-0.002217
-0.001252
-0.000125
-0.000262
-0.001020
-0.001720
0.000857
-0.001128
-0.000412
-0.000432
-0.000119
0.000966
0.000778
-0.000139
0.000108
-0.000096
0.000331
0.001626
0.002481
-0.000489
0.000044
0.000485
0.002402
-0.000344
-0.000482
0.000355
-0.000247
-0.000892
0.000776
-0.000114
0.002084
-0.000265
0.000061
-0.000582
0.000753
0.000057
0.000900
-0.000467
0.000726
0.000320
-0.000788
0.000828
-0.003046
0.001922
-0.000925
0.000543
-0.001304
-0.000410
0.000760
0.000779
0.000446
0.000665
0.000645
