# Shape: (3, 3, 32, 64)
-0.155116
0.134457
-0.005107
0.625222
-0.206596
-0.036598
0.304821
-0.036198
-0.209670
-0.018268
0.200871
-0.261323
-0.007841
-0.013365
0.001435
0.416023
0.055853
-0.148703
0.319214
0.189054
0.261355
-0.131734
-0.319835
0.234448
0.101214
-0.081302
-0.033116
-0.125261
0.145941
0.079947
-0.227419
0.064932
-0.089276
-0.060828
0.066421
-0.064332
0.096329
-0.338894
0.059000
-0.248746
-0.200695
-0.345205
-0.158769
-0.154943
0.295662
0.360183
0.025162
-0.112045
0.220961
0.091960
-0.021237
-0.078351
0.148262
0.064909
0.134446
-0.120244
0.091722
-0.322464
0.035898
-0.173332
0.180997
-0.093232
-0.166979
-0.044128
0.180919
-0.016722
0.035087
0.041035
0.193533
0.173063
-0.054706
0.078474
0.005174
0.092497
0.134217
0.046673
0.125006
-0.223423
0.056114
0.191983
0.069140
-0.225302
-0.081013
-0.071634
0.012737
0.152778
0.117965
-0.657269
0.210138
0.196252
-0.157424
0.059576
-0.116664
0.177888
-0.502479
-0.230426
-0.288555
-0.000747
0.011370
0.086187
-0.055631
-0.242364
0.000375
-0.121600
0.309564
-0.058666
0.014562
0.014779
0.158138
-0.180217
-0.684735
-0.123534
0.029502
0.076308
0.394476
-0.042811
-0.076204
0.220303
0.012627
-0.033970
0.161192
0.093374
0.135933
-0.172077
0.208514
0.097482
0.025133
0.213253
0.190629
-0.146980
0.158291
-0.076183
-0.359771
0.016434
0.057287
0.064342
-0.300275
0.081333
0.012677
-0.039521
0.265157
0.181640
-0.071046
0.253274
0.035604
0.008103
0.231888
-0.327130
0.053261
-0.114941
-0.023254
-0.041617
-0.042913
0.098667
-0.270105
0.315920
0.057284
-0.066086
0.080393
-0.130280
0.034707
-0.141884
-0.020709
-0.043134
0.230609
0.084381
-0.094087
-0.341571
0.167380
-0.156967
-0.116464
0.035332
0.132208
0.084792
-0.125554
0.178958
0.055985
-0.031507
0.182723
-0.050850
-0.054419
-0.094928
-0.100793
-0.265691
-0.056467
-0.034330
0.021846
-0.578454
0.205440
-0.112665
0.041326
0.104668
-0.013050
0.022268
0.143267
-0.160130
0.044614
0.018843
-0.146031
0.036068
-0.309491
-0.070499
-0.060842
-0.116693
0.168298
-0.005222
-0.066597
0.157068
0.109427
0.105388
-0.053072
-0.147817
0.052952
-0.050810
0.263771
0.030105
0.000308
0.184944
-0.140219
0.082042
0.227902
-0.058323
-0.424966
0.123194
-0.174969
0.101249
-0.047570
0.014105
0.181426
-0.183891
-0.273562
-0.283859
0.118381
-0.284026
-0.131979
0.200289
-0.161907
0.037863
-0.028517
-0.439505
0.113916
0.291652
0.340562
0.177141
0.099945
0.124041
0.211923
-0.222730
0.107767
0.114951
-0.106005
0.087935
0.012151
-0.106041
0.143357
0.030617
-0.221663
-0.139622
0.055463
-0.040562
-0.177035
0.044159
0.025045
0.028068
-0.148508
0.045650
0.100852
0.200076
0.105102
-0.452943
-0.090330
-0.103457
-0.062595
-0.108374
0.170644
-0.108282
0.120286
0.236321
-0.015763
-0.055237
0.287425
0.211816
0.165024
-0.059202
0.259942
-0.140173
0.104666
-0.202866
-0.224500
0.043343
-0.095592
0.084802
0.284828
-0.195174
-0.075084
0.116745
-0.196054
-0.325022
-0.234854
-0.221631
-0.431282
0.117208
-0.228876
-0.098980
0.148632
-0.051859
0.100384
0.018355
-0.140660
0.261305
0.094674
-0.230328
-0.029146
-0.237634
-0.095491
-0.500725
0.107444
0.066269
-0.074809
0.223237
-0.076906
0.058566
-0.201110
-0.159345
-0.170284
0.021508
-0.134346
0.086427
0.018671
0.093820
0.167099
0.202478
0.159686
-0.028652
0.055300
0.085224
-0.087173
0.210676
0.068089
-0.133989
-0.290129
0.011282
0.219765
-0.215387
0.137448
0.076156
-0.067823
-0.040155
0.284303
0.139116
0.004592
-0.307577
0.007176
-0.335361
-0.020869
0.106782
0.210455
-0.189155
-0.073782
-0.159706
-0.102705
-0.247445
-0.047916
0.044164
-0.212944
-0.025850
-0.233787
-0.392476
0.187720
-0.228197
0.204868
-0.148970
-0.119280
0.179916
-0.488373
0.112638
-0.156993
-0.043102
-0.001514
-0.339044
-0.026783
-0.233618
0.052823
-0.250006
0.209189
-0.218109
0.103179
0.059911
0.031988
0.070320
-0.080130
0.091353
-0.107826
-0.006475
0.025247
-0.042518
-0.047516
-0.051767
0.097031
0.356444
-0.190422
-0.060471
-0.230341
-0.053969
0.203357
-0.030664
0.149135
-0.209133
0.040547
0.059513
-0.093535
-0.022369
0.174189
0.055035
-0.396535
0.253448
-0.080927
0.126343
-0.080028
0.150235
0.201137
-0.069892
-0.221223
-0.267575
0.057884
0.147150
0.082451
0.267212
0.096088
-0.008414
0.230020
0.008843
0.059469
0.310668
0.303256
0.216125
-0.118401
0.134598
0.375696
-0.079988
0.160779
0.025268
0.056090
0.152710
-0.141772
0.214955
-0.046553
0.152551
0.107395
-0.105013
0.060843
0.023428
0.294191
0.049952
0.085056
-0.046997
-0.191565
-0.158745
0.327651
-0.112291
0.161614
0.040383
0.102910
-0.148138
-0.009428
-0.125450
0.058354
-0.112343
0.101459
0.108255
-0.050659
-0.048980
0.014819
-0.171631
0.172335
0.068142
0.024802
0.057890
-0.329778
0.061675
-0.410193
0.322493
0.173456
-0.068261
-0.141300
0.127671
-0.304826
-0.008853
-0.032884
-0.062768
0.084965
-0.047256
-0.085080
0.081679
-0.008102
-0.341035
0.104241
-0.017212
-0.274380
-0.085778
-0.197557
-0.174421
0.152657
0.192408
0.026004
0.295714
0.067024
-0.013652
-0.149379
-0.149858
-0.046159
-0.042762
0.165288
-0.183687
0.097363
-0.123511
0.416107
0.000223
-0.426175
-0.133203
0.273422
-0.051941
-0.018263
0.188819
-0.055948
0.005315
-0.154744
-0.223654
-0.103816
-0.252469
-0.073086
-0.111553
-0.019648
0.362282
0.009817
0.086332
-0.118323
-0.259086
-0.049912
0.126715
0.001040
0.091199
0.035710
0.069026
-0.002872
-0.050577
-0.296046
0.212750
-0.000956
-0.271459
-0.251046
0.231581
-0.093745
-0.123990
-0.271263
0.077080
-0.113144
-0.150866
-0.164482
0.103145
0.116874
0.061585
0.035132
-0.037556
-0.313061
0.015082
0.137978
-0.359743
0.003466
0.016258
-0.206620
0.150469
0.126776
-0.036757
-0.017665
0.107989
-0.249238
0.110134
0.177156
-0.160120
0.059347
0.221922
-0.043817
0.142921
-0.130967
-0.000827
0.170858
-0.015786
-0.009996
-0.014870
0.180146
0.154924
0.038706
-0.005408
-0.108755
0.059434
0.006551
-0.049297
0.268595
-0.061043
-0.229520
0.030264
0.096263
0.235984
-0.095974
-0.007030
0.076311
-0.021202
0.040398
-0.341630
-0.005443
-0.120348
0.135125
-0.235977
0.176731
-0.002402
0.114705
-0.163787
-0.242179
-0.154682
-0.075965
0.169052
-0.192063
-0.534467
0.320180
0.116515
0.406114
-0.346574
-0.124815
0.022697
-0.029410
-0.184176
0.142724
0.177552
0.140380
-0.341286
0.145566
-0.202283
0.064352
0.123859
0.037816
-0.053399
-0.397644
-0.050521
0.055892
0.182453
-0.091833
0.001461
-0.012225
0.098244
-0.091583
0.136278
-0.227067
0.153774
0.123020
-0.071781
0.224876
-0.052008
0.225052
0.355176
-0.166905
0.407679
-0.092066
0.002804
0.075598
-0.313008
0.118732
-0.243388
-0.073192
-0.134993
-0.001962
-0.033675
-0.065672
0.219799
0.153530
-0.319059
-0.217376
-0.209451
-0.066559
0.064931
0.151769
0.151355
-0.089165
-0.027197
-0.053165
-0.313948
-0.228272
0.092688
0.140481
0.171217
-0.261904
-0.059070
-0.088472
-0.297070
-0.273851
0.045912
0.093954
-0.071884
0.012635
0.065949
0.156618
0.225894
0.133001
0.184543
0.072674
-0.087590
0.149328
-0.136998
0.063200
-0.104572
0.081221
0.032322
-0.259854
0.059715
0.161412
-0.290019
0.242113
0.207707
-0.114258
-0.108961
0.069811
0.041755
0.118249
-0.224712
0.012690
0.026284
-0.148465
0.164068
0.020236
-0.107732
-0.011507
-0.049518
-0.040259
0.050061
-0.146239
0.085747
-0.085912
-0.227122
-0.369222
-0.110480
0.063708
-0.062301
-0.398612
-0.017735
0.156471
-0.223240
-0.214005
0.044812
-0.148114
0.165892
0.270056
-0.233914
0.222418
0.125338
-0.149495
-0.085626
0.255016
-0.064838
0.211793
-0.344855
0.130576
-0.174943
-0.119723
0.154120
0.106497
-0.100274
0.110969
0.237752
0.001257
-0.159809
-0.002508
-0.133051
-0.034741
0.312600
0.042928
-0.141045
0.137713
0.144643
-0.216364
0.041506
0.038092
0.006961
0.260265
-0.020056
0.115073
-0.127109
0.088261
0.306074
-0.364179
0.168233
0.010997
-0.297272
0.173541
0.007953
0.241898
0.091080
-0.140761
-0.285109
0.071209
0.045212
0.133592
0.144737
0.100300
0.052830
0.003794
0.001414
0.255192
-0.025271
0.113599
0.063664
-0.053760
0.067641
0.026973
0.073051
-0.366793
0.002832
-0.201544
0.104317
-0.157409
-0.048468
0.042834
-0.059921
0.100759
-0.040951
-0.047302
0.131878
0.174642
-0.251195
0.145424
0.026588
0.156014
-0.259327
-0.167105
-0.343974
-0.085299
-0.130743
-0.302960
0.083553
0.237469
-0.026964
0.054023
-0.012126
-0.055373
-0.029985
-0.014003
0.093763
0.039599
-0.066446
0.012041
-0.303735
-0.135469
0.053224
0.148688
0.043249
-0.029236
0.022137
-0.063870
-0.292825
-0.180795
0.180384
-0.151124
-0.004013
0.012483
0.050937
0.181403
-0.011201
0.258756
-0.250028
0.073600
-0.245166
0.007838
0.081097
-0.061999
0.131299
-0.417814
0.009760
0.168950
0.097435
-0.257353
-0.124860
-0.138367
-0.195680
-0.169055
-0.096797
-0.154042
-0.032101
-0.141516
-0.015467
0.192821
0.133012
-0.010558
-0.162106
0.236117
0.066827
-0.002857
0.575975
-0.220027
-0.287535
-0.242953
-0.013144
-0.083356
0.000945
0.007477
0.032134
-0.339607
0.130645
-0.120535
-0.292460
-0.195340
-0.251423
-0.151878
-0.159881
-0.016240
0.037971
0.144537
-0.000326
0.104600
0.017352
-0.318007
-0.057131
0.315153
-0.165535
0.141898
-0.166167
-0.032654
-0.043060
-0.156185
0.187357
-0.273626
-0.057415
0.161069
-0.058695
0.058318
-0.040737
-0.312092
-0.093917
0.149004
-0.025173
-0.372113
0.023361
-0.129685
-0.051574
0.043462
-0.050248
-0.065996
0.067181
-0.235054
0.095890
-0.071195
0.185464
-0.000364
-0.034966
-0.163627
-0.190056
0.023981
-0.133195
-0.027162
0.186753
-0.036442
0.295024
-0.240568
-0.211503
-0.113072
-0.082480
0.049444
0.305522
0.090773
-0.163644
-0.086443
0.094681
-0.221491
0.109833
-0.299376
-0.004749
0.067641
-0.241839
0.250736
0.129923
0.171435
0.209521
-0.120425
0.069388
-0.273209
0.187645
0.170188
0.334899
0.112321
-0.207301
-0.077281
-0.449780
0.029057
-0.334155
0.206579
-0.043011
0.081879
-0.081239
-0.088370
-0.041894
-0.078866
-0.026555
-0.103734
-0.048471
-0.053310
0.075825
-0.369707
0.033618
-0.101609
-0.055150
0.062073
0.031724
-0.310887
-0.106133
-0.313066
-0.015178
0.019522
-0.157939
0.054144
-0.009418
-0.040199
0.165569
-0.105654
-0.154296
0.130988
-0.004795
0.151100
-0.201303
-0.059530
0.127970
-0.010164
0.254361
-0.317284
0.048991
-0.045367
0.022938
0.070248
0.014213
-0.212084
0.285274
-0.109191
-0.118692
0.297424
0.067175
0.485951
0.251999
0.069232
0.335224
-0.088341
-0.091895
-0.051516
-0.109470
-0.208006
-0.006359
-0.107431
0.100916
-0.058611
0.112506
-0.234281
-0.144776
0.384631
-0.145070
-0.033699
0.151443
0.079140
0.092242
0.057204
0.000556
0.068335
0.017540
0.024552
0.050564
-0.010860
0.294753
0.449029
0.278686
-0.257871
0.022034
-0.548216
-0.215839
-0.105731
-0.067739
0.015000
0.043677
0.111287
-0.077570
-0.281112
0.309906
0.167994
0.075457
-0.017022
-0.046782
-0.194034
0.425662
-0.304559
0.023494
-0.175394
-0.007292
0.142694
-0.012923
0.000132
-0.149949
-0.003692
0.170613
-0.212291
-0.118719
0.123584
0.080207
0.104541
-0.120386
0.183454
-0.049878
-0.142210
-0.097348
-0.293039
0.050558
-0.101466
-0.046603
0.059814
0.031783
-0.050967
-0.016739
-0.214710
-0.370026
0.108362
-0.171643
-0.075117
-0.158060
0.144932
-0.124181
-0.032865
-0.183620
0.194794
0.000462
0.148694
-0.063785
0.161392
0.037057
0.144922
0.259649
-0.377570
-0.009834
0.103214
-0.190184
-0.009304
-0.058876
0.011336
-0.004581
0.100707
0.079480
-0.262055
0.373208
-0.062697
-0.232772
-0.058592
-0.323621
-0.112329
-0.062528
-0.028089
-0.007985
-0.010468
0.075612
0.278698
-0.022782
-0.172634
0.050597
0.110152
0.000301
0.190769
-0.079392
-0.140702
0.234783
0.036156
0.010519
-0.101396
0.035099
-0.089812
-0.267966
-0.021687
-0.207003
-0.004628
0.057392
-0.314309
-0.103566
-0.072964
-0.217626
0.192318
0.098591
0.060345
-0.072136
0.002633
0.089576
0.074601
0.294099
0.045423
0.110063
-0.128619
-0.011007
0.070388
0.146844
-0.733596
-0.073820
0.059318
0.211289
0.099069
0.064541
0.183765
-0.037409
-0.312636
0.137309
-0.143765
0.204805
0.195195
-0.170342
0.242016
0.402174
0.158959
0.137057
-0.225283
0.036537
-0.094552
0.130265
0.341402
0.149188
-0.520186
0.038753
-0.002719
0.089695
-0.028782
0.118507
0.007283
0.173188
-0.157230
-0.196113
-0.083992
-0.025598
0.093177
0.424968
-0.305842
0.144962
0.156745
-0.143933
-0.057588
-0.050585
-0.115961
-0.054098
0.045313
-0.078796
-0.088667
0.060793
0.171809
-0.451618
-0.048274
-0.181099
0.078626
0.106350
-0.029117
-0.016741
-0.159588
-0.079073
-0.328966
0.080708
-0.009959
0.294982
-0.048155
0.155915
0.004814
-0.042468
-0.199331
0.108888
0.466055
0.101804
-0.043764
0.136954
0.072664
0.264288
-0.139322
0.108833
0.059692
0.041594
0.190399
-0.126101
0.212522
0.091607
-0.240645
-0.117382
-0.009666
-0.038899
-0.552400
-0.107353
0.084439
0.050572
0.141725
0.126601
-0.039688
0.160118
-0.024167
-0.019464
0.139229
-0.003599
0.239566
-0.089228
0.112231
0.121911
0.134579
-0.079846
0.246879
-0.209237
0.093721
-0.174991
0.140108
-0.002757
0.042565
-0.148530
-0.226408
-0.082342
0.250340
0.131027
0.162886
-0.060551
-0.234255
0.071309
0.015308
-0.126800
-0.388666
-0.143178
-0.359960
-0.235719
0.165173
-0.219408
0.158524
0.024592
0.010890
-0.142864
-0.213960
-0.016394
0.098946
0.127819
0.114542
-0.309093
0.010696
-0.162232
-0.162010
0.177080
0.132543
-0.000207
0.087035
-0.113656
-0.523167
0.019048
0.112524
0.082123
-0.177505
-0.049243
-0.009142
-0.046320
0.209023
-0.013318
-0.060978
0.049911
0.096201
0.100284
0.134450
0.233910
0.262939
0.217764
0.118812
0.086553
-0.103399
-0.151774
-0.123790
0.021324
0.216156
-0.140139
0.130720
0.302330
-0.345613
-0.028511
-0.208175
-0.139304
0.013735
0.147393
-0.203562
-0.014001
-0.196173
-0.287429
-0.105109
-0.220741
-0.008725
0.060103
0.109093
-0.130920
-0.214590
-0.319589
0.239817
0.002518
-0.323586
0.186358
0.082531
-0.069825
-0.033956
0.370732
-0.059582
-0.109653
0.297089
-0.083420
-0.179747
0.024479
-0.056026
0.064824
-0.074380
0.106784
-0.179800
-0.138722
0.123887
0.163904
0.112471
0.141883
0.172220
0.062988
-0.272052
0.190073
0.091376
0.220388
0.098846
0.076294
-0.134001
0.027389
0.197878
0.074457
-0.030962
0.215720
-0.301743
0.045177
0.068626
-0.341439
0.066356
-0.258049
-0.201033
-0.084151
0.295768
0.105071
0.302716
0.138494
0.092548
-0.201147
-0.128041
-0.204596
-0.061926
0.043471
-0.057787
0.035207
-0.133558
0.173644
0.092863
0.011802
-0.151392
0.178021
-0.185304
0.191671
-0.141341
-0.118797
0.156651
-0.084241
-0.079122
0.237009
0.107152
0.065045
0.124217
0.108003
-0.049803
0.036016
0.142503
0.284224
-0.085927
-0.260070
0.129768
0.018547
-0.041316
0.077478
0.094554
0.162578
-0.141139
0.070152
-0.037303
0.057482
-0.048510
0.102561
-0.113361
-0.114285
0.127038
-0.045538
0.379660
-0.114908
-0.076968
0.144323
-0.314621
-0.048700
-0.020139
0.037811
-0.177059
-0.272540
0.061739
-0.213966
0.113231
-0.217123
-0.128030
0.143959
0.116908
0.013442
-0.021995
-0.118643
0.003656
0.159647
-0.014293
0.011068
-0.123077
-0.042331
-0.012839
0.014283
-0.080115
-0.147744
0.221897
0.167613
-0.532806
0.089688
-0.067101
-0.177128
0.016318
-0.453954
-0.114048
0.033843
-0.069386
0.121550
-0.284171
-0.001558
0.092885
-0.089245
-0.292192
0.050390
0.212698
0.308104
0.139501
-0.255930
-0.343895
0.156512
-0.278401
0.010434
0.079319
-0.143290
-0.004943
0.075473
-0.284272
-0.166188
0.001019
-0.035891
-0.044572
0.343437
-0.116058
0.123767
-0.206708
0.207283
0.198376
0.208859
-0.029451
0.101809
0.198745
-0.026108
0.063353
-0.262599
0.097640
-0.229133
0.054424
0.149774
0.170427
-0.155150
-0.003758
0.200755
-0.243106
-0.311204
-0.303405
-0.160903
-0.168105
-0.101753
0.208410
-0.067116
0.223901
0.144046
-0.060951
0.035425
0.447044
0.119077
-0.235670
0.216368
-0.007499
0.239902
-0.037472
0.105701
-0.023424
0.317833
-0.139522
-0.066414
-0.016175
0.103728
-0.032942
0.146731
-0.055502
0.145826
-0.005868
0.191034
0.093060
0.116574
-0.284838
-0.270625
0.137216
0.192038
-0.137814
0.058771
0.049675
0.027676
0.337616
0.303840
0.094461
0.280319
-0.175158
-0.111075
0.021803
-0.295364
0.075333
-0.311568
-0.302036
0.055615
0.191666
-0.146247
-0.117676
-0.052949
0.205379
-0.177389
-0.089418
-0.239398
0.151847
0.140818
-0.047158
-0.030949
0.094948
-0.046563
0.059024
0.309462
-0.058721
0.170304
0.065857
0.035799
-0.451489
0.007174
-0.053958
-0.135986
0.118367
0.221426
0.209383
-0.217700
0.009759
0.021360
-0.013784
0.167398
0.032439
0.043875
0.041209
0.018586
-0.005820
-0.114876
0.169682
0.048580
-0.230182
-0.090341
0.078633
-0.138891
-0.192267
0.145081
0.164822
0.195913
0.033655
0.214674
0.120362
-0.031418
0.014970
0.015156
0.007366
0.155566
0.157397
-0.383697
0.134705
-0.003603
-0.121211
-0.169435
0.118005
0.114722
0.204606
0.103552
0.002480
0.191102
0.122271
0.240212
-0.102890
-0.176563
-0.052389
-0.095065
0.113700
-0.172705
0.158899
0.277877
-0.140133
-0.295700
-0.251307
0.135786
-0.204242
-0.208383
-0.081437
0.055809
-0.380179
0.229458
0.171477
0.233511
0.244567
-0.087271
-0.104175
-0.048980
-0.088115
0.051222
0.011924
-0.071728
-0.073277
-0.019867
-0.070299
-0.172753
-0.033627
0.077507
-0.319689
-0.374352
0.023476
-0.232869
-0.176149
0.131669
-0.010312
-0.378064
0.449940
0.018526
0.150262
-0.171055
0.110169
-0.167533
-0.060365
0.059470
0.046702
-0.117928
-0.054408
-0.018167
-0.090235
0.302690
-0.216962
0.017303
0.015949
-0.027920
0.177930
-0.251109
-0.009216
0.020572
0.141302
0.209624
-0.260788
0.394466
-0.114357
-0.066397
-0.470364
-0.183652
-0.246227
0.269550
-0.285272
0.048379
-0.104047
-0.241075
0.210182
0.019106
-0.035788
-0.040231
0.062876
0.004459
-0.038965
0.343637
-0.311001
-0.363085
0.164450
0.204534
0.126071
0.346547
-0.068410
0.083242
-0.017121
-0.084586
-0.023076
0.052588
-0.167460
-0.036193
-0.160448
-0.190462
0.226237
-0.133019
-0.082041
0.327476
0.034726
-0.160289
0.193267
0.068794
-0.042433
0.185381
0.043609
0.200545
0.034222
0.280417
-0.157427
0.072384
0.125853
0.095823
-0.041073
-0.027807
-0.332821
0.102792
-0.120236
-0.201967
-0.165324
-0.229187
0.029717
-0.210234
-0.333921
-0.071801
-0.009951
-0.567683
-0.153740
0.139644
-0.135935
-0.198795
0.029851
-0.432467
0.346970
0.344479
-0.204885
0.027996
0.396761
0.243026
-0.238696
0.130083
-0.030780
0.012969
-0.284707
0.023128
0.214698
0.177010
-0.011195
-0.160412
0.068905
0.090958
0.153541
-0.120385
-0.035750
-0.029158
-0.069614
0.428198
0.053896
0.084174
-0.103121
0.078097
0.251394
0.130011
0.009508
-0.172854
-0.180191
0.065200
-0.033867
-0.068889
-0.293332
-0.017044
0.018226
-0.170317
-0.424338
-0.124557
-0.167666
-0.107100
-0.184665
0.021789
-0.065221
-0.148157
0.217781
-0.024683
0.103630
-0.203128
0.185469
0.029817
0.028050
0.015403
0.016135
0.104675
-0.056375
0.264544
-0.049333
0.044063
-0.204957
0.211163
-0.116701
0.045815
0.007758
0.270822
0.086635
0.056948
-0.238245
-0.105780
0.048499
0.302221
-0.155921
-0.111478
0.421943
0.104431
0.020840
-0.019539
-0.099050
-0.198084
0.041177
0.095401
0.205889
0.280251
-0.034809
0.067266
0.093371
0.224454
0.201736
0.081987
0.178037
-0.003688
-0.066157
0.081094
-0.087397
-0.147720
-0.097074
-0.004723
-0.142254
0.092956
0.375132
-0.259592
-0.018527
-0.001900
-0.039102
0.172964
0.107837
-0.197200
-0.285047
0.120604
-0.020889
0.160923
0.003146
-0.341597
0.031738
-0.128614
0.066664
-0.018732
0.100950
-0.133388
-0.243722
-0.068512
0.242661
0.085469
-0.301453
0.006715
0.111370
0.038612
0.265414
-0.012476
-0.010014
-0.048088
-0.415263
-0.150157
0.196827
0.299809
-0.107901
-0.215497
0.290641
0.033951
0.072106
0.221491
0.073574
-0.340210
0.262036
-0.261774
0.289940
0.071022
-0.129613
-0.176425
-0.271766
0.042122
0.212922
0.126079
0.172310
0.101928
-0.092314
0.041611
-0.128932
-0.088507
-0.010136
-0.038239
-0.178566
-0.006965
0.184165
-0.135243
-0.030151
-0.038791
0.045126
0.042380
-0.051417
-0.035812
-0.109300
-0.086933
-0.497305
-0.025440
0.059602
0.031703
0.172451
-0.077532
0.084753
0.068040
0.244949
-0.274771
-0.080863
-0.114947
-0.038651
0.059553
-0.014929
-0.282734
0.342915
0.149440
0.205836
0.079159
-0.271285
-0.077577
-0.042612
-0.376968
0.199015
-0.058933
0.118529
-0.018645
-0.003683
-0.080033
0.120538
0.134253
-0.068176
0.230307
-0.179977
0.415187
-0.001286
-0.017084
-0.039780
0.038200
0.011712
0.154872
-0.152214
-0.006073
0.006973
0.310440
-0.068550
0.268251
0.071471
0.072345
0.123661
0.090427
0.051701
-0.042489
-0.328948
-0.074269
0.200137
-0.128865
0.056815
-0.119034
-0.016811
0.085999
-0.113717
0.098655
-0.100934
-0.194818
-0.182652
-0.161195
-0.120475
-0.356718
0.095055
-0.071798
-0.388761
-0.304033
-0.093665
-0.102483
0.496803
0.335399
-0.052574
-0.150187
0.061756
0.074367
0.058683
-0.188914
0.214744
0.088446
0.054386
-0.107455
-0.124329
-0.335807
0.379833
-0.344879
0.113842
0.054613
-0.013695
0.039569
-0.001454
0.156367
-0.273128
0.006509
0.140974
-0.221961
0.058890
0.023255
-0.005371
0.007240
-0.183957
0.100454
-0.121425
-0.042434
0.264096
-0.132145
0.145943
-0.059169
0.091437
0.040503
-0.010984
0.136286
-0.076938
-0.276089
0.129415
0.050338
-0.025510
-0.075202
-0.407406
-0.049192
-0.505320
-0.001239
-0.176776
-0.043636
-0.220636
-0.454031
0.004742
-0.341661
-0.129242
-0.178884
0.099354
0.050776
0.089559
-0.072405
0.006859
-0.087066
-0.390922
-0.042648
0.185941
-0.251291
0.199501
0.025406
-0.158419
-0.032727
0.025351
0.075583
0.207646
0.021417
0.187462
-0.212203
0.165593
-0.295440
0.086852
-0.101803
0.132231
-0.050774
0.138366
0.144294
-0.233849
0.045095
0.083902
0.002643
-0.059984
0.221872
-0.494704
-0.048611
0.108365
0.145467
0.058540
0.120749
-0.029391
-0.030925
0.370866
-0.211457
0.005552
-0.046240
-0.538433
0.014616
-0.044972
0.163723
-0.080504
0.035181
-0.081632
-0.011126
0.272942
-0.189315
0.045406
-0.097503
-0.104949
-0.101635
0.305576
-0.127930
0.202232
0.033647
-0.149079
0.195286
-0.110300
-0.060374
0.262143
0.121367
-0.161718
0.319743
-0.057880
-0.078820
0.158387
0.101058
0.028047
0.075018
-0.141165
-0.415977
-0.157085
-0.217872
0.159207
-0.272444
-0.099401
-0.047880
-0.110114
0.122242
-0.179286
-0.010443
0.049022
0.027156
-0.016999
-0.141987
-0.019076
0.008211
-0.213804
-0.123189
-0.053200
0.056524
0.409187
0.168058
0.071493
0.231710
0.100117
0.064733
0.262454
-0.059303
0.023792
0.010725
-0.037150
-0.325698
-0.201651
0.153375
-0.032779
-0.090653
-0.033165
0.023060
-0.252426
0.004933
-0.355051
0.019723
-0.369812
-0.124371
0.253796
-0.293407
-0.099410
-0.086275
0.149910
-0.306585
-0.184339
-0.012540
-0.041343
0.191729
-0.153430
-0.088050
-0.073549
-0.159240
0.159898
-0.005297
0.092283
0.308430
-0.106625
-0.176462
0.079132
0.013240
0.008980
-0.081700
0.145298
-0.493893
0.003515
0.024690
0.010236
-0.106501
-0.102502
0.006982
-0.174581
-0.012803
-0.231354
0.018936
0.006486
-0.060679
0.162573
-0.115989
-0.004267
-0.455363
-0.215236
-0.008542
-0.187694
-0.094177
-0.258482
-0.160662
-0.131849
0.184368
0.208574
-0.254221
0.234215
0.218643
0.203003
0.006850
0.136920
-0.149622
0.005394
-0.186310
-0.299593
-0.223320
-0.314377
-0.052011
0.247835
-0.328286
-0.034863
0.117846
-0.101646
-0.341111
-0.211209
-0.035574
-0.439013
0.113575
0.004721
-0.069276
0.032982
-0.151006
-0.024574
0.046108
-0.203375
0.258119
0.150452
-0.201287
0.041843
-0.040422
-0.243082
-0.476380
0.097779
-0.065708
-0.047650
-0.054342
0.057802
-0.013476
-0.135736
0.064259
-0.299320
-0.178057
0.406915
0.021586
-0.201617
-0.034949
-0.087084
0.180478
0.159304
-0.153572
0.204936
0.169993
-0.016274
0.041887
0.012606
0.070844
-0.082538
0.146535
0.017550
0.045793
0.149950
0.134016
0.010352
0.067256
-0.046011
0.017553
-0.006437
-0.204298
0.153040
-0.299124
-0.251866
-0.197841
0.152036
-0.303058
-0.274185
0.027743
-0.223852
-0.198305
0.081059
0.280098
-0.307196
0.073425
-0.110615
-0.327972
0.274396
-0.146841
0.010836
-0.024006
-0.035550
-0.056720
-0.197154
-0.018430
-0.031272
0.139889
0.263188
-0.396879
0.186256
-0.459205
0.009001
-0.209208
0.069585
-0.373807
-0.493895
0.092580
-0.144099
-0.095236
0.193245
0.124288
-0.013130
-0.150904
0.011158
0.078279
0.188847
-0.131980
0.116873
0.274087
-0.029248
0.063547
0.290945
0.112548
0.184704
0.214997
0.001229
-0.335096
-0.096177
-0.012583
0.049354
-0.054397
-0.132659
0.163526
-0.478816
0.233635
-0.184677
0.062842
0.039859
-0.053222
0.283543
-0.348562
-0.127604
0.062031
0.332896
0.165258
0.091742
0.018913
-0.074942
0.092161
0.009951
0.023932
-0.088172
-0.077287
-0.036252
-0.024968
-0.015090
0.035450
-0.066714
-0.065412
0.055969
-0.019525
0.016862
-0.071357
0.089674
-0.008259
-0.188231
0.143080
0.143498
-0.097443
-0.452491
-0.031478
0.198864
-0.211306
-0.004358
-0.310554
-0.008531
-0.107841
0.135017
-0.057693
0.061175
-0.134750
0.025496
0.144032
0.126066
-0.043760
-0.002473
0.094011
-0.001210
0.143175
-0.102831
-0.231571
0.056961
0.234118
0.320627
-0.016799
0.093934
0.065545
-0.151184
-0.048882
-0.572976
0.260185
-0.189137
0.070859
-0.033404
-0.044690
-0.208642
-0.045790
0.043068
-0.283119
0.107743
0.035242
-0.034705
0.124112
0.058581
-0.118204
0.104680
0.052846
0.033730
-0.169386
-0.262682
-0.306799
0.102851
0.190570
0.015327
0.137824
0.074685
-0.042381
-0.105050
-0.431565
-0.185114
0.088328
0.218641
-0.176107
0.130055
-0.214208
0.104347
0.021520
-0.241023
-0.118243
0.325032
-0.166559
0.096579
0.052835
-0.122624
-0.015841
0.039389
-0.152060
-0.290955
-0.131504
-0.113208
-0.000988
0.236534
0.132233
0.031280
-0.170964
0.199640
-0.552699
-0.103304
-0.135478
-0.073009
0.028047
-0.020994
0.103189
0.086429
-0.096742
-0.279034
0.136535
0.117021
-0.180378
0.124756
0.221056
-0.192820
-0.217210
-0.132270
0.091013
-0.489450
0.070970
-0.129484
0.095638
-0.042156
-0.068150
0.001770
0.207232
-0.057743
-0.069341
0.382557
-0.374054
0.163210
0.070216
-0.515973
-0.130094
0.067775
-0.035831
-0.136446
0.006096
-0.067123
-0.013511
-0.046134
-0.130062
-0.223406
-0.093829
0.110763
0.103226
-0.048089
-0.014370
-0.120594
-0.016634
0.009764
-0.061140
0.147670
0.012197
0.084284
-0.075888
0.250693
-0.073561
0.260070
0.010337
-0.265508
-0.273946
-0.259690
-0.172253
0.025457
0.218750
-0.326326
-0.296937
0.105222
-0.150900
-0.013627
-0.125880
0.037681
-0.457169
0.334597
-0.063028
0.152188
0.241204
0.071084
-0.158792
0.041035
-0.152040
-0.259966
0.212926
-0.250659
-0.275895
0.244193
-0.183676
0.232204
-0.101139
-0.127170
0.345783
0.027999
0.018912
0.160173
0.332090
-0.148393
-0.424250
0.157680
-0.398151
0.038630
0.162638
-0.187424
-0.211092
-0.510171
0.105184
0.018681
0.153632
-0.136990
-0.332639
0.021757
-0.090321
0.135132
0.042702
-0.147818
-0.021625
0.053971
-0.048201
-0.166688
0.086042
0.186901
0.038719
0.334207
0.080898
0.135190
0.143102
-0.000995
-0.006051
-0.165417
-0.133716
0.199997
0.004817
0.512689
0.033402
0.036965
-0.110422
0.107123
0.098556
-0.053793
-0.265548
-0.179890
-0.151947
-0.109212
-0.251747
0.070396
0.093485
-0.149155
-0.031527
-0.026152
0.018872
-0.416037
-0.290442
0.088675
0.029117
-0.051281
-0.434057
-0.226894
0.214024
0.161252
0.003942
0.068360
-0.244819
-0.513109
0.101456
0.213620
0.108782
0.118972
-0.077474
0.253858
-0.314184
0.227994
-0.123372
0.131725
0.051439
-0.144397
-0.041994
0.110164
-0.157740
0.078642
0.237329
-0.096075
-0.019096
0.217660
-0.107249
-0.052667
-0.216111
0.084540
0.060791
-0.185533
0.008952
0.131151
0.119175
0.117723
0.008763
-0.074654
-0.184222
0.042611
0.078167
-0.022439
-0.273550
-0.350355
-0.082291
0.128247
-0.092054
-0.259944
0.042894
0.178696
-0.090357
-0.108520
0.162258
-0.036364
0.068601
0.104867
-0.190228
-0.012876
0.238179
-0.028315
0.039534
0.195427
-0.068457
0.197984
-0.443764
0.127777
-0.183299
0.009170
0.152204
0.214511
-0.280007
-0.000340
0.111179
-0.279627
-0.034602
0.016410
0.177336
-0.102259
0.022217
0.116695
-0.206805
0.280078
-0.032784
-0.356768
0.233244
-0.104969
0.049845
0.080294
-0.262326
-0.017592
0.060358
0.265624
0.289149
0.021613
0.146788
-0.151611
-0.009625
0.106099
-0.012831
-0.240135
0.105857
-0.342105
-0.510390
-0.128483
0.050676
0.069868
0.170061
-0.058284
-0.233298
0.109849
-0.031765
-0.001720
-0.116781
0.035134
0.165543
0.254682
-0.092236
-0.126483
-0.039637
-0.241046
-0.005826
-0.032525
-0.207331
-0.040007
0.034089
-0.018771
-0.171150
0.043407
0.142543
0.039418
0.090614
0.022888
-0.434526
-0.256467
-0.087843
0.196697
-0.617017
-0.352924
-0.515211
-0.206982
0.156918
-0.249627
-0.308437
0.065402
-0.330585
-0.035475
-0.003281
-0.248653
0.152677
-0.126946
0.016469
0.192975
-0.371706
0.116976
-0.143618
0.226423
-0.047307
0.235773
0.050222
-0.272382
0.008435
0.064723
-0.063703
-0.435846
0.125387
-0.283450
-0.242360
0.365716
-0.065844
0.166237
0.091447
0.151321
0.039525
0.394370
0.134021
-0.142907
0.145921
-0.207891
-0.047451
-0.184769
-0.114774
0.057594
0.056455
-0.117916
-0.087006
-0.244594
-0.091155
-0.078702
0.096346
-0.035948
-0.035886
-0.087626
0.110165
0.279422
-0.018017
0.051356
-0.442898
-0.031423
-0.052316
0.035057
0.396350
0.085547
-0.193026
-0.276800
-0.038265
-0.168551
0.144726
-0.065840
0.125126
-0.086673
0.052926
-0.070693
-0.073072
-0.175992
-0.075893
-0.157975
-0.212875
-0.164709
0.090260
-0.231922
-0.111341
-0.070479
0.029633
-0.093075
-0.121829
0.385022
0.106153
-0.065936
-0.228051
0.012713
0.032550
0.191578
0.009024
-0.304494
-0.180675
0.041731
-0.009603
0.230400
-0.099274
-0.298998
0.074657
0.180070
-0.047670
-0.014715
0.214128
-0.052229
0.241846
0.205655
-0.080557
-0.149527
-0.034961
-0.328079
0.127446
0.023740
-0.164140
0.178495
-0.010444
-0.204990
-0.099579
-0.077939
-0.240066
-0.158874
-0.132140
-0.045343
-0.067318
-0.337854
-0.434798
-0.121238
-0.059194
0.117761
0.282873
-0.182106
-0.280995
0.013337
-0.073136
0.057173
0.008914
-0.391564
0.066249
-0.108786
-0.186198
0.110877
0.091223
0.228060
0.131553
0.165290
0.130495
-0.053722
0.056767
0.096497
0.206660
-0.321150
-0.012018
0.037152
-0.467280
0.037685
0.086328
0.125734
-0.148071
-0.150251
0.298859
0.088696
-0.052068
-0.143803
0.011994
-0.143966
-0.286017
0.190202
0.055726
-0.393954
0.062509
-0.162277
-0.093622
-0.098207
-0.141381
-0.147502
-0.022043
-0.325960
-0.212048
-0.059425
-0.042401
0.156610
0.199672
-0.180335
-0.135658
-0.326928
-0.120446
0.097454
-0.176283
0.226197
-0.109929
-0.295484
0.246761
-0.105942
0.221771
-0.432713
0.172455
0.048913
-0.241626
0.228024
0.041132
-0.305289
0.107568
-0.143114
-0.059703
0.061280
0.198855
0.068968
0.121098
0.043114
-0.022065
0.262659
0.063406
-0.149598
-0.218528
-0.406363
-0.173304
0.264114
0.022560
0.168221
-0.026191
-0.282237
-0.267421
0.022098
0.039258
0.035467
-0.019162
-0.192437
0.049256
0.084575
0.001593
0.158818
-0.035491
-0.389918
-0.004789
-0.013008
0.100812
0.015365
-0.215231
-0.118218
0.030495
-0.227294
-0.532500
-0.205991
0.027266
0.017778
0.181691
-0.088934
-0.032399
-0.338402
-0.019792
0.098994
0.137032
0.141593
-0.166253
-0.288011
0.218193
-0.322340
0.068366
-0.033030
-0.001185
0.147549
-0.118756
0.122363
-0.081550
0.130395
0.106128
-0.183369
-0.038131
-0.060316
0.144708
-0.138143
0.013945
-0.013748
0.005320
-0.127400
-0.160468
-0.424410
0.137281
0.056233
-0.019284
0.214855
0.210739
-0.333752
-0.152967
-0.044959
-0.308212
-0.173926
-0.009668
-0.098899
-0.183571
-0.149429
-0.063057
0.055166
-0.143351
0.082579
0.041885
0.001307
0.078082
0.139996
-0.015262
-0.108726
0.107577
-0.009701
-0.063908
0.167763
-0.247221
-0.099745
0.122971
0.051446
-0.015451
0.149442
0.107228
-0.271508
0.292813
-0.076354
0.095882
-0.055374
-0.087972
0.080764
0.013357
-0.021135
-0.096585
0.103078
-0.260908
0.248546
-0.072162
-0.321788
0.084863
0.204994
-0.103650
0.218453
-0.201913
-0.328568
0.247711
0.097289
-0.046333
0.043425
0.138792
-0.250986
-0.023784
-0.052782
-0.033053
0.010306
0.012267
-0.736123
-0.342119
-0.140328
-0.114536
0.021054
0.103379
-0.056891
-0.080413
0.095706
0.040985
0.153022
0.258422
0.020915
0.049932
0.115461
-0.263841
-0.052699
-0.117822
-0.373564
0.082686
-0.030110
0.160081
0.158639
0.100399
-0.033035
-0.023392
-0.247243
0.180313
0.075858
0.250505
0.154775
-0.406293
-0.070274
0.255915
0.117049
0.018986
-0.383844
-0.084381
0.020276
0.237535
0.286757
-0.123615
-0.274488
-0.072838
-0.008443
-0.042094
-0.278008
0.171170
-0.078903
0.135479
-0.123544
-0.119199
-0.178084
0.015634
-0.174672
0.164657
-0.041081
0.040521
-0.052956
-0.134006
-0.190173
0.062417
-0.209068
-0.063724
0.010211
-0.192981
0.025923
-0.194183
0.175321
-0.495592
-0.206618
-0.146068
0.069228
-0.200058
0.174984
0.015774
-0.252360
0.005318
-0.030105
-0.002219
0.108379
0.035917
-0.059086
-0.063438
-0.029654
-0.292521
-0.225716
-0.058671
0.352406
0.212842
0.088668
0.039010
0.234645
0.156948
-0.128276
0.004204
0.123519
0.079315
0.307643
-0.280953
0.344546
0.190709
-0.278386
-0.281543
-0.048704
-0.027194
0.066040
-0.035860
-0.041544
-0.101713
0.131737
0.151359
-0.061319
-0.101122
0.058238
0.136421
0.041973
0.037102
0.026780
-0.200592
0.058293
0.039284
0.015950
0.086565
0.355494
-0.072257
-0.008209
-0.138941
0.196420
-0.166117
0.171121
-0.161294
-0.111292
0.102839
0.081066
0.192500
0.205117
-0.238242
0.029336
0.116963
0.136095
-0.013125
0.026743
0.112271
-0.489212
-0.226776
-0.051895
-0.098418
0.242255
-0.088835
0.137058
-0.051701
-0.140131
-0.142769
-0.068161
0.103704
0.103689
-0.210919
-0.111148
-0.239538
0.011656
-0.264986
-0.008905
-0.036743
0.078307
-0.109450
-0.719732
-0.077107
0.061900
-0.019104
-0.232002
-0.239132
-0.160555
-0.150553
0.176286
0.271349
-0.133642
0.129992
0.044332
0.076454
0.127765
0.225582
0.041449
0.078646
0.064943
0.281520
0.034624
-0.222694
0.000621
0.236789
0.210430
0.137494
0.172866
0.252716
0.154341
0.014762
-0.314792
0.021577
0.057420
0.096703
-0.016397
0.046174
-0.074014
-0.263661
-0.145432
-0.579020
-0.034449
0.185789
0.021038
0.113374
-0.082970
-0.203560
0.133043
-0.150251
-0.135415
0.099888
-0.027105
-0.376137
-0.088665
0.260377
0.069564
0.000380
0.352791
-0.083431
-0.065598
-0.194440
-0.150751
-0.138086
-0.193467
0.011956
-0.220263
0.129998
0.228640
-0.003707
0.082667
-0.189326
-0.017736
-0.120029
0.032165
0.091254
0.114090
-0.076533
0.073162
-0.169795
-0.041627
0.154662
0.196988
-0.161379
0.252412
0.204102
0.084608
0.160952
0.179922
0.042027
-0.311782
-0.034062
-0.217060
-0.122554
0.510032
0.113404
0.050327
0.003675
-0.006801
0.180004
0.120391
0.177264
0.010922
-0.013920
-0.169126
-0.105293
-0.031843
0.183131
-0.028328
-0.027259
0.014514
0.060188
-0.138999
0.067208
-0.052993
0.095995
0.064117
-0.219872
-0.109153
0.089391
0.275978
0.198216
0.095175
-0.061943
-0.159711
0.103642
0.077215
0.176421
-0.195483
-0.295794
0.024612
-0.100645
-0.002851
0.149050
-0.081096
0.134088
0.038116
-0.136322
0.020598
-0.072911
-0.117805
0.285448
-0.139283
-0.041381
0.108120
-0.051781
0.101548
0.010315
0.002725
0.274673
0.241752
0.040061
0.191066
0.277058
-0.125419
-0.322826
0.178863
-0.225586
0.280670
-0.234031
-0.394298
-0.042600
0.038962
0.299455
0.147540
0.008288
-0.320025
0.045918
0.109369
-0.199278
0.162572
0.065547
-0.216916
-0.028899
-0.121297
-0.127945
0.033224
-0.023360
0.039183
0.067020
0.052025
-0.606713
-0.078265
-0.199772
-0.020825
-0.038967
-0.101089
-0.077674
-0.459132
-0.246937
0.202984
-0.270678
-0.295057
0.053266
0.167134
0.101582
0.192480
0.040027
-0.097450
0.177464
-0.084326
-0.030508
-0.040738
-0.261563
-0.039692
-0.087514
-0.176327
0.062626
-0.063305
0.054340
-0.443396
-0.025491
-0.077786
0.022346
0.111786
0.137310
0.160041
0.165713
-0.045100
-0.089341
0.180210
0.064531
0.203915
-0.292145
0.045579
-0.153213
-0.293581
0.080127
0.238701
-0.200690
0.218434
0.180569
-0.016353
-0.335494
-0.140914
-0.022366
-0.456984
-0.114059
0.179285
-0.225917
-0.024495
-0.069801
-0.024433
-0.052847
0.319024
0.017802
-0.149463
0.117440
0.076130
0.328442
-0.162655
-0.015996
-0.071026
-0.081564
-0.195074
-0.096745
-0.059755
0.036653
-0.054592
0.243632
0.020810
0.223731
0.014045
-0.078928
-0.015909
0.080383
0.143989
-0.030799
0.143426
0.239152
-0.070240
0.063193
-0.332593
0.174832
0.052010
0.140315
0.087624
0.102482
-0.134634
0.106428
0.153354
0.099671
-0.084562
-0.388646
0.255864
0.120372
0.397018
-0.168102
-0.152367
-0.316146
0.090215
0.149738
0.004354
-0.417044
-0.244373
-0.078575
-0.006040
-0.109828
0.064313
0.005069
0.212108
0.160209
0.039660
0.167909
-0.259741
0.000392
-0.025964
0.116341
0.094434
-0.177925
-0.103698
0.088761
0.135771
-0.316796
0.113204
0.001339
-0.173959
0.234657
0.036587
0.098552
-0.029125
0.108771
-0.209445
-0.134617
0.271551
-0.071639
-0.002685
-0.001065
-0.163398
-0.052808
0.035444
0.097211
0.300990
0.181315
0.073027
0.086538
0.154099
0.203485
-0.000562
0.142096
0.102021
0.288846
0.127609
-0.144779
0.178625
-0.164627
-0.277783
-0.096021
0.064612
0.167509
0.043001
-0.034292
-0.254570
0.120393
-0.075519
0.296422
0.113872
-0.125687
0.020137
-0.210339
0.131552
-0.234532
0.218914
0.111712
-0.271070
-0.188691
-0.034179
0.210559
0.037524
-0.286601
0.113154
0.109775
-0.362068
0.073973
0.021877
0.132260
0.315335
-0.092215
-0.072779
-0.237420
-0.022436
-0.110923
-0.036627
-0.211559
-0.292116
-0.120157
-0.016742
0.230089
0.154505
-0.222243
-0.179590
-0.083312
0.074064
-0.013814
-0.450466
0.172817
-0.165538
-0.121165
0.240947
-0.155203
0.312912
-0.086136
-0.012543
-0.379729
0.103872
0.218496
-0.173656
0.045432
0.124670
0.140030
-0.323543
0.019235
-0.273153
-0.262782
-0.089222
-0.151761
0.025558
-0.290948
-0.297704
0.038791
0.230384
0.108907
0.020476
0.226799
-0.183238
0.000913
-0.029539
-0.149626
-0.216789
0.026983
-0.030081
0.028237
0.085059
-0.156863
0.192484
-0.036259
0.083613
0.198807
0.005929
-0.002269
0.229926
0.048239
-0.055710
-0.370951
0.035611
0.186590
-0.057831
0.036044
-0.206169
0.056822
-0.256492
-0.173615
-0.130818
-0.184512
-0.310726
0.082924
-0.141965
-0.229381
0.059171
0.053085
0.056489
0.173578
-0.032907
0.009227
0.035016
0.096414
-0.143395
0.251682
0.059441
0.250120
0.059437
-0.353646
-0.172366
0.003558
0.258223
0.105887
0.031930
0.085496
0.022974
0.309811
-0.198171
-0.180247
-0.406740
-0.278006
-0.091228
-0.413202
-0.312298
-0.081744
-0.059970
-0.583187
-0.086385
0.152282
-0.196475
0.075395
-0.124145
-0.263072
-0.114027
-0.124850
-0.369730
-0.037058
0.234496
-0.179257
-0.231379
0.004247
0.037166
0.162115
-0.167717
0.046900
0.102124
-0.370468
-0.010236
-0.121292
-0.145448
-0.259517
0.268250
0.072354
0.035268
-0.091425
-0.046214
0.155669
0.032276
0.078954
-0.107414
0.308781
0.361911
0.001983
0.195092
-0.310862
-0.259131
0.407118
-0.086463
-0.105443
0.278755
0.052566
-0.019384
-0.014135
-0.325075
-0.137674
-0.186805
-0.117727
-0.494121
-0.148970
-0.105568
-0.098331
0.165868
-0.004556
0.010893
-0.188210
0.078015
-0.263860
0.119259
0.087572
-0.053680
0.073682
-0.170831
-0.031852
0.159013
0.165305
-0.138869
0.000735
0.008338
0.022488
0.135624
0.276117
0.115446
0.150443
-0.278331
0.047981
0.200275
0.046480
0.004617
0.005206
-0.100092
0.265397
0.118796
-0.065762
-0.348442
-0.245859
-0.129987
0.073297
0.221932
-0.452708
-0.137941
-0.167493
0.019827
0.212698
-0.207601
0.103105
0.219290
-0.020881
0.341055
-0.192457
0.003702
0.112744
0.127278
-0.283731
0.130165
0.144768
0.034343
-0.089684
-0.187425
-0.020808
0.045190
-0.074118
-0.265834
-0.282982
0.027370
0.019391
-0.017642
0.179204
-0.110815
-0.402014
0.270131
-0.141135
-0.010532
-0.174570
-0.047805
-0.153908
-0.063785
-0.133218
0.157174
0.000576
-0.225867
-0.017050
0.161127
-0.140109
0.305682
0.016143
-0.162061
0.198693
-0.039915
-0.123677
0.132605
0.247354
0.144637
-0.229574
0.147827
-0.131768
0.010673
0.036612
0.214706
-0.399289
0.169958
-0.153517
-0.000053
-0.064839
-0.050471
-0.354513
-0.309720
-0.144353
0.073010
0.033384
0.065842
-0.095395
-0.067889
0.283572
-0.053839
0.023775
-0.083884
-0.071208
-0.003929
-0.010195
0.219897
0.114796
0.059211
0.080832
-0.062984
-0.169437
0.083750
-0.241397
0.197020
-0.234683
-0.528330
-0.147237
0.039640
0.140832
0.309323
-0.107272
-0.353556
0.111033
0.496660
-0.443244
-0.172105
0.184281
-0.165834
-0.008248
0.057737
-0.311514
0.172698
-0.095049
0.114705
0.080774
-0.231215
-0.080833
-0.179428
-0.136076
0.119536
0.120357
0.053343
0.011719
0.029634
-0.578674
0.173319
0.016062
0.042157
0.181456
-0.213814
-0.204817
0.101521
0.008437
-0.308120
-0.168591
0.117475
-0.012595
-0.246393
0.209019
-0.232510
0.590252
-0.106232
-0.002689
-0.071674
0.137043
-0.040358
0.006358
-0.176303
0.211482
-0.079795
-0.180044
0.179448
-0.208043
0.121879
0.089719
0.205551
0.039791
0.137230
0.069871
-0.203923
-0.110373
-0.171706
0.027660
-0.156700
-0.327347
0.069487
-0.292477
-0.374509
-0.255552
0.026786
0.275371
0.275144
0.208217
-0.093493
0.104519
-0.184811
0.108319
0.099483
-0.111992
-0.082220
0.046064
0.265062
-0.193488
-0.100828
-0.190160
0.266941
-0.230550
0.191442
0.039307
-0.110117
0.130667
-0.103597
-0.059525
-0.173781
-0.037817
-0.095925
-0.137061
-0.028925
-0.212097
0.018078
0.128553
-0.146670
0.051613
-0.215611
0.108355
0.173766
-0.149433
0.077865
-0.044014
0.095566
0.147446
0.294767
0.021634
-0.057072
-0.108384
0.037497
-0.183029
0.046475
-0.011953
-0.164400
-0.023970
0.199219
0.080498
0.085551
0.182542
0.108725
-0.255536
0.102841
-0.063602
-0.054969
-0.087971
0.002951
0.072187
0.203623
-0.081850
-0.092237
0.069299
0.125708
0.316819
-0.180304
0.103149
0.097996
-0.021383
0.004556
-0.213038
0.096638
0.104874
0.000644
-0.175903
-0.111710
0.090043
-0.043679
-0.153667
0.145207
-0.245953
0.188031
-0.042006
0.217527
-0.022133
-0.026145
0.233843
-0.186444
0.025595
0.075040
0.121177
-0.274746
-0.105720
-0.089439
0.144817
0.010335
-0.097315
0.229884
-0.071927
0.312141
-0.113437
-0.053037
0.076719
-0.446421
0.061527
-0.035238
0.073534
-0.176869
-0.054498
0.050786
0.006436
0.137697
-0.154050
0.142423
-0.266761
0.046366
-0.217687
-0.000414
-0.140069
0.059844
-0.010942
-0.231802
0.216369
0.073940
-0.028960
0.312433
-0.017883
0.277326
0.196200
-0.105146
0.216411
0.108521
-0.052748
0.040544
0.108248
-0.127025
-0.501630
-0.244087
-0.233313
0.291916
0.005989
-0.200076
0.204644
-0.007089
-0.133762
-0.003088
-0.057600
-0.099233
0.181719
0.163376
0.274716
0.136146
0.033947
-0.118383
-0.111867
-0.251553
0.082164
0.066970
0.282128
0.024660
0.102239
-0.082234
-0.022779
0.335205
-0.042761
0.035221
0.039960
-0.132034
-0.132554
0.047279
-0.159766
0.250151
0.170334
-0.189318
0.097196
-0.193116
-0.159775
0.095548
-0.007602
-0.329098
-0.241750
-0.174941
-0.270498
0.108117
0.114382
0.141158
0.101753
-0.065609
-0.112664
0.250956
-0.078222
0.010208
0.240378
-0.391812
-0.149057
0.085916
-0.141733
-0.203974
0.052513
-0.186980
0.012658
0.178855
-0.081469
0.005647
0.211750
0.164515
-0.145124
-0.120943
-0.164016
0.057609
-0.284207
0.016945
-0.167936
-0.215264
0.037214
-0.153664
-0.061179
0.292009
0.069194
0.019864
-0.088966
-0.141156
-0.302784
-0.322547
-0.062284
-0.232402
0.137078
-0.100850
-0.144111
-0.299340
0.189531
0.030422
-0.317623
0.199328
0.190322
0.139039
0.033832
0.069216
-0.060396
0.154886
-0.119816
-0.164105
-0.313572
-0.265559
0.021861
0.159314
-0.188905
0.187540
0.119118
-0.070438
-0.155450
0.314885
0.057700
-0.459008
0.216100
0.065683
-0.126736
-0.107523
-0.203947
0.146965
0.086034
-0.200923
0.106333
0.341410
-0.325216
0.087271
-0.072647
-0.317069
-0.382541
0.025253
-0.008708
0.000627
-0.071952
0.197330
-0.093130
-0.150407
0.170597
-0.272326
-0.232019
0.271295
-0.074468
-0.005234
0.128499
-0.430941
0.099591
-0.017093
0.005770
0.078782
0.085825
-0.061043
-0.044381
-0.049023
-0.010963
0.029080
-0.082694
-0.327892
-0.035088
-0.018467
-0.011654
0.189783
0.151425
-0.195693
0.009434
0.023576
0.003033
0.263150
-0.080194
-0.195040
-0.010976
0.106964
-0.042141
-0.096731
0.118973
-0.360348
0.011799
0.347901
0.143391
-0.102684
0.179274
-0.020777
-0.165984
0.089323
0.078769
0.075132
-0.036657
-0.180544
-0.193038
0.050706
-0.066653
-0.155350
0.133429
0.144176
-0.149510
0.160454
-0.044269
-0.184041
-0.116231
0.052341
-0.240127
-0.367545
0.201975
-0.197478
0.216587
0.099898
0.036729
-0.034921
0.045756
-0.155332
0.053061
0.204846
0.074101
0.120531
0.034696
-0.103737
-0.289433
0.399508
0.067140
0.035083
0.109536
0.060323
-0.168355
0.137681
-0.219820
0.069016
0.086237
-0.105680
0.036221
-0.167389
0.060275
0.235277
-0.144584
0.008604
-0.000225
0.034754
-0.162000
-0.083641
0.062683
0.183876
0.126250
0.038505
-0.161902
-0.035186
-0.009889
-0.108903
0.263821
-0.390008
0.242031
-0.022554
-0.080286
-0.126805
-0.084551
0.162553
-0.130755
0.061923
-0.161526
0.194744
-0.119949
0.197113
0.082476
-0.392778
0.265223
0.084489
0.041196
-0.396779
-0.073624
0.059885
-0.031848
-0.177078
-0.442771
-0.115164
-0.128397
0.022756
0.059209
0.117571
-0.155141
-0.114220
0.003904
0.021215
-0.054661
-0.003140
0.124318
-0.038588
0.034049
0.004936
-0.301514
0.269246
0.274743
0.507146
0.229012
-0.161674
0.081566
-0.119471
0.055414
-0.290188
0.173434
-0.227142
0.090781
-0.021704
0.001289
0.173412
0.134393
-0.031609
-0.059378
0.082045
0.222925
0.118083
0.213603
0.198351
0.027282
-0.207376
-0.014401
0.062105
-0.056972
-0.357453
-0.238826
-0.145847
0.077131
0.095533
0.163371
-0.060121
-0.068415
-0.058107
-0.142856
-0.191764
0.125350
0.195698
-0.247770
0.177630
0.062131
0.125451
0.070321
-0.196568
-0.116285
0.184942
-0.059102
0.292523
0.168469
-0.153290
-0.202068
-0.103721
-0.043560
-0.379129
-0.114455
-0.037889
-0.046001
0.094086
0.086089
0.116012
-0.098869
0.304731
-0.232058
-0.057169
-0.076643
-0.055888
0.048524
-0.199151
-0.203709
-0.018387
0.227827
-0.194257
0.139121
0.181736
-0.144382
0.271047
0.201326
-0.046457
-0.124310
0.183052
0.034513
-0.133439
0.214327
0.121797
0.031301
-0.138750
0.179417
-0.178758
0.432481
-0.034617
0.084202
0.345224
-0.462042
0.145298
-0.084465
-0.344158
-0.048250
-0.162592
-0.005287
-0.204924
0.122689
0.037780
0.106136
0.087412
-0.040289
-0.051739
0.161490
-0.359774
0.076103
0.101999
0.201375
-0.050703
0.115856
-0.058640
0.053725
-0.069706
-0.141429
0.109190
-0.035619
0.300916
-0.179657
0.054878
-0.136087
-0.302872
-0.185141
-0.220042
0.024453
0.073764
0.110127
0.049236
-0.053585
-0.209819
0.010825
-0.117499
0.081075
0.037777
-0.199553
-0.005938
0.186054
0.177354
-0.107153
0.002382
-0.092327
0.236290
-0.026107
-0.115608
0.348396
-0.001706
0.100187
-0.074719
0.015147
0.119392
-0.016556
-0.086111
0.296806
0.216155
0.059232
0.087519
0.000620
0.027958
-0.295301
0.006248
-0.083970
-0.084833
-0.089662
0.198061
-0.221204
-0.654059
0.191005
0.140403
-0.335957
-0.171344
-0.298598
-0.268597
-0.523685
0.340212
-0.044886
-0.143726
-0.153747
0.106642
0.004986
-0.050531
0.184429
-0.047807
-0.112355
-0.073745
-0.055668
0.112839
0.065844
0.094791
0.058059
-0.113973
0.052858
0.115921
0.218467
0.177088
0.070857
-0.021903
-0.101307
-0.232889
0.237289
0.159560
-0.179802
-0.011150
-0.045777
-0.156136
-0.106658
0.175355
0.101164
0.118731
0.113660
0.074095
-0.157881
0.105850
-0.101165
0.228544
0.015912
0.010907
-0.225501
0.113616
0.148098
0.181048
0.132840
0.039150
-0.174494
-0.351030
0.013638
-0.072389
-0.153815
0.010416
0.141702
0.094814
-0.166621
0.122654
0.138477
0.347972
-0.055272
0.080674
0.038904
0.031103
-0.085994
-0.058640
0.073535
-0.036685
-0.026148
-0.114649
-0.230060
0.126154
-0.154514
0.085687
-0.009935
0.146349
0.030563
0.273829
0.112386
0.249093
0.083506
-0.193235
-0.032393
-0.075803
0.060364
0.035846
-0.231366
-0.255113
0.186751
0.032135
-0.031331
-0.063711
0.148794
0.065090
0.134411
0.216437
0.085790
0.019785
-0.129635
0.106735
0.115261
-0.278879
0.204183
-0.102824
-0.004762
-0.004887
-0.053836
0.365041
-0.192038
-0.030768
-0.136152
0.083034
0.217297
0.230555
-0.151092
-0.208747
0.016808
-0.211689
-0.097342
0.090389
0.186064
-0.146056
-0.342405
-0.000529
-0.414938
-0.070396
0.056226
0.029764
-0.025488
-0.382673
-0.086986
0.039013
-0.122314
0.200224
-0.028201
0.048067
0.103098
0.142428
0.079784
-0.247033
0.036893
-0.132824
-0.252282
-0.462129
-0.138542
-0.201693
-0.143768
0.089613
0.074252
0.108977
0.104041
-0.018962
-0.350332
0.396069
0.080722
0.093120
-0.020121
-0.114399
0.102804
0.383488
-0.087342
0.263415
0.138152
-0.003753
-0.028417
-0.039986
0.241981
-0.035721
0.074657
0.115461
-0.012014
0.040029
0.190937
0.018655
0.059107
-0.066822
-0.098585
-0.250782
0.129415
0.265597
-0.660426
-0.005366
0.052122
-0.325489
0.275168
-0.194727
-0.225189
-0.017404
-0.456477
-0.194346
0.013435
-0.280920
0.353629
-0.212230
-0.227019
0.079490
-0.346490
0.423129
-0.244031
0.158891
-0.091828
0.091232
0.003234
-0.170279
0.078390
0.194374
0.062080
-0.655389
-0.017133
-0.200734
0.061793
0.029891
-0.086816
0.147985
0.254015
0.218189
0.041583
0.140197
0.009731
-0.027579
0.103390
-0.066607
0.026843
-0.054624
-0.129281
-0.018063
0.078823
0.261939
-0.041849
-0.065803
0.121632
-0.003312
0.067750
-0.071226
-0.020419
0.211216
0.160990
-0.085300
0.005506
0.086617
-0.118253
-0.147011
-0.123417
0.226315
0.246300
0.233578
-0.013188
0.037467
-0.048098
0.091653
0.101268
0.057513
0.139574
-0.018910
-0.246986
-0.087153
0.264855
-0.070371
-0.198666
-0.235918
-0.204575
-0.185534
-0.005135
-0.009558
-0.009175
-0.198159
-0.051271
0.220721
-0.108112
0.363070
0.062611
0.033158
0.080728
-0.062606
-0.024009
0.185618
-0.025672
0.045205
-0.100597
-0.025125
0.020027
0.236023
-0.003927
-0.215748
0.024205
0.133809
0.049366
0.251410
0.061881
-0.080207
0.315908
0.297023
-0.027052
-0.260721
-0.113309
-0.055213
0.081507
-0.009963
-0.260410
0.290996
-0.100604
-0.043194
-0.001831
-0.068917
0.040372
-0.196095
0.044820
0.122716
-0.318078
-0.116791
-0.189980
0.048566
-0.100091
0.155732
-0.243689
-0.041217
-0.440433
-0.049841
-0.248000
0.337932
-0.104998
-0.146414
0.148399
-0.038443
0.044849
-0.013081
-0.015566
0.004290
0.021117
0.056463
-0.098530
-0.134024
-0.147194
0.108835
0.048806
-0.130309
0.054335
0.029873
-0.081424
0.003193
0.204704
0.005347
0.085924
-0.061497
0.359630
0.357668
0.388368
-0.008347
0.117718
-0.085343
-0.331678
0.326494
0.000372
-0.091877
0.055915
-0.044572
0.175179
-0.075790
-0.008086
0.042057
0.099599
-0.159797
0.014467
0.101200
0.117737
0.124175
0.213383
-0.303242
-0.132099
-0.204488
-0.033585
0.018093
-0.233118
0.418920
-0.148068
-0.301627
0.197636
0.151153
-0.008529
-0.229421
0.069715
0.072988
-0.365606
0.259989
0.011778
-0.134020
-0.147682
-0.152809
0.182161
-0.380115
0.140369
0.184968
-0.164510
0.025713
-0.012973
0.224895
0.100975
-0.384274
-0.115580
-0.228677
0.208171
0.382593
0.118876
0.154327
-0.024212
0.082883
-0.140060
-0.148012
0.275621
-0.011388
-0.337709
0.071170
0.041629
-0.065253
0.014640
0.041618
0.063651
-0.302122
0.006702
0.023320
-0.159380
-0.166930
-0.060444
0.077176
0.099369
-0.081006
-0.324617
0.057081
-0.152051
0.000151
0.275197
-0.210906
0.078936
-0.206135
-0.261035
0.130081
0.044837
0.062519
0.017502
-0.337618
0.072356
0.097558
0.167159
-0.163767
-0.126115
0.271036
-0.256852
0.127793
0.065464
0.068634
0.096687
0.075680
0.060758
-0.249954
0.043805
-0.098233
0.176392
-0.130763
0.096485
-0.065877
-0.200356
-0.269788
-0.007798
0.243377
0.281039
0.159890
0.154004
-0.234978
0.054866
0.242917
-0.365629
-0.139403
0.045010
-0.219414
-0.019314
0.116957
0.033790
0.002650
0.090563
0.039356
0.144489
0.133351
0.141856
0.015687
-0.034134
0.020666
0.167849
0.007574
-0.060593
-0.021822
-0.082396
-0.033161
-0.058908
-0.041911
0.025426
0.363835
0.016689
-0.155622
0.347850
-0.379896
0.150343
-0.205682
-0.060834
0.131927
0.115755
-0.003188
-0.288913
-0.091477
-0.590620
0.074725
-0.096340
-0.061549
0.209034
-0.004968
-0.032161
0.116494
-0.088801
-0.354778
0.232214
0.004117
-0.061669
0.080939
-0.079614
-0.259330
-0.152486
-0.139457
-0.030206
-0.546844
-0.044276
-0.346944
-0.128173
-0.200969
-0.050529
0.098823
0.053720
0.012271
-0.229974
0.128482
0.002674
0.164932
0.147019
-0.126602
0.059745
-0.006830
-0.263599
0.005653
0.178078
-0.079111
0.257993
-0.041067
0.182424
0.195674
0.294876
0.047949
-0.013926
-0.159028
0.256982
-0.011322
0.075781
0.036657
-0.027463
-0.393164
0.038718
0.329816
-0.127678
-0.458892
-0.292653
-0.012821
0.132938
0.120235
0.074711
0.178195
0.009822
-0.028985
-0.093793
-0.120848
0.125941
-0.108625
0.284743
-0.074651
-0.274538
-0.244028
-0.228829
-0.359456
0.007342
0.128523
-0.081785
0.055160
-0.112812
-0.255702
-0.056711
-0.189291
-0.219095
0.091540
-0.050352
-0.118132
-0.013610
0.198163
-0.259197
-0.209778
-0.093300
0.018796
-0.148693
0.155327
0.092037
-0.180785
-0.068795
-0.004579
0.063852
0.131708
-0.037136
0.071201
-0.346676
-0.256249
0.140898
-0.279186
-0.018507
0.231135
-0.008375
0.336245
0.177783
0.170552
-0.079366
0.019532
0.120525
-0.039520
0.076833
0.021538
-0.122607
0.276599
0.320888
-0.144404
-0.218850
0.049735
-0.027324
0.225540
-0.057646
0.017984
0.018375
0.018242
0.164308
-0.090362
-0.351026
0.005857
0.283466
0.042677
0.051260
0.079482
-0.084212
-0.081415
-0.009627
0.140727
-0.150546
0.384438
-0.039202
0.032936
-0.005103
0.018619
-0.219146
0.097326
0.039254
-0.045330
-0.056724
0.098242
0.293609
0.182978
-0.182157
0.148487
0.136484
-0.073543
-0.085180
0.363408
0.027099
-0.377649
-0.103485
0.049714
-0.074301
0.082453
-0.166659
0.224126
-0.038425
-0.101639
-0.303361
0.149035
-0.137498
-0.031599
-0.207384
-0.071969
-0.052526
0.017853
-0.125052
-0.069068
-0.274405
0.080070
0.027854
-0.703012
0.202678
0.153651
0.022194
-0.116007
-0.192170
-0.170079
-0.299534
-0.358688
0.409090
0.071628
0.117562
0.075452
0.239531
-0.116335
0.096843
-0.047465
-0.023298
-0.118451
0.157483
0.159005
-0.192603
-0.044519
0.179779
0.154282
0.464908
0.146469
0.283975
0.201649
0.015305
-0.119784
0.236543
0.068621
0.298734
-0.159255
0.033552
-0.026130
-0.105418
0.072554
-0.200917
-0.206072
0.126972
0.104936
0.128345
0.075892
0.050722
0.068278
-0.272596
0.061436
-0.159221
0.061224
-0.371928
0.185697
0.191458
-0.121600
0.008748
0.248840
0.048146
0.139167
-0.078117
-0.171714
-0.165196
-0.052841
-0.073676
-0.041544
0.236091
0.286612
-0.166142
-0.064601
-0.187621
-0.288620
-0.434364
0.001185
0.024067
0.209058
-0.090909
0.037181
-0.026865
0.111258
-0.051411
0.104071
-0.131415
-0.055876
0.053647
0.279145
0.104361
0.233922
0.090633
-0.499376
-0.046682
0.050815
-0.001832
-0.169263
0.008385
-0.153319
0.055483
-0.076206
0.235529
0.187275
0.221110
-0.024638
0.071035
0.189282
0.032852
0.168529
0.034650
-0.062234
-0.064718
0.136839
-0.034283
0.041907
0.085937
0.149381
0.059929
-0.039275
-0.140824
0.060994
0.021800
0.089927
0.213527
0.061645
0.131083
-0.477086
0.126654
0.082910
-0.025468
-0.010467
0.070169
0.110382
-0.137912
-0.043157
-0.123536
-0.102446
0.073153
-0.111427
-0.351776
-0.028343
-0.065081
0.011345
0.053424
-0.103320
0.198829
-0.144726
-0.045753
0.066000
-0.017496
0.074144
0.135783
0.247215
-0.026672
0.056172
0.159719
0.119940
0.086392
0.240722
0.103269
0.117843
-0.135721
-0.251271
0.077338
-0.024591
0.315103
0.250531
0.101677
-0.168388
-0.057330
0.173825
-0.204126
0.081053
0.173425
-0.165075
0.066804
0.043547
-0.101530
-0.133112
0.014806
0.191293
0.069796
-0.188005
-0.088609
0.174616
-0.107575
-0.049710
0.206144
-0.025153
-0.220967
-0.440952
-0.040370
0.156684
-0.265794
-0.416532
0.153318
0.409404
-0.071284
0.113674
-0.004437
0.055576
0.238692
0.034175
-0.110629
-0.003094
-0.090045
0.039152
-0.194235
-0.177930
0.282671
-0.183956
-0.002598
-0.342058
-0.196071
0.045699
0.027460
0.188478
-0.042831
0.221553
0.090946
0.140691
0.061048
0.048893
-0.072627
0.105617
-0.203361
-0.070296
-0.059810
-0.213960
0.222275
0.166794
0.065857
0.407674
0.275083
-0.089891
-0.312737
0.221876
0.204899
-0.395973
-0.095236
0.030068
-0.045411
0.009829
-0.044800
0.092090
-0.087120
0.275106
-0.096356
0.113982
-0.009185
0.132855
0.063726
-0.093057
0.047725
-0.189455
0.073875
-0.314352
0.028619
0.089343
-0.068396
-0.110278
0.079471
0.143355
-0.307508
0.024684
-0.198784
-0.112438
-0.288259
-0.004535
0.134146
0.052829
0.102721
-0.124167
-0.075529
-0.255256
0.067248
-0.178618
-0.050702
0.047542
0.142147
-0.076693
0.071691
0.048297
0.161614
-0.224439
0.018674
0.121075
0.151146
0.186893
0.009156
-0.023210
-0.279468
-0.235414
0.400132
0.187491
-0.025832
-0.291332
-0.012852
-0.138760
-0.073505
-0.144352
0.152781
-0.021244
-0.012939
-0.023186
-0.108338
-0.098353
0.033799
0.135420
0.036555
0.014369
0.199322
0.231935
-0.101586
0.126730
0.093902
0.073068
-0.044691
-0.013416
0.105817
-0.001221
0.175989
-0.011818
0.145892
-0.231929
0.209255
0.075410
-0.277517
0.140118
0.163132
-0.275241
0.034455
-0.098090
0.016526
0.108173
-0.113590
0.068469
0.193989
0.122589
0.068917
-0.076214
0.081227
0.076017
0.143248
0.205051
0.028301
0.060770
-0.240992
-0.140353
-0.054911
-0.057974
0.096109
-0.215137
-0.023503
0.007485
0.252025
0.097984
0.260654
0.255954
-0.049145
-0.051357
0.032754
0.052037
-0.040161
0.063060
0.207909
-0.270126
-0.182864
-0.045828
0.413729
0.036624
-0.311022
0.191544
-0.083906
-0.279536
0.011180
-0.022333
0.121459
0.231804
-0.054618
-0.040808
0.126170
-0.134990
-0.127203
-0.068414
-0.015690
-0.084855
-0.020919
0.066778
-0.117768
0.143312
-0.235525
-0.083533
-0.200193
-0.025477
0.100292
-0.086462
-0.068636
-0.215098
-0.214814
0.027701
-0.178372
0.172551
-0.129582
0.008889
-0.055654
0.085836
-0.106680
-0.207553
0.045036
0.147053
0.071840
-0.056554
-0.082909
-0.019884
-0.123186
-0.066667
-0.135356
0.216376
0.009961
-0.226089
0.075617
-0.159269
-0.152918
0.166814
0.270126
-0.164535
0.008506
0.223949
0.102344
-0.138745
-0.022306
0.168235
0.047826
0.038104
-0.039316
-0.107466
-0.117472
-0.064584
0.156846
-0.051692
0.222289
0.192645
-0.061425
-0.203094
0.024199
-0.157108
-0.233767
0.129726
0.075914
-0.170436
-0.087462
-0.232040
-0.066526
-0.012550
0.145922
-0.091393
0.020907
0.046531
-0.036259
-0.082535
0.426978
0.223581
-0.004367
0.046060
0.195110
-0.191861
-0.059546
0.017261
0.024464
-0.020054
0.045608
0.138556
-0.384820
-0.188482
0.035355
0.376396
0.453592
-0.149011
0.168019
0.390192
0.231070
0.015155
-0.119149
-0.202961
-0.080797
-0.012304
-0.026207
0.031697
-0.041114
-0.086936
-0.156947
-0.043489
0.031015
0.175145
0.107961
0.021305
-0.001835
-0.263805
0.089350
-0.061783
-0.001613
0.176710
-0.351193
0.100692
0.095441
0.080629
0.166399
0.014855
0.093477
0.078587
0.104597
-0.113467
-0.064902
-0.079019
0.136693
0.165574
0.028201
-0.132749
-0.243300
-0.098721
0.077242
-0.110396
0.124393
-0.035507
0.097047
0.070687
-0.163341
0.203975
-0.100686
-0.261010
0.198981
-0.196096
-0.167367
0.243805
0.136209
-0.217856
-0.054793
-0.348240
-0.276456
-0.358461
-0.210814
-0.145431
0.038326
0.004221
-0.096647
-0.052135
-0.085833
-0.044138
-0.291535
0.126487
-0.216680
0.064696
0.120397
-0.134247
0.204812
-0.022468
-0.123041
0.105067
0.163955
-0.171160
0.141941
0.172601
0.283427
-0.044590
0.317266
-0.049878
-0.113443
0.006456
0.164698
-0.081942
0.035046
0.136767
-0.005742
-0.270833
0.075139
0.240713
-0.118677
-0.088643
-0.026688
-0.137538
-0.054785
-0.014069
-0.195709
0.005259
-0.257994
-0.129081
0.199254
-0.266654
0.096236
-0.084960
0.142488
0.248646
-0.222792
0.141917
0.020264
0.282562
-0.335357
0.276230
-0.010881
-0.129514
0.020429
0.037652
-0.109047
0.021968
-0.103492
-0.072480
-0.039732
0.117177
-0.053846
0.092971
0.307906
0.105427
-0.526996
-0.020760
-0.189505
0.082031
0.008876
0.122491
0.099905
0.042313
-0.227736
0.000481
-0.050467
0.305538
0.199959
-0.154058
0.029223
0.249818
0.009446
-0.198121
0.060193
0.021152
0.202037
-0.031631
0.086616
-0.091353
-0.015728
-0.155133
-0.043343
0.058071
0.076262
0.232772
-0.287570
0.126851
0.003590
0.031908
0.005439
-0.099023
-0.203462
-0.075536
-0.343346
-0.159152
0.114575
0.043404
-0.046918
-0.095989
0.347935
-0.107422
-0.030855
0.097930
-0.022598
0.034939
-0.152560
-0.125379
0.025007
-0.025392
-0.079535
0.142092
0.231627
-0.126993
-0.117800
0.181132
-0.023088
-0.286544
-0.134472
0.175303
0.103547
0.317093
-0.185908
0.002625
0.053054
0.374377
-0.130630
-0.081420
0.135139
-0.239095
0.064654
0.040653
-0.162711
-0.171578
-0.138384
0.136050
0.014145
-0.263481
-0.136766
-0.084243
0.023069
0.026561
0.061539
-0.130104
0.090572
0.172066
-0.410728
0.104303
-0.122236
-0.148998
0.065450
-0.093397
0.575138
0.029586
-0.120497
0.225876
-0.014445
-0.094332
0.064650
0.224631
-0.199007
-0.059743
-0.535783
-0.021856
0.308611
-0.186341
-0.093962
0.098188
0.241604
0.112354
0.004316
-0.066956
0.130665
0.157608
-0.465391
-0.127598
-0.321374
0.039262
0.141243
-0.077019
-0.266124
0.306410
-0.041499
0.054162
0.094969
0.074974
-0.031847
0.004715
0.089583
-0.161252
-0.164812
-0.150024
-0.241501
0.221654
-0.016288
0.108923
-0.067876
0.114435
-0.123419
-0.085190
0.008247
0.309218
-0.044972
-0.038960
0.038510
0.058257
-0.168423
0.314910
0.100089
0.197439
-0.117919
0.048452
-0.101367
0.027108
0.151823
0.110811
-0.046550
0.153730
0.141406
0.013639
0.014310
-0.060535
0.002247
0.395641
0.086141
0.064422
-0.177056
0.291553
0.191505
0.008611
-0.592459
-0.205428
0.194216
-0.263289
0.254363
0.198903
-0.394855
0.083978
0.383285
0.052396
0.054709
0.177347
0.038493
-0.114739
0.049017
-0.321917
-0.016034
-0.045387
-0.136151
-0.573396
-0.040674
-0.346546
-0.359441
0.012519
-0.058711
-0.232753
0.059883
-0.090810
-0.594358
-0.488260
-0.381875
0.106842
-0.138532
0.255052
-0.593384
-0.201179
-0.001139
0.259053
-0.131407
-0.011839
-0.301667
0.100366
0.194943
-0.012290
0.056856
-0.141107
-0.195205
0.073247
-0.107875
0.112853
-0.163822
-0.440409
0.078087
0.098232
0.049016
-0.265198
-0.010720
0.105459
-0.237735
-0.011124
-0.206985
-0.161829
0.217717
0.337210
0.132091
-0.050034
0.114502
-0.001568
-0.162836
-0.202715
-0.019574
0.254537
0.326682
-0.060382
0.112520
0.185169
0.041627
-0.162254
-0.122450
-0.074134
-0.127454
-0.089158
0.063301
-0.040485
0.105969
-0.190368
-0.124618
0.176697
-0.082079
-0.224717
-0.092543
0.102683
0.086471
-0.388959
-0.062457
-0.015733
-0.077507
0.102876
-0.020210
-0.099075
-0.137107
0.069221
-0.002929
-0.027205
-0.314158
0.270453
-0.325028
0.195966
-0.028357
-0.015268
0.029009
-0.000352
-0.152294
-0.003167
0.240183
-0.027423
-0.325996
-0.294564
-0.057454
0.014588
-0.038931
-0.104120
-0.118312
0.096651
-0.234937
-0.061348
-0.037674
-0.010090
-0.157997
-0.171689
-0.147325
0.119773
0.140566
0.274491
-0.003644
-0.035156
0.016436
0.020291
-0.385543
0.152815
0.001241
-0.146549
0.022617
-0.226948
-0.064436
0.066412
-0.003864
0.011030
-0.110212
-0.332562
-0.078586
0.042643
-0.132146
0.056623
0.091269
-0.084543
-0.269960
-0.085437
-0.047871
0.001200
-0.058613
0.026592
0.019235
0.165452
0.342184
0.236622
-0.165677
-0.066698
-0.050418
0.090250
0.038993
0.117133
-0.005913
0.005787
-0.013297
-0.269673
-0.273731
-0.062452
0.042643
-0.285665
-0.148782
-0.243478
0.019280
-0.078135
-0.149988
-0.256062
0.085704
-0.232606
-0.353323
0.109733
-0.047564
-0.159313
-0.065520
-0.285051
0.079231
0.047468
0.145632
-0.177817
0.178383
0.175008
0.086860
0.054233
0.004147
0.292552
-0.149030
-0.109049
-0.014447
0.053087
0.177794
-0.286305
0.071938
0.158182
-0.106215
-0.245695
0.080938
-0.085501
-0.181567
-0.597781
-0.199617
-0.350286
-0.102889
-0.265839
-0.058084
0.120527
0.007297
-0.239176
-0.307956
-0.052567
0.209330
-0.071612
0.006333
-0.034135
-0.388751
0.023430
-0.194431
0.294079
0.056600
0.007213
0.265822
0.005769
0.017756
0.042407
-0.035660
-0.279301
0.106367
0.118244
0.176763
-0.245099
-0.095345
0.067540
0.082351
0.229962
-0.069768
0.226502
0.098744
-0.001701
-0.011544
-0.247864
0.210817
-0.190017
0.154230
0.078480
0.142729
0.219366
0.067130
0.016507
-0.061851
0.196756
-0.092257
-0.145542
-0.185455
0.012768
-0.398196
-0.057914
-0.150147
-0.218338
0.191479
-0.364588
-0.220864
-0.379344
0.088349
-0.357552
0.112214
-0.043868
-0.228616
-0.139247
-0.372796
0.185117
-0.192139
0.076379
-0.111697
-0.202923
0.150304
-0.152552
-0.021728
-0.129793
0.074402
0.222632
-0.200172
0.092709
-0.209230
0.210870
-0.370594
0.258568
-0.276595
-0.294740
0.053017
-0.089088
-0.241411
0.131890
0.108264
0.024094
0.157317
0.104217
-0.043906
0.105562
0.093214
-0.128547
0.003143
-0.358590
-0.045695
-0.438296
-0.095686
0.015798
0.205943
0.056277
-0.065617
-0.139114
0.084471
0.124932
-0.129940
-0.054780
0.316379
-0.253663
0.078123
-0.401072
0.130491
0.251495
-0.090554
-0.277811
-0.090713
-0.248881
-0.013267
-0.025458
-0.124104
0.049461
0.265480
0.007359
-0.375970
-0.082559
0.004592
0.109713
0.070450
-0.019361
0.113048
-0.017297
0.084561
0.281550
0.158541
0.041954
-0.156669
-0.047859
-0.076594
0.056145
0.019615
0.014047
0.069998
-0.052965
-0.006276
0.004007
-0.113719
0.165397
-0.438027
0.288223
-0.114346
-0.198596
-0.026438
0.330518
-0.579237
0.160346
-0.019631
-0.018195
-0.004086
0.064206
0.118493
0.074958
0.117760
0.122275
0.217711
-0.140490
0.176448
-0.043718
-0.114357
-0.048524
-0.307330
0.183396
-0.110013
-0.290384
0.278028
-0.196488
0.287798
0.245507
-0.019220
-0.200758
0.215171
-0.194476
0.159217
0.062625
-0.107132
-0.273728
-0.021780
-0.165051
-0.282356
0.043205
-0.422436
0.265848
0.072518
-0.013559
-0.023663
-0.198438
-0.001416
0.121844
-0.149486
-0.004656
0.086261
-0.104380
-0.088771
0.056571
-0.423737
-0.028856
-0.083081
0.187142
-0.191627
-0.018805
-0.169199
0.163018
0.053989
-0.086912
-0.007490
0.171076
-0.189479
-0.190327
0.027408
0.041540
0.031283
-0.037331
-0.336271
-0.306381
0.006295
0.009895
0.032937
-0.175386
0.224881
-0.267248
0.235729
-0.300457
-0.175106
-0.032429
0.086505
0.127306
0.247115
0.077092
0.377893
0.155365
-0.118145
-0.130259
0.065393
-0.150301
-0.433964
-0.221105
0.073988
-0.073799
0.055551
-0.507267
0.013716
-0.175473
-0.057861
-0.067938
-0.135453
0.029237
0.035606
0.145697
-0.058251
-0.146870
0.139911
0.009164
-0.002884
0.043617
0.031865
-0.460208
0.003892
0.335484
0.202636
0.410141
0.049444
0.228993
-0.009174
-0.013242
-0.122942
0.016709
-0.033996
0.485382
0.410318
-0.125123
0.055743
0.491866
-0.007164
0.030451
0.347220
-0.023526
0.272738
-0.113327
-0.083004
-0.089546
0.078809
0.055856
0.162642
0.196709
0.107136
-0.271692
0.322559
-0.016221
0.029108
0.227667
-0.005089
-0.220060
-0.108653
0.111406
-0.025856
0.122082
-0.195574
0.014743
0.179434
-0.170633
0.072477
0.143825
-0.010331
-0.217334
0.044134
-0.179816
-0.150600
-0.249325
-0.500338
0.224317
0.070377
0.096364
-0.316003
-0.307943
0.300398
0.036029
-0.125880
-0.055255
0.115167
0.071907
-0.249331
0.278548
-0.082447
-0.027309
-0.040014
-0.227462
0.003368
-0.014161
0.005481
-0.003616
0.071906
-0.024565
0.002564
0.131587
0.035839
-0.096129
-0.042630
-0.192443
0.073451
0.090105
-0.313469
0.017977
-0.031255
0.192559
0.167716
-0.484566
0.222214
-0.053764
0.018360
0.137600
0.149527
0.061928
-0.337397
-0.115587
-0.105246
0.022596
0.269822
-0.011314
0.249292
0.109274
-0.037582
-0.080521
0.144719
0.386078
0.168560
0.214966
0.006935
-0.136647
-0.361638
0.053992
0.037006
-0.133820
0.054065
0.119413
0.018565
-0.312755
-0.037851
-0.185847
-0.262364
-0.459739
-0.408821
0.011017
0.266608
-0.199172
-0.051874
-0.017500
0.106956
0.282164
0.104684
0.131784
-0.400336
0.017130
0.191521
-0.109492
-0.410945
-0.193803
0.038674
-0.339928
-0.033336
0.051657
-0.407040
0.193716
-0.419880
-0.055178
-0.150070
0.219716
-0.055990
0.025910
-0.039258
0.004387
0.045755
-0.333429
0.094582
0.202996
-0.231807
0.042532
-0.457974
-0.137430
0.238338
-0.060629
-0.261085
-0.198051
-0.283784
-0.071739
-0.347615
-0.092087
0.113333
-0.113987
0.272871
0.153522
0.066996
-0.343652
0.142679
0.088118
-0.025518
0.187157
-0.021049
-0.241158
-0.124822
-0.252843
0.086104
0.204680
0.207981
0.129329
-0.149231
-0.019127
-0.350006
0.136150
0.074800
0.193606
0.100866
0.203475
0.259586
-0.113546
0.030070
0.197234
-0.379768
-0.069712
0.242940
0.057824
-0.021706
0.223611
0.080104
0.216258
0.120697
-0.081416
-0.033102
0.279705
0.085531
0.052502
-0.475122
-0.123874
0.394679
-0.710390
0.147621
0.005173
-0.189988
0.109075
0.201071
0.157642
0.210357
0.057945
-0.204626
0.061664
0.090500
0.172974
0.061095
0.012309
-0.009256
0.038363
-0.102163
0.117396
-0.108114
0.333456
0.111182
-0.069938
-0.182653
-0.089289
0.179286
-0.701948
0.008332
-0.074162
0.028452
-0.042715
-0.385226
-0.012860
0.012039
0.113014
0.002894
-0.127893
-0.065308
0.041110
-0.194818
-0.200583
0.115092
0.028885
-0.368523
-0.126244
-0.332869
0.111577
-0.278955
-0.118529
0.277651
0.176794
0.146701
0.331159
-0.030987
0.038858
-0.108962
-0.298540
0.174214
-0.038624
0.098234
0.221303
-0.591532
-0.336966
0.091287
-0.061471
0.123674
0.161854
0.054286
0.069022
0.024227
0.015655
0.234638
0.060764
-0.046026
-0.042262
0.036427
0.067538
-0.014365
0.040571
0.084621
0.107363
-0.460986
0.122775
-0.013243
-0.077308
0.226858
-0.022318
-0.249046
0.025668
0.046892
-0.237601
-0.147654
-0.187975
-0.325094
-0.104509
-0.075277
0.029804
-0.108829
-0.066354
-0.138534
0.219682
0.093865
-0.053673
-0.054945
0.153144
0.051104
0.006014
0.571433
-0.217688
-0.080944
-0.416686
0.022633
0.008762
-0.110201
-0.080728
0.011499
-0.207168
-0.070989
-0.178261
-0.397304
-0.325892
0.046492
0.099157
-0.248564
-0.284842
-0.010132
-0.070402
-0.081723
0.058485
0.041872
-0.206940
0.026570
0.187084
-0.108408
-0.077836
-0.193558
-0.014872
-0.020451
-0.146995
0.199984
0.021897
-0.092792
-0.045634
-0.130022
0.090530
-0.251442
-0.260948
-0.006254
0.394465
0.044566
-0.547408
-0.093677
0.113574
-0.111757
-0.031540
-0.333705
0.110506
-0.224451
-0.489510
0.020648
0.056071
-0.015487
-0.266208
-0.060240
-0.086608
-0.190324
-0.261729
0.037929
0.254131
-0.072225
0.020087
0.249530
-0.229800
-0.341176
-0.013856
-0.084061
-0.040163
0.159317
0.075379
-0.116778
-0.024774
-0.207887
-0.074020
-0.249693
-0.325637
-0.236124
0.294301
-0.207485
0.172965
0.097976
0.010559
0.205904
-0.407613
-0.221997
-0.237669
0.164665
0.115148
0.251931
-0.157352
-0.196384
0.018266
-0.094571
0.103035
-0.250341
0.121807
-0.226365
0.125181
-0.153947
-0.011655
-0.117590
0.158445
0.180847
0.020099
0.159784
-0.193377
-0.280436
-0.152080
0.121995
-0.027889
0.035379
-0.017570
-0.022413
-0.287487
0.113123
-0.200432
0.041326
-0.076350
-0.335152
-0.044474
0.198484
-0.139467
0.086415
-0.286092
0.079799
0.165052
0.121501
-0.135631
-0.188481
-0.154033
0.045306
0.143725
0.079136
-0.015859
0.125117
0.076253
-0.190348
-0.075486
0.000412
-0.206991
0.428539
0.071650
-0.416078
0.055244
0.083685
-0.144022
0.138159
-0.194262
0.135249
-0.433806
0.120094
-0.387104
0.093539
-0.241705
-0.100571
-0.115274
-0.002449
0.117276
0.151618
0.110761
0.167707
0.108833
-0.101542
0.088951
0.178482
0.062741
0.239533
0.145783
0.131421
-0.084926
-0.248605
0.235878
0.023407
0.157211
0.031390
0.005288
0.043747
-0.274924
-0.030845
-0.289523
0.147761
-0.048418
0.019332
0.076209
0.167701
-0.187436
-0.141191
-0.186647
0.188381
-0.089432
0.243744
-0.006369
-0.339058
-0.209567
0.298890
-0.198897
-0.110654
0.159035
0.112833
-0.136324
-0.259222
0.314410
-0.150368
0.138050
-0.015425
-0.116157
-0.030242
-0.082536
0.043276
0.355869
-0.112640
0.095269
0.005745
-0.351119
-0.024314
-0.267991
0.120395
0.022044
-0.514942
-0.037992
0.157763
-0.132588
-0.186890
-0.378566
-0.037959
0.157909
-0.390762
0.091478
0.398420
-0.054711
0.151535
-0.131153
-0.373682
0.118501
-0.027668
0.020121
0.180114
0.090159
0.024950
0.281908
0.161014
-0.326052
0.118618
-0.088288
-0.038689
0.091715
-0.143939
0.006328
0.056778
-0.132100
-0.125731
-0.108134
-0.122931
0.306632
0.022452
0.054698
-0.339165
0.138702
-0.154183
0.032212
0.215777
-0.071183
-0.016637
0.341894
-0.024011
0.018190
0.134485
0.003479
0.096235
0.047000
0.077462
-0.330080
-0.224924
0.007661
-0.293469
-0.319151
0.076698
-0.037299
-0.124348
0.102174
0.116481
-0.030029
0.194540
-0.013867
-0.095501
-0.251944
-0.095747
0.159666
-0.009805
-0.045297
0.203736
0.025279
0.150265
0.000285
0.088178
0.137106
-0.000305
0.083504
-0.387820
0.083586
0.240985
-0.988355
-0.137641
0.078528
0.054458
-0.006939
-0.207555
-0.053596
0.030287
-0.167715
0.117867
-0.437779
0.163042
-0.026323
0.129069
-0.040697
0.218353
-0.145727
0.036556
0.198164
0.086011
-0.066775
-0.093704
0.078752
0.165653
-0.363445
-0.032520
0.064409
0.071822
-0.071747
0.206433
-0.272130
-0.163244
-0.113041
0.151055
-0.041414
-0.062051
0.039714
0.401496
-0.256487
0.154142
0.225521
-0.272310
-0.130628
0.059961
-0.043909
-0.018020
0.016762
-0.308619
-0.015423
-0.108874
0.042341
-0.432174
0.066010
-0.109640
0.099347
0.029285
0.091197
0.210753
-0.184952
0.080940
-0.054802
0.000029
0.004572
0.300135
-0.022661
0.194915
0.032516
-0.224498
-0.026230
-0.044279
0.304003
0.156386
0.030608
0.062787
0.007220
0.209990
0.002255
-0.058376
0.012953
-0.199471
0.165125
0.129191
0.021919
0.114424
-0.152402
0.038556
-0.358016
0.092352
-0.175894
-0.107978
0.004600
0.067643
0.115092
-0.179395
0.085369
-0.212319
0.088284
-0.110214
-0.051503
0.077056
0.028935
-0.052158
0.100352
0.204514
-0.314236
0.060165
0.123216
-0.173185
-0.001213
0.013466
0.007757
0.088548
-0.051700
-0.109952
-0.030333
0.025407
0.264886
0.114634
0.000797
-0.044002
-0.264691
0.007639
-0.132840
-0.044404
-0.361402
-0.047825
0.006662
0.126915
-0.029855
-0.079151
-0.081384
-0.196464
-0.106285
-0.093437
-0.398262
0.233107
0.088711
0.183996
0.060980
-0.182914
0.221416
0.088523
0.019315
0.062505
0.266733
0.021523
-0.147453
-0.093032
-0.205146
0.061980
0.033021
0.096619
-0.027594
-0.115180
-0.027446
-0.115859
0.384281
-0.158734
-0.089679
0.039596
-0.038624
-0.422088
0.253333
0.135317
-0.252964
0.137164
-0.072662
0.224378
0.181966
0.067092
-0.241249
-0.124624
0.188646
-0.512138
-0.097902
-0.094993
-0.148677
0.149071
-0.131523
-0.044411
-0.042522
-0.270079
-0.236282
0.084577
-0.025337
0.048039
0.018998
-0.144031
-0.230880
0.026016
0.064700
-0.357452
-0.113937
-0.264250
0.422882
-0.222485
-0.419373
0.146477
-0.009254
-0.027497
-0.278674
0.005740
-0.118239
0.037113
0.037403
0.024205
0.253694
-0.021113
0.245810
-0.184952
-0.158747
0.145412
-0.070861
-0.140246
0.149250
0.395620
0.081357
0.258531
0.306960
0.161310
-0.016628
0.182647
-0.100567
0.110216
0.298512
-0.138703
-0.180175
-0.519236
0.059590
-0.145250
-0.151374
0.170034
-0.025051
0.229184
0.191389
-0.079168
0.209035
-0.163862
-0.077168
-0.030966
-0.052786
-0.177924
0.325315
0.210071
0.026928
0.156254
-0.009111
0.104746
0.207867
0.136974
0.315270
0.232221
0.044587
-0.338028
0.202078
0.206246
-0.418285
0.035912
-0.118266
0.128593
-0.240377
-0.317665
0.064007
-0.152423
-0.328091
0.085963
0.000652
0.156753
0.108893
0.263508
-0.093248
0.059413
-0.139775
0.348062
-0.232385
-0.307524
0.083140
0.326334
-0.116981
-0.209640
-0.047285
0.208417
-0.001217
0.067950
-0.187423
-0.038341
-0.190250
-0.067320
0.283820
-0.195962
0.171443
0.027990
-0.123486
-0.057573
-0.084727
0.083775
-0.309363
0.185494
0.014756
0.179251
-0.034476
-0.179638
-0.134162
-0.208374
0.111764
-0.300087
0.123538
0.203674
-0.036565
0.113229
0.209251
-0.120290
0.295983
0.399973
0.223952
0.192566
-0.278165
-0.365148
0.126541
0.017749
0.169566
0.115349
0.049567
-0.030115
-0.413090
0.266644
0.127343
0.052630
-0.025770
-0.316460
0.025810
-0.052599
-0.037399
-0.117144
-0.032897
0.160900
-0.026135
0.440548
0.026267
0.053073
-0.019981
0.263590
-0.114980
-0.175856
-0.491693
0.033431
-0.192532
-0.077172
-0.075989
-0.118946
-0.004166
-0.124390
-0.170820
-0.142992
0.097282
-0.051502
0.022009
0.213646
0.072954
0.093670
-0.217052
0.041232
0.253816
-0.084488
-0.113898
0.082009
0.016019
0.016419
0.042117
-0.151194
0.069571
-0.542600
0.166209
0.215199
0.197155
-0.316946
-0.094436
0.064890
-0.245102
-0.323494
-0.380494
0.071223
0.006646
0.105390
0.012112
-0.085086
0.163422
-0.019530
-0.073478
0.197002
0.180836
0.116137
-0.185464
0.194261
-0.028853
-0.100939
0.284570
-0.074684
-0.039095
0.110408
0.229805
0.018585
-0.227089
-0.037728
0.053350
0.118742
-0.014925
-0.137992
0.136828
0.039569
0.167888
0.116541
-0.189970
-0.195875
-0.054176
-0.097565
-0.084128
0.003382
0.004406
-0.174070
0.098239
0.221985
-0.007209
0.060284
-0.073497
0.056090
-0.073931
-0.082668
0.063399
-0.466311
-0.025218
-0.105099
0.086830
-0.336855
0.040632
0.187837
0.214065
-0.042101
0.030236
0.089410
0.410498
0.364423
0.251320
-0.105885
0.161165
-0.417388
-0.010839
0.266705
-0.062717
0.128985
-0.139449
-0.132251
-0.125177
-0.112762
-0.021488
0.067137
-0.292763
0.063191
0.085368
-0.102080
0.139317
-0.117992
-0.225232
-0.036662
-0.112786
0.015790
-0.165142
0.074406
0.048749
-0.198427
0.047067
0.153355
0.059546
0.108983
-0.050973
-0.029704
0.116306
0.141052
0.060781
0.129613
-0.115003
0.013734
-0.093477
-0.213824
-0.292225
0.024091
-0.264630
0.209719
0.161258
-0.027602
0.013200
-0.004132
0.067371
-0.167743
0.114255
0.232889
0.132678
0.105017
-0.092298
0.119841
0.215899
0.022861
-0.389051
-0.194717
0.083318
-0.096850
0.043745
-0.250781
-0.075892
0.008538
0.152707
-0.014441
-0.282310
-0.076857
0.035593
-0.139940
0.046124
-0.050611
-0.081453
0.148825
0.136469
0.229891
0.031425
-0.138467
-0.083285
0.015967
-0.132755
0.039507
0.015013
-0.171601
-0.223318
-0.059840
0.020673
-0.223163
0.127847
0.276464
-0.324135
-0.132277
0.059893
-0.041236
0.030367
-0.061733
-0.154943
-0.213453
0.135947
0.118266
0.060218
-0.443833
0.179911
-0.130990
-0.216694
0.072798
0.178637
-0.187584
0.067847
0.004328
0.004239
0.294781
0.173928
-0.260065
0.037939
0.387429
0.085217
-0.325901
0.090783
-0.012740
0.076700
0.109877
-0.085626
0.078994
-0.064105
-0.039239
-0.512561
-0.177299
-0.354565
0.153437
-0.385493
-0.238604
-0.169474
-0.276719
0.163866
-0.364119
0.077576
0.031442
-0.015537
-0.029577
-0.251288
0.141992
-0.135300
-0.164886
-0.026271
0.182448
0.051461
0.268487
-0.146080
0.029096
-0.020344
0.460050
0.057067
-0.228930
-0.254540
0.132779
-0.312251
-0.132555
0.123122
0.036995
0.027149
0.156016
-0.038814
-0.358090
-0.017134
0.109934
-0.003385
0.299757
0.007192
0.060033
-0.034494
0.108962
0.041805
0.125154
-0.098961
-0.607908
-0.103739
0.177553
-0.075384
-0.063052
-0.203778
-0.137370
-0.102175
-0.658657
-0.312000
0.313050
-0.216961
0.089070
0.243122
-0.107001
-0.171568
0.145336
0.082382
-0.337242
0.223910
-0.123930
0.423982
0.152148
-0.521338
0.070912
0.164352
0.070331
-0.185176
-0.402726
-0.061219
-0.054766
-0.359673
0.139759
0.080696
0.137106
0.115720
-0.251049
0.031053
0.033512
0.111712
-0.217953
0.058499
0.180680
-0.162625
0.416372
0.212354
0.027273
0.090125
0.062477
0.157606
0.080375
0.058334
0.103264
-0.407147
-0.465492
-0.142246
-0.217345
-0.534817
0.106240
0.170519
-0.040607
-0.151109
0.147230
0.023316
0.101496
-0.199650
-0.162258
0.054383
-0.011225
0.114078
0.097996
-0.167819
0.119292
0.122855
0.187174
-0.029949
0.010069
-0.010348
0.052798
-0.008695
0.088629
-0.017782
0.254814
-0.684478
-0.033390
-0.077766
0.042499
-0.040488
-0.121852
0.153495
-0.004437
-0.183536
0.062641
-0.353124
0.172117
-0.076771
-0.050990
0.095476
0.117947
-0.045633
-0.088172
0.037857
-0.453040
0.002284
0.170815
0.072429
0.005394
-0.097648
0.225375
0.319213
0.111948
0.167064
0.032539
0.028157
-0.028069
0.153937
0.107551
-0.093524
-0.139882
-0.312318
-0.028661
-0.441548
0.082408
0.539122
-0.050994
0.240734
0.114614
-0.119893
0.053706
0.440883
-0.308896
-0.160842
0.220573
-0.102911
-0.072635
0.065175
0.107045
-0.087866
-0.016793
-0.286453
-0.159167
-0.042699
0.162650
-0.122565
0.021964
-0.044133
-0.203163
-0.317183
-0.232392
0.169513
-0.166294
0.176954
-0.338407
-0.008632
0.089459
-0.113974
-0.086351
0.037850
0.115273
-0.154701
0.056809
0.089299
0.144074
-0.100797
0.070076
0.132476
-0.873132
0.156907
0.181140
-0.119622
-0.130030
-0.237787
-0.018757
-0.162195
-0.035782
-0.081551
-0.055957
0.142180
0.145721
0.099209
-0.115665
0.034763
-0.048869
-0.305172
0.179616
0.011625
-0.020215
0.213819
0.051537
0.046714
0.093033
-0.190399
-0.260394
0.246047
-0.111042
0.014249
-0.076287
-0.650394
0.004360
0.215329
0.109171
0.118252
0.049305
-0.266958
-0.012296
0.199802
0.012257
-0.154084
0.098500
-0.068426
-0.358096
-0.054643
0.010746
0.127141
-0.133514
-0.013664
0.001716
-0.146885
0.284545
0.087403
-0.603138
0.208677
-0.145808
-0.000754
-0.119591
0.115113
0.194997
-0.110308
0.230693
-0.056565
0.125797
0.047238
0.313056
0.236987
-0.024782
-0.135749
-0.138527
0.192946
0.231082
0.010318
-0.075711
-0.136877
-0.277810
0.169117
0.182326
-0.289644
0.033255
-0.110965
0.001641
0.085623
-0.063546
-0.289754
-0.054753
0.020723
-0.490682
0.124454
-0.074824
-0.039571
-0.066152
-0.125699
-0.112004
0.246194
-0.096544
-0.094265
-0.066566
-0.114974
-0.358180
-0.030258
0.015442
-0.077168
-0.001980
0.047982
-0.050543
0.575126
0.068773
0.045784
-0.175354
-0.061182
-0.074489
-0.042745
-0.008597
0.225418
0.123172
-0.153764
-0.284252
0.055056
-0.064756
0.405656
0.019002
0.083348
0.079297
0.083424
0.118582
0.072863
0.273007
0.037081
0.139503
0.183562
-0.645384
-0.116852
-0.121091
0.084826
0.358980
-0.120648
0.185088
-0.266440
-0.014547
0.020907
0.069808
0.025275
-0.623165
-0.049462
0.351240
-0.150033
0.117565
0.046849
-0.434655
-0.205011
-0.014232
0.198464
-0.160785
-0.409823
-0.319083
-0.330486
0.214913
-0.252582
0.041673
0.056949
-0.322150
-0.382488
-0.021868
-0.098017
-0.271391
0.114886
-0.165991
0.176958
0.078354
-0.063366
-0.472105
-0.073270
-0.208427
0.138059
-0.134720
0.068924
-0.649844
-0.150786
0.132506
0.221135
-0.057125
0.026777
0.171851
-0.188982
0.051261
-0.070932
-0.154204
0.122583
-0.069062
0.202642
0.077867
0.101603
0.279401
-0.169351
0.167337
-0.085076
0.169864
-0.175654
0.068163
-0.345791
-0.287385
-0.171580
-0.218669
-0.180968
0.103646
0.263281
-0.041084
-0.017558
0.129340
0.136387
-0.040412
-0.560443
-0.224282
0.370747
0.251954
0.050831
0.157776
-0.347620
-0.046769
-0.159621
-0.145253
-0.036888
-0.069614
-0.116196
-0.121608
-0.035249
-0.104467
0.159011
0.003738
-0.057431
0.100142
-0.072424
0.104559
0.349293
0.137752
-0.009271
-0.118086
0.067444
0.100967
0.022016
-0.035752
0.060077
0.005472
-0.036544
0.002281
-0.101364
-0.478974
0.364202
-0.324263
0.080294
0.148610
-0.059983
-0.021174
0.177371
0.204707
-0.025422
0.217406
-0.110585
-0.308232
0.048380
-0.073063
0.045574
0.257626
-0.142392
-0.203314
0.008749
-0.115393
-0.185807
0.262805
-0.073317
-0.059301
0.041857
0.078151
0.107430
-0.014546
-0.027244
-0.348727
-0.037562
-0.060183
0.237333
-0.718558
-0.287689
-0.241214
-0.385528
-0.083221
-0.464956
-0.133845
0.037112
-0.309104
-0.154854
-0.376338
0.089829
0.133048
0.267243
-0.031975
-0.017082
0.114478
0.015828
-0.333826
0.033902
-0.504911
-0.326424
-0.561664
-0.125868
-0.085819
0.271559
0.357316
-0.053149
-0.011874
0.034565
-0.232295
0.192757
-0.067758
0.272513
-0.389862
-0.011640
-0.113194
-0.181403
-0.151356
-0.070121
0.083024
-0.368174
0.048254
-0.215828
-0.029448
0.173110
-0.230450
-0.243472
0.065915
-0.182793
-0.461675
0.098192
-0.014971
-0.327089
-0.131031
-0.406516
-0.053782
-0.015292
-0.069656
-0.168203
-0.001784
0.101693
-0.209583
-0.022732
-0.127114
0.242832
-0.025685
-0.149370
0.082560
-0.007298
0.065136
-0.376070
0.023828
-0.148582
-0.220929
-0.047468
0.027292
-0.083149
-0.264710
-0.167817
-0.059721
-0.426750
-0.063989
-0.018420
-0.094316
-0.070079
-0.234211
-0.141056
-0.094588
0.005522
0.012274
-0.042811
-0.063950
-0.036012
-0.480476
-0.127075
-0.109937
0.102244
-0.102368
0.099992
-0.079891
-0.057358
0.011169
0.042632
0.126916
-0.299751
-0.135701
0.433605
-0.121801
0.253442
0.197031
-0.161681
0.003855
0.031127
-0.304721
0.115627
0.076183
0.005964
-0.100242
0.024673
0.319505
-0.005723
-0.044874
-0.074200
0.108832
-0.132506
-0.268844
0.100627
-0.130580
-0.061886
-0.419883
-0.279077
-0.215956
0.040083
-0.354881
-0.074843
-0.202792
-0.219506
-0.148063
-0.201213
-0.099113
-0.306420
0.091874
-0.089659
-0.078587
0.040227
-0.044295
0.034975
-0.432764
0.135474
-0.207807
-0.106460
-0.096027
-0.210703
0.048762
0.096637
-0.079057
0.029376
0.271094
0.062891
-0.132261
0.168250
-0.617926
0.127012
-0.358469
0.157462
0.165088
-0.436551
-0.089375
-0.254404
-0.311393
0.269335
-0.131015
0.103926
0.331074
0.137240
-0.374582
0.176260
-0.073396
-0.029237
0.234375
-0.000179
-0.092187
-0.068787
0.213368
0.125136
0.038503
0.035199
-0.612081
-0.239406
-0.007961
0.356107
-0.497046
-0.297354
-0.029605
-0.540014
-0.061600
-0.629652
0.242322
0.058237
-0.282780
-0.373159
-0.341469
-0.192504
0.134885
0.469429
-0.149642
-0.159525
0.043033
0.133787
-0.487272
-0.023433
-0.315873
-0.088285
-0.200795
-0.091625
-0.234422
0.017802
0.108928
-0.062758
0.266702
0.062024
-0.229707
-0.064210
-0.201348
0.191917
-0.224166
0.158021
0.162345
-0.037172
-0.008383
-0.242319
-0.253940
0.215634
-0.096556
-0.109460
-0.440580
0.051363
-0.106938
0.318172
-0.344760
0.184161
0.124663
0.096682
-0.143022
0.093317
0.054709
0.151502
0.024460
-0.012201
-0.057289
-0.139190
-0.087793
0.114581
-0.200315
0.122050
-0.595111
0.273822
-0.113779
-0.316588
0.471274
-0.247335
0.072326
-0.058161
-0.010757
-0.239507
0.142733
-0.121142
0.137574
0.029413
0.007628
-0.115172
0.000561
-0.191920
-0.039986
0.015661
-0.266858
-0.287846
-0.224520
-0.214890
-0.128171
-0.053775
-0.280316
-0.107683
0.015668
0.085730
0.001093
-0.450827
-0.145542
0.187150
-0.733296
-0.082014
-0.057073
-0.158369
-0.312939
0.201163
-0.068000
-0.100787
0.026753
0.127688
0.150050
0.060549
-0.110386
-0.032938
-0.115292
-0.083431
-0.065540
-0.028877
-0.092119
-0.587684
0.020882
0.114162
0.065800
0.012203
0.011217
-0.360824
-0.083735
-0.124143
-0.547825
-0.158115
0.028787
0.107701
0.148632
0.069161
0.384707
0.281584
-0.200005
-0.254854
0.061032
0.006023
-0.325769
0.174074
0.234742
-0.148376
0.112308
-0.225319
-0.065067
-0.570158
-0.032194
0.066891
0.187653
0.035119
0.029816
0.022599
-0.085654
0.066896
0.065847
-0.013176
-0.058313
0.051611
0.269256
-0.502797
-0.220741
0.111596
0.187991
0.301479
0.098001
0.164629
0.186095
-0.164150
-0.137834
-0.120979
-0.173915
0.297501
0.364476
0.057376
0.075212
-0.246945
0.251457
-0.082269
0.230955
-0.366860
0.048711
-0.045352
-0.178228
0.163043
0.002163
0.189741
0.031105
-0.126833
-0.339160
-0.323335
-0.096332
0.058931
-0.154904
-0.292767
-0.463054
-0.398037
0.173878
0.101351
0.072649
-0.084603
-0.385448
0.090917
-0.144830
0.247729
0.092467
0.099412
0.063376
0.060618
0.111643
-0.178284
-0.272369
0.009108
-0.593866
0.001287
0.032986
-0.227929
-0.413330
-0.128390
0.253595
0.058388
-0.033465
0.074080
0.352671
0.015978
-0.404707
0.281425
-0.331235
0.129448
-0.013015
0.043767
-0.024769
-0.279962
-0.075895
-0.138814
0.357833
-0.055776
-0.106257
0.159305
-0.393685
0.089334
-0.031217
-0.379871
-0.025684
0.078316
-0.207544
-0.168170
-0.195854
-0.019693
-0.189106
0.105172
-0.413442
0.320783
0.304192
-0.136966
-0.009533
-0.140800
-0.395189
0.296324
-0.002225
0.333481
-0.038874
0.088509
0.077113
-0.046303
-0.014088
-0.227129
0.022274
-0.054608
-0.026047
0.401617
-0.030932
-0.023537
-0.681790
0.080469
0.064516
-0.229846
0.174728
-0.186157
-0.656334
-0.054594
0.170348
0.133085
-0.716658
-0.454447
-0.115328
0.127841
0.246697
-0.393094
0.037942
-0.337138
-0.001220
0.057976
0.123481
0.215052
-0.149994
0.037442
-0.009212
-0.026148
-0.070850
0.289218
0.039533
-0.076577
-0.102582
0.030705
-0.370345
0.080473
-0.199248
-0.041657
-0.210736
0.212224
-0.032418
-0.083024
-0.109230
-0.003285
0.007553
-0.369399
0.121631
0.351036
-0.340892
0.096227
-0.143866
-0.137724
-0.190355
-0.116265
-0.189328
-0.022011
-0.291969
-0.211213
-0.309352
-0.163659
-0.144194
0.002239
0.347058
0.137054
0.152832
0.050183
0.123911
0.150186
0.058814
0.033318
-0.238179
-0.517122
-0.170172
-0.152030
0.081726
0.202249
-0.001042
0.160935
-0.006430
-0.098728
-0.156761
0.093018
-0.012797
0.244816
-0.044597
-0.043361
0.022071
0.092649
0.003225
0.117607
0.177333
0.017744
0.009569
0.052335
-0.124302
0.213173
-0.000448
0.022691
0.310392
-0.961296
0.166329
0.014683
-0.160309
0.019455
-0.992646
0.222389
0.240759
-0.145185
0.031038
0.080231
0.155483
0.045884
0.166127
0.095485
0.237531
-0.146521
-0.768667
-0.098620
0.186012
0.086593
-0.028355
-0.056885
0.087618
-0.192750
0.047624
-0.072445
-0.194707
0.099315
0.093389
0.230059
-0.495964
0.048139
-0.096404
-0.244852
-0.036477
0.164777
-0.230986
-0.115796
-0.505926
0.054017
-0.216646
0.143498
-0.174577
-0.011067
-0.018250
-0.007190
-0.214265
-0.446202
-0.065318
0.056094
-0.510759
0.101368
-0.074399
-0.151524
-0.076487
-0.276207
0.061039
0.041264
0.016281
0.280973
-0.042873
0.014260
-0.091779
-0.774941
0.259661
-0.145191
-0.154903
0.142693
-0.822227
0.161196
-0.255143
0.231695
-0.143976
0.014672
0.049863
-0.095657
0.041924
-0.323046
0.108754
0.070298
-0.408945
0.069305
0.026880
0.082786
-0.064148
0.139412
0.110989
-0.006103
-0.144065
-0.007558
-0.058882
0.095118
-0.155963
-0.185434
-0.342610
0.079658
0.090886
-0.060788
-0.376382
0.107151
-0.232505
0.057228
-0.129086
0.002884
0.073467
0.182800
0.086301
0.016769
-0.159994
-0.180583
-0.024149
-0.017842
0.052698
-0.261228
0.367880
-0.014722
-0.128062
-0.324495
-0.319767
-0.109300
-0.027319
0.026374
0.062789
0.011599
-0.310346
-0.078768
-0.085920
-0.399920
-0.066263
0.094956
-0.305614
-0.260835
0.031793
-0.265867
-0.045584
-0.101418
-0.245631
-0.212521
-0.178562
0.235539
-0.131988
0.059446
-0.260500
0.053564
0.054419
0.058442
0.216792
0.029620
-0.018462
-0.242157
-0.320628
-0.045229
-0.254596
-0.280323
-0.025847
0.248509
-0.034879
-0.102522
-0.112631
0.118664
0.018094
0.081535
-0.189317
-0.338326
-0.449502
-0.389878
0.012891
0.072684
-0.381344
-0.026467
-0.042038
-0.113198
-0.297874
-0.327389
0.137487
0.012605
-0.139822
0.023103
-0.110280
-0.125459
-0.187404
-0.044446
-0.075902
-0.016696
0.385876
0.044201
-0.209255
0.170335
-0.521727
0.058442
-0.150474
-0.606373
-0.022641
-0.016036
-0.359093
0.012617
0.004721
-0.022302
0.082338
0.012711
-0.289935
-0.145456
0.410660
0.154254
-0.094696
-0.398266
-0.101392
0.216278
-0.248934
0.158050
0.179851
0.177163
-0.240757
0.040448
0.045179
-0.091583
-0.055988
-0.022963
0.144915
0.120906
0.046561
0.091643
-0.347024
-0.263218
0.257399
-0.137464
-0.113904
0.067808
-0.394344
0.100538
0.101132
-0.001608
-0.246246
-0.167215
-0.246118
-0.080111
0.079716
-0.126360
-0.135536
-0.265682
-0.203952
-0.028240
-0.111929
0.303172
-0.056062
-0.240293
-0.059559
-0.125883
0.249254
-0.205726
0.196604
0.149175
-0.614351
0.049378
-0.033301
-0.285992
0.386531
0.114465
-0.458454
-0.007822
0.134102
-0.142203
-0.000160
-0.155304
-0.371049
-0.034997
0.190095
-0.306685
0.096259
-0.372153
-0.262812
0.055331
0.164733
0.151013
0.237936
-0.005327
0.215642
0.162181
-0.043277
0.018130
0.199142
0.041201
0.197359
0.002251
-0.033625
0.082595
-0.317507
-0.024367
0.256721
-0.041060
0.358145
-0.160532
-0.429789
-0.270003
0.123021
-0.155041
-0.461825
-0.427283
0.037784
0.055828
0.303782
-0.375847
-0.317558
-0.258354
0.051911
-0.146696
0.236580
0.154908
-0.407040
-0.161538
-0.014396
-0.194412
0.169724
0.120919
-0.128558
0.207436
-0.224453
0.298781
-0.116163
0.075816
-0.063568
0.007078
0.292750
-0.096205
0.133732
-0.077977
0.050436
0.001399
-0.152613
-0.031405
-0.189030
-0.121251
0.090576
0.063777
-0.521251
0.169042
0.130771
-0.060461
-0.268930
-0.337434
-0.125356
-0.173832
-0.472671
-0.176644
0.202775
-0.322065
0.126483
0.106732
-0.286076
0.024874
-0.181781
0.117691
0.222492
0.061359
0.145930
-0.263511
0.046331
-0.114011
0.168844
0.023519
-0.173065
-0.294404
0.137144
0.144271
0.000360
-0.060277
-0.119749
-0.130341
-0.106236
0.035481
0.080834
0.075339
0.051665
0.081525
0.000034
0.013460
-0.082381
-0.071279
-0.243053
0.239417
-0.096773
0.079417
-0.127153
-0.354889
0.210908
0.054345
-0.113348
-0.633891
-1.170464
0.019151
-0.244156
-0.121031
0.051097
-0.050191
0.004691
0.221045
0.222488
0.104990
0.132201
-0.340645
-0.480492
-0.287121
-0.044953
0.054064
0.084955
-0.143157
0.185383
-0.125079
0.047001
0.039206
-0.003672
0.010942
0.011005
0.009702
-0.473196
0.037097
-0.316081
-0.391269
-0.082804
0.055137
-0.144585
0.124309
-0.255078
-0.026749
-0.106499
0.017384
0.341849
-0.548618
0.084039
-0.064229
-0.017305
-0.283681
0.222228
-0.159692
-0.025176
0.213486
-0.178434
-0.058489
0.305395
0.075756
-0.004621
0.056114
-0.000961
0.144923
-0.121206
-0.239716
0.098730
-0.263963
-0.346395
-0.228943
0.075728
-0.111959
0.009603
-0.084756
-0.032914
0.061269
0.104987
-0.051336
-0.185725
-0.287211
0.238112
-0.126126
-0.028066
0.023874
-0.299865
-0.004959
-0.483731
-0.044579
-0.550957
-0.097686
-0.008963
0.037381
-0.220991
0.029454
0.137975
-0.257670
0.060930
0.244950
-0.024145
0.013536
0.079429
0.069304
0.085481
0.015626
-0.107806
-0.085960
-0.186042
0.185005
0.295187
-0.003971
-0.025134
-0.040337
-0.040847
0.140264
0.102638
0.172180
0.020202
0.174986
0.063410
0.308682
0.077669
-0.305888
-0.261170
-0.502472
0.080474
0.434046
-0.171287
0.070623
-0.089936
0.221812
-0.242256
0.042422
-0.307830
0.122717
-0.012597
-0.156186
-0.060496
-0.104329
0.093781
-0.050809
-0.113683
-0.322449
0.245291
0.027805
-0.315165
0.176704
-0.088286
0.087496
0.073113
0.018603
-0.122965
-0.047512
-0.125109
0.077834
0.139060
0.055948
-0.257786
-0.217378
0.025790
0.009736
-0.059866
-0.039957
-0.076471
-0.250905
0.115762
-0.035757
-0.024684
-0.202717
-0.372341
0.194585
-0.172646
-0.420883
-0.014383
0.257386
0.218085
-0.045640
-0.022146
0.102602
0.157503
0.199803
-0.345154
0.089623
-0.032230
0.077190
-0.255287
-0.459351
-0.189028
-0.082694
0.011318
-0.003750
-0.296475
0.229927
-0.243162
0.216773
0.135224
-0.060190
0.061840
0.260377
-0.205785
0.094040
0.238985
-0.466739
0.053790
0.146107
-0.040494
0.101291
-0.123676
-0.396420
-0.087725
0.230824
-0.309690
0.207214
-0.013774
0.232817
0.028221
-0.058706
-0.132567
-0.253871
-0.261824
-0.096013
-0.051078
-0.392661
-0.099835
0.167949
-0.245690
-0.086949
-0.044435
-0.024649
0.095475
-0.021314
-0.302534
-0.131386
-0.494750
-0.326530
0.299730
-0.016844
-0.324740
-0.188847
0.148517
0.128542
0.032067
-0.259789
0.107803
0.260511
-0.257123
0.107357
-0.121749
-0.112388
0.037248
-0.264174
-0.096593
0.096191
0.196208
0.104120
0.052775
0.115283
-0.348380
0.145338
-0.033439
-0.403255
0.091604
0.157836
-0.109333
-0.372615
-0.683238
0.041866
-0.451317
0.168668
-0.410471
0.109177
0.393648
0.118097
0.032512
-0.170600
0.022803
0.115853
-0.029980
0.331401
0.008513
0.192191
0.203431
0.084747
0.051544
-0.142870
0.061811
0.087045
0.021709
0.227106
0.007735
-0.194330
-0.633896
0.060707
0.029104
-0.380688
0.019093
-0.387193
-0.175286
0.109920
0.023143
0.181501
-0.313267
-0.082875
0.194303
-0.018050
0.121683
-0.212285
0.001152
-0.452530
0.029410
-0.259409
0.258272
0.073853
-0.189719
0.019395
-0.061352
-0.200001
0.187049
-0.028462
0.179742
0.111636
-0.534427
0.014281
-0.008322
-0.339521
0.145004
0.241001
-0.567485
-0.020925
0.022953
-0.151025
-0.070029
-0.159529
-0.301245
0.060041
0.299980
0.055715
0.375146
-0.081718
-0.374829
0.301109
0.089907
0.169945
0.100617
-0.054296
0.278423
-0.052774
0.187614
0.001805
-0.001159
0.096502
0.285955
0.251384
-0.065981
0.126144
-0.370671
0.213560
0.284399
-0.100375
0.062803
-0.010300
-0.449159
0.010582
0.381855
0.264630
-0.434971
-0.072333
-0.291403
0.157887
-0.226592
-0.204450
-0.354709
-0.440570
-0.200847
-0.135668
0.073600
0.020387
-0.024174
-0.084282
0.166183
-0.252789
0.033126
0.270109
0.166800
0.011544
-0.192059
0.009820
-0.210458
0.082576
-0.262303
0.069137
-0.021585
-0.053728
0.159549
-0.512833
0.106933
-0.063866
-0.126744
-0.445937
0.134455
0.178657
0.107285
-0.189811
-0.056179
0.155952
0.054955
0.151038
-0.203964
0.112749
-0.559507
-0.165513
0.009669
0.155971
-0.404625
0.014017
0.133259
-0.081533
-0.401913
-0.001212
0.114995
-0.385800
0.019611
0.008102
-0.149624
-0.120777
-0.017994
-0.130820
0.108689
0.136166
0.116637
-0.267114
0.164775
-0.082880
-0.061283
0.232311
-0.121017
-0.030794
-0.009130
0.121104
-0.030483
0.013904
0.021902
0.025211
0.225548
0.019457
0.181717
0.034878
-0.163628
0.107342
-0.086123
0.235137
-0.098848
-0.096424
-0.144284
0.104142
-0.078034
-0.289141
-0.273676
-0.083712
-0.225581
-0.089310
-0.230520
0.192464
0.338609
0.094174
-0.058556
-0.004897
-0.474446
0.266056
0.261272
0.293549
-0.427377
-0.129684
0.031179
-0.034551
0.074459
-0.109788
-0.019858
0.017918
0.235641
0.132041
-0.168516
0.099143
-0.233870
0.321352
0.299557
-0.014541
0.296302
-0.268454
-0.308215
0.076639
-0.045748
-0.075634
-0.311995
-0.379049
0.064707
0.013364
-0.066124
0.250356
-0.093943
-0.212130
0.035729
-0.293780
0.157727
-0.185718
0.075518
-0.257279
-0.151353
-0.056766
-0.019385
0.096547
0.015194
-0.147833
0.127076
0.021961
0.103644
-0.209583
0.179378
0.099334
0.088537
-0.303024
-0.255889
-0.085853
0.274992
-0.105543
-0.125557
0.214796
-0.113759
-0.008142
-0.054387
0.090475
-0.519331
0.022818
0.177379
0.187900
0.385148
-0.171088
0.219798
0.072432
0.092739
-0.528905
-0.088206
-0.039933
-0.283221
-0.153581
-0.374455
-0.194159
0.058503
-0.196912
-0.095795
-0.166908
0.078161
-0.068143
-0.574700
0.290374
-0.058781
-0.077388
0.088368
0.028347
0.284824
0.162688
-0.122254
-0.021382
-0.125393
-0.167039
-0.051139
0.110874
0.023483
-0.114225
0.002741
-0.048539
0.292011
0.194950
-0.173613
-0.144393
-0.112828
-0.063170
0.093391
-0.013981
-0.064411
-0.487770
0.008977
-0.164414
-0.047104
0.112426
-0.479352
0.010115
-0.219450
0.093008
0.103123
-0.183947
-0.262873
0.126773
0.203705
-0.119555
0.088207
-0.152979
-0.430642
0.031888
-0.005821
-0.089581
-0.386347
0.140359
-0.039727
-0.158577
0.114610
-0.027906
0.036200
-0.059635
-0.044796
-0.056143
-0.131623
-0.426878
-0.011354
0.006591
0.020081
0.016560
-0.197368
0.242614
-0.463557
0.173065
0.086480
0.053463
0.135331
-0.084419
0.182969
-0.397344
-0.159900
0.023769
0.094136
-0.165145
-0.073590
0.052958
-0.053080
-0.164832
0.131725
-0.155181
-0.114687
0.114921
0.178669
0.005519
-0.092277
0.025513
-0.000351
0.141859
-0.134480
-0.188339
-0.088163
-0.111948
0.088764
-0.249982
0.254524
-0.038582
-0.256270
0.008214
-0.203771
-0.265226
-0.279034
0.247144
-0.530753
-0.120108
-0.021936
0.028651
-0.084408
0.008180
-0.054842
0.017734
-0.864955
-0.253273
-0.021380
-0.159547
0.159086
0.491889
-0.040760
-0.031654
0.105449
-0.016378
-0.221061
0.221533
-0.312752
0.005234
-0.124995
-0.622918
-0.043242
0.164866
-0.182779
-0.347295
-0.175881
0.140054
0.095619
-0.390628
0.152113
0.035046
-0.332853
0.121436
-0.007921
-0.115695
0.041185
0.210640
0.023501
0.100070
0.015975
0.141480
0.079289
0.140761
0.297255
0.066907
0.208350
-0.040218
0.063724
-0.000275
0.058444
-0.806327
-0.611570
-0.003121
-0.167007
0.028046
0.141774
0.085162
0.274941
-0.283859
0.130282
0.035261
0.147375
-0.268823
-0.326677
-0.131399
-0.239049
0.025798
0.156240
0.013145
-0.093035
-0.102534
0.001001
0.090722
0.083197
0.079460
-0.145242
-0.024903
-0.293377
0.029857
0.111915
-0.252886
-0.087756
0.186840
0.177077
0.129761
-0.079884
0.033810
0.183269
0.008089
0.119268
-0.404853
0.329824
-0.154888
-0.015422
-0.623104
0.184190
-0.042787
0.007503
0.077028
0.064446
0.044906
0.121399
0.096580
-0.532618
0.003894
-0.138819
0.307089
0.267827
-0.283069
-0.021833
-0.213724
0.026143
0.019210
0.053838
-0.011116
-0.280874
-0.055454
-0.263496
0.111662
0.093016
0.110763
-0.230660
0.109556
0.093623
-0.047664
0.048746
-0.104297
-0.579439
-0.317321
0.178541
-0.218038
-0.020846
0.064396
-0.138397
-0.101733
0.142047
0.099229
-0.018654
0.218130
0.032573
-0.169354
0.059533
-0.000383
-0.323252
0.063821
-0.547807
0.138368
-0.148095
0.033172
-0.336972
-0.054296
0.280131
0.041456
-0.015526
-0.079884
0.503834
-0.031966
-0.066440
-0.130458
-0.048549
-0.089519
0.077747
0.415536
-0.228662
0.045511
0.025689
-0.165288
-0.133607
-0.124980
-0.207196
0.233379
-0.123181
-0.293981
-0.158859
-0.043195
0.100286
-0.054803
-0.045053
0.119708
0.011296
-0.404362
0.060170
-0.041007
0.071526
0.212510
0.039257
-0.043837
-0.014409
-0.072756
-0.605332
0.180312
-0.251572
-0.050191
0.096974
-0.947074
0.053518
0.155359
0.059051
0.147574
0.033496
-0.147444
0.145751
0.254571
0.057041
-0.143191
0.107905
-0.096714
-0.261035
-0.106588
-0.186136
-0.243690
-0.435360
-0.314591
-0.004670
-0.071299
0.097327
-0.021724
-0.425837
0.115585
0.067224
0.016410
-0.261593
0.209337
-0.434918
-0.002745
0.018322
-0.112000
0.177307
-0.031033
-0.269358
0.235037
0.105971
-0.269807
-0.202498
0.072507
-0.042396
-0.073156
0.308457
-0.199421
0.545008
0.176611
-0.350423
-0.333299
0.063017
-0.160892
-0.116534
-0.272479
-0.101334
-0.343214
-0.015037
0.189604
-0.688813
0.037125
0.173317
0.117805
0.020548
-0.110883
-0.069542
0.218351
-0.019418
-0.000247
-0.037648
-0.189757
-0.244387
-0.129028
-0.083959
0.035053
-0.035580
0.079008
0.052950
0.331942
0.168520
-0.073478
0.027772
-0.322054
0.165199
0.012826
-0.051296
0.033288
0.165379
0.121869
-0.053889
-0.107940
-0.069162
0.006248
-0.222721
0.170216
0.118714
0.007195
-0.004008
-0.000861
-0.043990
0.054847
-0.104417
-0.048302
-0.121602
-0.178456
-0.077027
-0.090455
0.167760
-0.087924
-0.055065
-0.240774
0.017625
-0.072507
-0.212217
-0.019667
-0.049165
0.025489
-0.012953
0.192619
-0.401892
0.000432
-0.116951
-0.049880
-0.231696
0.101738
-0.142589
-0.206808
-0.150054
0.077223
0.295170
0.119207
-0.025193
0.072492
-0.125900
-0.258467
0.030588
0.162496
0.246265
0.268896
-0.165029
0.065050
0.200141
-0.082837
-0.245477
0.236132
0.172980
-0.570874
0.074618
-0.028031
-0.205601
0.078583
0.119187
-0.233159
-0.009407
-0.043146
0.178489
-0.267253
0.016786
0.036148
-0.161387
0.361778
-0.132013
-0.141928
-0.182145
0.157868
0.262614
-0.113965
0.215138
-0.140697
0.060709
-0.141928
-0.030283
-0.265708
-0.064821
0.134248
-0.128736
0.001661
-0.419171
0.219612
0.127598
-0.050250
0.141249
-0.089158
0.205351
-0.474337
0.046928
0.416716
0.300227
0.012047
0.129097
0.010347
0.048218
0.010328
-0.175891
0.135852
-0.348888
-0.146304
-0.010895
0.211287
0.068321
0.015192
-0.028552
-0.084952
0.166834
0.107292
0.059333
0.364478
0.196034
0.339586
0.131753
0.047723
0.399174
0.111709
0.116829
0.000037
0.019943
-0.081171
-0.297233
-0.100969
-0.186553
0.214740
-0.289198
0.022448
0.204740
0.308059
-0.137028
-0.152895
0.023045
-0.071951
0.015766
0.005251
0.072582
0.134073
-0.269569
0.146523
0.303803
-0.428787
-0.013199
0.182335
-0.091116
-0.110868
-0.008736
-0.154570
0.148007
0.165822
0.065699
-0.081522
-0.275980
-0.133587
-0.430746
-0.127133
-0.261178
0.288646
-0.140256
-0.485824
-0.180303
-0.025370
-0.253876
-0.163550
0.116052
-0.077543
-0.385567
-0.130100
-0.284615
0.273241
0.265918
0.143168
0.057865
0.082915
0.076308
0.074450
-0.125251
0.000437
0.101162
-0.342588
-0.178194
0.148546
-0.166601
0.128952
0.082216
-0.198842
-0.089049
0.124856
-0.266622
-0.047453
-0.023687
0.119464
-0.132374
0.039807
-0.184506
-0.126078
-0.079052
-0.027446
-0.258469
-0.271114
-0.086199
0.093196
-0.128387
0.139764
