# Shape: (3, 3, 32, 64)
-0.048592
0.033929
-0.000939
0.209642
-0.051434
-0.011747
0.101815
-0.009138
-0.062942
-0.004739
0.067679
-0.065317
-0.002167
-0.003420
0.000420
0.139328
0.014909
-0.046511
0.079112
0.046133
0.064281
-0.035209
-0.065446
0.063009
0.020734
-0.023930
-0.008096
-0.039097
0.053733
0.020593
-0.064269
0.014235
-0.023676
-0.011988
0.016608
-0.016609
0.024194
-0.075248
0.019248
-0.052192
-0.029886
-0.097158
-0.050283
-0.045770
0.069604
0.100331
0.006495
-0.030299
0.060489
0.029925
-0.006591
-0.021776
0.038273
0.016740
0.033430
-0.025866
0.019359
-0.060567
0.008289
-0.049623
0.049604
-0.021462
-0.047019
-0.010698
0.056675
-0.004220
0.006453
0.013759
0.048182
0.055548
-0.018273
0.019809
0.001553
0.023998
0.045221
0.011666
0.034554
-0.057179
0.016420
0.064296
0.018456
-0.070470
-0.020078
-0.017480
0.003133
0.040834
0.024139
-0.176644
0.043047
0.057765
-0.038484
0.018595
-0.042953
0.045821
-0.142000
-0.050514
-0.076526
-0.000147
0.002843
0.022251
-0.013972
-0.053814
0.000122
-0.025514
0.046098
-0.016512
0.004612
0.004366
0.037229
-0.050200
-0.176761
-0.033406
0.008076
0.024831
0.122420
-0.011898
-0.019672
0.056815
0.003140
-0.007307
0.034021
0.017538
0.031388
-0.049263
0.057146
0.022440
0.007077
0.051699
0.059717
-0.037089
0.029112
-0.025545
-0.089569
0.005275
0.019135
0.016242
-0.090141
0.021101
0.004271
-0.009878
0.073294
0.046486
-0.020790
0.084822
0.009504
0.002534
0.057470
-0.079827
0.013100
-0.030721
-0.004758
-0.011185
-0.008791
0.029042
-0.066030
0.098607
0.021091
-0.017023
0.022719
-0.028560
0.009204
-0.027962
-0.005178
-0.011136
0.057919
0.018736
-0.030694
-0.071669
0.024925
-0.044178
-0.036885
0.010437
0.031124
0.023619
-0.032411
0.048394
0.015326
-0.010252
0.056706
-0.014133
-0.014048
-0.024481
-0.025062
-0.057153
-0.011918
-0.006448
0.005045
-0.165604
0.056303
-0.025935
0.011637
0.025375
-0.004088
0.005619
0.026349
-0.053693
0.011107
0.006048
-0.048777
0.009105
-0.092908
-0.018291
-0.020499
-0.029167
0.046521
-0.001336
-0.019488
0.052603
0.029209
0.032963
-0.013153
-0.036071
0.013024
-0.013580
0.053974
0.008091
0.000063
0.054436
-0.034278
0.025607
0.083909
-0.015023
-0.120095
0.027007
-0.046402
0.019954
-0.011894
0.003642
0.045566
-0.040831
-0.089244
-0.059559
0.017629
-0.079939
-0.041798
0.059165
-0.038116
0.010547
-0.007362
-0.118851
0.031185
0.094905
0.105689
0.049233
0.025801
0.031989
0.052694
-0.047912
0.022745
0.021591
-0.024478
0.025175
0.003330
-0.024411
0.040368
0.007423
-0.069439
-0.035232
0.010200
-0.013601
-0.044075
0.014174
0.008366
0.007085
-0.044581
0.011844
0.033980
0.050009
0.029052
-0.115918
-0.026432
-0.034648
-0.016708
-0.033897
0.042291
-0.026423
0.029585
0.063162
-0.003226
-0.014845
0.058880
0.062346
0.040342
-0.018479
0.095705
-0.036107
0.029578
-0.044473
-0.059538
0.008542
-0.023901
0.021893
0.071536
-0.043336
-0.024495
0.024496
-0.029195
-0.091477
-0.074380
-0.065469
-0.101532
0.032649
-0.059083
-0.026766
0.040689
-0.016875
0.031153
0.005101
-0.036311
0.067389
0.023540
-0.049546
-0.006152
-0.044634
-0.022050
-0.143351
0.029446
0.015255
-0.021065
0.054119
-0.024092
0.014779
-0.036987
-0.053430
-0.042394
0.006903
-0.044874
0.021817
0.005605
0.024341
0.056300
0.050609
0.044140
-0.007333
0.016182
0.028542
-0.023269
0.065895
0.016875
-0.032696
-0.071358
0.003015
0.044970
-0.057886
0.028157
0.022416
-0.016580
-0.012533
0.104675
0.035834
0.001298
-0.067428
0.001903
-0.066091
-0.005218
0.027568
0.052857
-0.042000
-0.024070
-0.033510
-0.015294
-0.069643
-0.015175
0.013046
-0.050131
-0.007201
-0.060351
-0.106134
0.051389
-0.074257
0.063578
-0.041403
-0.030792
0.046399
-0.121433
0.024230
-0.033134
-0.008096
-0.000350
-0.097064
-0.007340
-0.053779
0.014874
-0.060609
0.065531
-0.055037
0.018976
0.020089
0.007964
0.022571
-0.026765
0.023060
-0.032369
-0.001680
0.008506
-0.010627
-0.013134
-0.013248
0.028393
0.119374
-0.050829
-0.018914
-0.057086
-0.013170
0.050017
-0.008196
0.030517
-0.056206
0.008306
0.017517
-0.022866
-0.006982
0.064133
0.014176
-0.112061
0.055561
-0.021462
0.024899
-0.020010
0.038787
0.050517
-0.015519
-0.072170
-0.056143
0.008620
0.041415
0.026113
0.078933
0.022621
-0.002344
0.059379
0.002391
0.016280
0.101093
0.094112
0.060068
-0.030565
0.034712
0.093416
-0.017206
0.033933
0.004746
0.012952
0.043719
-0.038854
0.049483
-0.013109
0.036983
0.033643
-0.026499
0.011190
0.007855
0.073242
0.016033
0.028410
-0.011863
-0.057507
-0.041186
0.110395
-0.028067
0.044673
0.010335
0.030113
-0.049612
-0.002517
-0.039238
0.014462
-0.027414
0.024954
0.028934
-0.010366
-0.013164
0.003036
-0.050518
0.042129
0.021269
0.009132
0.014912
-0.093195
0.013521
-0.108785
0.063555
0.043370
-0.017623
-0.035488
0.028348
-0.099444
-0.001857
-0.004897
-0.017666
0.026909
-0.013959
-0.020029
0.022752
-0.002092
-0.092223
0.028537
-0.005601
-0.085150
-0.023840
-0.050999
-0.044982
0.037958
0.041389
0.005488
0.055543
0.015477
-0.003908
-0.040939
-0.034497
-0.012998
-0.010367
0.051779
-0.046351
0.017906
-0.041414
0.103594
0.000071
-0.142349
-0.033624
0.082080
-0.013476
-0.006153
0.047195
-0.015465
0.001360
-0.045281
-0.074902
-0.027712
-0.078967
-0.018113
-0.027222
-0.004832
0.096829
0.002009
0.023202
-0.024239
-0.076259
-0.012202
0.039551
0.000383
0.023492
0.010092
0.015132
-0.000762
-0.009967
-0.074021
0.054926
-0.000240
-0.060275
-0.081899
0.048590
-0.013960
-0.034897
-0.085911
0.022769
-0.026636
-0.042025
-0.042460
0.027893
0.031995
0.020040
0.010903
-0.010438
-0.080816
0.003890
0.034308
-0.077384
0.000732
0.003054
-0.047711
0.043078
0.034744
-0.008462
-0.004974
0.026180
-0.078077
0.027791
0.032581
-0.053690
0.014775
0.071231
-0.014636
0.036078
-0.039316
-0.000215
0.057567
-0.003946
-0.002763
-0.003806
0.052714
0.051885
0.010332
-0.001692
-0.026953
0.014503
0.001611
-0.013176
0.054962
-0.016406
-0.047018
0.008908
0.023532
0.073657
-0.035336
-0.001811
0.021565
-0.004648
0.010714
-0.067327
-0.001361
-0.031071
0.033938
-0.052396
0.057655
-0.000504
0.017081
-0.046098
-0.076700
-0.045693
-0.017884
0.047090
-0.049580
-0.144531
0.087651
0.037915
0.126032
-0.096323
-0.032221
0.005853
-0.007313
-0.039618
0.030123
0.033349
0.032415
-0.097706
0.039894
-0.046566
0.018121
0.030027
0.011846
-0.013475
-0.073132
-0.016940
0.013915
0.058562
-0.030674
0.000369
-0.003670
0.025489
-0.030857
0.034062
-0.062765
0.039354
0.035998
-0.024040
0.060026
-0.016267
0.055775
0.086671
-0.041051
0.108962
-0.018839
0.000754
0.015487
-0.092131
0.029025
-0.075968
-0.026948
-0.034772
-0.000554
-0.007382
-0.017417
0.043317
0.038388
-0.082372
-0.054596
-0.046506
-0.021714
0.013624
0.022600
0.042599
-0.028239
-0.008034
-0.012516
-0.087452
-0.058927
0.025065
0.038458
0.055715
-0.081279
-0.016417
-0.022839
-0.076612
-0.068092
0.009876
0.019830
-0.013502
0.002918
0.018880
0.042923
0.052001
0.037452
0.044739
0.022766
-0.022102
0.027464
-0.045937
0.015734
-0.033565
0.027129
0.008159
-0.078007
0.015493
0.054384
-0.072490
0.066925
0.053157
-0.033434
-0.036492
0.018635
0.013060
0.029306
-0.054835
0.003121
0.007025
-0.030380
0.044094
0.004145
-0.031710
-0.002813
-0.015456
-0.014822
0.012895
-0.041327
0.018798
-0.022784
-0.044760
-0.092318
-0.028523
0.016001
-0.013833
-0.130039
-0.003721
0.023301
-0.062831
-0.067777
0.013237
-0.034869
0.046210
0.069714
-0.063255
0.060888
0.040786
-0.046394
-0.023798
0.065832
-0.016721
0.052662
-0.074182
0.027559
-0.032859
-0.027646
0.044123
0.029187
-0.023083
0.031248
0.057638
0.000394
-0.040326
-0.000461
-0.044613
-0.008649
0.100336
0.014339
-0.035604
0.041341
0.037527
-0.072899
0.010374
0.010529
0.001782
0.076159
-0.006717
0.030716
-0.039757
0.021874
0.074689
-0.089572
0.044964
0.002250
-0.079893
0.035550
0.002341
0.059134
0.028429
-0.051825
-0.073440
0.020124
0.009912
0.035429
0.028524
0.025078
0.013639
0.000953
0.000314
0.083251
-0.005302
0.016916
0.017918
-0.017026
0.019981
0.006350
0.020349
-0.094686
0.000766
-0.055174
0.033945
-0.048850
-0.013471
0.011057
-0.015453
0.025054
-0.008809
-0.009983
0.024770
0.040327
-0.071914
0.039855
0.006121
0.043932
-0.062869
-0.052348
-0.086798
-0.015688
-0.043839
-0.075425
0.026818
0.079318
-0.006807
0.016217
-0.003146
-0.018657
-0.007495
-0.003871
0.023996
0.011587
-0.022253
0.003214
-0.095002
-0.033574
0.012988
0.036571
0.011559
-0.005983
0.005950
-0.013084
-0.086190
-0.044197
0.056303
-0.055641
-0.001034
0.003528
0.011167
0.048109
-0.002207
0.064698
-0.064550
0.018485
-0.054436
0.002557
0.017016
-0.009232
0.036954
-0.132324
0.002883
0.039774
0.027141
-0.066435
-0.033765
-0.037879
-0.063675
-0.052464
-0.026903
-0.039765
-0.008279
-0.035188
-0.003327
0.040696
0.024983
-0.002438
-0.046409
0.064710
0.015384
-0.000805
0.139633
-0.068926
-0.072556
-0.044682
-0.004407
-0.020752
0.000303
0.002498
0.008111
-0.101949
0.033895
-0.040611
-0.073100
-0.053996
-0.064345
-0.044442
-0.053545
-0.004335
0.011877
0.035821
-0.000079
0.025727
0.004638
-0.065072
-0.015354
0.064560
-0.048723
0.034689
-0.051865
-0.012023
-0.011092
-0.044138
0.041073
-0.072567
-0.011315
0.040273
-0.015153
0.014647
-0.009045
-0.101814
-0.019706
0.022189
-0.007085
-0.117851
0.006901
-0.030530
-0.014366
0.011219
-0.013588
-0.018067
0.021861
-0.072946
0.026651
-0.018379
0.047830
-0.000091
-0.007521
-0.034535
-0.035698
0.005538
-0.038132
-0.007444
0.042991
-0.010262
0.071522
-0.075361
-0.053370
-0.020796
-0.027656
0.012310
0.098064
0.030320
-0.041309
-0.025950
0.024565
-0.074626
0.027453
-0.082753
-0.001215
0.019793
-0.080993
0.066929
0.040637
0.042487
0.051128
-0.029619
0.018546
-0.055906
0.050430
0.034863
0.098574
0.027458
-0.064704
-0.028453
-0.115857
0.008212
-0.073254
0.054785
-0.008476
0.020472
-0.020974
-0.022195
-0.009302
-0.025729
-0.005572
-0.015447
-0.013642
-0.016883
0.022399
-0.087036
0.009364
-0.026230
-0.014914
0.016993
0.010323
-0.096480
-0.029498
-0.080817
-0.003914
0.004854
-0.033974
0.011428
-0.001769
-0.009282
0.047400
-0.028956
-0.035519
0.036885
-0.001162
0.047334
-0.050797
-0.010948
0.042909
-0.002530
0.081643
-0.105978
0.012367
-0.013619
0.005951
0.023668
0.003553
-0.058624
0.073008
-0.031952
-0.039751
0.079392
0.021011
0.120435
0.061493
0.017028
0.089597
-0.018077
-0.024697
-0.010553
-0.032221
-0.050849
-0.001985
-0.039554
0.025994
-0.016564
0.024664
-0.062132
-0.028532
0.096171
-0.037453
-0.008464
0.033626
0.025818
0.019354
0.008518
0.000156
0.021642
0.005181
0.005780
0.014085
-0.002804
0.079707
0.122924
0.090686
-0.080027
0.006124
-0.141521
-0.055663
-0.026290
-0.014571
0.003166
0.008204
0.025697
-0.022207
-0.077042
0.071340
0.047305
0.018293
-0.005332
-0.011805
-0.035686
0.142728
-0.075823
0.007541
-0.058584
-0.001841
0.042836
-0.003353
0.000045
-0.037479
-0.001021
0.043664
-0.062120
-0.039759
0.032988
0.025087
0.025909
-0.029377
0.045121
-0.013331
-0.029100
-0.026163
-0.060030
0.014881
-0.024804
-0.014546
0.022022
0.008187
-0.014403
-0.003669
-0.056942
-0.072923
0.027094
-0.044313
-0.018866
-0.035095
0.047281
-0.026056
-0.004894
-0.051680
0.061693
0.000137
0.035005
-0.017768
0.041663
0.010021
0.039673
0.084492
-0.117174
-0.002733
0.026644
-0.049047
-0.002313
-0.012665
0.002392
-0.000860
0.023254
0.022754
-0.071819
0.085912
-0.017655
-0.056431
-0.018355
-0.081662
-0.020659
-0.020966
-0.006993
-0.002563
-0.003496
0.019087
0.083664
-0.005911
-0.058165
0.012647
0.030448
0.000077
0.055823
-0.026589
-0.037558
0.073436
0.008961
0.002567
-0.024939
0.009381
-0.018378
-0.072017
-0.004443
-0.060929
-0.001131
0.017914
-0.115722
-0.026677
-0.020620
-0.047708
0.051003
0.019430
0.015088
-0.018623
0.000661
0.019889
0.024337
0.061708
0.006764
0.030977
-0.040735
-0.003251
0.016571
0.040904
-0.189375
-0.019963
0.016239
0.068755
0.030745
0.017938
0.047438
-0.009648
-0.077736
0.029537
-0.030342
0.038468
0.045073
-0.048767
0.066327
0.092580
0.044761
0.033227
-0.070573
0.009220
-0.017390
0.043679
0.084995
0.047885
-0.173750
0.009782
-0.000816
0.023271
-0.009698
0.029620
0.002013
0.044323
-0.046008
-0.065679
-0.022420
-0.008007
0.023092
0.103702
-0.075223
0.038745
0.032074
-0.038683
-0.011797
-0.014889
-0.028348
-0.016885
0.016683
-0.020297
-0.025057
0.013327
0.045564
-0.089003
-0.012070
-0.046755
0.019747
0.023614
-0.009499
-0.003513
-0.023765
-0.022255
-0.104186
0.023841
-0.002344
0.082169
-0.012431
0.042163
0.001318
-0.013819
-0.061860
0.030263
0.120311
0.026254
-0.010882
0.029460
0.015336
0.049640
-0.032171
0.031157
0.016359
0.009575
0.053614
-0.030571
0.066575
0.023116
-0.044258
-0.039359
-0.002407
-0.012486
-0.184510
-0.027099
0.025348
0.013121
0.047751
0.031644
-0.010971
0.040978
-0.007072
-0.006519
0.037164
-0.001126
0.059372
-0.021774
0.027604
0.032584
0.027538
-0.021459
0.050574
-0.061587
0.022911
-0.054619
0.051585
-0.000710
0.012029
-0.032561
-0.060044
-0.016227
0.062593
0.033828
0.040910
-0.013445
-0.076421
0.014962
0.002280
-0.035688
-0.123093
-0.042294
-0.084741
-0.065661
0.042639
-0.059333
0.043397
0.008002
0.003380
-0.039706
-0.055233
-0.004228
0.024603
0.027495
0.024175
-0.058056
0.002470
-0.046445
-0.044401
0.040764
0.037322
-0.000050
0.027265
-0.028680
-0.096218
0.006387
0.028014
0.026359
-0.059290
-0.012430
-0.002745
-0.012018
0.070425
-0.003329
-0.016856
0.012773
0.028150
0.033586
0.035889
0.073163
0.065165
0.053139
0.029222
0.023133
-0.021158
-0.040790
-0.025359
0.006277
0.052842
-0.043741
0.048128
0.077876
-0.097670
-0.006250
-0.055209
-0.027453
0.003434
0.038053
-0.051126
-0.003109
-0.063998
-0.060308
-0.015652
-0.062128
-0.002763
0.017754
0.025683
-0.036469
-0.055395
-0.086424
0.065651
0.000819
-0.100421
0.051794
0.021305
-0.018007
-0.008443
0.079748
-0.012575
-0.020596
0.068601
-0.023882
-0.049262
0.005635
-0.015776
0.015715
-0.023300
0.026946
-0.033068
-0.046515
0.030843
0.052608
0.037567
0.035815
0.051700
0.016342
-0.091661
0.047508
0.025258
0.056402
0.028924
0.025551
-0.035769
0.008567
0.049041
0.018169
-0.007615
0.057657
-0.061745
0.012142
0.014058
-0.100499
0.016221
-0.080544
-0.074016
-0.021676
0.083584
0.023034
0.080281
0.027294
0.023140
-0.051930
-0.032158
-0.045428
-0.020202
0.009121
-0.008605
0.009909
-0.042299
0.051294
0.021862
0.003288
-0.039081
0.048141
-0.050728
0.062371
-0.043863
-0.033017
0.040439
-0.021725
-0.019673
0.050983
0.022615
0.012217
0.028683
0.030920
-0.013649
0.008291
0.040127
0.068904
-0.026918
-0.065626
0.023866
0.006219
-0.010286
0.024868
0.031583
0.041040
-0.042369
0.018201
-0.012569
0.014368
-0.013409
0.026248
-0.033172
-0.038274
0.033910
-0.014243
0.094092
-0.028040
-0.018931
0.038574
-0.064380
-0.013088
-0.004126
0.011129
-0.043284
-0.085067
0.022731
-0.055115
0.031999
-0.047598
-0.033954
0.028371
0.029231
0.003470
-0.005524
-0.026343
0.001193
0.033497
-0.002128
0.003115
-0.038979
-0.012505
-0.003023
0.003979
-0.020681
-0.039953
0.060746
0.054542
-0.165349
0.024927
-0.017322
-0.045680
0.004058
-0.097650
-0.024070
0.006357
-0.016022
0.034798
-0.077880
-0.000359
0.026155
-0.021635
-0.091533
0.012715
0.039118
0.103310
0.034730
-0.082146
-0.114866
0.039508
-0.083575
0.002707
0.026725
-0.035815
-0.001366
0.019315
-0.083183
-0.055657
0.000272
-0.011226
-0.011047
0.083806
-0.028545
0.033080
-0.042298
0.055708
0.040638
0.061476
-0.007200
0.031777
0.073174
-0.006725
0.017904
-0.057567
0.025895
-0.045156
0.013608
0.038668
0.042804
-0.034449
-0.001226
0.042123
-0.036202
-0.087588
-0.096090
-0.047530
-0.039575
-0.028344
0.053800
-0.018150
0.061294
0.046873
-0.018915
0.009846
0.115403
0.030709
-0.058599
0.046543
-0.001583
0.045060
-0.008653
0.030261
-0.006420
0.073165
-0.039288
-0.016101
-0.005067
0.026175
-0.006058
0.049200
-0.013818
0.046806
-0.001960
0.048223
0.027936
0.030245
-0.095970
-0.067642
0.037929
0.049147
-0.040327
0.019682
0.013260
0.008657
0.083673
0.074144
0.023233
0.074922
-0.035842
-0.029852
0.004466
-0.086938
0.018416
-0.097249
-0.111203
0.014326
0.054165
-0.032061
-0.031208
-0.010435
0.051352
-0.045797
-0.022458
-0.053156
0.049537
0.029546
-0.007022
-0.008711
0.030071
-0.013754
0.013895
0.086202
-0.015159
0.046054
0.018029
0.011649
-0.140114
0.001994
-0.013929
-0.035070
0.029432
0.047631
0.044192
-0.040890
0.002254
0.006115
-0.003778
0.038535
0.009134
0.010637
0.012909
0.004690
-0.001070
-0.038519
0.042244
0.015593
-0.076884
-0.022805
0.023605
-0.036035
-0.064780
0.036263
0.045560
0.050139
0.009848
0.071895
0.032128
-0.009827
0.003710
0.003699
0.001812
0.041579
0.032208
-0.103120
0.027595
-0.001060
-0.029631
-0.052885
0.043447
0.029551
0.057822
0.022701
0.000658
0.037661
0.030572
0.062016
-0.025842
-0.039204
-0.017091
-0.019946
0.016931
-0.048608
0.050324
0.082084
-0.032990
-0.082369
-0.064874
0.036719
-0.055912
-0.067809
-0.025273
0.015511
-0.098142
0.059176
0.042637
0.050231
0.051617
-0.016392
-0.024055
-0.014022
-0.024149
0.011791
0.003358
-0.017389
-0.022955
-0.005013
-0.012929
-0.057925
-0.008372
0.024877
-0.106781
-0.094498
0.007047
-0.060417
-0.059349
0.032910
-0.002851
-0.096755
0.131661
0.006204
0.040109
-0.053503
0.027304
-0.040882
-0.014847
0.015895
0.009556
-0.031694
-0.011146
-0.005347
-0.022059
0.094478
-0.079881
0.004457
0.004507
-0.006121
0.047188
-0.049487
-0.002304
0.005311
0.035489
0.046545
-0.085077
0.082767
-0.017029
-0.018687
-0.148967
-0.054250
-0.057966
0.075085
-0.073642
0.013083
-0.028483
-0.078447
0.065227
0.005310
-0.009238
-0.010375
0.015634
0.000959
-0.008224
0.064544
-0.071814
-0.103947
0.045069
0.047084
0.035500
0.084013
-0.021430
0.021005
-0.003149
-0.028362
-0.005745
0.016879
-0.055934
-0.009136
-0.048166
-0.049415
0.076225
-0.033248
-0.022678
0.083808
0.010161
-0.053681
0.051589
0.021518
-0.010516
0.045237
0.010726
0.053601
0.007003
0.075363
-0.032249
0.021305
0.030766
0.029909
-0.015122
-0.007163
-0.094055
0.022534
-0.031887
-0.039803
-0.041337
-0.059170
0.007464
-0.046680
-0.108935
-0.015065
-0.001482
-0.159774
-0.048690
0.041250
-0.032002
-0.055375
0.007706
-0.116948
0.094985
0.112096
-0.063584
0.007781
0.102423
0.062675
-0.059351
0.027982
-0.006496
0.002436
-0.065742
0.006621
0.058841
0.040748
-0.003152
-0.038889
0.021585
0.022952
0.028238
-0.040366
-0.008900
-0.009359
-0.023252
0.108090
0.016179
0.021839
-0.034744
0.019520
0.069490
0.033273
0.002782
-0.057889
-0.048098
0.020393
-0.008393
-0.016810
-0.072146
-0.004555
0.003730
-0.045773
-0.086927
-0.036662
-0.040988
-0.033429
-0.067990
0.005612
-0.018431
-0.032479
0.057756
-0.004864
0.025911
-0.052442
0.046582
0.006620
0.009151
0.003232
0.002403
0.029461
-0.017854
0.078145
-0.011614
0.012274
-0.052909
0.057103
-0.031948
0.014908
0.002408
0.075269
0.022365
0.014686
-0.059239
-0.022754
0.010236
0.056765
-0.036004
-0.031915
0.115638
0.024040
0.005868
-0.004737
-0.031029
-0.049984
0.007573
0.031989
0.051258
0.089953
-0.011627
0.016980
0.028029
0.058234
0.067970
0.020492
0.049213
-0.000944
-0.019359
0.027159
-0.023329
-0.046204
-0.024058
-0.001152
-0.034988
0.024845
0.076762
-0.069767
-0.003795
-0.000559
-0.009559
0.053987
0.039703
-0.050796
-0.080554
0.026439
-0.005540
0.031714
0.000786
-0.088191
0.007971
-0.028557
0.021748
-0.003930
0.015033
-0.037542
-0.077188
-0.020238
0.057127
0.023808
-0.077819
0.001816
0.030488
0.012565
0.082368
-0.003468
-0.002585
-0.012402
-0.103254
-0.032300
0.041542
0.056312
-0.024916
-0.061694
0.079653
0.007816
0.020304
0.053696
0.023048
-0.085848
0.048192
-0.087775
0.072183
0.022796
-0.043293
-0.044535
-0.081583
0.010928
0.071739
0.031513
0.047630
0.026086
-0.027013
0.013936
-0.034416
-0.027683
-0.002512
-0.009331
-0.043919
-0.001862
0.037685
-0.036347
-0.006177
-0.011418
0.011031
0.013228
-0.018931
-0.009225
-0.030888
-0.019058
-0.131887
-0.005014
0.014903
0.008185
0.043312
-0.017215
0.027649
0.014276
0.036476
-0.077334
-0.025610
-0.033955
-0.009099
0.016589
-0.003854
-0.076457
0.093875
0.048629
0.063878
0.022001
-0.070032
-0.020007
-0.010595
-0.081090
0.042003
-0.011069
0.027370
-0.005338
-0.001009
-0.018424
0.033942
0.032547
-0.021357
0.058115
-0.033100
0.139216
-0.000320
-0.005483
-0.013287
0.009643
0.003516
0.040181
-0.051285
-0.001518
0.001927
0.079449
-0.020059
0.089838
0.019078
0.022628
0.030647
0.022066
0.012716
-0.011356
-0.067311
-0.019960
0.040999
-0.037930
0.013889
-0.037154
-0.006189
0.022152
-0.032137
0.021627
-0.026768
-0.038394
-0.045669
-0.041616
-0.030258
-0.079205
0.031010
-0.015065
-0.057892
-0.085570
-0.029664
-0.030273
0.116957
0.093427
-0.013572
-0.040614
0.016906
0.024200
0.018211
-0.052505
0.055436
0.022810
0.013523
-0.023115
-0.026240
-0.063073
0.087708
-0.098734
0.031200
0.012572
-0.003856
0.009593
-0.000455
0.039457
-0.050232
0.002182
0.035097
-0.071243
0.019670
0.005870
-0.001612
0.001878
-0.061980
0.025108
-0.033564
-0.010860
0.077280
-0.044256
0.038957
-0.018507
0.022661
0.009884
-0.002702
0.036426
-0.015744
-0.074200
0.026511
0.014817
-0.006236
-0.023473
-0.149998
-0.012671
-0.142803
-0.000272
-0.046882
-0.008599
-0.055166
-0.117218
0.001191
-0.075862
-0.042163
-0.037534
0.014795
0.014291
0.028364
-0.021388
0.001615
-0.024253
-0.100915
-0.011533
0.050903
-0.081772
0.061913
0.007061
-0.040896
-0.008440
0.006303
0.016259
0.043825
0.004023
0.043287
-0.060751
0.045383
-0.068010
0.024456
-0.024680
0.041423
-0.012812
0.025447
0.048383
-0.058219
0.014474
0.028025
0.000667
-0.018007
0.057564
-0.166679
-0.012150
0.029954
0.037228
0.017130
0.040439
-0.007845
-0.009673
0.091913
-0.051600
0.001366
-0.012359
-0.110177
0.003928
-0.009213
0.048190
-0.019680
0.010981
-0.030055
-0.002866
0.077133
-0.041502
0.012042
-0.019215
-0.026241
-0.026239
0.076747
-0.028405
0.065974
0.007060
-0.022200
0.054963
-0.034933
-0.017834
0.061713
0.033807
-0.041747
0.086465
-0.015845
-0.025649
0.049153
0.028087
0.007240
0.019347
-0.035100
-0.089481
-0.033154
-0.040922
0.036763
-0.077997
-0.027242
-0.011022
-0.031007
0.029635
-0.056164
-0.002635
0.009016
0.009105
-0.004232
-0.045574
-0.006372
0.002073
-0.064183
-0.031961
-0.017924
0.014128
0.113107
0.043010
0.020920
0.077601
0.026724
0.020247
0.065045
-0.014471
0.005852
0.002867
-0.007602
-0.087533
-0.041309
0.045144
-0.008013
-0.028295
-0.012210
0.005940
-0.071336
0.001081
-0.094161
0.003887
-0.092465
-0.032109
0.063743
-0.065148
-0.032431
-0.018102
0.022324
-0.086288
-0.058382
-0.003704
-0.009733
0.053407
-0.039607
-0.023811
-0.020135
-0.051818
0.049622
-0.001472
0.023823
0.079542
-0.026512
-0.037959
0.016701
0.002487
0.002074
-0.023390
0.039821
-0.113694
0.000990
0.005986
0.003207
-0.026874
-0.018852
0.002341
-0.043464
-0.004109
-0.077276
0.004780
0.001947
-0.015743
0.054775
-0.028991
-0.001180
-0.116538
-0.062982
-0.002861
-0.050101
-0.029457
-0.064060
-0.039205
-0.032429
0.049277
0.042680
-0.068323
0.047980
0.064355
0.049626
0.002138
0.050411
-0.038541
0.001524
-0.040843
-0.079453
-0.044011
-0.078605
-0.013428
0.062245
-0.072892
-0.011373
0.024726
-0.015136
-0.096006
-0.066891
-0.010508
-0.103352
0.031637
0.001219
-0.018734
0.009029
-0.049138
-0.007626
0.012815
-0.052501
0.066567
0.037410
-0.043299
0.008831
-0.007592
-0.056130
-0.136381
0.026798
-0.015126
-0.013418
-0.013174
0.018107
-0.003400
-0.024964
0.021547
-0.074519
-0.057151
0.135916
0.005449
-0.060525
-0.009067
-0.029341
0.045110
0.044035
-0.039302
0.059968
0.056931
-0.004344
0.013101
0.003124
0.017288
-0.020301
0.039165
0.003591
0.012307
0.030718
0.039446
0.002531
0.020992
-0.016940
0.004522
-0.001819
-0.044787
0.040587
-0.058950
-0.062975
-0.051077
0.038185
-0.067291
-0.089448
0.005821
-0.033335
-0.055813
0.025672
0.082740
-0.072320
0.020453
-0.028555
-0.088690
0.075118
-0.047783
0.003363
-0.006672
-0.009177
-0.014628
-0.049022
-0.003964
-0.006600
0.026275
0.060773
-0.113621
0.051046
-0.105709
0.002535
-0.050718
0.021798
-0.094326
-0.090834
0.031043
-0.035875
-0.030568
0.064547
0.031374
-0.003941
-0.039152
0.003759
0.019566
0.052201
-0.033777
0.034199
0.091793
-0.007807
0.019876
0.072106
0.027464
0.045429
0.057463
0.000251
-0.090059
-0.019702
-0.003704
0.012065
-0.016979
-0.048842
0.042122
-0.135313
0.051218
-0.048977
0.012385
0.009966
-0.013740
0.071214
-0.077394
-0.041628
0.013015
0.049573
0.046512
0.029055
0.005587
-0.017643
0.025672
0.002569
0.006472
-0.024138
-0.025150
-0.011250
-0.006939
-0.003896
0.009142
-0.016588
-0.014071
0.011813
-0.003667
0.003894
-0.020429
0.024576
-0.001901
-0.053004
0.034687
0.044953
-0.024589
-0.083220
-0.010555
0.049509
-0.067823
-0.001456
-0.078393
-0.002561
-0.027979
0.045491
-0.014420
0.016910
-0.034486
0.007461
0.048237
0.033651
-0.013687
-0.000613
0.022941
-0.000298
0.038267
-0.021042
-0.062236
0.011669
0.068910
0.078381
-0.005243
0.034585
0.016883
-0.042724
-0.010716
-0.151955
0.051276
-0.047291
0.018294
-0.008390
-0.009923
-0.068065
-0.009608
0.006413
-0.079684
0.034123
0.010410
-0.008170
0.034572
0.015122
-0.031965
0.028657
0.017196
0.010468
-0.047077
-0.067811
-0.079121
0.025574
0.040994
0.003235
0.025887
0.017246
-0.012133
-0.028790
-0.099346
-0.052126
0.021413
0.068492
-0.044439
0.023919
-0.071826
0.025978
0.006907
-0.080506
-0.029848
0.097573
-0.043213
0.032540
0.013206
-0.033896
-0.004054
0.011526
-0.050925
-0.077665
-0.041132
-0.028057
-0.000241
0.058177
0.035342
0.006401
-0.045947
0.040897
-0.162681
-0.025254
-0.042286
-0.026880
0.007224
-0.005933
0.022621
0.022921
-0.019065
-0.069768
0.035250
0.029390
-0.040051
0.040699
0.046382
-0.028713
-0.061134
-0.041891
0.026885
-0.115226
0.019769
-0.033426
0.025863
-0.011541
-0.022176
0.000549
0.057596
-0.014906
-0.017883
0.095122
-0.080463
0.034446
0.013188
-0.119144
-0.037244
0.018574
-0.008248
-0.038421
0.001478
-0.021027
-0.003409
-0.008485
-0.043611
-0.055619
-0.030117
0.036997
0.026057
-0.014436
-0.003728
-0.040631
-0.004158
0.002699
-0.015647
0.043211
0.004085
0.022498
-0.023736
0.062130
-0.017951
0.063965
0.002763
-0.054330
-0.073625
-0.053198
-0.050701
0.006223
0.068278
-0.120146
-0.076487
0.029736
-0.033081
-0.003614
-0.024808
0.009422
-0.118028
0.084036
-0.013995
0.049648
0.050609
0.010585
-0.044692
0.012996
-0.044912
-0.061201
0.059312
-0.064706
-0.074608
0.066849
-0.059770
0.072062
-0.028110
-0.032829
0.089175
0.006962
0.004068
0.033805
0.062375
-0.034266
-0.121458
0.043214
-0.091654
0.010878
0.039428
-0.058713
-0.053267
-0.093828
0.035269
0.004651
0.049312
-0.045757
-0.083968
0.006531
-0.023433
0.045530
0.010673
-0.040860
-0.005534
0.015793
-0.016143
-0.044494
0.026912
0.046320
0.009448
0.082200
0.021622
0.027663
0.038459
-0.000204
-0.001781
-0.040438
-0.041736
0.073635
0.001241
0.144886
0.007322
0.009803
-0.021761
0.026784
0.025444
-0.013510
-0.058962
-0.058686
-0.031882
-0.016263
-0.070854
0.022295
0.027615
-0.035114
-0.008782
-0.006751
0.005103
-0.113893
-0.094512
0.027519
0.008092
-0.013238
-0.111940
-0.056417
0.046039
0.034033
0.000740
0.015785
-0.070088
-0.140624
0.023355
0.060153
0.026372
0.037270
-0.019550
0.046688
-0.105349
0.056761
-0.039599
0.043998
0.012985
-0.043348
-0.010895
0.037117
-0.039427
0.021738
0.060738
-0.028113
-0.006395
0.058100
-0.033545
-0.013053
-0.052736
0.020793
0.016248
-0.037965
0.002406
0.026867
0.035078
0.028779
0.002735
-0.027486
-0.047453
0.012042
0.017136
-0.005951
-0.053910
-0.087601
-0.021245
0.032210
-0.020440
-0.084802
0.009000
0.026610
-0.025431
-0.034369
0.047930
-0.008561
0.019109
0.027071
-0.051442
-0.003525
0.077505
-0.008787
0.010988
0.050449
-0.017655
0.049228
-0.095458
0.026968
-0.034428
0.002118
0.043574
0.058789
-0.064458
-0.000096
0.026953
-0.087597
-0.008732
0.003018
0.059462
-0.025458
0.007131
0.038978
-0.052204
0.084078
-0.008506
-0.120205
0.058299
-0.029015
0.012757
0.023496
-0.087854
-0.004696
0.018879
0.065831
0.070559
0.005316
0.039233
-0.031023
-0.002587
0.021735
-0.003777
-0.058703
0.033041
-0.125956
-0.131469
-0.036309
0.011109
0.018529
0.033515
-0.014573
-0.060231
0.027589
-0.007053
-0.000561
-0.024503
0.005232
0.046592
0.080660
-0.027246
-0.029776
-0.011041
-0.062225
-0.001576
-0.008904
-0.067467
-0.012416
0.009474
-0.004846
-0.044139
0.010793
0.030663
0.008319
0.017020
0.005285
-0.124399
-0.070288
-0.020221
0.055387
-0.149583
-0.110558
-0.130008
-0.038067
0.052616
-0.062147
-0.099000
0.021845
-0.083450
-0.010649
-0.000851
-0.083778
0.038161
-0.035090
0.004215
0.056468
-0.124486
0.031224
-0.044921
0.056115
-0.011544
0.057989
0.013423
-0.055737
0.002267
0.013259
-0.018750
-0.106547
0.039137
-0.104360
-0.062429
0.103351
-0.014435
0.044087
0.018022
0.037835
0.010204
0.099049
0.029758
-0.046621
0.030617
-0.030958
-0.013355
-0.058518
-0.033904
0.013559
0.015726
-0.030439
-0.023528
-0.066959
-0.029662
-0.024424
0.026778
-0.009280
-0.009255
-0.021788
0.023698
0.058974
-0.003384
0.011859
-0.126796
-0.008612
-0.012043
0.009872
0.096087
0.026799
-0.048708
-0.050907
-0.012830
-0.041963
0.046453
-0.021992
0.031586
-0.026019
0.013731
-0.023818
-0.018264
-0.048647
-0.019423
-0.046226
-0.071293
-0.043966
0.028232
-0.057478
-0.027170
-0.017335
0.007920
-0.019046
-0.032742
0.078873
0.031245
-0.016119
-0.071181
0.004681
0.008384
0.054140
0.001978
-0.080753
-0.035607
0.010434
-0.002479
0.057866
-0.022043
-0.097543
0.015665
0.026815
-0.013417
-0.004660
0.063253
-0.012296
0.067368
0.053089
-0.021784
-0.040934
-0.011377
-0.101815
0.035421
0.006129
-0.042331
0.044382
-0.002247
-0.043264
-0.018704
-0.017997
-0.068728
-0.043541
-0.030419
-0.012768
-0.016320
-0.105837
-0.109716
-0.022297
-0.019848
0.029318
0.090794
-0.060826
-0.070931
0.004004
-0.018975
0.019263
0.002228
-0.108236
0.016955
-0.031833
-0.062358
0.029596
0.028533
0.056521
0.032102
0.040654
0.034878
-0.010993
0.015256
0.019768
0.060828
-0.078509
-0.003751
0.013678
-0.120365
0.010650
0.018925
0.033345
-0.029181
-0.037568
0.077157
0.022277
-0.011561
-0.046913
0.002517
-0.021438
-0.080499
0.060238
0.016461
-0.092744
0.017412
-0.041891
-0.025317
-0.026885
-0.046006
-0.045775
-0.006126
-0.084146
-0.054686
-0.014776
-0.009121
0.033054
0.037504
-0.041642
-0.038837
-0.089598
-0.027727
0.027442
-0.042736
0.070859
-0.027739
-0.054344
0.082741
-0.026375
0.071182
-0.144533
0.043533
0.014683
-0.062689
0.076827
0.010281
-0.084388
0.027529
-0.041878
-0.019995
0.016357
0.062198
0.017092
0.029551
0.010604
-0.005897
0.053747
0.017041
-0.030646
-0.064322
-0.099340
-0.054093
0.097241
0.005811
0.047539
-0.005742
-0.074850
-0.052702
0.005525
0.010135
0.008908
-0.004255
-0.062779
0.010335
0.012594
0.000448
0.050299
-0.010484
-0.091794
-0.001334
-0.003358
0.027262
0.004206
-0.070038
-0.036687
0.008476
-0.058675
-0.137328
-0.051219
0.005865
0.003752
0.034126
-0.020536
-0.009275
-0.092743
-0.004556
0.027875
0.033221
0.044356
-0.041952
-0.052969
0.073162
-0.080250
0.021944
-0.011033
-0.000299
0.044294
-0.030811
0.041227
-0.020383
0.036044
0.027160
-0.053657
-0.012770
-0.016100
0.045262
-0.034236
0.003403
-0.003381
0.001422
-0.026069
-0.043127
-0.086942
0.040407
0.013747
-0.006019
0.079105
0.054283
-0.094318
-0.033534
-0.011923
-0.060741
-0.043487
-0.002496
-0.024839
-0.040760
-0.048748
-0.013231
0.008215
-0.040346
0.026153
0.012373
0.000308
0.021750
0.036139
-0.004127
-0.029764
0.035006
-0.003011
-0.017762
0.043308
-0.063757
-0.024801
0.026452
0.010858
-0.002902
0.034508
0.030698
-0.074410
0.067406
-0.021500
0.023245
-0.017347
-0.022199
0.014854
0.004479
-0.005262
-0.031001
0.034430
-0.065861
0.074612
-0.018722
-0.108419
0.021211
0.056664
-0.026526
0.063924
-0.067621
-0.087705
0.077479
0.024111
-0.011306
0.010681
0.037096
-0.051358
-0.006392
-0.010812
-0.009729
0.002519
0.003829
-0.271025
-0.088125
-0.039657
-0.025109
0.005583
0.020373
-0.014225
-0.020760
0.024037
0.009100
0.049921
0.054222
0.003115
0.014053
0.036567
-0.077938
-0.012406
-0.032820
-0.096434
0.022360
-0.008243
0.052091
0.049232
0.027904
-0.008528
-0.006033
-0.061476
0.038787
0.016010
0.047051
0.035739
-0.116316
-0.019259
0.058912
0.032960
0.004603
-0.120244
-0.021293
0.003729
0.079647
0.071391
-0.039677
-0.091683
-0.018387
-0.002535
-0.010921
-0.093668
0.042784
-0.021810
0.034672
-0.036151
-0.039920
-0.047536
0.004890
-0.043290
0.040180
-0.010104
0.010830
-0.010836
-0.036015
-0.038958
0.018372
-0.051109
-0.019890
0.003759
-0.049709
0.007326
-0.042569
0.046496
-0.097669
-0.051661
-0.037711
0.017387
-0.044421
0.057085
0.003310
-0.037580
0.001497
-0.009535
-0.000655
0.025514
0.010005
-0.015253
-0.017155
-0.008118
-0.095188
-0.070048
-0.016306
0.090973
0.054891
0.022047
0.008391
0.049523
0.029479
-0.029620
0.001203
0.033852
0.018258
0.086628
-0.068111
0.107934
0.048123
-0.051199
-0.094404
-0.012125
-0.008729
0.022058
-0.009052
-0.012471
-0.026389
0.044386
0.037832
-0.016950
-0.025879
0.017042
0.045688
0.011204
0.011605
0.006637
-0.048949
0.014337
0.010500
0.003264
0.023265
0.072824
-0.021268
-0.002007
-0.043367
0.072318
-0.042789
0.048359
-0.035359
-0.029515
0.020267
0.020269
0.049698
0.051516
-0.052899
0.009570
0.024541
0.020266
-0.003694
0.008470
0.033164
-0.115170
-0.063170
-0.013397
-0.026614
0.066319
-0.028907
0.042534
-0.014369
-0.036175
-0.036819
-0.016948
0.022308
0.021884
-0.039616
-0.025665
-0.068577
0.003194
-0.061000
-0.002508
-0.008908
0.024531
-0.027618
-0.132369
-0.025855
0.015411
-0.006132
-0.077492
-0.060364
-0.048198
-0.039060
0.059395
0.067823
-0.036941
0.033268
0.012972
0.025605
0.034104
0.070558
0.010273
0.019191
0.015973
0.075243
0.007085
-0.059850
0.000127
0.069696
0.051442
0.042916
0.063646
0.065096
0.043617
0.003236
-0.083484
0.004252
0.014357
0.024966
-0.004118
0.010252
-0.024146
-0.055321
-0.021657
-0.162965
-0.010910
0.054882
0.004953
0.031581
-0.021418
-0.055047
0.036421
-0.048893
-0.042024
0.027762
-0.006997
-0.097003
-0.022046
0.056010
0.014682
0.000071
0.081463
-0.023885
-0.017978
-0.044760
-0.042450
-0.033476
-0.060606
0.003017
-0.040510
0.043589
0.056922
-0.001190
0.027612
-0.047792
-0.005324
-0.031141
0.010837
0.022809
0.031537
-0.019587
0.021409
-0.056865
-0.011111
0.048375
0.048820
-0.039380
0.062082
0.054551
0.017313
0.043257
0.036857
0.012370
-0.076218
-0.010632
-0.079917
-0.031568
0.144135
0.024861
0.013347
0.000724
-0.001700
0.046472
0.030237
0.039359
0.003563
-0.002921
-0.025185
-0.029635
-0.010085
0.054096
-0.006669
-0.007593
0.003747
0.016276
-0.038052
0.021870
-0.016446
0.026680
0.016552
-0.056704
-0.027141
0.019229
0.058247
0.037230
0.021977
-0.017733
-0.043771
0.023858
0.021743
0.042770
-0.061238
-0.074640
0.004526
-0.033747
-0.000710
0.047841
-0.027087
0.033848
0.011442
-0.035368
0.006940
-0.018224
-0.032564
0.073052
-0.040757
-0.013859
0.028860
-0.016196
0.025167
0.002517
0.000670
0.073413
0.049469
0.010767
0.039140
0.081549
-0.030660
-0.100763
0.065854
-0.058108
0.079317
-0.051305
-0.104569
-0.008395
0.009742
0.077311
0.037056
0.001840
-0.104402
0.009634
0.016287
-0.056087
0.051488
0.019362
-0.051066
-0.008050
-0.031312
-0.034599
0.009095
-0.007601
0.012160
0.018627
0.013430
-0.156467
-0.019460
-0.042973
-0.004395
-0.007319
-0.023343
-0.022237
-0.125831
-0.056845
0.057158
-0.065620
-0.092431
0.013441
0.030738
0.034061
0.047920
0.012847
-0.032550
0.044797
-0.025314
-0.007915
-0.013726
-0.065377
-0.010972
-0.022397
-0.051597
0.020974
-0.016898
0.016997
-0.109888
-0.006220
-0.019132
0.005973
0.022874
0.036903
0.032785
0.048776
-0.011025
-0.027886
0.066349
0.016622
0.057626
-0.064045
0.012088
-0.030194
-0.073405
0.020687
0.059951
-0.044561
0.071260
0.037887
-0.002435
-0.094425
-0.044628
-0.006607
-0.107583
-0.031772
0.046282
-0.061093
-0.006706
-0.022714
-0.007582
-0.014688
0.082355
0.004591
-0.037164
0.025263
0.016068
0.061690
-0.037559
-0.004579
-0.019466
-0.018776
-0.054931
-0.023454
-0.018719
0.009249
-0.010040
0.081692
0.005181
0.071811
0.004691
-0.019924
-0.004776
0.020855
0.048514
-0.007698
0.039646
0.061204
-0.020554
0.021163
-0.088779
0.054684
0.012890
0.034240
0.021552
0.027391
-0.027550
0.028603
0.031415
0.029337
-0.020672
-0.121307
0.094204
0.031006
0.112197
-0.036852
-0.040408
-0.062304
0.022557
0.038658
0.001094
-0.092600
-0.079722
-0.016487
-0.000900
-0.030911
0.020368
0.001497
0.049934
0.044627
0.010238
0.045406
-0.071106
0.000127
-0.008057
0.032335
0.024378
-0.045886
-0.025784
0.019093
0.028655
-0.059503
0.026140
0.000383
-0.047676
0.054018
0.010302
0.023892
-0.009124
0.027447
-0.038520
-0.045138
0.067606
-0.022994
-0.000897
-0.000269
-0.049052
-0.013701
0.011942
0.024298
0.083199
0.046403
0.021369
0.028982
0.041134
0.063646
-0.000139
0.034675
0.025093
0.077201
0.026112
-0.038910
0.036592
-0.048456
-0.067907
-0.029971
0.023789
0.043148
0.012152
-0.007518
-0.067513
0.023726
-0.018882
0.076528
0.028600
-0.027907
0.006569
-0.044133
0.019590
-0.066009
0.069332
0.032999
-0.063815
-0.052561
-0.008823
0.056940
0.010272
-0.093262
0.035116
0.030510
-0.093467
0.019077
0.005440
0.028450
0.066554
-0.017320
-0.016805
-0.067970
-0.006149
-0.025535
-0.010314
-0.051288
-0.091509
-0.030320
-0.003079
0.077151
0.038466
-0.071334
-0.059986
-0.021030
0.022234
-0.003584
-0.151774
0.043195
-0.045758
-0.031009
0.070506
-0.051978
0.083526
-0.026942
-0.003109
-0.092662
0.025548
0.058398
-0.035535
0.012210
0.025539
0.041217
-0.079093
0.006004
-0.100569
-0.067689
-0.025214
-0.033269
0.006778
-0.057339
-0.074436
0.010015
0.057862
0.024182
0.006680
0.047587
-0.027287
0.000257
-0.009355
-0.044199
-0.051036
0.007516
-0.007765
0.007636
0.023285
-0.051044
0.059735
-0.010078
0.021584
0.051271
0.001474
-0.000488
0.048527
0.009061
-0.012864
-0.106199
0.009760
0.042953
-0.016285
0.008738
-0.064585
0.014338
-0.047173
-0.058215
-0.032568
-0.059223
-0.103787
0.020932
-0.042617
-0.059512
0.019936
0.013269
0.015615
0.044423
-0.009629
0.003090
0.009347
0.030157
-0.035538
0.061416
0.014620
0.066851
0.012162
-0.095044
-0.035310
0.001047
0.063125
0.033050
0.011756
0.022023
0.006493
0.067917
-0.052556
-0.035522
-0.101699
-0.071774
-0.022913
-0.091747
-0.101881
-0.017152
-0.008930
-0.164138
-0.027359
0.044984
-0.046254
0.021002
-0.032047
-0.071140
-0.031216
-0.040627
-0.114741
-0.010299
0.060535
-0.046229
-0.057532
0.000913
0.007844
0.030449
-0.038728
0.013427
0.027988
-0.085282
-0.002882
-0.029405
-0.045564
-0.065486
0.049335
0.024261
0.008780
-0.029345
-0.015436
0.039296
0.009689
0.020484
-0.036191
0.077179
0.100039
0.000508
0.057088
-0.104109
-0.069170
0.127339
-0.021428
-0.025730
0.068561
0.014050
-0.003966
-0.003799
-0.066593
-0.040523
-0.045667
-0.036746
-0.181925
-0.038372
-0.029834
-0.021556
0.043989
-0.000898
0.002724
-0.048591
0.019594
-0.058587
0.038906
0.018374
-0.007994
0.020738
-0.054103
-0.009409
0.037435
0.046047
-0.035849
0.000199
0.002283
0.007318
0.042089
0.076741
0.029802
0.038798
-0.069206
0.010321
0.042269
0.008730
0.001066
0.001491
-0.027431
0.061094
0.033451
-0.015943
-0.109154
-0.062040
-0.023907
0.024577
0.055252
-0.145306
-0.046075
-0.042280
0.005952
0.055184
-0.069946
0.025771
0.060616
-0.005344
0.099799
-0.064454
0.000988
0.035264
0.031544
-0.069237
0.032015
0.038693
0.007027
-0.024103
-0.038395
-0.006125
0.011047
-0.023134
-0.097875
-0.072892
0.007735
0.004251
-0.004679
0.035317
-0.027708
-0.103789
0.067845
-0.031338
-0.003436
-0.036628
-0.007119
-0.043317
-0.020201
-0.039352
0.037002
0.000160
-0.058307
-0.004611
0.044109
-0.045592
0.094864
0.004487
-0.041836
0.051242
-0.009925
-0.026604
0.027987
0.046460
0.033398
-0.065724
0.040514
-0.030333
0.003005
0.008876
0.067260
-0.100756
0.031258
-0.051476
-0.000013
-0.020811
-0.016858
-0.089490
-0.092977
-0.037452
0.024599
0.008344
0.018200
-0.024414
-0.019866
0.094969
-0.014371
0.007436
-0.020789
-0.017376
-0.000966
-0.002725
0.044997
0.030852
0.012130
0.023792
-0.015397
-0.052886
0.030835
-0.062180
0.055678
-0.051448
-0.140115
-0.029017
0.009911
0.036359
0.077689
-0.023819
-0.115341
0.023297
0.073959
-0.124751
-0.054507
0.054436
-0.039040
-0.002297
0.014905
-0.084240
0.047277
-0.030930
0.035597
0.022449
-0.059688
-0.020846
-0.044614
-0.029271
0.025229
0.022606
0.012317
0.003355
0.008121
-0.133211
0.048805
0.003894
0.013206
0.045788
-0.039323
-0.068677
0.025275
0.002708
-0.102917
-0.042557
0.035265
-0.003268
-0.083017
0.052244
-0.064270
0.151059
-0.031086
-0.000901
-0.019132
0.042864
-0.010002
0.001551
-0.043362
0.056524
-0.016328
-0.048388
0.036760
-0.061235
0.029795
0.028004
0.075680
0.010249
0.038781
0.015317
-0.054081
-0.021752
-0.042932
0.007141
-0.039356
-0.072684
0.022669
-0.061368
-0.055769
-0.071925
0.008483
0.081344
0.064774
0.058000
-0.024135
0.028264
-0.050593
0.035248
0.030873
-0.031126
-0.021225
0.011879
0.065907
-0.041621
-0.021280
-0.035717
0.061640
-0.066004
0.052467
0.009048
-0.031008
0.031677
-0.032453
-0.015021
-0.031961
-0.012680
-0.023881
-0.043993
-0.009661
-0.053540
0.005427
0.033353
-0.049417
0.012901
-0.059599
0.027730
0.050847
-0.050046
0.020784
-0.013767
0.023684
0.035980
0.072499
0.005782
-0.011678
-0.029129
0.007681
-0.053873
0.011361
-0.003731
-0.060529
-0.006174
0.056299
0.017647
0.022688
0.035974
0.027185
-0.065972
0.025829
-0.014122
-0.017933
-0.018458
0.000439
0.020317
0.064489
-0.024178
-0.021714
0.019304
0.032451
0.085674
-0.049359
0.033566
0.030412
-0.005943
0.001176
-0.054941
0.024029
0.022559
0.000136
-0.033039
-0.025795
0.025778
-0.011971
-0.035374
0.040888
-0.059626
0.058903
-0.010600
0.040006
-0.007421
-0.006509
0.075057
-0.062275
0.006461
0.022527
0.031439
-0.092569
-0.026425
-0.024723
0.037062
0.003024
-0.032591
0.061363
-0.022497
0.077359
-0.027681
-0.013045
0.020505
-0.091349
0.016536
-0.007219
0.021644
-0.043237
-0.017010
0.018699
0.001658
0.038913
-0.033771
0.037771
-0.052572
0.011593
-0.056201
-0.000104
-0.031101
0.019523
-0.002296
-0.034518
0.060897
0.023417
-0.008555
0.073553
-0.004981
0.071590
0.053057
-0.028784
0.070422
0.033678
-0.014660
0.010466
0.027916
-0.031585
-0.107906
-0.051516
-0.043822
0.067407
0.001715
-0.054833
0.047109
-0.001996
-0.032428
-0.000967
-0.014535
-0.018250
0.060932
0.040674
0.088176
0.045475
0.008569
-0.035538
-0.029024
-0.084755
0.020537
0.018512
0.072203
0.007216
0.034240
-0.021951
-0.007125
0.083075
-0.010435
0.008663
0.010680
-0.027017
-0.035625
0.009685
-0.047025
0.061152
0.053166
-0.069703
0.025036
-0.054575
-0.035026
0.025340
-0.001498
-0.082285
-0.062413
-0.043938
-0.060061
0.035271
0.024000
0.021020
0.028638
-0.020779
-0.033280
0.059080
-0.021789
0.002635
0.065003
-0.107261
-0.048504
0.026663
-0.039392
-0.052655
0.013543
-0.046492
0.002723
0.037748
-0.015302
0.001304
0.060621
0.045087
-0.033408
-0.034056
-0.039762
0.018047
-0.071716
0.003116
-0.056310
-0.053592
0.011945
-0.051326
-0.015443
0.087660
0.017952
0.006693
-0.022237
-0.039018
-0.077489
-0.094384
-0.020859
-0.062035
0.042875
-0.024994
-0.035166
-0.073624
0.050657
0.006225
-0.085363
0.040833
0.056019
0.033990
0.010560
0.025484
-0.015557
0.043771
-0.026266
-0.043521
-0.061797
-0.066399
0.005644
0.040013
-0.041944
0.061181
0.024993
-0.010489
-0.043751
0.099726
0.017044
-0.108059
0.060196
0.016956
-0.034272
-0.029435
-0.066366
0.045609
0.023912
-0.051868
0.027423
0.084891
-0.069957
0.018419
-0.013645
-0.073215
-0.109517
0.006921
-0.002005
0.000177
-0.017443
0.061816
-0.023500
-0.027662
0.057202
-0.067798
-0.074471
0.090617
-0.018798
-0.001571
0.033339
-0.145196
0.024892
-0.004725
0.001477
0.023053
0.028743
-0.016294
-0.013882
-0.012150
-0.002675
0.007152
-0.022102
-0.067095
-0.009430
-0.003783
-0.003430
0.046394
0.047264
-0.072050
0.002430
0.006663
0.000665
0.069788
-0.015804
-0.048766
-0.002834
0.026865
-0.009357
-0.031557
0.024963
-0.053661
0.003321
0.110183
0.042357
-0.024174
0.049938
-0.005363
-0.044886
0.024453
0.025632
0.023316
-0.010188
-0.046607
-0.049783
0.012608
-0.014338
-0.032788
0.025061
0.033292
-0.042803
0.043974
-0.010191
-0.051824
-0.028178
0.016396
-0.060593
-0.067597
0.067724
-0.049164
0.069518
0.033368
0.009272
-0.010483
0.011871
-0.052336
0.013263
0.056623
0.018964
0.035270
0.011620
-0.027690
-0.090529
0.099011
0.016384
0.008629
0.029276
0.012344
-0.045246
0.028204
-0.064702
0.016872
0.026917
-0.038909
0.009330
-0.047304
0.013214
0.062396
-0.028494
0.002151
-0.000058
0.008729
-0.035970
-0.027286
0.013152
0.027382
0.035533
0.012195
-0.047825
-0.008283
-0.002755
-0.028113
0.071343
-0.106767
0.078758
-0.006999
-0.022314
-0.032735
-0.021805
0.040418
-0.028127
0.013069
-0.030339
0.044969
-0.034340
0.054021
0.018986
-0.110602
0.064298
0.026467
0.010395
-0.072973
-0.024687
0.014909
-0.010222
-0.059147
-0.111769
-0.034572
-0.033312
0.007667
0.014799
0.032499
-0.039704
-0.033423
0.001308
0.005663
-0.017097
-0.000778
0.030336
-0.009491
0.009100
0.001010
-0.081033
0.055156
0.080868
0.123977
0.071481
-0.059525
0.021010
-0.033762
0.012148
-0.076959
0.034180
-0.056793
0.023437
-0.005451
0.000286
0.056572
0.028198
-0.004707
-0.016712
0.025984
0.065851
0.027799
0.059500
0.051203
0.007378
-0.056770
-0.004686
0.019273
-0.015834
-0.092276
-0.061591
-0.036265
0.016592
0.020163
0.030685
-0.013883
-0.019586
-0.015925
-0.032885
-0.053998
0.030388
0.061305
-0.062522
0.032669
0.020833
0.031232
0.022571
-0.065657
-0.029354
0.055519
-0.015334
0.098559
0.042108
-0.042372
-0.051714
-0.030351
-0.014588
-0.101201
-0.035799
-0.009390
-0.011225
0.023141
0.023009
0.023739
-0.026572
0.062425
-0.068304
-0.013975
-0.023922
-0.020577
0.012499
-0.056280
-0.044658
-0.004876
0.044899
-0.048571
0.035917
0.045644
-0.032058
0.088424
0.042242
-0.006918
-0.034987
0.057974
0.010195
-0.031414
0.059702
0.031441
0.008464
-0.037984
0.058383
-0.055475
0.120199
-0.008936
0.021715
0.085839
-0.099390
0.030666
-0.015865
-0.079470
-0.013813
-0.044560
-0.001217
-0.057704
0.029743
0.011835
0.026782
0.016076
-0.013509
-0.012881
0.051834
-0.120170
0.019211
0.030620
0.052246
-0.017083
0.028958
-0.016209
0.013749
-0.020397
-0.047365
0.029146
-0.011141
0.074577
-0.043840
0.013497
-0.036373
-0.061975
-0.049757
-0.045076
0.007197
0.018032
0.034374
0.018128
-0.013803
-0.059295
0.002373
-0.031161
0.015978
0.009445
-0.051519
-0.001491
0.041311
0.057858
-0.022483
0.000355
-0.025985
0.074835
-0.007712
-0.027216
0.097048
-0.000440
0.027093
-0.020455
0.004929
0.037052
-0.004601
-0.022229
0.076544
0.053746
0.012741
0.018472
0.000117
0.006456
-0.084541
0.001712
-0.019330
-0.023888
-0.021737
0.062045
-0.055818
-0.120291
0.064046
0.034955
-0.107833
-0.057231
-0.075375
-0.080632
-0.135868
0.114626
-0.011219
-0.039729
-0.039347
0.031206
0.001670
-0.013488
0.057686
-0.011848
-0.027417
-0.018138
-0.014879
0.023090
0.017696
0.019418
0.017089
-0.027862
0.016498
0.042680
0.056274
0.050045
0.015533
-0.005809
-0.019965
-0.058230
0.061262
0.040074
-0.039923
-0.003638
-0.009605
-0.023251
-0.030019
0.055536
0.029883
0.027952
0.031661
0.019127
-0.042694
0.028977
-0.032920
0.070926
0.004422
0.002816
-0.058155
0.028250
0.031857
0.038211
0.024951
0.009040
-0.049955
-0.096204
0.003139
-0.020384
-0.037289
0.003263
0.035757
0.017438
-0.055870
0.030536
0.044447
0.116228
-0.013952
0.024218
0.010094
0.010480
-0.021494
-0.016209
0.018819
-0.010735
-0.008757
-0.030603
-0.071958
0.031265
-0.037705
0.021075
-0.002655
0.029947
0.008214
0.056095
0.033080
0.060894
0.026064
-0.071145
-0.008344
-0.021422
0.013233
0.009506
-0.045597
-0.063787
0.048214
0.008071
-0.006957
-0.020784
0.031220
0.009693
0.037830
0.068547
0.025342
0.004658
-0.036110
0.027553
0.031169
-0.076345
0.066443
-0.031910
-0.001324
-0.001261
-0.013884
0.090766
-0.041309
-0.006494
-0.025573
0.019174
0.062209
0.063186
-0.034781
-0.058781
0.004075
-0.066314
-0.024563
0.016624
0.062389
-0.036362
-0.109902
-0.000177
-0.104743
-0.021132
0.014588
0.010028
-0.006371
-0.105778
-0.022262
0.011416
-0.040963
0.053446
-0.008821
0.011913
0.025158
0.035031
0.021324
-0.050549
0.009915
-0.027209
-0.074257
-0.112972
-0.043243
-0.074259
-0.037033
0.025325
0.016278
0.028901
0.020504
-0.004741
-0.090446
0.099475
0.017923
0.030379
-0.004222
-0.017036
0.028934
0.121453
-0.025800
0.062013
0.038483
-0.000969
-0.007685
-0.010946
0.078742
-0.011086
0.020749
0.029806
-0.003098
0.009953
0.041073
0.003937
0.011102
-0.015430
-0.028224
-0.068730
0.029791
0.074789
-0.160107
-0.001681
0.013152
-0.059862
0.092266
-0.048479
-0.072279
-0.005813
-0.115228
-0.058342
0.003486
-0.094650
0.088389
-0.058664
-0.058099
0.023260
-0.116041
0.112946
-0.076328
0.039379
-0.022408
0.022439
0.000864
-0.034843
0.021068
0.039818
0.018273
-0.160217
-0.005348
-0.073906
0.015917
0.008447
-0.019032
0.039246
0.050060
0.054555
0.010736
0.035211
0.002161
-0.008997
0.021693
-0.009919
0.007555
-0.017300
-0.038189
-0.004252
0.021956
0.067618
-0.011317
-0.018014
0.039580
-0.001028
0.018830
-0.018387
-0.005266
0.052518
0.034631
-0.018003
0.001034
0.020001
-0.033854
-0.040290
-0.028411
0.063728
0.059710
0.073171
-0.003328
0.006891
-0.016128
0.022818
0.032504
0.019210
0.035233
-0.005677
-0.064080
-0.029364
0.066200
-0.019452
-0.050843
-0.069034
-0.068513
-0.049525
-0.001606
-0.002369
-0.002239
-0.048738
-0.013703
0.045165
-0.029056
0.074376
0.018429
0.008106
0.025197
-0.023050
-0.006184
0.052456
-0.005628
0.011988
-0.019825
-0.006282
0.005171
0.059279
-0.000872
-0.070384
0.005079
0.019926
0.013894
0.079623
0.018279
-0.018882
0.087998
0.076675
-0.007316
-0.071374
-0.036872
-0.017135
0.022653
-0.002572
-0.067158
0.072355
-0.021641
-0.009116
-0.000344
-0.015914
0.011558
-0.053742
0.010317
0.034555
-0.077111
-0.036586
-0.047939
0.008932
-0.033561
0.038771
-0.078217
-0.013767
-0.111179
-0.014962
-0.064343
0.113858
-0.026244
-0.040471
0.037979
-0.011249
0.015020
-0.003492
-0.004869
0.001063
0.005153
0.013887
-0.026334
-0.027425
-0.039559
0.022295
0.014366
-0.031855
0.016959
0.010999
-0.020974
0.000902
0.044876
0.001418
0.016933
-0.015376
0.092846
0.089831
0.086233
-0.002723
0.024700
-0.012709
-0.093351
0.103403
0.000110
-0.021630
0.015576
-0.011506
0.047372
-0.020748
-0.002631
0.013052
0.027681
-0.041251
0.003731
0.025163
0.025326
0.026208
0.040079
-0.070022
-0.037818
-0.056042
-0.007731
0.005095
-0.056515
0.131232
-0.037363
-0.055474
0.066269
0.037631
-0.002738
-0.076630
0.017598
0.021911
-0.094855
0.087597
0.002944
-0.037046
-0.037795
-0.044715
0.061006
-0.101464
0.043905
0.045841
-0.040144
0.006324
-0.003467
0.046019
0.027138
-0.078719
-0.034020
-0.055903
0.064976
0.140863
0.030621
0.043613
-0.005308
0.021981
-0.027602
-0.037008
0.071158
-0.002860
-0.074985
0.023218
0.008735
-0.009717
0.004120
0.013181
0.018802
-0.071125
0.001867
0.006020
-0.043100
-0.045698
-0.019669
0.023951
0.027618
-0.020912
-0.083717
0.014193
-0.032708
0.000032
0.051689
-0.048701
0.022598
-0.056494
-0.060090
0.036629
0.010870
0.019585
0.004416
-0.062093
0.024262
0.024288
0.053653
-0.054701
-0.031835
0.081364
-0.066639
0.043057
0.016363
0.018972
0.024744
0.022145
0.020348
-0.066720
0.013701
-0.024345
0.043043
-0.032162
0.025788
-0.013480
-0.053847
-0.055267
-0.002295
0.059496
0.087720
0.058868
0.039669
-0.066405
0.012028
0.064422
-0.072056
-0.034855
0.011620
-0.055107
-0.004288
0.038155
0.007090
0.000395
0.025489
0.012464
0.042681
0.031393
0.039515
0.004050
-0.009231
0.005657
0.054619
0.002351
-0.016841
-0.005633
-0.021249
-0.008245
-0.012672
-0.008846
0.004776
0.084014
0.004778
-0.042650
0.080075
-0.106974
0.036447
-0.064433
-0.015351
0.024263
0.038814
-0.000794
-0.092733
-0.030555
-0.149090
0.022432
-0.024995
-0.020738
0.052248
-0.001373
-0.008231
0.034088
-0.029740
-0.094701
0.072632
0.001020
-0.015049
0.019907
-0.021279
-0.053066
-0.040981
-0.028568
-0.008891
-0.133682
-0.013820
-0.127738
-0.033015
-0.056794
-0.011077
0.026208
0.010587
0.003068
-0.059373
0.032269
0.000594
0.053806
0.030848
-0.018853
0.016815
-0.002163
-0.077866
0.001331
0.049605
-0.020422
0.069767
-0.011242
0.059362
0.060725
0.081955
0.012378
-0.003592
-0.039542
0.055280
-0.002390
0.014234
0.008464
-0.007862
-0.107751
0.008913
0.092872
-0.030953
-0.143754
-0.073848
-0.002358
0.044575
0.029934
0.023980
0.059520
0.002479
-0.008701
-0.024334
-0.040717
0.031479
-0.030026
0.072872
-0.021844
-0.091944
-0.065139
-0.071573
-0.089085
0.001791
0.031611
-0.021859
0.011287
-0.030319
-0.052381
-0.016692
-0.046274
-0.068385
0.033703
-0.012970
-0.033384
-0.002984
0.052553
-0.051081
-0.052451
-0.024088
0.004721
-0.033016
0.050672
0.019311
-0.026921
-0.019362
-0.001450
0.018862
0.031006
-0.010344
0.018380
-0.093749
-0.070150
0.045849
-0.086642
-0.005144
0.059667
-0.002160
0.083607
0.038243
0.035996
-0.014907
0.004510
0.034505
-0.010831
0.017687
0.006065
-0.029723
0.086648
0.080973
-0.026558
-0.073382
0.012382
-0.008770
0.075334
-0.014552
0.005399
0.004767
0.006146
0.041068
-0.024978
-0.089835
0.001714
0.094934
0.011392
0.016033
0.019698
-0.020550
-0.020024
-0.002573
0.028796
-0.040460
0.078753
-0.011539
0.008052
-0.001593
0.006855
-0.056449
0.027504
0.008605
-0.012022
-0.011179
0.024564
0.075802
0.045956
-0.040446
0.048441
0.028637
-0.010952
-0.023974
0.115094
0.008005
-0.088906
-0.028826
0.012833
-0.020093
0.022572
-0.054232
0.069555
-0.010680
-0.026238
-0.078235
0.037057
-0.029577
-0.006669
-0.038952
-0.016618
-0.015037
0.004893
-0.028787
-0.019449
-0.066524
0.025083
0.007029
-0.129294
0.067960
0.038253
0.007124
-0.038748
-0.048509
-0.051057
-0.077713
-0.120851
0.102251
0.019799
0.030087
0.022079
0.080220
-0.031053
0.030291
-0.011764
-0.005685
-0.029133
0.042091
0.032536
-0.051763
-0.009120
0.052916
0.037716
0.145110
0.053927
0.073148
0.056986
0.003355
-0.031767
0.046617
0.017158
0.077125
-0.039998
0.007450
-0.008525
-0.022119
0.010804
-0.056548
-0.065265
0.037507
0.024704
0.035751
0.019591
0.013716
0.018692
-0.088705
0.019066
-0.044252
0.015805
-0.095918
0.046173
0.041185
-0.025664
0.001643
0.057460
0.013784
0.038140
-0.017982
-0.048353
-0.040048
-0.016553
-0.018591
-0.007641
0.079163
0.071355
-0.053327
-0.021578
-0.047361
-0.086643
-0.112694
0.000399
0.006016
0.057788
-0.023266
0.010880
-0.008997
0.029698
-0.016080
0.025792
-0.032068
-0.013743
0.014339
0.057120
0.028048
0.047920
0.026677
-0.122078
-0.014571
0.018709
-0.000472
-0.047834
0.001838
-0.040661
0.010934
-0.019054
0.060807
0.047035
0.049095
-0.008038
0.014905
0.028187
0.009246
0.053374
0.010236
-0.014651
-0.018028
0.035324
-0.009271
0.011472
0.027965
0.046358
0.016656
-0.010139
-0.036318
0.015166
0.004689
0.018980
0.040106
0.014235
0.037528
-0.130751
0.029156
0.023347
-0.006174
-0.003279
0.017706
0.020301
-0.046243
-0.010744
-0.039651
-0.034219
0.018466
-0.033450
-0.091267
-0.009550
-0.016267
0.003136
0.013672
-0.030234
0.066589
-0.038632
-0.014311
0.016357
-0.004269
0.018236
0.036291
0.050587
-0.007168
0.011507
0.047012
0.029321
0.026965
0.088629
0.026601
0.033303
-0.029753
-0.066638
0.015241
-0.006148
0.081351
0.062922
0.022576
-0.054933
-0.012029
0.025885
-0.057451
0.025670
0.051229
-0.038862
0.018609
0.011242
-0.027456
-0.036440
0.004818
0.059365
0.019398
-0.048533
-0.022852
0.043418
-0.023140
-0.010492
0.038719
-0.005808
-0.063260
-0.120848
-0.009293
0.044120
-0.064436
-0.130484
0.038688
0.075295
-0.023902
0.028300
-0.001424
0.018563
0.060253
0.010259
-0.028702
-0.001042
-0.022507
0.010822
-0.049709
-0.052066
0.094667
-0.049103
-0.000812
-0.084773
-0.047846
0.011240
0.007339
0.038568
-0.011511
0.045386
0.026769
0.034393
0.019055
0.018002
-0.018708
0.029847
-0.044581
-0.018643
-0.011787
-0.053497
0.057385
0.041891
0.014623
0.132996
0.057718
-0.013386
-0.088020
0.070270
0.060526
-0.093219
-0.026529
0.007762
-0.012280
0.002691
-0.014578
0.028579
-0.024213
0.071018
-0.024850
0.028341
-0.001976
0.028040
0.011969
-0.021488
0.013663
-0.051922
0.017006
-0.088518
0.006938
0.027988
-0.017259
-0.020282
0.026647
0.035690
-0.098701
0.008245
-0.050179
-0.033753
-0.074788
-0.001528
0.033530
0.014603
0.026289
-0.036334
-0.025295
-0.068135
0.021034
-0.044267
-0.012373
0.011693
0.037992
-0.015693
0.019267
0.009894
0.047569
-0.054867
0.005829
0.044577
0.038933
0.052816
0.002007
-0.006155
-0.055076
-0.058861
0.103303
0.047090
-0.005736
-0.095041
-0.002697
-0.020663
-0.020688
-0.045717
0.045131
-0.005001
-0.003604
-0.005985
-0.029297
-0.026925
0.010999
0.042026
0.010160
0.003709
0.051404
0.057670
-0.021852
0.026747
0.017637
0.016872
-0.012795
-0.003677
0.024359
-0.000344
0.042665
-0.003702
0.036814
-0.042655
0.070165
0.018774
-0.089075
0.046802
0.041179
-0.082626
0.008939
-0.033049
0.004131
0.029901
-0.029070
0.020035
0.064967
0.032723
0.021556
-0.018888
0.019821
0.018697
0.038287
0.041959
0.007606
0.012449
-0.070933
-0.034311
-0.017139
-0.021345
0.024756
-0.060798
-0.005152
0.001985
0.049668
0.024499
0.067294
0.064285
-0.010912
-0.016754
0.006872
0.007749
-0.011303
0.019972
0.061416
-0.063593
-0.050938
-0.011830
0.111881
0.010026
-0.101209
0.059443
-0.023320
-0.072161
0.002883
-0.005553
0.026127
0.048924
-0.010259
-0.009423
0.036121
-0.036996
-0.029282
-0.019265
-0.003804
-0.026582
-0.005279
0.012281
-0.039489
0.035679
-0.075597
-0.027901
-0.050535
-0.007648
0.026020
-0.029131
-0.017155
-0.059457
-0.054976
0.008106
-0.059737
0.046059
-0.040531
0.002203
-0.013581
0.021112
-0.028513
-0.042471
0.012104
0.030124
0.021146
-0.013825
-0.025878
-0.007321
-0.031731
-0.018840
-0.029673
0.057384
0.001963
-0.056530
0.019522
-0.040001
-0.033954
0.054420
0.056678
-0.024501
0.002394
0.070926
0.030232
-0.032663
-0.006213
0.043429
0.012933
0.010431
-0.012794
-0.033351
-0.032649
-0.016672
0.040449
-0.012853
0.047817
0.040659
-0.011537
-0.046897
0.006928
-0.043057
-0.053813
0.036529
0.018404
-0.053391
-0.022070
-0.042675
-0.022307
-0.003124
0.046837
-0.030527
0.005277
0.013968
-0.009407
-0.027808
0.106722
0.061802
-0.001118
0.013478
0.065343
-0.051213
-0.018625
0.004278
0.005970
-0.004932
0.012190
0.028352
-0.103422
-0.038611
0.010406
0.092014
0.141578
-0.054863
0.043279
0.110268
0.050656
0.004019
-0.023481
-0.050747
-0.020860
-0.003090
-0.005819
0.010341
-0.008627
-0.012946
-0.044173
-0.013773
0.009162
0.041232
0.030073
0.005500
-0.000496
-0.072218
0.029075
-0.019173
-0.000448
0.045617
-0.090570
0.025037
0.020530
0.017017
0.031254
0.003430
0.026761
0.021538
0.024078
-0.031951
-0.015734
-0.024754
0.034493
0.030451
0.009456
-0.033049
-0.078092
-0.032974
0.019498
-0.033140
0.032273
-0.011963
0.024257
0.019539
-0.041803
0.059687
-0.033720
-0.069671
0.062237
-0.048599
-0.040841
0.059965
0.036405
-0.044579
-0.014726
-0.071338
-0.081372
-0.087629
-0.065801
-0.053545
0.009872
0.001193
-0.021187
-0.013826
-0.016916
-0.011036
-0.075266
0.031768
-0.048111
0.021106
0.025262
-0.019991
0.057644
-0.007116
-0.036346
0.024735
0.045671
-0.044184
0.038384
0.047251
0.092229
-0.013838
0.088178
-0.012876
-0.029256
0.001605
0.035428
-0.017294
0.006583
0.031581
-0.001644
-0.074225
0.017297
0.067782
-0.028771
-0.027768
-0.006735
-0.025295
-0.018370
-0.003503
-0.062817
0.001757
-0.065125
-0.038750
0.051696
-0.089843
0.024054
-0.023484
0.036466
0.072759
-0.074614
0.037882
0.006338
0.070028
-0.081835
0.067940
-0.002908
-0.026502
0.005490
0.007713
-0.032097
0.005370
-0.032303
-0.026686
-0.010234
0.033114
-0.011804
0.024656
0.060681
0.026360
-0.136056
-0.005214
-0.042078
0.026761
0.001862
0.018241
0.028118
0.013401
-0.067272
0.000113
-0.014058
0.078873
0.054073
-0.042174
0.009509
0.077528
0.002625
-0.051145
0.015523
0.005259
0.043460
-0.006676
0.016269
-0.021094
-0.004503
-0.042516
-0.009977
0.016352
0.018488
0.072919
-0.072565
0.023330
0.001204
0.007944
0.001746
-0.033075
-0.051360
-0.022676
-0.089080
-0.053622
0.028638
0.011998
-0.012007
-0.028088
0.116525
-0.028674
-0.009651
0.024270
-0.005514
0.008594
-0.040775
-0.025656
0.006721
-0.005202
-0.023410
0.034736
0.072297
-0.046756
-0.030344
0.051188
-0.005061
-0.075992
-0.026501
0.043832
0.026733
0.079640
-0.041279
0.000856
0.011132
0.055750
-0.036766
-0.025786
0.039920
-0.056287
0.018010
0.010494
-0.044001
-0.046971
-0.045031
0.042221
0.003931
-0.068017
-0.035271
-0.020947
0.004962
0.005606
0.011559
-0.030043
0.025930
0.047157
-0.094550
0.029370
-0.029633
-0.046676
0.016516
-0.017177
0.192848
0.007366
-0.038676
0.075446
-0.003646
-0.028318
0.016773
0.075684
-0.049741
-0.016514
-0.137119
-0.006395
0.103355
-0.049740
-0.029389
0.024334
0.058957
0.027634
0.001153
-0.013701
0.035117
0.032286
-0.136983
-0.031193
-0.100309
0.014455
0.036382
-0.021766
-0.058340
0.081261
-0.008178
0.013542
0.024518
0.018830
-0.007071
0.001538
0.018796
-0.024013
-0.046386
-0.047514
-0.071338
0.052182
-0.004537
0.028118
-0.018355
0.031327
-0.040161
-0.026438
0.002292
0.079824
-0.011598
-0.009687
0.008284
0.012296
-0.031634
0.072716
0.028654
0.054110
-0.027145
0.013644
-0.024574
0.008492
0.038311
0.020380
-0.015609
0.038273
0.045387
0.004556
0.003612
-0.018172
0.000583
0.133302
0.021531
0.017807
-0.045312
0.085314
0.064136
0.002299
-0.185310
-0.050912
0.047393
-0.064757
0.067985
0.040701
-0.106119
0.017203
0.112816
0.012809
0.017076
0.065295
0.009915
-0.032425
0.010746
-0.085373
-0.003160
-0.011348
-0.035150
-0.144012
-0.009031
-0.113054
-0.075418
0.001864
-0.016524
-0.073715
0.017689
-0.021378
-0.165562
-0.126042
-0.103267
0.029249
-0.045079
0.079152
-0.164919
-0.051934
-0.000294
0.064413
-0.028267
-0.002499
-0.056661
0.023176
0.055810
-0.003368
0.013088
-0.039734
-0.047323
0.022946
-0.027221
0.020755
-0.054931
-0.109644
0.025064
0.032811
0.012373
-0.079611
-0.002781
0.035532
-0.059421
-0.003075
-0.052972
-0.047354
0.072914
0.090012
0.041315
-0.012400
0.027941
-0.000386
-0.043522
-0.041481
-0.005261
0.052143
0.096156
-0.014761
0.035121
0.068175
0.010722
-0.045853
-0.026844
-0.019661
-0.025118
-0.022292
0.016343
-0.010168
0.023529
-0.062104
-0.026147
0.026313
-0.023101
-0.071169
-0.027337
0.024173
0.024087
-0.100408
-0.016890
-0.004307
-0.025221
0.031926
-0.005617
-0.025576
-0.035359
0.017212
-0.000630
-0.005742
-0.059007
0.062451
-0.093051
0.053707
-0.006528
-0.004299
0.007033
-0.000110
-0.038430
-0.000582
0.080535
-0.006827
-0.104636
-0.098389
-0.014503
0.004379
-0.010101
-0.035081
-0.029572
0.026716
-0.060126
-0.017952
-0.012617
-0.002693
-0.049418
-0.042550
-0.035951
0.029459
0.037570
0.056168
-0.000979
-0.007202
0.004838
0.004960
-0.120338
0.056263
0.000320
-0.041415
0.004958
-0.060187
-0.012699
0.016605
-0.000998
0.002770
-0.024471
-0.108492
-0.016489
0.006350
-0.037192
0.017933
0.026961
-0.019903
-0.075199
-0.022055
-0.012945
0.000329
-0.019073
0.008253
0.005346
0.042711
0.088247
0.058835
-0.035639
-0.014077
-0.009470
0.020840
0.011163
0.032102
-0.001361
0.001629
-0.003224
-0.084479
-0.069073
-0.011486
0.014299
-0.071119
-0.047755
-0.081325
0.004867
-0.023456
-0.038914
-0.086274
0.021421
-0.064297
-0.090423
0.032110
-0.015929
-0.042525
-0.020493
-0.070645
0.019334
0.011675
0.038924
-0.036386
0.047941
0.035851
0.025566
0.013258
0.001294
0.107712
-0.038388
-0.030817
-0.003167
0.014079
0.035039
-0.071586
0.018572
0.039728
-0.023584
-0.080153
0.016982
-0.012732
-0.051102
-0.189321
-0.058966
-0.082464
-0.028660
-0.068625
-0.015707
0.032995
0.002375
-0.074225
-0.085590
-0.013570
0.053985
-0.017806
0.001362
-0.007204
-0.073018
0.005410
-0.055663
0.080596
0.013029
0.002031
0.064443
0.001807
0.004481
0.007799
-0.011957
-0.069535
0.034141
0.039495
0.044620
-0.073578
-0.024737
0.022756
0.020583
0.063566
-0.017855
0.066279
0.033070
-0.000454
-0.003611
-0.061429
0.051444
-0.046735
0.041222
0.016059
0.038359
0.044938
0.019759
0.004035
-0.019305
0.072442
-0.023764
-0.041130
-0.040656
0.003386
-0.078475
-0.014480
-0.038764
-0.054837
0.042516
-0.118940
-0.046342
-0.056489
0.024866
-0.113239
0.033148
-0.010327
-0.063682
-0.035946
-0.100812
0.050677
-0.062523
0.023703
-0.031044
-0.052384
0.038762
-0.037932
-0.004674
-0.027394
0.013975
0.051408
-0.057307
0.025408
-0.048165
0.059379
-0.089843
0.081000
-0.069795
-0.054207
0.017777
-0.022179
-0.077486
0.044053
0.027329
0.007233
0.040815
0.035113
-0.010974
0.029179
0.023856
-0.037615
0.001053
-0.095718
-0.014293
-0.108624
-0.023350
0.003886
0.055043
0.011516
-0.017635
-0.028498
0.024863
0.030541
-0.040558
-0.020169
0.081495
-0.071685
0.017126
-0.106365
0.025716
0.062882
-0.023378
-0.069774
-0.020142
-0.081192
-0.002784
-0.003791
-0.034929
0.015664
0.078422
0.001732
-0.104729
-0.021312
0.001242
0.030035
0.022925
-0.006008
0.031419
-0.004465
0.021808
0.070007
0.034104
0.008855
-0.029427
-0.011051
-0.021928
0.015387
0.004515
0.003955
0.016970
-0.016592
-0.001584
0.000737
-0.038131
0.041177
-0.140594
0.096271
-0.028864
-0.059618
-0.006859
0.111360
-0.144779
0.044323
-0.005024
-0.005324
-0.001369
0.017139
0.037062
0.018577
0.028736
0.030074
0.058189
-0.028748
0.047421
-0.008956
-0.033660
-0.011862
-0.095926
0.067523
-0.028338
-0.082062
0.060950
-0.052109
0.056718
0.061385
-0.004962
-0.050422
0.047776
-0.063444
0.033407
0.009326
-0.030152
-0.086692
-0.006434
-0.038856
-0.078652
0.011153
-0.114236
0.072777
0.023598
-0.004208
-0.006577
-0.051226
-0.000365
0.030296
-0.032156
-0.000983
0.016202
-0.024103
-0.025414
0.015504
-0.097544
-0.008126
-0.020141
0.058625
-0.048355
-0.003459
-0.056734
0.040585
0.017329
-0.029030
-0.001891
0.051356
-0.049160
-0.064126
0.006851
0.011482
0.008006
-0.010924
-0.112618
-0.081782
0.001969
0.002452
0.008037
-0.043137
0.060105
-0.054686
0.063353
-0.061549
-0.051541
-0.007928
0.027000
0.046872
0.063653
0.021786
0.082843
0.041203
-0.023283
-0.032569
0.016883
-0.037749
-0.096357
-0.072131
0.015524
-0.010990
0.015635
-0.160655
0.004052
-0.041310
-0.016117
-0.017538
-0.036629
0.008004
0.011586
0.045215
-0.016190
-0.037914
0.036082
0.002279
-0.000620
0.009206
0.005985
-0.106267
0.001114
0.091943
0.046647
0.115491
0.011987
0.071735
-0.002315
-0.002435
-0.041224
0.004160
-0.010912
0.162125
0.103577
-0.037561
0.014462
0.165723
-0.001791
0.008417
0.088861
-0.006884
0.091341
-0.030250
-0.025962
-0.022193
0.019231
0.013738
0.043470
0.040252
0.028793
-0.055657
0.094942
-0.003965
0.009085
0.083822
-0.001311
-0.062189
-0.023819
0.029545
-0.005096
0.030524
-0.050492
0.003703
0.039841
-0.055666
0.015207
0.021417
-0.002908
-0.068831
0.013037
-0.042332
-0.041951
-0.064362
-0.135302
0.061408
0.022901
0.029905
-0.087827
-0.079495
0.077471
0.008959
-0.027078
-0.011662
0.021631
0.016604
-0.071380
0.076339
-0.018979
-0.007690
-0.009701
-0.071256
0.000850
-0.002604
0.001838
-0.000900
0.023080
-0.008205
0.000647
0.039502
0.009298
-0.032389
-0.010655
-0.053195
0.018798
0.026366
-0.104982
0.004799
-0.009776
0.047723
0.040926
-0.119181
0.059392
-0.011001
0.004934
0.028188
0.044012
0.015139
-0.105311
-0.042557
-0.027110
0.006386
0.059151
-0.003000
0.049129
0.027322
-0.009703
-0.020223
0.032133
0.125950
0.035367
0.032011
0.001952
-0.043277
-0.106826
0.012711
0.010308
-0.034545
0.014620
0.032690
0.006041
-0.097060
-0.010520
-0.047976
-0.067662
-0.114313
-0.087941
0.002325
0.050076
-0.045991
-0.014851
-0.004796
0.024621
0.079454
0.025378
0.041283
-0.101020
0.003150
0.064219
-0.027259
-0.131902
-0.064733
0.009762
-0.102045
-0.008649
0.017405
-0.101739
0.053547
-0.107457
-0.016146
-0.050259
0.058649
-0.017513
0.006421
-0.009580
0.001079
0.012229
-0.068228
0.025419
0.041584
-0.068230
0.010397
-0.142946
-0.050599
0.061392
-0.017134
-0.057235
-0.052524
-0.055927
-0.017937
-0.089744
-0.023128
0.025164
-0.037186
0.057254
0.022861
0.018856
-0.108837
0.042147
0.020745
-0.007108
0.048314
-0.005692
-0.066018
-0.040618
-0.078467
0.023931
0.052838
0.053637
0.032157
-0.032101
-0.004037
-0.065740
0.031439
0.021414
0.053060
0.023219
0.057296
0.062931
-0.035570
0.007588
0.036274
-0.127339
-0.017356
0.077977
0.019314
-0.005479
0.067127
0.020783
0.072863
0.030168
-0.022505
-0.008471
0.081847
0.028645
0.014014
-0.148609
-0.030700
0.096311
-0.174724
0.039455
0.001059
-0.051060
0.022344
0.059183
0.038537
0.065658
0.021334
-0.052709
0.017426
0.019840
0.045873
0.012040
0.003078
-0.002390
0.009635
-0.022684
0.038298
-0.022685
0.049656
0.031292
-0.022150
-0.053955
-0.021020
0.049941
-0.181205
0.002253
-0.020302
0.009258
-0.013256
-0.107066
-0.003320
0.003105
0.028101
0.000623
-0.026993
-0.012267
0.009493
-0.055774
-0.054972
0.026494
0.008134
-0.089341
-0.039548
-0.083996
0.020521
-0.093536
-0.029509
0.089118
0.059052
0.037032
0.099413
-0.008039
0.013092
-0.027235
-0.082522
0.044585
-0.011302
0.032899
0.059073
-0.185020
-0.083511
0.022276
-0.015119
0.033055
0.033120
0.014590
0.014139
0.007131
0.003827
0.073237
0.022372
-0.011856
-0.011943
0.007986
0.017911
-0.002831
0.010144
0.021847
0.026965
-0.102357
0.040053
-0.002779
-0.011512
0.063849
-0.007068
-0.073567
0.006043
0.013062
-0.061336
-0.039929
-0.051459
-0.105788
-0.032433
-0.020922
0.007694
-0.028066
-0.016499
-0.029800
0.046365
0.017630
-0.012394
-0.015730
0.041971
0.011764
0.001693
0.138532
-0.068194
-0.020425
-0.076634
0.007589
0.002181
-0.035371
-0.026964
0.002903
-0.062191
-0.018418
-0.060061
-0.099305
-0.090083
0.011898
0.029015
-0.083245
-0.076033
-0.003169
-0.017448
-0.019942
0.014385
0.011191
-0.042345
0.007141
0.038325
-0.031909
-0.019028
-0.060415
-0.005476
-0.005268
-0.041541
0.043841
0.005807
-0.018287
-0.011410
-0.033568
0.022737
-0.055830
-0.085129
-0.001312
0.058741
0.012543
-0.173368
-0.027672
0.026737
-0.031130
-0.008142
-0.090241
0.030252
-0.073038
-0.151913
0.005739
0.014475
-0.003994
-0.066192
-0.012958
-0.018279
-0.035748
-0.060436
0.010859
0.069648
-0.016626
0.005656
0.060493
-0.071988
-0.086092
-0.002548
-0.028186
-0.009999
0.051136
0.025178
-0.029478
-0.007437
-0.053936
-0.024939
-0.062410
-0.090012
-0.060429
0.086118
-0.069487
0.046170
0.030645
0.002617
0.050245
-0.100254
-0.059334
-0.048633
0.044255
0.023588
0.074153
-0.038466
-0.061297
0.006725
-0.024360
0.029118
-0.054880
0.032304
-0.044611
0.031300
-0.039745
-0.002927
-0.026110
0.051690
0.037945
0.002993
0.044971
-0.061244
-0.082840
-0.035803
0.033982
-0.007199
0.009567
-0.004810
-0.007293
-0.089218
0.031440
-0.051741
0.010658
-0.018984
-0.072095
-0.009387
0.037280
-0.032205
0.024739
-0.078407
0.018370
0.046477
0.029455
-0.042488
-0.047561
-0.028329
0.015191
0.035782
0.025400
-0.005297
0.031583
0.022891
-0.049385
-0.025433
0.000103
-0.057216
0.109673
0.020966
-0.139346
0.014746
0.026175
-0.035693
0.033714
-0.047780
0.036148
-0.088768
0.032276
-0.079299
0.027532
-0.059087
-0.031391
-0.042441
-0.000631
0.033142
0.033238
0.029374
0.033051
0.027212
-0.026215
0.022341
0.039630
0.020468
0.050259
0.021709
0.036988
-0.026897
-0.073437
0.055530
0.006520
0.040583
0.008488
0.001448
0.014236
-0.085319
-0.008573
-0.074740
0.038107
-0.012039
0.004159
0.016084
0.031499
-0.043281
-0.040421
-0.051153
0.043365
-0.025183
0.059091
-0.001995
-0.085557
-0.038542
0.100220
-0.049517
-0.035517
0.053120
0.028483
-0.040924
-0.067254
0.105933
-0.037584
0.038160
-0.003948
-0.033990
-0.010128
-0.022031
0.013536
0.088196
-0.027487
0.023432
0.001535
-0.071848
-0.006534
-0.054899
0.035437
0.005389
-0.160727
-0.013988
0.040637
-0.037469
-0.040970
-0.100397
-0.007481
0.039483
-0.100884
0.022975
0.088465
-0.017848
0.031795
-0.019530
-0.105173
0.037530
-0.008173
0.004737
0.050172
0.023274
0.006747
0.077174
0.052395
-0.101186
0.032967
-0.022791
-0.009978
0.022805
-0.030963
0.001335
0.010664
-0.030503
-0.035995
-0.029635
-0.028299
0.086344
0.005443
0.017135
-0.085584
0.025509
-0.051699
0.008020
0.069258
-0.023776
-0.004200
0.102635
-0.006229
0.006129
0.033614
0.000962
0.024629
0.013753
0.025942
-0.088108
-0.070352
0.001899
-0.071613
-0.078497
0.020499
-0.007632
-0.033419
0.020931
0.034285
-0.007341
0.060721
-0.005105
-0.024600
-0.071199
-0.020990
0.042344
-0.001932
-0.011326
0.052599
0.006349
0.033365
0.000093
0.018502
0.020417
-0.000086
0.026446
-0.114561
0.019678
0.067128
-0.255140
-0.037221
0.021498
0.017721
-0.002153
-0.057686
-0.013836
0.007811
-0.041702
0.025354
-0.092396
0.030624
-0.006078
0.036951
-0.011154
0.050265
-0.041035
0.008862
0.062078
0.021704
-0.012281
-0.031420
0.019606
0.053170
-0.121396
-0.008209
0.019335
0.018634
-0.024173
0.051597
-0.075222
-0.041778
-0.033078
0.050589
-0.011055
-0.019408
0.009842
0.097974
-0.063084
0.041198
0.046147
-0.073185
-0.026760
0.017649
-0.010734
-0.005624
0.006172
-0.079496
-0.004359
-0.023867
0.011229
-0.085171
0.016505
-0.028306
0.024952
0.006502
0.029751
0.044220
-0.027542
0.022780
-0.017356
0.000008
0.001076
0.083604
-0.005850
0.052709
0.008902
-0.073053
-0.008140
-0.012306
0.078478
0.040331
0.007611
0.013506
0.001524
0.039442
0.000521
-0.016712
0.003550
-0.045918
0.046497
0.031320
0.006867
0.028874
-0.028029
0.012928
-0.089132
0.029642
-0.058751
-0.027257
0.001381
0.017550
0.038778
-0.044839
0.023598
-0.054337
0.025833
-0.036911
-0.013748
0.024102
0.007171
-0.012728
0.024682
0.054661
-0.064301
0.016170
0.025241
-0.050975
-0.000296
0.004203
0.002856
0.022809
-0.014610
-0.024104
-0.008044
0.005007
0.066230
0.029595
0.000200
-0.009770
-0.086351
0.001603
-0.019782
-0.012497
-0.114459
-0.014127
0.001568
0.035353
-0.007707
-0.021404
-0.022279
-0.063931
-0.032984
-0.025969
-0.102811
0.060117
0.022058
0.039579
0.012870
-0.034356
0.051127
0.025343
0.005293
0.014389
0.075109
0.005218
-0.046192
-0.023475
-0.037729
0.020783
0.008221
0.031012
-0.009217
-0.029075
-0.008239
-0.030059
0.129475
-0.039675
-0.024789
0.010134
-0.011302
-0.141359
0.067622
0.042325
-0.062693
0.033471
-0.017872
0.059971
0.037235
0.018031
-0.049420
-0.036682
0.046116
-0.159852
-0.036045
-0.024469
-0.042016
0.032680
-0.034880
-0.008752
-0.010632
-0.069727
-0.059344
0.018779
-0.008266
0.010080
0.002829
-0.040537
-0.073121
0.007685
0.015232
-0.099570
-0.029412
-0.071459
0.115766
-0.072398
-0.130147
0.040710
-0.002389
-0.007091
-0.069292
0.001235
-0.024955
0.006971
0.008637
0.006929
0.069528
-0.004860
0.069217
-0.044838
-0.049730
0.036693
-0.013032
-0.047026
0.037157
0.126983
0.027175
0.065261
0.092148
0.041851
-0.005602
0.045652
-0.027799
0.028207
0.087351
-0.046452
-0.048094
-0.162407
0.014768
-0.035444
-0.037231
0.045446
-0.005126
0.061594
0.039207
-0.023302
0.051101
-0.051146
-0.028412
-0.007976
-0.014917
-0.039005
0.086275
0.041400
0.006733
0.040340
-0.002288
0.023258
0.067813
0.028740
0.046948
0.065359
0.014121
-0.099852
0.047573
0.057451
-0.107978
0.009711
-0.032376
0.041845
-0.074598
-0.088289
0.016523
-0.039309
-0.081579
0.018491
0.000138
0.029442
0.025145
0.075439
-0.025556
0.013677
-0.039359
0.084380
-0.072798
-0.077600
0.015291
0.109423
-0.029124
-0.067289
-0.015794
0.052611
-0.000365
0.017629
-0.063148
-0.009583
-0.052589
-0.017229
0.083051
-0.065628
0.045763
0.008755
-0.030604
-0.014049
-0.020839
0.022391
-0.063304
0.049853
0.003023
0.052761
-0.008428
-0.056070
-0.049396
-0.053674
0.031585
-0.065786
0.032763
0.040139
-0.009142
0.029233
0.052555
-0.026709
0.096559
0.083922
0.033349
0.054198
-0.088097
-0.107863
0.029790
0.004944
0.043773
0.031193
0.013569
-0.009800
-0.128197
0.074108
0.032873
0.013573
-0.006408
-0.068074
0.005447
-0.009879
-0.008636
-0.033537
-0.009016
0.037039
-0.007359
0.106802
0.008229
0.013392
-0.003675
0.088384
-0.028626
-0.056445
-0.164233
0.008439
-0.057797
-0.020022
-0.025603
-0.029730
-0.001152
-0.031834
-0.049985
-0.047888
0.025967
-0.016109
0.005455
0.052134
0.017943
0.025036
-0.044414
0.011081
0.051995
-0.024868
-0.027843
0.025597
0.005898
0.004229
0.011902
-0.033145
0.018451
-0.106933
0.041558
0.055559
0.049517
-0.070374
-0.030808
0.013615
-0.036499
-0.091047
-0.120505
0.021039
0.001565
0.029357
0.003127
-0.023009
0.044738
-0.006355
-0.022803
0.054753
0.046682
0.029951
-0.046115
0.041788
-0.006090
-0.018959
0.065711
-0.021381
-0.010714
0.025416
0.064710
0.004506
-0.071139
-0.009520
0.009812
0.039815
-0.003716
-0.044292
0.045703
0.009988
0.050399
0.030236
-0.064006
-0.048958
-0.014975
-0.024969
-0.024617
0.001133
0.001176
-0.054446
0.024347
0.054169
-0.001773
0.016112
-0.015039
0.015074
-0.015145
-0.024332
0.015499
-0.145548
-0.009285
-0.027072
0.024538
-0.073846
0.010776
0.037018
0.053523
-0.010869
0.007594
0.019853
0.133917
0.076463
0.037425
-0.029801
0.051042
-0.123295
-0.002552
0.074292
-0.016190
0.034880
-0.038175
-0.043035
-0.038847
-0.031340
-0.005547
0.017314
-0.072795
0.013593
0.018017
-0.019173
0.032170
-0.033779
-0.061727
-0.008440
-0.031759
0.003828
-0.051733
0.018775
0.008966
-0.066534
0.011718
0.049223
0.019889
0.027510
-0.015302
-0.007707
0.039187
0.035256
0.016801
0.033171
-0.033652
0.004600
-0.024952
-0.066880
-0.072423
0.005879
-0.065087
0.056052
0.032997
-0.007418
0.002704
-0.001216
0.016469
-0.052357
0.042066
0.059989
0.037495
0.023022
-0.024478
0.023618
0.053982
0.005902
-0.097713
-0.043235
0.027181
-0.020321
0.006514
-0.070582
-0.024036
0.002522
0.035950
-0.004023
-0.072877
-0.020784
0.009744
-0.045537
0.014314
-0.014066
-0.021027
0.038381
0.033933
0.049452
0.006632
-0.026008
-0.019232
0.004571
-0.036383
0.009095
0.004227
-0.041601
-0.069957
-0.015100
0.003802
-0.074828
0.031829
0.088737
-0.108266
-0.033391
0.017980
-0.010699
0.010232
-0.015430
-0.042829
-0.054627
0.039781
0.039608
0.016074
-0.138823
0.044588
-0.031964
-0.053297
0.019457
0.036554
-0.050414
0.013899
0.001274
0.001036
0.092009
0.064037
-0.066989
0.010722
0.084933
0.022600
-0.064227
0.022699
-0.003289
0.019264
0.024397
-0.027934
0.016575
-0.009546
-0.011044
-0.162331
-0.052373
-0.083471
0.042741
-0.099513
-0.064523
-0.046395
-0.090046
0.050854
-0.101199
0.020026
0.008109
-0.003863
-0.006362
-0.053036
0.026670
-0.031242
-0.047205
-0.007200
0.041999
0.014491
0.065089
-0.045762
0.007342
-0.003741
0.154259
0.014207
-0.073480
-0.085020
0.033517
-0.093737
-0.034391
0.041483
0.009247
0.007505
0.039928
-0.011358
-0.119925
-0.004574
0.034385
-0.000839
0.073147
0.001769
0.016045
-0.007058
0.029284
0.008564
0.036838
-0.024192
-0.189744
-0.038195
0.045735
-0.021304
-0.013822
-0.054042
-0.027072
-0.025547
-0.170047
-0.078361
0.069509
-0.070779
0.018689
0.036204
-0.030115
-0.054337
0.042932
0.019394
-0.093941
0.057801
-0.033513
0.116068
0.049510
-0.161791
0.019709
0.042427
0.018138
-0.046043
-0.086631
-0.012921
-0.010286
-0.083053
0.040011
0.022116
0.031562
0.032585
-0.060862
0.009728
0.008456
0.020545
-0.073082
0.014564
0.057993
-0.054319
0.105105
0.063748
0.007076
0.030365
0.015616
0.043565
0.020570
0.017070
0.034584
-0.108680
-0.145597
-0.035253
-0.053037
-0.131541
0.028395
0.034893
-0.010913
-0.030955
0.043336
0.005700
0.031680
-0.073507
-0.041795
0.015369
-0.002461
0.030254
0.019313
-0.041960
0.030798
0.030856
0.041560
-0.009770
0.002113
-0.001541
0.014860
-0.002754
0.026181
-0.004186
0.070980
-0.176695
-0.009029
-0.021289
0.013829
-0.012565
-0.033866
0.039624
-0.001144
-0.045636
0.013475
-0.074529
0.032328
-0.017727
-0.014598
0.026166
0.027151
-0.012850
-0.021375
0.011859
-0.114320
0.000420
0.057276
0.018032
0.001731
-0.032616
0.056891
0.095826
0.029045
0.056288
0.008133
0.007783
-0.007183
0.045045
0.036019
-0.024964
-0.043752
-0.077403
-0.006994
-0.108601
0.022026
0.110318
-0.013705
0.049315
0.033735
-0.029309
0.016763
0.162324
-0.079567
-0.045454
0.048354
-0.027292
-0.014315
0.016296
0.027636
-0.022068
-0.003729
-0.093450
-0.033397
-0.006358
0.045778
-0.038817
0.006488
-0.010390
-0.056592
-0.081879
-0.062844
0.046405
-0.054113
0.054915
-0.094053
-0.002228
0.023071
-0.028339
-0.018575
0.007989
0.021651
-0.035722
0.016264
0.024474
0.033166
-0.028383
0.016988
0.041500
-0.220325
0.028857
0.060738
-0.029781
-0.041736
-0.079425
-0.004735
-0.048690
-0.009284
-0.027477
-0.013986
0.039301
0.037293
0.029031
-0.038737
0.009279
-0.015285
-0.075632
0.043830
0.002859
-0.005403
0.043753
0.013851
0.009569
0.027383
-0.046545
-0.081276
0.090590
-0.028603
0.004027
-0.016724
-0.172486
0.000859
0.053840
0.028185
0.029700
0.010948
-0.087090
-0.002580
0.029753
0.003450
-0.048799
0.029097
-0.016109
-0.099750
-0.014106
0.002906
0.034806
-0.043446
-0.004241
0.000477
-0.037918
0.073382
0.021732
-0.129741
0.044043
-0.027387
-0.000174
-0.034237
0.031548
0.044888
-0.031061
0.055927
-0.017720
0.031743
0.008688
0.104970
0.059000
-0.007954
-0.045342
-0.034968
0.057922
0.059953
0.003476
-0.018924
-0.037835
-0.071098
0.049487
0.061062
-0.077315
0.010401
-0.027501
0.000401
0.021059
-0.016984
-0.059291
-0.014715
0.004245
-0.144427
0.030424
-0.023354
-0.014569
-0.017040
-0.035523
-0.024554
0.065292
-0.019027
-0.023569
-0.017186
-0.028876
-0.079530
-0.009871
0.003240
-0.011491
-0.000557
0.015196
-0.014930
0.135395
0.019157
0.011819
-0.047419
-0.016749
-0.024239
-0.013265
-0.002389
0.058191
0.031765
-0.038233
-0.061145
0.011620
-0.012163
0.093671
0.005440
0.022843
0.018254
0.023491
0.028748
0.022825
0.068890
0.006820
0.046777
0.045700
-0.207150
-0.039030
-0.030567
0.025464
0.093136
-0.040650
0.046262
-0.073649
-0.003723
0.006118
0.023379
0.006747
-0.194914
-0.012258
0.085710
-0.036901
0.031422
0.009587
-0.116816
-0.041997
-0.004189
0.048517
-0.050185
-0.150888
-0.082191
-0.093395
0.047114
-0.066985
0.008213
0.014239
-0.083170
-0.096064
-0.004856
-0.031976
-0.056943
0.017108
-0.046718
0.056044
0.023145
-0.014917
-0.131507
-0.018914
-0.056363
0.037795
-0.043839
0.021390
-0.180611
-0.038925
0.034172
0.054985
-0.012288
0.005651
0.032278
-0.043638
0.014675
-0.019440
-0.035498
0.034518
-0.016743
0.063480
0.019649
0.018686
0.093686
-0.042162
0.053711
-0.028417
0.042879
-0.052731
0.017685
-0.116506
-0.071831
-0.047428
-0.055962
-0.052955
0.034712
0.070277
-0.012850
-0.004352
0.031562
0.033545
-0.010801
-0.114681
-0.060277
0.075948
0.074160
0.012426
0.049246
-0.127987
-0.012047
-0.045109
-0.031843
-0.009783
-0.013719
-0.029053
-0.031396
-0.008853
-0.023196
0.051874
0.000784
-0.008552
0.028185
-0.022937
0.030886
0.082230
0.038372
-0.002393
-0.031933
0.018463
0.032855
0.006832
-0.009936
0.015509
0.001411
-0.009087
0.000491
-0.021393
-0.089964
0.084099
-0.092832
0.022006
0.034210
-0.016891
-0.005133
0.055564
0.051656
-0.004675
0.072898
-0.027531
-0.098934
0.016160
-0.018443
0.013681
0.066840
-0.047976
-0.050818
0.002418
-0.029532
-0.054371
0.088014
-0.019571
-0.018548
0.010374
0.019070
0.026423
-0.003888
-0.005575
-0.093722
-0.007695
-0.017714
0.058018
-0.224281
-0.105921
-0.062133
-0.108950
-0.018244
-0.123308
-0.026377
0.009279
-0.079802
-0.038893
-0.083562
0.029305
0.027916
0.039796
-0.008999
-0.005410
0.033817
0.003726
-0.092989
0.008752
-0.136539
-0.089361
-0.182769
-0.039061
-0.023852
0.070102
0.092149
-0.013215
-0.002554
0.007295
-0.043631
0.044510
-0.019398
0.074685
-0.089746
-0.003278
-0.027442
-0.056827
-0.038193
-0.012896
0.027839
-0.091661
0.015488
-0.072090
-0.007434
0.051967
-0.059789
-0.082032
0.016475
-0.050527
-0.118153
0.028733
-0.005014
-0.087310
-0.040984
-0.100748
-0.013124
-0.003761
-0.018617
-0.034419
-0.000480
0.020832
-0.061689
-0.005557
-0.039676
0.089406
-0.006616
-0.042212
0.018099
-0.001935
0.012837
-0.094030
0.006152
-0.037317
-0.049055
-0.015485
0.005726
-0.012382
-0.074502
-0.053149
-0.017641
-0.100465
-0.017825
-0.004755
-0.025505
-0.019184
-0.076214
-0.043775
-0.026289
0.001425
0.003165
-0.010645
-0.013756
-0.007601
-0.090246
-0.029343
-0.031474
0.028021
-0.023565
0.028157
-0.019368
-0.017968
0.002818
0.007841
0.042556
-0.074626
-0.043556
0.144831
-0.030746
0.076082
0.051119
-0.054475
0.000964
0.008604
-0.077985
0.033835
0.025514
0.001592
-0.031354
0.006115
0.077966
-0.001407
-0.011994
-0.015183
0.029249
-0.027144
-0.079132
0.024599
-0.040758
-0.022785
-0.108156
-0.078867
-0.047342
0.010630
-0.069938
-0.018713
-0.052355
-0.055130
-0.032876
-0.065642
-0.020796
-0.045630
0.025858
-0.028396
-0.023214
0.009470
-0.012339
0.009029
-0.117029
0.037087
-0.067622
-0.033039
-0.026689
-0.054393
0.012575
0.024029
-0.017006
0.006200
0.050919
0.014522
-0.037865
0.046111
-0.142247
0.035765
-0.086903
0.049327
0.041658
-0.080288
-0.029968
-0.063337
-0.099948
0.089962
-0.033072
0.031198
0.085896
0.046240
-0.093626
0.048721
-0.018784
-0.008555
0.078493
-0.000048
-0.028834
-0.017048
0.052067
0.030778
0.010291
0.007203
-0.164500
-0.049043
-0.002343
0.087054
-0.155141
-0.109479
-0.007626
-0.152608
-0.013504
-0.166986
0.047756
0.014561
-0.073006
-0.093721
-0.075819
-0.062801
0.028302
0.069904
-0.042117
-0.050523
0.012712
0.031496
-0.135732
-0.006049
-0.085419
-0.024169
-0.065340
-0.028435
-0.065153
0.004596
0.028092
-0.015605
0.057370
0.013091
-0.043145
-0.014827
-0.057643
0.052597
-0.051603
0.044497
0.039357
-0.011645
-0.002115
-0.044566
-0.085148
0.053684
-0.030992
-0.036561
-0.111216
0.015419
-0.027745
0.107201
-0.086172
0.050906
0.031904
0.028291
-0.047899
0.024909
0.017112
0.037547
0.005969
-0.003001
-0.015312
-0.028482
-0.023595
0.023472
-0.058961
0.029836
-0.185750
0.100816
-0.029308
-0.089468
0.103314
-0.065594
0.014254
-0.014542
-0.002777
-0.060154
0.031692
-0.039520
0.028866
0.004380
0.002147
-0.036476
0.000166
-0.045181
-0.011138
0.004043
-0.072164
-0.078800
-0.073060
-0.066688
-0.035623
-0.013882
-0.072291
-0.026775
0.003370
0.018094
0.000205
-0.104101
-0.041667
0.051291
-0.168805
-0.023094
-0.013836
-0.049611
-0.078967
0.036997
-0.022801
-0.025092
0.008587
0.042650
0.037877
0.018177
-0.028639
-0.011098
-0.028817
-0.023062
-0.016773
-0.008450
-0.030851
-0.156871
0.006532
0.028293
0.016057
0.003001
0.002998
-0.073834
-0.022504
-0.025431
-0.161247
-0.038653
0.008985
0.039653
0.038285
0.019545
0.084336
0.074677
-0.039416
-0.063722
0.015757
0.001513
-0.072333
0.056788
0.049254
-0.022095
0.031609
-0.071360
-0.019220
-0.134226
-0.008968
0.017268
0.050745
0.009614
0.009702
0.007013
-0.023806
0.017269
0.016982
-0.003276
-0.012544
0.010893
0.050573
-0.116102
-0.063195
0.030584
0.043275
0.084893
0.023758
0.051572
0.046959
-0.030190
-0.046217
-0.030119
-0.055822
0.099370
0.092005
0.017224
0.019514
-0.083202
0.062851
-0.022741
0.059107
-0.107351
0.016313
-0.012106
-0.055746
0.040407
0.000528
0.046668
0.008314
-0.025953
-0.091151
-0.066236
-0.028354
0.014406
-0.048350
-0.107791
-0.119276
-0.112485
0.038118
0.026879
0.014317
-0.021154
-0.099512
0.022834
-0.032158
0.080817
0.019402
0.014804
0.017837
0.019198
0.032979
-0.041971
-0.075870
0.002351
-0.160594
0.000352
0.010734
-0.070735
-0.114877
-0.033144
0.065400
0.014518
-0.007199
0.015635
0.066241
0.003690
-0.115862
0.077128
-0.076250
0.036451
-0.003155
0.013711
-0.006250
-0.051489
-0.025448
-0.034559
0.114854
-0.018630
-0.026822
0.047823
-0.102140
0.030099
-0.007803
-0.105003
-0.006573
0.022917
-0.069507
-0.044890
-0.061259
-0.004881
-0.046146
0.025868
-0.110503
0.065640
0.081753
-0.028058
-0.002806
-0.034420
-0.123349
0.109101
-0.000573
0.094242
-0.008522
0.023473
0.015197
-0.011577
-0.003637
-0.057045
0.004946
-0.017815
-0.005465
0.059806
-0.008706
-0.007454
-0.201398
0.018944
0.017971
-0.059334
0.047250
-0.050962
-0.213575
-0.016942
0.047345
0.034356
-0.184821
-0.112997
-0.024808
0.026982
0.046336
-0.090770
0.010862
-0.092396
-0.000281
0.016325
0.029935
0.067368
-0.037849
0.006886
-0.003089
-0.006510
-0.022741
0.096603
0.009979
-0.022988
-0.026615
0.010345
-0.092567
0.022244
-0.050992
-0.012190
-0.070576
0.056649
-0.010140
-0.020576
-0.026655
-0.000808
0.002019
-0.075589
0.032689
0.071911
-0.100338
0.023524
-0.044905
-0.050707
-0.049033
-0.032856
-0.041505
-0.005837
-0.057540
-0.052810
-0.079866
-0.041104
-0.032017
0.000730
0.072820
0.020409
0.043014
0.015893
0.036603
0.035357
0.016383
0.008601
-0.064409
-0.141565
-0.055375
-0.047181
0.022714
0.052210
-0.000269
0.040016
-0.001383
-0.020837
-0.029444
0.021479
-0.003664
0.067095
-0.010266
-0.012210
0.005351
0.029023
0.000814
0.021630
0.059461
0.004418
0.003071
0.017481
-0.031378
0.063994
-0.000116
0.007645
0.077582
-0.265720
0.042567
0.004297
-0.053688
0.005193
-0.310481
0.055115
0.058750
-0.035709
0.008296
0.016417
0.041787
0.009399
0.048898
0.023342
0.074140
-0.053946
-0.197998
-0.027870
0.040778
0.022965
-0.005588
-0.014223
0.022621
-0.048411
0.010574
-0.023634
-0.040853
0.014789
0.026284
0.072861
-0.146506
0.011333
-0.026854
-0.063207
-0.009864
0.045109
-0.075164
-0.035936
-0.140612
0.013944
-0.055871
0.035680
-0.037553
-0.002336
-0.003428
-0.001660
-0.061341
-0.122287
-0.015036
0.015795
-0.123823
0.031755
-0.018774
-0.027868
-0.025647
-0.068765
0.019592
0.013783
0.004110
0.084347
-0.011123
0.004805
-0.022940
-0.214208
0.066453
-0.042486
-0.051878
0.038089
-0.257177
0.039950
-0.062261
0.056987
-0.038481
0.003002
0.013401
-0.019595
0.012340
-0.078972
0.033945
0.025882
-0.105338
0.019586
0.005893
0.021955
-0.012642
0.034858
0.028654
-0.001533
-0.031988
-0.002466
-0.012355
0.014164
-0.043896
-0.058728
-0.101206
0.018753
0.025317
-0.015692
-0.101782
0.029333
-0.075659
0.017760
-0.035877
0.000745
0.018947
0.045453
0.018564
0.003539
-0.030051
-0.041699
-0.006914
-0.004890
0.012131
-0.073559
0.089185
-0.004612
-0.032315
-0.059679
-0.107221
-0.027211
-0.008769
0.008809
0.015850
0.003482
-0.080518
-0.026539
-0.021475
-0.110545
-0.016958
0.027786
-0.102351
-0.069625
0.009944
-0.065891
-0.011124
-0.024944
-0.065651
-0.043487
-0.047989
0.048251
-0.038849
0.014532
-0.081309
0.019721
0.014018
0.016516
0.047526
0.007855
-0.003638
-0.060547
-0.082777
-0.011360
-0.056530
-0.091450
-0.005423
0.037006
-0.009817
-0.032469
-0.033271
0.027936
0.005040
0.021048
-0.051195
-0.092619
-0.146271
-0.120994
0.003583
0.018763
-0.098346
-0.006581
-0.009043
-0.023891
-0.055949
-0.075598
0.039361
0.003455
-0.032187
0.006505
-0.026735
-0.039302
-0.047289
-0.008174
-0.025451
-0.004157
0.123855
0.014764
-0.052822
0.051134
-0.135360
0.019691
-0.037611
-0.167613
-0.005794
-0.004692
-0.120261
0.003368
0.001477
-0.005527
0.020092
0.003126
-0.077492
-0.029764
0.110367
0.031599
-0.027873
-0.097360
-0.031647
0.079629
-0.064122
0.044665
0.039427
0.046984
-0.047447
0.010113
0.011664
-0.023002
-0.012432
-0.007491
0.030406
0.018005
0.013105
0.029024
-0.102510
-0.061966
0.071700
-0.035486
-0.030802
0.018563
-0.128322
0.031201
0.028108
-0.000415
-0.063505
-0.041578
-0.052942
-0.016908
0.014973
-0.029178
-0.038802
-0.072813
-0.046950
-0.007952
-0.027135
0.094973
-0.014147
-0.044193
-0.019971
-0.031340
0.080004
-0.068716
0.049629
0.044782
-0.159391
0.016637
-0.008324
-0.079054
0.098922
0.033495
-0.153538
-0.002088
0.041945
-0.035243
-0.000039
-0.038198
-0.099172
-0.007161
0.051089
-0.062825
0.028333
-0.090977
-0.082031
0.020372
0.042433
0.042676
0.052161
-0.001413
0.042498
0.040551
-0.011173
0.004554
0.044217
0.013441
0.041410
0.000335
-0.009464
0.026159
-0.093790
-0.005736
0.071511
-0.010599
0.096850
-0.043946
-0.139856
-0.083792
0.034191
-0.040023
-0.119101
-0.106243
0.008128
0.011783
0.057058
-0.086787
-0.090913
-0.070805
0.011950
-0.041308
0.057354
0.048527
-0.102712
-0.029709
-0.004827
-0.048401
0.054477
0.040389
-0.032452
0.062271
-0.058234
0.100667
-0.029035
0.020957
-0.016269
0.002071
0.098043
-0.025680
0.041829
-0.019325
0.012307
0.000344
-0.040790
-0.006426
-0.050803
-0.024839
0.026660
0.015591
-0.162696
0.062238
0.033685
-0.017086
-0.058955
-0.089489
-0.024704
-0.043464
-0.122031
-0.044365
0.045024
-0.105067
0.026539
0.015894
-0.080516
0.007878
-0.053697
0.027707
0.061976
0.015839
0.039463
-0.072138
0.015076
-0.035382
0.046927
0.006071
-0.044632
-0.073203
0.029501
0.030449
0.000068
-0.013919
-0.034283
-0.035721
-0.024455
0.009991
0.019597
0.023601
0.013037
0.014994
0.000011
0.003351
-0.026442
-0.023808
-0.061354
0.071872
-0.025107
0.026758
-0.031782
-0.098098
0.053976
0.015902
-0.037961
-0.169205
-0.366099
0.004746
-0.059579
-0.029768
0.013657
-0.010270
0.001261
0.045282
0.065487
0.025666
0.041263
-0.125418
-0.123768
-0.081140
-0.009855
0.014338
0.016742
-0.035794
0.047861
-0.031415
0.010436
0.012790
-0.000770
0.001629
0.003097
0.003073
-0.139780
0.008733
-0.088046
-0.101004
-0.022392
0.015094
-0.047049
0.038578
-0.070894
-0.006905
-0.027465
0.004322
0.073535
-0.115789
0.015785
-0.014831
-0.004954
-0.077746
0.051157
-0.044967
-0.006103
0.066878
-0.045026
-0.010757
0.102402
0.018860
-0.001483
0.018743
-0.000243
0.043505
-0.031446
-0.080767
0.024677
-0.072964
-0.088650
-0.066993
0.025361
-0.029885
0.003004
-0.021005
-0.008032
0.015069
0.028060
-0.010505
-0.049915
-0.058836
0.070086
-0.030833
-0.008760
0.008790
-0.077241
-0.001402
-0.106045
-0.011823
-0.108580
-0.024425
-0.002314
0.009389
-0.049068
0.009609
0.028950
-0.038371
0.017149
0.077577
-0.007132
0.003187
0.022125
0.017890
0.023116
0.004278
-0.035081
-0.026676
-0.051707
0.047759
0.076127
-0.000987
-0.005407
-0.008513
-0.007672
0.032389
0.029384
0.047188
0.004650
0.049274
0.015373
0.096699
0.019599
-0.056257
-0.087573
-0.125096
0.025830
0.144978
-0.043238
0.021201
-0.023334
0.074735
-0.060552
0.011726
-0.078781
0.035909
-0.004219
-0.041691
-0.018922
-0.025856
0.022885
-0.012497
-0.030385
-0.065981
0.065923
0.005696
-0.092765
0.043197
-0.027556
0.032214
0.018833
0.005257
-0.026957
-0.012600
-0.024656
0.019461
0.035901
0.014052
-0.057238
-0.070916
0.005411
0.001450
-0.016849
-0.012655
-0.022589
-0.059068
0.032246
-0.009231
-0.006675
-0.055495
-0.121162
0.060387
-0.047984
-0.108650
-0.003709
0.063998
0.046912
-0.009633
-0.004160
0.023692
0.045091
0.054758
-0.079454
0.025237
-0.007814
0.024181
-0.064419
-0.084481
-0.063383
-0.020588
0.003633
-0.001253
-0.074839
0.069023
-0.063087
0.073036
0.033799
-0.016638
0.015826
0.076191
-0.068918
0.025102
0.074750
-0.115673
0.013126
0.035936
-0.010823
0.020727
-0.033238
-0.081208
-0.025821
0.056427
-0.096663
0.076292
-0.003548
0.065794
0.006187
-0.015569
-0.026126
-0.063476
-0.067596
-0.024114
-0.011341
-0.128098
-0.020947
0.025010
-0.069149
-0.027537
-0.013126
-0.005803
0.026595
-0.005502
-0.081812
-0.035968
-0.160995
-0.101334
0.083304
-0.004348
-0.083748
-0.046956
0.031948
0.027130
0.006023
-0.059988
0.030863
0.071396
-0.059190
0.030230
-0.029516
-0.035207
0.009399
-0.048585
-0.032389
0.023948
0.062977
0.034778
0.013322
0.034607
-0.090386
0.048968
-0.008358
-0.111467
0.023443
0.046186
-0.036616
-0.099462
-0.213704
0.010376
-0.110131
0.041485
-0.109709
0.022341
0.105795
0.024192
0.009570
-0.041705
0.007118
0.042655
-0.007722
0.093654
0.001866
0.050970
0.040091
0.021190
0.013307
-0.035883
0.013724
0.028397
0.004555
0.033819
0.002177
-0.061546
-0.187251
0.014291
0.008107
-0.098273
0.005163
-0.105997
-0.057039
0.034112
0.006432
0.046854
-0.080789
-0.020607
0.041797
-0.003810
0.022855
-0.049019
0.000330
-0.124021
0.006770
-0.073046
0.062613
0.023135
-0.047873
0.003567
-0.020572
-0.049792
0.060037
-0.009507
0.045372
0.033513
-0.138655
0.004812
-0.002080
-0.093850
0.037110
0.070522
-0.190053
-0.005586
0.007179
-0.037429
-0.017089
-0.039237
-0.080515
0.012286
0.080621
0.011413
0.110420
-0.019977
-0.116994
0.110862
0.023159
0.048027
0.022057
-0.014399
0.054870
-0.013195
0.048437
0.000453
-0.000257
0.031482
0.059999
0.037434
-0.018570
0.039951
-0.109495
0.050276
0.079221
-0.025911
0.016983
-0.002820
-0.146159
0.003284
0.106129
0.068313
-0.112176
-0.017985
-0.062684
0.033323
-0.042560
-0.047210
-0.101549
-0.120743
-0.046235
-0.038202
0.017843
0.006386
-0.006100
-0.015501
0.055723
-0.062934
0.010633
0.090221
0.042105
0.003465
-0.049829
0.003309
-0.052604
0.022825
-0.067129
0.020231
-0.007229
-0.014342
0.049904
-0.127097
0.026094
-0.015708
-0.033875
-0.091250
0.036136
0.036598
0.031578
-0.046401
-0.017535
0.057418
0.014156
0.042683
-0.044713
0.029901
-0.110265
-0.041384
0.002496
0.039173
-0.089842
0.004573
0.027960
-0.012141
-0.113118
-0.000384
0.033969
-0.090824
0.005463
0.002092
-0.040462
-0.033063
-0.005855
-0.040598
0.030208
0.035151
0.030080
-0.066417
0.035445
-0.017492
-0.011510
0.053643
-0.034646
-0.008440
-0.002102
0.034101
-0.007390
0.004355
0.005527
0.004637
0.075628
0.004844
0.058326
0.011650
-0.041304
0.032224
-0.022344
0.079224
-0.024707
-0.026653
-0.036926
0.030474
-0.026134
-0.077180
-0.085601
-0.020747
-0.055047
-0.021966
-0.061612
0.039383
0.091003
0.019292
-0.017235
-0.001197
-0.148087
0.097956
0.067300
0.082957
-0.093690
-0.034392
0.006145
-0.008639
0.019223
-0.027574
-0.004409
0.005845
0.049442
0.019663
-0.047429
0.031399
-0.069084
0.075652
0.083443
-0.003754
0.080126
-0.073491
-0.100295
0.023784
-0.012715
-0.019525
-0.080461
-0.094250
0.013919
0.002821
-0.012420
0.057810
-0.026895
-0.058137
0.008225
-0.082725
0.038238
-0.058179
0.019056
-0.047317
-0.050750
-0.014133
-0.006222
0.032248
0.003836
-0.044379
0.032970
0.007399
0.025906
-0.057933
0.045907
0.029067
0.029651
-0.080886
-0.080037
-0.021277
0.067104
-0.025959
-0.033558
0.043953
-0.030573
-0.001668
-0.016008
0.022118
-0.162097
0.008401
0.045690
0.053100
0.084433
-0.045373
0.043317
0.018110
0.023943
-0.132838
-0.019585
-0.013027
-0.059426
-0.022870
-0.105390
-0.061492
0.017282
-0.046357
-0.026684
-0.043086
0.021136
-0.018655
-0.187011
0.090114
-0.016337
-0.019978
0.022789
0.007049
0.061268
0.034336
-0.022962
-0.004937
-0.035898
-0.045779
-0.011772
0.031221
0.005693
-0.035783
0.000692
-0.008927
0.097914
0.048535
-0.055725
-0.048229
-0.028481
-0.018963
0.024230
-0.004711
-0.016099
-0.134829
0.002297
-0.048111
-0.015775
0.030010
-0.149932
0.002507
-0.053551
0.022876
0.027562
-0.037640
-0.070648
0.025970
0.059959
-0.029226
0.027532
-0.056324
-0.110927
0.009011
-0.001276
-0.023757
-0.076139
0.035095
-0.010256
-0.039828
0.025448
-0.009104
0.007595
-0.008880
-0.012608
-0.017781
-0.038881
-0.100495
-0.003163
0.001701
0.005430
0.004533
-0.064225
0.075292
-0.128836
0.044676
0.022303
0.013294
0.029111
-0.017817
0.034366
-0.091751
-0.045777
0.006514
0.021670
-0.046503
-0.017840
0.016590
-0.013394
-0.030315
0.044169
-0.038634
-0.036811
0.038385
0.045102
0.001657
-0.023941
0.008596
-0.000088
0.039212
-0.034416
-0.055112
-0.029526
-0.029882
0.027764
-0.061954
0.062110
-0.009489
-0.068495
0.001681
-0.054764
-0.054332
-0.082131
0.060417
-0.165662
-0.044221
-0.005651
0.008097
-0.018504
0.002169
-0.010808
0.004434
-0.223307
-0.063611
-0.004747
-0.052049
0.033379
0.073249
-0.011472
-0.010025
0.031149
-0.003856
-0.061578
0.057188
-0.084575
0.001433
-0.040674
-0.193314
-0.012018
0.042560
-0.047137
-0.086354
-0.037834
0.029559
0.017960
-0.090201
0.043548
0.009605
-0.076623
0.034195
-0.001920
-0.036243
0.010393
0.038740
0.007880
0.024914
0.005128
0.047256
0.020015
0.042256
0.077122
0.022543
0.052077
-0.011117
0.016308
-0.000080
0.019573
-0.215233
-0.191287
-0.000774
-0.040753
0.006898
0.037893
0.017426
0.073892
-0.058149
0.038347
0.008620
0.046000
-0.098975
-0.084147
-0.037133
-0.052405
0.006842
0.030791
0.003287
-0.024019
-0.025752
0.000222
0.029596
0.017456
0.011833
-0.040878
-0.007887
-0.086662
0.007029
0.031175
-0.065281
-0.023731
0.051149
0.057622
0.040270
-0.022202
0.008728
0.047264
0.002011
0.025656
-0.085447
0.061950
-0.035765
-0.004415
-0.170769
0.042401
-0.012048
0.001819
0.024130
0.016262
0.008259
0.040706
0.024044
-0.170955
0.001301
-0.035042
0.092187
0.069487
-0.095373
-0.005457
-0.059077
0.006691
0.005621
0.018030
-0.002967
-0.087852
-0.013743
-0.064299
0.027464
0.024861
0.022665
-0.061991
0.022443
0.027557
-0.011652
0.015215
-0.038400
-0.149255
-0.089675
0.039140
-0.057824
-0.004108
0.016101
-0.035730
-0.025551
0.031540
0.032372
-0.003914
0.032483
0.009168
-0.053635
0.017586
-0.000090
-0.090044
0.016475
-0.148139
0.037879
-0.048191
0.010294
-0.093655
-0.014016
0.072244
0.010308
-0.003340
-0.016860
0.094633
-0.007381
-0.019021
-0.035754
-0.011176
-0.025207
0.018848
0.130172
-0.057700
0.008370
0.008614
-0.041150
-0.042884
-0.041745
-0.052303
0.070059
-0.031959
-0.099050
-0.039706
-0.011940
0.025666
-0.016036
-0.015088
0.031954
0.003533
-0.100214
0.014683
-0.010086
0.019117
0.043485
0.010550
-0.008980
-0.004241
-0.017786
-0.188940
0.066387
-0.064801
-0.014184
0.021259
-0.251167
0.010547
0.038845
0.015245
0.037064
0.007437
-0.048101
0.030582
0.037909
0.016054
-0.045349
0.031875
-0.022768
-0.072713
-0.027515
-0.050335
-0.066712
-0.141669
-0.097629
-0.001298
-0.018406
0.025100
-0.005402
-0.091602
0.024395
0.012626
0.003789
-0.074891
0.057371
-0.100118
-0.000773
0.004442
-0.035086
0.044741
-0.005708
-0.090318
0.058515
0.034014
-0.090120
-0.051117
0.021766
-0.011000
-0.024648
0.077098
-0.055124
0.139480
0.051680
-0.117358
-0.088967
0.019711
-0.039874
-0.028437
-0.067018
-0.027084
-0.070231
-0.004041
0.038841
-0.202745
0.009076
0.054097
0.043373
0.005293
-0.031335
-0.015245
0.057907
-0.003827
-0.000062
-0.009720
-0.047659
-0.054263
-0.042093
-0.017616
0.005220
-0.010014
0.025022
0.015641
0.078145
0.046942
-0.018968
0.007510
-0.088164
0.053757
0.003981
-0.014257
0.008593
0.042650
0.030302
-0.011592
-0.022781
-0.012990
0.001443
-0.063762
0.046650
0.027328
0.002026
-0.000972
-0.000270
-0.011100
0.010087
-0.035012
-0.012025
-0.039031
-0.059607
-0.019444
-0.027154
0.043525
-0.029624
-0.013763
-0.066554
0.004511
-0.021217
-0.071072
-0.005250
-0.015378
0.006317
-0.003161
0.047376
-0.107415
0.000088
-0.031431
-0.010218
-0.068197
0.024871
-0.044506
-0.076142
-0.038652
0.021823
0.064708
0.031614
-0.004965
0.018125
-0.032504
-0.064916
0.006792
0.053011
0.051671
0.040042
-0.046447
0.020602
0.059121
-0.019501
-0.068379
0.060956
0.046778
-0.156280
0.024281
-0.008699
-0.057143
0.020286
0.030738
-0.057974
-0.002024
-0.009106
0.033525
-0.061712
0.004806
0.009907
-0.037151
0.101872
-0.032004
-0.044461
-0.045962
0.029034
0.088057
-0.028373
0.069053
-0.046995
0.015325
-0.042606
-0.007857
-0.089524
-0.016202
0.037109
-0.032946
0.000486
-0.140382
0.058621
0.039910
-0.012454
0.034468
-0.021929
0.054885
-0.097062
0.012612
0.085365
0.088369
0.002945
0.040295
0.003809
0.012420
0.002919
-0.038559
0.036028
-0.068757
-0.036581
-0.002813
0.053066
0.015170
0.004956
-0.005991
-0.012651
0.046955
0.033980
0.017527
0.085805
0.054606
0.087663
0.035629
0.013064
0.129894
0.034668
0.032470
0.000010
0.005143
-0.020183
-0.063938
-0.021310
-0.035039
0.049586
-0.082794
0.006152
0.047131
0.086746
-0.033220
-0.047897
0.005815
-0.013233
0.005286
0.001307
0.023297
0.044782
-0.068047
0.043986
0.078821
-0.144470
-0.003299
0.050401
-0.023319
-0.032442
-0.002926
-0.041259
0.046294
0.041096
0.016032
-0.020051
-0.073762
-0.027335
-0.115765
-0.026044
-0.076875
0.070562
-0.043778
-0.178870
-0.046444
-0.007170
-0.055655
-0.043374
0.022871
-0.019388
-0.099543
-0.032675
-0.063196
0.089140
0.055795
0.021320
0.016286
0.026260
0.022541
0.017527
-0.034889
0.000113
0.027356
-0.093786
-0.057986
0.046099
-0.046303
0.033289
0.021203
-0.049442
-0.019155
0.026352
-0.050079
-0.010957
-0.006781
0.032740
-0.030473
0.011209
-0.044730
-0.039495
-0.019948
-0.005048
-0.086667
-0.067497
-0.027667
0.031129
-0.032409
0.041957
