# Shape: (3, 3, 64, 64)
0.284692
0.110621
-0.027954
0.087176
-0.053932
0.271315
-0.080056
0.457069
-0.164454
-0.089068
-0.219070
-0.075246
-0.581958
0.059537
-0.229162
0.007109
0.105342
-0.070298
-0.094380
-0.436996
0.322513
-0.101143
-0.048347
0.217057
0.038418
0.061250
0.285606
0.030374
-0.165180
-0.214396
-0.033126
0.352826
-0.168883
-0.218438
-0.103569
0.228177
0.074048
-0.232284
-0.013498
-0.121831
-0.065194
-0.301790
0.058412
-0.011718
-0.009550
0.023778
0.023987
0.353927
-0.009410
0.055025
0.185703
0.189351
-0.079469
0.058019
0.080990
-0.202230
-0.179723
0.008303
-0.145605
0.179877
0.165486
0.179013
-0.152338
-0.177341
0.253953
0.020738
-0.081431
0.061202
-0.214163
-0.138607
-0.016303
-0.200683
0.034225
0.367600
0.114232
0.307026
0.121165
0.069624
-0.220421
-0.233674
-0.281328
0.187037
-0.130214
0.005109
-0.171181
0.035868
0.229836
-0.160311
-0.135088
-0.171311
0.229153
0.066516
-0.194063
0.029884
0.287993
0.514608
0.138866
0.036992
-0.008387
0.168458
0.197506
-0.301296
-0.147732
0.033378
-0.132072
-0.205970
0.178248
0.052436
0.312233
-0.118389
-0.001978
-0.215463
-0.078191
-0.190702
0.148665
-0.031770
-0.367174
0.021014
-0.109019
-0.317459
0.096002
0.145476
0.001233
-0.097968
-0.120269
-0.324284
-0.011382
0.180942
-0.392982
0.022501
-0.193972
0.201964
-0.159894
-0.108656
0.069092
0.026822
-0.205545
0.007025
-0.079574
-0.150399
-0.175334
0.090885
0.050520
-0.048898
0.081368
0.225849
-0.290267
0.105271
0.100053
0.049279
-0.014998
0.215633
-0.248403
0.075945
-0.141745
-0.080110
-0.033595
-0.401767
0.271136
0.231094
-0.178539
0.190237
-0.134215
-0.096766
0.164886
-0.017385
0.023372
-0.042782
-0.256897
-0.077722
-0.119178
0.057687
0.096164
0.006898
0.152241
-0.397572
0.257386
-0.188070
-0.004994
0.088881
-0.330285
-0.130489
0.280981
0.123526
-0.041342
-0.038450
-0.033252
0.033558
0.009465
-0.172957
-0.093065
-0.146293
0.106465
-0.151634
0.039736
0.044679
-0.082861
-0.262847
-0.194563
-0.174719
-0.092292
-0.083787
0.070604
-0.071311
0.333454
0.096192
0.007174
0.066211
-0.022215
-0.021408
-0.226289
-0.376130
0.005827
0.054068
0.229401
-0.178158
0.236989
0.054891
0.317144
0.060158
-0.215900
0.065326
-0.291666
-0.355502
-0.039648
0.094434
-0.256887
-0.029517
-0.242315
-0.117091
-0.079607
-0.078873
-0.013744
0.047931
-0.173748
-0.192082
-0.183611
-0.101161
-0.244002
-0.059174
0.124555
0.117479
-0.017306
-0.488476
-0.142439
0.044580
0.002529
0.206157
-0.335811
-0.088103
0.108364
-0.070627
-0.044935
0.096780
-0.006598
-0.011316
0.110098
0.087557
0.051586
0.161077
0.007696
0.115923
-0.006856
0.177923
0.119737
0.106862
-0.232098
0.137486
-0.315861
-0.080560
-0.166142
-0.199770
0.029089
-0.008864
-0.042563
0.408815
0.161251
-0.166374
0.008544
-0.167807
-0.148237
-0.140263
-0.064059
0.096948
-0.101418
-0.443596
0.186507
-0.083958
0.190547
0.046322
-0.061447
-0.029484
-0.044879
0.055047
0.272639
0.119449
-0.253988
-0.316678
-0.078706
-0.222815
0.326411
-0.207484
-0.183288
-0.236338
-0.035577
0.280207
-0.393227
-0.241808
0.125977
0.021624
0.022407
0.317449
-0.028945
0.278489
-0.220801
0.213124
0.109645
-0.220766
0.098989
-0.035626
0.020824
0.398993
-0.081395
-0.472576
-0.117971
-0.278622
-0.357885
-0.085016
-0.046176
-0.164927
-0.284326
-0.007370
-0.284885
-0.034416
0.235468
0.178882
-0.450331
0.113588
-0.139126
0.031612
0.010890
-0.145037
0.030064
-0.038417
-0.012199
0.155455
0.258229
0.039939
0.152796
-0.274821
-0.037597
0.006343
0.248326
-0.338373
-0.014284
-0.311154
0.178674
-0.143385
0.044914
-0.038708
-0.209839
-0.117941
-0.229519
-0.038919
0.100598
0.081166
0.037624
-0.026692
0.201696
-0.221990
0.497205
0.195218
0.121062
0.168110
-0.096821
0.036993
-0.165805
-0.011747
-0.367374
-0.086164
-0.001660
-0.119646
0.268990
-0.131243
0.264237
-0.164134
0.391070
0.067532
0.059884
0.184075
-0.326331
-0.003220
0.039373
0.111730
-0.013845
0.023251
0.112039
-0.040069
-0.002370
-0.000011
0.022587
-0.136851
-0.260182
0.025838
0.111604
0.051160
0.051088
-0.237099
0.106358
-0.215381
0.155204
-0.011176
0.016653
-0.202644
0.202636
-0.174013
-0.245206
0.247808
0.081961
0.251025
-0.223570
-0.058889
-0.109209
0.051640
0.124182
-0.075662
-0.003576
-0.210361
-0.307112
-0.018454
0.015821
-0.009098
0.199919
-0.106031
0.240956
0.197088
-0.026865
0.268714
-0.113016
-0.014708
-0.081404
0.038437
0.225637
0.125000
0.232626
0.114694
-0.230920
0.168294
-0.311048
0.087904
0.132140
0.095883
0.070229
0.012558
-0.138650
0.007895
-0.003874
-0.035547
0.121381
-0.222334
0.035092
0.130928
-0.000807
0.116428
-0.013392
-0.087524
-0.020046
0.186821
0.172054
-0.009868
-0.103818
0.297101
-0.265814
-0.269634
0.234696
-0.219445
-0.307822
-0.289327
0.183864
-0.268076
-0.146908
-0.149489
-0.297694
0.034208
0.344331
0.043639
0.018122
-0.270716
0.065999
-0.098465
0.113947
-0.097751
-0.247812
0.046812
-0.329578
-0.113500
0.120568
-0.061079
0.150120
0.257634
0.097633
-0.489345
0.127804
-0.162115
-0.151973
-0.038731
-0.215338
-0.007650
0.166796
-0.126821
-0.047135
-0.163403
-0.242364
0.066092
-0.266791
0.112228
-0.347948
0.140625
-0.015174
-0.165169
-0.374364
-0.027803
-0.216894
0.213980
0.036811
-0.090617
-0.033807
0.053852
-0.300926
0.027640
0.058013
-0.256586
-0.044495
0.013417
0.057076
-0.006008
0.049764
0.160850
0.055211
-0.179946
-0.253058
0.221030
-0.003300
-0.108079
-0.029553
0.221146
-0.377546
0.203921
0.150023
-0.479399
0.017355
-0.014847
0.066306
-0.438865
-0.078090
0.017803
-0.057396
0.138581
-0.128324
-0.147649
-0.056047
0.291028
0.183634
0.147057
-0.030125
-0.017273
-0.212303
-0.085755
0.059592
-0.208236
0.128645
0.085369
-0.022756
0.418180
-0.169517
0.152200
-0.173113
-0.213366
0.036272
0.091179
-0.271319
-0.171118
-0.125623
-0.364106
-0.122808
-0.146317
-0.157124
0.124452
0.147101
0.084822
0.275971
-0.412387
-0.212449
-0.040443
-0.231643
-0.059295
-0.037923
0.128584
-0.090885
-0.102325
0.084965
-0.001350
-0.079096
0.213171
0.086904
-0.283219
0.119200
-0.072877
-0.058686
-0.187684
-0.004668
0.226545
-0.152132
-0.079250
-0.315462
0.316215
-0.017493
0.122403
0.005998
-0.092172
0.014896
-0.052024
-0.206975
0.015428
0.119787
0.059360
-0.261507
0.296813
-0.260183
-0.242330
0.081706
-0.067835
-0.217665
0.159785
0.217369
0.056986
0.184282
0.218394
-0.325460
0.161957
-0.196709
0.107551
0.223141
0.101132
0.086009
0.039946
-0.099629
0.330654
-0.068479
-0.139050
-0.335791
0.096748
-0.250645
-0.434854
-0.155428
0.069762
-0.041002
-0.198727
-0.104733
-0.053713
0.006378
-0.030141
0.085087
-0.012387
-0.114973
-0.059926
-0.127090
0.048794
-0.273492
-0.145157
-0.165695
-0.193080
-0.002647
0.140906
-0.282468
-0.127834
0.068393
-0.240506
0.178829
-0.046762
-0.050474
-0.305329
-0.041592
-0.086161
-0.008885
-0.099740
0.068722
0.048614
0.181681
-0.103439
0.250846
-0.160166
0.111868
-0.031054
-0.195048
-0.132473
-0.038832
-0.040347
-0.066653
0.070438
0.094855
-0.115675
0.255011
-0.506813
0.188144
-0.130866
-0.067969
-0.201622
-0.067167
0.216707
0.103471
0.161333
-0.092752
-0.252663
0.267314
0.134743
0.047693
0.050174
0.065824
-0.124346
-0.225513
-0.053411
-0.159823
-0.378768
-0.435298
-0.074761
0.046790
-0.101516
0.162629
-0.032925
0.008771
0.036419
0.385922
-0.063532
0.158199
0.036765
0.429067
0.368660
0.001968
0.161141
0.231146
0.014145
-0.123026
0.185146
-0.046874
-0.011377
-0.225843
-0.121018
-0.034094
-0.139667
-0.116098
0.432885
-0.197272
-0.100065
-0.177749
-0.118022
0.016634
0.036966
-0.062414
0.036433
-0.213690
0.160050
0.091154
0.226691
-0.313761
0.150477
-0.359383
0.328949
-0.128809
-0.135972
0.207436
-0.047731
0.018648
0.128445
0.259529
-0.283910
-0.376582
0.007674
-0.052386
-0.294927
0.000560
0.025233
-0.058500
-0.196669
-0.055898
-0.147326
-0.116962
0.124984
0.118942
0.131581
-0.076462
-0.239171
-0.101354
0.205366
-0.007298
-0.007678
-0.086114
-0.043331
0.099151
-0.041680
0.114041
-0.123457
0.168594
0.071123
-0.184183
-0.067569
0.064631
-0.163370
-0.133029
-0.422636
-0.150948
-0.409769
0.112563
0.312947
0.017601
0.111921
-0.307787
0.061744
0.090451
0.001344
-0.196322
-0.122561
0.004384
-0.371614
-0.253640
-0.365979
0.282516
-0.023900
0.077516
-0.121447
-0.074562
-0.115695
0.237378
-0.407316
-0.110893
-0.092550
0.025689
-0.089084
0.110324
-0.040616
-0.152472
-0.189548
-0.268617
0.192500
0.092748
-0.246267
-0.148037
0.176959
-0.074437
-0.071097
0.073380
0.256641
-0.121541
-0.304600
0.106690
-0.628513
0.000667
0.049481
-0.246614
0.128701
0.006751
-0.122090
0.133819
-0.013261
0.091270
-0.094385
-0.209592
0.005524
-0.114194
-0.129149
-0.009868
-0.076482
0.178342
-0.018991
0.208253
0.158977
-0.299351
0.017188
-0.169559
0.081428
-0.041519
0.238250
0.090835
-0.171389
-0.325897
0.089631
0.048070
0.062543
-0.015972
0.218248
-0.039581
0.214733
-0.128783
0.043862
-0.014188
-0.486441
0.283025
0.198371
-0.059344
-0.059993
-0.134924
0.168530
0.051529
0.303494
0.067087
0.062024
-0.225565
0.200585
0.073739
0.019814
-0.133254
-0.437704
-0.188480
-0.112136
-0.245990
0.053263
0.067860
0.045370
-0.118715
-0.136918
-0.020866
-0.011728
-0.272319
-0.074050
-0.200931
0.115214
0.008619
0.043203
-0.156171
-0.020729
0.062898
0.012879
-0.028990
0.013598
-0.029941
-0.088726
-0.044150
-0.295958
-0.152578
-0.380713
-0.130816
-0.141874
-0.380230
0.100158
-0.055283
-0.292119
0.355527
-0.043456
-0.513893
-0.285534
-0.313635
0.258536
-0.092939
-0.060155
-0.066478
0.175388
-0.059518
-0.265831
0.195209
-0.010489
0.023859
-0.307162
0.423669
0.515673
-0.367826
0.048385
-0.175786
-0.376502
-0.040920
-0.153228
-0.058079
-0.387747
0.129288
0.010160
0.068916
0.100510
0.154647
-0.245622
-0.175677
-0.306291
-0.123316
0.138654
-0.030205
-0.067576
-0.180429
-0.206766
-0.114105
-0.090314
-0.225530
-0.326581
0.357254
0.312528
0.134562
-0.157315
0.175997
0.199146
0.003628
0.038463
0.320857
-0.334653
-0.131986
-0.190928
0.199816
0.043321
-0.071190
0.163198
-0.158465
0.334425
-0.030748
0.117500
-0.193562
0.474542
0.118410
0.089857
-0.094542
0.014191
0.010770
-0.015860
-0.014439
-0.050406
0.155256
-0.194674
-0.033423
0.022556
0.135667
0.228540
-0.311745
0.121593
-0.099775
-0.007014
0.227534
0.316375
-0.426598
-0.111627
0.057527
0.041101
0.083046
0.096951
0.279953
-0.021075
-0.057560
-0.167378
0.031972
-0.228795
0.158537
0.020347
-0.083109
-0.394988
0.151155
0.037017
-0.187650
0.202359
0.172254
0.001811
0.340464
-0.108920
-0.246730
-0.345834
0.164263
-0.040195
-0.163081
0.012244
0.124276
-0.229079
0.058833
0.168688
-0.171476
-0.214185
-0.116571
-0.017417
-0.090704
-0.183723
0.161027
-0.145970
0.012875
-0.300218
0.070926
-0.010834
-0.070210
-0.105554
-0.137349
0.269363
-0.038131
0.032271
-0.189956
-0.120255
-0.089189
-0.138690
-0.227827
0.415026
0.076099
0.177402
-0.196114
0.045335
0.385707
0.060570
-0.060056
-0.239657
-0.054252
-0.316036
-0.047408
-0.094844
-0.152237
-0.223430
-0.149016
-0.256977
-0.067954
-0.528367
-0.047178
-0.062270
0.095177
-0.182004
-0.053024
0.460189
0.102852
-0.096327
-0.150062
0.067579
0.006712
-0.274434
0.108339
0.063526
-0.060982
0.144804
0.249983
-0.097083
0.051460
-0.340881
-0.162769
-0.303992
-0.031065
-0.308438
-0.225643
0.071642
-0.121856
0.088414
-0.195433
-0.264424
0.135783
0.039594
-0.059768
-0.315641
-0.247844
-0.356455
0.041329
0.014501
-0.184859
-0.056756
-0.150188
-0.445595
0.087554
-0.130844
0.167509
-0.107808
0.062798
0.081868
0.155908
-0.068288
0.005870
-0.237446
0.013845
-0.261033
-0.052670
0.107465
-0.072084
0.021894
0.086186
0.112607
-0.596686
-0.050657
0.169361
0.026316
-0.185546
0.014107
0.131726
-0.054897
0.288666
-0.110889
-0.039987
-0.074288
0.053284
-0.245128
-0.094453
-0.152551
0.172452
-0.159070
-0.164872
0.259674
-0.317262
-0.134219
-0.135018
-0.091855
-0.153323
0.179234
0.036552
-0.146492
-0.129454
-0.306384
-0.176892
0.038086
0.114567
-0.109575
-0.378046
0.049651
0.016580
-0.139992
0.010114
0.290130
0.123904
0.129080
-0.087006
0.059337
0.100493
0.067437
0.267852
0.010155
-0.003228
-0.153619
-0.103881
0.162834
-0.223007
0.007479
-0.009129
0.097884
-0.059638
-0.085108
-0.069815
0.213217
0.227678
0.064343
0.151579
-0.191019
-0.065465
-0.069430
-0.159136
0.189081
0.005041
-0.205142
-0.267942
0.280518
0.213298
-0.318657
0.110783
-0.080055
0.218627
0.139341
-0.140400
-0.178392
-0.028409
-0.050860
0.071678
-0.040478
-0.200294
-0.190103
-0.129602
0.092987
0.123424
-0.200414
-0.220732
-0.313770
0.174604
-0.217366
-0.378993
0.072834
-0.189275
0.414661
-0.031531
-0.103141
0.109410
-0.009431
-0.053493
-0.159468
-0.191240
0.134062
0.135280
0.035430
-0.217255
-0.208553
-0.117065
0.276157
0.245131
-0.183728
-0.099569
0.035116
0.001331
-0.320669
0.115196
0.116884
-0.079862
0.025021
0.343663
0.043415
-0.120525
0.327667
0.148643
0.233752
-0.364560
0.043058
0.248591
0.194252
-0.100136
-0.044461
-0.086041
0.271589
0.106535
0.054994
0.055917
-0.296202
0.150373
-0.095335
0.027141
0.094659
-0.176208
0.075334
-0.227814
0.416210
-0.114412
0.003236
0.020033
-0.222815
0.102193
0.304155
-0.002094
-0.063851
0.233106
-0.004646
0.318036
-0.021011
0.101109
0.208563
0.124186
0.001324
0.199931
-0.014146
0.031361
0.189812
0.248842
-0.040546
-0.072563
-0.404499
-0.090457
0.372467
-0.268593
-0.199717
-0.011892
-0.164230
-0.136556
-0.069079
-0.287841
-0.294613
0.034779
0.100320
-0.104452
0.074206
-0.078362
0.017849
0.149619
0.026450
-0.227037
0.121354
-0.197155
-0.038240
-0.320434
0.095440
0.123339
-0.160392
0.152274
0.278336
-0.058093
0.065431
-0.183765
0.164536
0.432261
-0.276086
-0.071292
-0.112404
0.017642
0.168258
0.295133
0.063195
-0.022112
-0.039834
-0.182702
-0.036132
-0.079218
-0.163680
0.265752
-0.054271
0.250590
0.382967
-0.230020
0.180106
-0.103011
0.453527
-0.157300
-0.140378
-0.239276
-0.072258
-0.039473
0.173754
0.092859
0.094641
0.455073
0.043315
0.053158
0.256103
0.042703
0.124648
0.108622
-0.163908
-0.344075
-0.051712
-0.130614
-0.119723
-0.012222
-0.180557
0.044880
-0.087135
-0.118915
0.043789
0.165413
0.068367
0.180815
0.059121
0.009451
-0.118827
-0.333949
-0.137432
-0.144015
-0.183383
0.011551
0.083831
-0.306589
0.139713
-0.063898
-0.026502
-0.030883
0.209272
0.073407
-0.000004
-0.288384
-0.158775
-0.070917
-0.148083
-0.230127
0.131301
0.054984
0.044414
0.041401
-0.126374
0.139464
-0.015628
0.084192
-0.165130
-0.132562
0.042615
-0.270146
0.203857
-0.087418
-0.333084
0.123098
-0.181629
0.066603
-0.127268
-0.006987
-0.032590
0.051733
0.156010
-0.050294
-0.156295
0.159659
-0.052078
0.177814
0.031375
0.104153
-0.380743
-0.107373
0.058176
-0.154161
0.028264
0.127638
-0.019067
-0.074283
-0.124321
-0.154920
-0.442287
0.373465
0.079952
0.096648
-0.091053
0.085478
0.097440
0.012509
-0.115755
-0.093380
-0.013374
0.197555
0.157772
-0.271518
-0.297455
-0.217623
-0.196324
0.040064
0.012471
-0.053982
0.369796
-0.031225
-0.345722
0.223810
-0.013703
0.076234
-0.088060
0.099223
0.364919
-0.272863
0.053193
-0.124693
0.442821
-0.240750
-0.299444
0.448680
-0.228889
0.152157
-0.062250
0.053981
-0.153404
0.310371
0.145239
-0.174236
-0.062504
-0.037105
-0.094207
-0.315644
-0.259310
-0.193128
-0.135067
0.062487
-0.058714
-0.287027
0.084266
-0.008722
-0.244137
0.202288
-0.109249
-0.066279
0.009538
0.127840
0.273894
-0.182920
-0.130042
-0.130993
-0.013785
-0.104858
0.360538
-0.106539
-0.041524
0.012862
0.148855
0.022273
0.131613
-0.048792
-0.002374
0.043235
-0.268957
0.130199
0.075570
0.050388
-0.099991
0.184896
0.072976
0.046772
-0.287525
0.280106
0.189981
-0.114806
-0.147765
0.129821
0.145143
-0.024980
0.198638
0.018341
-0.193200
-0.075410
-0.095504
-0.373807
-0.104146
0.058652
-0.207494
-0.255628
-0.108524
-0.084541
0.003798
-0.391080
-0.177289
-0.082374
-0.355883
-0.058855
-0.031757
-0.109596
-0.155680
0.236277
-0.198613
-0.023653
0.028278
-0.196432
-0.129782
0.181743
0.264734
0.226042
0.119585
0.209634
-0.050759
-0.018548
0.091935
0.041481
-0.230340
-0.209424
0.115920
-0.419411
-0.024692
0.283006
-0.048345
-0.518413
0.068590
0.058445
-0.218233
0.184598
-0.152700
-0.174898
-0.217155
0.326031
0.258336
-0.030672
0.058743
0.181773
-0.198685
0.132698
0.086197
-0.097718
-0.078534
-0.014482
0.042028
-0.282890
0.058519
-0.149047
-0.099923
-0.052921
0.264563
0.081182
0.092402
-0.088414
0.194971
0.076945
0.064506
-0.266249
0.003831
-0.418341
-0.342145
-0.012991
-0.236545
-0.044812
0.004825
0.221678
0.375110
-0.226531
0.058213
0.186052
0.131219
0.019497
0.151224
-0.043532
-0.406468
-0.149662
-0.204280
-0.172146
0.052452
-0.022439
0.091444
-0.001871
0.205122
-0.152343
-0.044327
0.009298
0.095315
0.128920
0.025105
0.088363
0.086799
-0.072301
0.221093
0.258423
-0.095981
0.105435
-0.124639
-0.044638
-0.033906
-0.069158
0.154335
0.127548
0.154321
-0.113969
-0.161434
0.273155
-0.069747
-0.104849
-0.126737
-0.005398
0.089144
-0.332419
-0.099273
-0.090377
-0.088870
-0.050628
0.015955
-0.060242
0.365732
-0.051175
-0.145232
-0.233666
-0.184652
-0.229587
-0.020704
0.004153
-0.077330
-0.151874
0.135098
-0.002774
0.087833
0.063394
0.140451
-0.037750
-0.143973
-0.399031
-0.223114
-0.220506
-0.076767
-0.045698
-0.191254
0.014672
-0.187463
-0.221932
0.204668
-0.162554
0.138497
-0.366677
-0.158301
0.343711
-0.179638
0.084315
0.063998
0.122805
-0.248742
-0.019153
-0.110114
-0.058012
-0.357650
-0.064527
-0.315454
0.172801
-0.158569
-0.058565
0.334228
-0.253387
-0.034559
0.092510
-0.060951
0.191573
-0.067008
0.031414
0.000303
-0.021565
-0.125905
0.062690
-0.065491
-0.287597
-0.006098
0.154090
0.177888
-0.203501
-0.152659
-0.207675
0.069741
0.001825
0.142357
0.053075
-0.106079
0.204103
-0.032737
0.244595
-0.122381
-0.099002
0.190259
-0.236850
0.002430
0.326840
0.108081
-0.025820
0.026994
0.058225
0.276954
-0.083517
0.076114
-0.393923
-0.224117
-0.126228
-0.438134
0.138045
0.055863
0.078118
0.074405
-0.125785
-0.215423
0.052335
-0.244626
-0.151689
-0.125243
-0.282891
-0.021520
-0.048179
-0.087551
0.012439
0.085085
-0.046812
0.062613
-0.169444
-0.136616
-0.137467
0.073820
-0.168197
-0.026161
-0.052654
-0.054733
0.085579
0.097570
0.079098
-0.322837
0.066321
-0.138714
-0.232361
0.131688
0.152280
0.026075
0.323001
-0.106411
-0.078139
-0.107330
0.044738
0.033193
-0.198714
-0.305391
-0.122766
0.006274
-0.172638
0.143353
0.160109
0.111904
-0.370085
-0.008971
0.147559
-0.009698
0.139609
-0.017007
-0.038256
0.287958
-0.289708
-0.271273
-0.310349
-0.220840
0.162624
-0.293500
-0.095934
-0.002253
-0.168884
-0.403809
0.122550
-0.034888
0.040607
0.129993
-0.289558
-0.147481
-0.251139
0.176105
0.005735
-0.245951
-0.237821
-0.134811
0.155335
-0.245843
0.101495
-0.015740
-0.274275
0.067155
-0.071591
-0.466031
-0.010829
-0.215000
0.093754
-0.146199
0.076930
-0.285858
-0.066606
0.127095
-0.206977
-0.131038
-0.056131
0.044156
-0.033528
0.048397
-0.078319
-0.168018
-0.233189
-0.307701
-0.020926
-0.117975
-0.165406
-0.013252
-0.336203
0.294439
-0.032646
0.237940
0.155525
-0.104774
-0.294747
-0.265201
-0.064432
0.023946
-0.211930
0.005750
0.114084
0.172956
-0.138547
-0.132094
0.098942
0.104120
0.227163
-0.055987
-0.165068
-0.104957
-0.074973
-0.128719
0.090259
-0.058398
-0.034272
0.187304
0.043911
0.113723
0.120126
0.043765
0.018155
-0.121212
-0.009946
-0.029478
0.245079
-0.155449
0.024259
-0.256368
0.292656
-0.002616
-0.199585
-0.206707
0.147428
0.073876
0.020597
-0.112408
0.200913
-0.108296
-0.033534
0.126548
-0.071279
-0.053697
0.161039
-0.478700
0.020065
0.061855
0.001952
-0.146964
0.086198
0.274829
0.177185
-0.253363
-0.276474
0.265272
-0.185062
0.275015
0.091373
-0.017122
0.233249
-0.066612
-0.117194
-0.192985
-0.237994
0.164392
-0.065079
-0.018401
0.071890
0.089553
-0.207093
0.063496
-0.260290
-0.179532
-0.342662
0.035005
0.007552
0.068814
0.147232
0.012523
0.123009
-0.383949
-0.070488
0.099660
-0.248873
-0.026333
0.206238
-0.419867
-0.058209
-0.286436
-0.205396
-0.191427
0.116263
0.277151
-0.431766
0.047709
0.215647
-0.150523
-0.000852
0.015721
-0.101346
-0.342011
-0.018010
-0.454105
0.150275
-0.274990
0.129744
0.028246
-0.027269
0.042149
-0.313001
0.057356
-0.095227
-0.087251
0.058401
0.031216
-0.014524
0.105507
0.077345
0.193947
-0.030367
-0.215798
-0.102322
-0.052342
0.116838
-0.069158
-0.437267
0.043753
-0.107924
0.087552
-0.156954
-0.292698
-0.033202
-0.029977
0.167696
-0.111241
0.301745
0.196375
-0.418128
0.143385
-0.149590
0.089435
0.118491
0.125435
-0.195849
-0.329294
0.527311
-0.090410
0.129096
-0.101035
-0.037665
-0.080334
0.150744
-0.012633
0.140880
-0.096641
-0.370580
0.059744
0.365460
0.049397
-0.062358
0.099519
0.134283
-0.029865
-0.104795
0.070253
-0.052610
-0.394003
-0.179857
-0.062520
0.249054
-0.154333
0.089265
-0.087747
-0.230723
-0.418058
-0.085971
0.063341
-0.205054
0.017761
-0.540426
-0.118617
0.087231
-0.000820
0.134469
-0.017102
-0.174470
0.089726
-0.477426
0.078738
0.126024
-0.029773
0.030392
-0.125397
0.060599
0.089985
0.005833
-0.104708
0.038257
-0.225239
0.096638
-0.399455
-0.097963
-0.323288
0.186081
-0.137185
-0.097771
-0.057495
0.100905
-0.304695
-0.106639
0.226938
-0.255503
-0.108479
-0.136872
-0.208941
0.015323
-0.121910
0.059681
0.067317
-0.132350
-0.201646
-0.055096
0.126106
0.047525
-0.136138
-0.069766
-0.104442
-0.027308
-0.072871
0.091926
-0.168923
-0.161491
-0.077577
-0.155468
-0.134361
0.002623
-0.036129
-0.011709
0.062960
-0.224069
-0.176099
-0.020195
-0.080368
0.107525
-0.161930
0.031765
-0.093076
-0.215595
-0.211192
-0.161090
0.264173
0.068773
-0.252485
-0.094367
-0.077484
-0.114413
0.081510
-0.107970
-0.251776
-0.210210
0.241883
0.053427
0.208391
0.007156
0.083345
0.012140
-0.047355
-0.350450
0.307452
0.255228
-0.007566
-0.237753
0.108481
0.035630
-0.021784
-0.170303
0.144817
0.076022
-0.091795
0.049030
-0.403491
-0.231129
-0.196177
-0.053482
0.144044
-0.281036
0.072435
-0.131044
0.139241
0.097728
0.171457
-0.052505
-0.027713
-0.103699
0.049343
0.057150
-0.183251
0.020321
-0.024737
-0.173187
0.161789
0.158046
-0.420172
-0.051923
-0.015481
0.336458
-0.052141
-0.056762
-0.027313
-0.201339
-0.197907
-0.011905
0.023024
-0.203420
0.257456
0.038548
-0.073514
0.209402
0.323311
0.110809
0.237709
-0.288461
-0.039062
-0.058478
-0.171081
-0.260753
-0.070395
0.164904
-0.116809
0.278498
-0.176449
-0.037501
-0.086916
0.058168
0.086190
-0.393631
0.080267
0.098274
0.111894
-0.124662
-0.102244
-0.000050
-0.256861
-0.147967
0.091785
0.044231
0.142125
-0.081540
-0.193967
0.045573
0.085073
0.100331
-0.031562
-0.001829
-0.089044
-0.108161
0.070097
0.219668
0.036494
-0.025787
0.090475
0.010892
0.098976
-0.019363
0.254878
-0.055407
-0.038466
0.085205
-0.205901
-0.153037
0.183156
-0.428628
-0.044254
-0.051455
0.126403
-0.190791
0.023697
0.256656
0.261059
-0.512189
-0.158033
-0.199169
-0.070892
0.048790
0.295883
-0.114093
0.291885
-0.389465
0.506470
-0.058224
-0.061419
-0.277258
-0.006318
0.129483
0.244309
0.120856
0.212049
0.086062
-0.178906
-0.106283
0.078789
-0.048907
-0.004509
0.037135
0.040289
-0.475033
-0.030634
-0.073328
-0.260260
0.021276
0.238775
0.151965
-0.159660
0.031685
0.113549
-0.027332
-0.478207
0.008203
-0.033646
0.126303
0.169229
0.266531
0.229836
0.117290
-0.089166
0.056915
0.157249
-0.278738
-0.019620
-0.303806
-0.034254
0.126322
-0.044416
-0.007856
-0.092570
0.004772
-0.151274
-0.090297
-0.216429
-0.205563
0.291518
0.191128
0.271109
0.011839
-0.034162
-0.028157
0.040452
-0.007514
0.011198
0.120882
0.117264
-0.283998
0.036741
-0.160241
0.372469
-0.076689
0.019787
-0.167586
0.132951
0.019128
-0.400661
0.189099
-0.068971
-0.045377
-0.370849
0.017878
-0.100738
-0.178044
-0.020643
-0.021089
0.107625
-0.215962
0.121155
-0.028393
0.236977
-0.004942
-0.089184
-0.128382
0.153981
-0.055263
0.223965
-0.109932
-0.145076
-0.304573
-0.050731
0.120211
0.025316
-0.081024
-0.016609
0.230495
0.079258
-0.001964
-0.053929
-0.083720
-0.268268
0.072131
0.144335
0.105651
0.082186
-0.474929
0.156611
0.023666
-0.225107
0.194377
-0.286498
-0.082090
-0.156562
-0.168150
-0.430403
-0.194494
-0.330386
-0.259336
-0.379605
-0.083095
0.187846
-0.097082
0.078561
0.091925
0.222654
0.266987
0.018842
-0.263450
-0.041960
-0.146026
-0.169982
-0.230799
0.167013
0.229914
-0.049475
-0.251251
-0.112274
0.212613
-0.048687
-0.203391
-0.014850
-0.353013
-0.048110
0.090568
0.026924
-0.347685
0.202023
0.203180
0.151385
-0.160163
0.200562
-0.028897
0.255203
0.440739
0.123343
0.141449
0.143447
-0.334628
-0.291150
0.250334
0.031892
0.291023
0.120125
0.057288
-0.364668
-0.091864
-0.003014
0.137222
-0.018407
-0.018645
-0.534056
0.104578
-0.099149
-0.101161
-0.172164
-0.031488
-0.258509
-0.413168
-0.299138
-0.063859
-0.141282
0.074308
-0.151019
-0.101505
0.018200
-0.223915
0.334851
-0.156690
0.121224
-0.226001
0.008152
0.037558
0.103756
-0.110347
-0.043917
-0.025253
-0.121482
0.210979
0.075513
-0.304446
0.257045
0.245979
-0.029560
0.183570
-0.261788
-0.096268
-0.006482
0.157490
0.063251
-0.109662
-0.178404
0.171965
-0.131623
0.037216
-0.087418
-0.091466
0.091455
-0.171829
0.362452
0.009230
0.088001
-0.063497
-0.074257
0.071780
-0.108199
0.208956
-0.199754
-0.189179
-0.090831
0.167675
-0.062224
-0.023731
-0.053454
0.084335
-0.123729
0.029205
-0.001488
-0.172516
0.095627
-0.054920
0.008693
-0.378219
-0.202408
0.199854
0.085418
-0.161744
-0.096580
0.137995
0.038947
-0.007059
0.129857
0.064038
-0.083040
-0.020784
-0.055433
-0.295131
0.050611
-0.130453
0.255298
0.014772
-0.221192
0.056107
-0.137877
-0.063159
-0.013048
0.082169
-0.070451
-0.200552
0.033488
-0.247406
0.148881
-0.439905
-0.188514
-0.331252
-0.133441
0.023798
-0.033934
-0.145156
-0.082064
0.049691
0.049148
-0.125526
-0.048615
-0.071535
0.026375
0.096595
-0.136450
0.006975
-0.008631
0.021799
0.019815
-0.038756
-0.199287
-0.013817
-0.016638
-0.020280
-0.066812
-0.170463
0.045692
-0.135810
0.074437
0.383069
0.120452
-0.117138
-0.257314
-0.128779
-0.351386
0.037621
-0.115556
-0.145385
0.132636
-0.359327
0.024099
0.042397
0.176039
-0.220897
0.322775
-0.364806
-0.162524
-0.043682
0.091556
0.106015
-0.176201
0.236299
-0.020646
-0.053718
-0.027726
0.041767
0.179039
0.261180
-0.252832
0.040174
-0.012667
-0.031287
-0.025196
0.020740
0.210919
-0.151521
0.405483
-0.137282
0.153107
-0.019307
0.087380
0.057039
-0.180493
-0.095496
0.084762
-0.121390
-0.105318
0.153558
-0.229131
0.006712
-0.173683
-0.080253
-0.003061
-0.030337
-0.097924
-0.099501
-0.070517
-0.057780
-0.051027
-0.103971
0.092404
-0.016589
0.106345
0.130624
-0.349372
-0.202637
0.331086
-0.238394
0.330015
-0.090382
0.006675
-0.304658
0.209729
0.064420
0.001511
-0.048635
0.108851
0.261241
-0.219375
0.034012
0.211167
0.231564
0.125857
0.110415
-0.158918
0.176639
0.008698
-0.018458
0.089709
0.354059
-0.037406
0.047255
0.108460
-0.237628
-0.233639
-0.113955
-0.089367
-0.135089
0.052102
-0.136488
0.110235
-0.118650
0.231667
0.086112
0.468471
0.168988
-0.178902
0.184060
-0.282803
0.213459
0.166017
-0.199664
0.110093
-0.125298
0.048466
-0.064597
-0.026573
0.007602
0.157665
-0.358535
0.310408
-0.272698
-0.044111
-0.124283
-0.597930
-0.002297
0.209436
-0.180292
0.069257
0.168036
0.223592
0.144459
0.227327
-0.236753
-0.062738
0.050911
0.255605
0.170250
-0.278897
-0.035058
-0.381932
0.041680
0.271626
-0.392179
-0.076289
0.085480
-0.097298
-0.152298
-0.260953
-0.049125
0.197875
0.092587
-0.255465
-0.231562
0.066954
0.157706
-0.067831
-0.060014
-0.333475
0.109726
0.007521
-0.051224
0.035779
-0.007897
0.107847
0.018711
-0.158973
0.118581
0.040150
0.192626
-0.186937
0.213340
0.093500
-0.170954
0.176157
-0.158864
0.147437
-0.021924
0.049220
-0.321028
0.106597
0.161282
-0.632503
0.054421
-0.379947
-0.298647
0.288057
-0.326703
0.139927
-0.156079
-0.089550
-0.404752
0.169976
-0.036147
0.094080
0.007655
-0.098203
0.141322
-0.004315
0.240155
-0.177603
0.123998
-0.443157
0.189941
0.213815
0.416715
-0.294016
-0.226718
0.037889
-0.153400
0.059354
0.018753
0.124461
-0.066245
0.001222
-0.148738
0.039118
-0.124553
0.237699
0.409850
-0.144878
-0.153692
0.122339
-0.039970
-0.189172
0.169954
0.125018
-0.142845
0.193263
-0.632145
-0.335769
0.073724
0.195297
0.068505
-0.244248
0.131476
0.312351
-0.088127
0.211883
-0.041394
0.241231
-0.224930
0.121049
0.158171
0.100216
-0.339400
-0.117341
-0.284360
0.079777
-0.231667
-0.072816
-0.007812
-0.074494
0.058799
-0.390085
0.151631
-0.316087
0.153198
0.392374
-0.021499
-0.263068
0.087720
0.011876
-0.181088
-0.037887
-0.055752
0.062902
0.014167
-0.379353
-0.182864
-0.292894
0.255767
0.218071
-0.101353
0.053089
0.040038
-0.001411
-0.109047
0.007779
0.158568
-0.113902
-0.031777
-0.043503
0.076485
-0.010307
-0.113580
-0.156352
0.076736
-0.157200
0.095115
0.124385
-0.325348
-0.297764
0.228388
0.044865
0.099311
-0.062514
0.126996
0.122613
-0.026509
-0.053854
0.507497
0.184397
0.136917
0.213193
0.165277
-0.020564
0.454258
-0.098771
0.031635
-0.050861
-0.005313
-0.003422
-0.335851
-0.339125
-0.198261
-0.100467
-0.022680
-0.062490
0.082867
-0.004607
0.113520
0.215693
0.145510
0.237924
-0.055981
-0.116360
0.163534
0.017953
-0.161419
0.007464
0.096762
-0.139450
0.072147
0.470822
-0.102044
-0.134464
-0.019283
0.207817
0.060323
-0.217623
-0.129860
-0.062600
0.001803
-0.079882
-0.118814
0.238352
0.114844
-0.116426
-0.014828
-0.321017
0.004063
0.185436
-0.055128
0.308627
-0.137260
0.167911
0.142175
-0.388159
0.057130
-0.215834
0.043843
0.166670
0.231615
0.404255
-0.116192
0.331414
0.187483
-0.321129
-0.007597
-0.146131
-0.096893
-0.004193
-0.190301
-0.120338
0.199412
0.148645
-0.457580
-0.049659
-0.121110
-0.071193
-0.285767
0.393154
-0.061860
-0.057762
0.057802
0.060087
0.154262
-0.270291
0.141083
-0.013549
-0.234033
0.131758
-0.092006
-0.008022
0.180942
0.042841
0.169579
-0.252016
0.081329
0.188622
-0.199352
-0.331514
0.023495
-0.195051
-0.220269
0.029667
0.186435
-0.077524
0.132714
-0.185174
0.083924
0.073582
-0.157949
-0.227674
-0.014647
-0.078474
0.073553
0.133770
-0.347397
-0.046674
0.074173
-0.042648
-0.228563
0.310614
0.066683
0.073257
-0.587569
-0.016449
0.094186
0.003196
-0.054963
-0.237733
-0.070115
-0.037709
0.058993
-0.521756
0.296476
-0.047761
-0.057557
0.012349
-0.113983
0.132986
-0.414291
-0.269235
-0.165270
-0.208125
0.139065
-0.314993
-0.036238
-0.040305
-0.117650
-0.011456
-0.203523
-0.166971
-0.213000
-0.154345
-0.252888
-0.138310
0.071011
0.059439
0.144827
0.133821
-0.324959
-0.053983
-0.235804
-0.371735
0.083034
-0.034142
0.100953
-0.102241
-0.022725
0.178249
0.283454
-0.124289
-0.336547
-0.177512
-0.052043
-0.269544
0.116037
0.099971
-0.389323
0.129937
0.230312
-0.450685
0.241232
0.282050
0.508429
-0.277030
-0.102465
0.106634
-0.110288
-0.080635
-0.282008
-0.287899
-0.149858
-0.247854
0.031472
-0.209881
-0.123443
-0.120694
-0.174960
0.033828
-0.155923
0.269953
0.140427
-0.243624
0.027113
0.034991
0.053150
-0.006221
-0.354955
0.243419
-0.062981
-0.197871
0.295981
0.042896
-0.252692
-0.081570
-0.136811
-0.182458
-0.218884
-0.148964
0.195906
0.056408
-0.089643
0.256370
-0.329714
-0.161549
-0.707828
-0.043680
-0.244439
-0.162633
-0.087316
-0.032375
-0.069054
-0.131550
-0.348136
-0.036570
0.082222
-0.139388
-0.291028
0.010916
-0.273106
-0.031885
-0.023296
0.060483
-0.386178
-0.059002
-0.063608
-0.292871
-0.128065
0.047392
-0.160666
-0.070090
-0.153815
-0.087880
-0.035672
0.103054
-0.056214
0.137508
0.064174
0.098194
-0.194687
-0.136692
-0.172048
-0.333068
0.030391
0.250438
0.052844
0.001148
-0.179771
-0.035725
0.142494
-0.312682
-0.068362
0.070750
0.466564
0.265936
-0.295890
0.155234
-0.146509
0.108614
0.037321
-0.115226
0.103891
-0.057145
0.079035
0.050825
-0.273301
0.180561
0.134747
0.059264
0.021625
-0.243581
-0.261998
-0.349239
-0.317028
-0.032276
0.231940
-0.119674
-0.079622
-0.236126
-0.160962
-0.162184
-0.165454
-0.172561
0.074806
-0.071392
0.096217
0.079517
0.124803
-0.141868
-0.286486
-0.101697
0.149430
0.091318
0.075446
0.248273
0.193716
-0.036476
0.353933
-0.347642
-0.105986
0.119688
-0.057566
-0.144738
0.389216
0.015251
0.068473
0.063006
-0.139211
0.249664
0.015912
-0.077370
0.025473
-0.105602
0.063423
-0.034341
0.280873
-0.116188
-0.136797
-0.094640
-0.132372
0.020036
-0.064836
-0.082640
0.209249
-0.050162
-0.161543
-0.280577
-0.028054
0.093902
-0.202640
-0.664573
0.175587
0.087964
0.090132
-0.037409
0.166986
-0.149791
-0.057569
-0.232438
-0.102441
-0.098787
0.082131
0.239416
0.006011
-0.076530
-0.152423
-0.091225
-0.018230
0.027215
0.004895
0.155508
-0.312693
-0.158480
0.260834
-0.044751
-0.276846
-0.247995
0.089659
0.049406
-0.272800
-0.468423
-0.014726
0.445998
-0.033401
-0.139863
0.018544
0.157038
0.247016
-0.179195
0.077246
0.099150
-0.221379
-0.003857
-0.209238
-0.053002
-0.093075
0.113519
-0.243608
-0.289208
-0.055804
-0.425268
0.260566
-0.247883
0.065623
0.098094
-0.046175
-0.331387
0.316197
0.138271
-0.252873
0.167649
0.019560
-0.330773
-0.097757
0.034363
-0.148028
-0.204949
-0.006204
0.034671
0.060816
0.164812
0.007506
0.085596
0.022166
0.146546
-0.087459
0.048680
0.270920
-0.011208
0.331540
-0.406492
0.030470
0.255281
0.105603
0.246730
0.163732
0.023598
0.111305
-0.031111
0.030574
-0.309812
-0.192676
-0.342225
-0.129397
0.281042
0.016960
-0.090745
-0.224785
-0.161776
0.171703
-0.348705
0.015121
0.113194
-0.001746
0.042946
-0.060769
-0.307148
-0.303789
0.056669
-0.103282
0.019393
0.163978
-0.037821
0.034572
0.197504
0.095389
-0.061605
0.240644
0.209016
-0.092984
-0.021254
0.146980
-0.154812
-0.115027
0.181884
0.040278
-0.144866
0.135533
0.380998
0.151750
0.253059
-0.174274
0.095887
-0.307599
0.240483
0.077859
-0.237733
0.098009
-0.041974
-0.016670
0.034791
0.141374
-0.054282
0.224736
-0.149129
-0.005286
-0.090026
0.070975
0.222878
0.156427
-0.125196
-0.117491
-0.047365
0.005420
-0.156932
0.229219
-0.017265
0.008059
0.055206
-0.085793
-0.109323
0.046387
-0.038971
0.163583
-0.258867
0.022118
-0.061675
-0.063293
-0.261363
0.095660
0.136576
-0.036538
0.270602
0.203963
-0.114203
-0.091014
-0.215979
-0.135054
0.052339
-0.034136
-0.178630
-0.225130
0.274259
-0.426117
-0.441244
0.116918
0.106795
-0.290016
-0.240417
0.079754
-0.222663
-0.198466
0.054633
-0.006349
0.241831
0.009127
0.220435
-0.061772
0.034847
-0.190493
0.089520
0.171373
-0.212592
0.149365
-0.021525
0.444244
-0.071158
-0.105927
-0.022830
-0.186596
-0.236382
-0.324661
-0.156053
-0.078607
0.035081
-0.016188
-0.136654
0.135729
-0.119862
-0.109886
-0.011398
0.083861
-0.365996
-0.127955
-0.172105
-0.500233
-0.040138
-0.080358
0.049983
-0.112473
0.080957
-0.307350
-0.075015
-0.127356
-0.005990
-0.203900
0.287710
-0.059487
0.094509
0.039331
0.235261
-0.437365
-0.342015
-0.090932
0.218827
-0.009128
-0.174489
0.200461
0.064042
0.073484
0.054974
-0.181966
-0.168000
-0.269542
0.255158
0.014864
-0.215985
-0.032049
0.038734
0.116510
-0.042395
-0.133678
-0.024068
-0.058189
-0.301176
-0.138992
-0.048109
0.007458
0.077068
0.098200
-0.094859
-0.010431
-0.055502
-0.275920
0.108289
-0.011885
-0.183265
-0.093750
-0.145464
0.140183
-0.166521
-0.110448
-0.367630
0.073473
0.012991
-0.094357
-0.024140
-0.220626
0.005789
0.154822
0.060420
-0.392149
-0.165694
-0.168542
-0.124161
0.061268
0.055459
0.095641
-0.224671
0.117672
0.342796
0.136394
0.097231
-0.209076
0.065281
-0.170228
0.093817
0.090181
-0.091833
-0.475418
0.134584
0.204665
-0.173740
0.078435
-0.061402
-0.277259
0.114278
0.109254
0.063019
0.010266
-0.059950
-0.026436
-0.191366
-0.137701
0.016047
0.217215
0.038931
-0.172843
-0.124082
-0.197881
-0.342936
0.172667
0.271519
0.053688
0.014546
-0.159923
-0.000600
-0.166259
-0.261920
-0.202093
0.237739
-0.116155
0.261171
0.027244
-0.104309
0.085841
-0.135680
-0.073266
-0.336541
-0.143679
-0.167627
0.008555
0.112239
-0.114031
-0.096447
0.142865
0.421280
0.140271
-0.032906
0.022252
0.065747
-0.081345
-0.429440
0.283656
0.017649
0.258229
0.096640
-0.255072
0.200512
0.067088
0.025375
0.051741
0.218105
-0.321560
-0.153806
-0.115458
-0.053868
-0.127276
0.132378
0.274442
-0.136282
-0.140516
0.138914
-0.143844
0.350658
-0.283155
0.046332
-0.204689
-0.209985
-0.013489
-0.148823
0.145951
-0.012072
0.018244
-0.187174
-0.142014
0.138560
0.211639
0.230537
-0.245052
0.134547
0.039461
-0.003995
-0.089177
-0.026965
-0.013960
0.130792
0.009709
0.313978
-0.165070
0.276305
-0.107919
0.056110
0.120190
-0.200009
-0.067162
-0.240565
-0.261766
0.228346
0.060313
-0.129615
0.047708
-0.078824
0.121728
-0.080032
-0.001719
-0.173874
0.077270
-0.203923
-0.043967
-0.186529
0.244723
-0.064373
-0.179557
0.067510
-0.010010
0.033608
0.079677
-0.167663
-0.218330
-0.034028
0.063924
0.107717
-0.276081
-0.191740
0.365298
-0.354111
0.086715
-0.056427
0.041461
0.073379
-0.235400
-0.040117
-0.071512
0.053753
-0.098672
0.363100
0.108381
-0.188724
-0.193046
0.122240
0.031735
0.170103
0.007096
-0.234983
0.181916
0.157331
0.282684
-0.128185
-0.360360
0.235591
-0.178005
0.029316
0.121615
0.121201
-0.042181
-0.306226
0.379360
0.058993
0.045517
0.052310
-0.020599
0.187830
-0.033537
-0.040303
0.161780
0.003593
-0.127449
-0.197552
0.030980
0.301696
-0.157926
0.165072
-0.196811
0.060082
0.309754
-0.216655
-0.257252
-0.334836
-0.103661
-0.072777
0.344409
-0.047370
-0.021610
0.211310
0.018673
0.029070
-0.213522
-0.116274
-0.152144
0.264043
-0.107915
0.115379
-0.133951
-0.182980
-0.078874
0.078937
-0.172871
0.139824
0.064491
-0.107078
0.154015
0.061239
-0.202955
0.180454
0.158975
0.038015
0.081560
-0.196310
-0.175159
-0.071641
-0.165258
-0.247833
-0.172117
0.186130
-0.237194
-0.368407
-0.066625
0.099674
-0.140031
-0.096933
0.199967
0.019075
-0.160182
0.246769
0.011260
-0.221567
0.085919
-0.182446
-0.069791
0.037064
-0.232080
-0.192961
0.271111
-0.184171
0.139466
0.087243
-0.373111
0.263398
-0.041653
-0.152016
0.171708
-0.105359
-0.034174
0.231465
0.028929
0.004419
-0.228202
-0.173289
0.208097
0.025332
-0.253650
-0.110240
0.002461
-0.328346
-0.003256
0.317945
-0.169154
0.011887
-0.113352
-0.079312
0.056904
0.251563
-0.227328
0.089704
0.244161
-0.040258
-0.130270
-0.090590
-0.091231
-0.163640
-0.336980
-0.113568
0.215160
0.136712
0.078011
0.064530
0.172970
0.021230
0.162751
0.070055
-0.046373
-0.201361
-0.287972
0.133744
-0.023182
-0.111335
-0.293738
0.161262
0.135820
-0.076817
-0.164437
0.012484
-0.010154
-0.218708
-0.166323
0.044476
-0.124071
-0.020841
-0.022505
-0.089671
-0.017248
-0.269089
-0.159246
0.151911
-0.127653
-0.079056
-0.056419
-0.151647
0.049092
-0.376667
-0.002597
-0.169837
-0.322418
0.157748
-0.007856
-0.398953
-0.004873
0.133546
0.104325
-0.135211
-0.009958
0.028150
-0.307756
-0.307694
-0.148102
0.021573
0.160194
0.002391
-0.193273
-0.086122
-0.102944
-0.239446
0.076535
0.143844
-0.183536
0.087310
-0.445903
0.039771
0.116613
-0.075281
-0.326619
-0.424782
-0.092719
-0.229127
0.100214
0.236566
-0.034957
-0.219557
-0.375610
-0.057962
-0.328518
-0.010750
-0.019650
-0.018778
0.059053
-0.050368
-0.224052
0.092916
-0.140990
-0.406313
-0.297967
0.152716
0.068491
-0.254449
-0.091602
-0.032081
0.309286
0.027353
0.052239
-0.194545
0.017437
0.069733
0.013397
0.095469
0.029433
-0.105198
-0.139791
0.330587
0.000387
0.023708
0.061488
0.261323
-0.072457
-0.072940
-0.378635
-0.052641
-0.103261
-0.232720
-0.100652
-0.285892
0.133650
-0.115679
-0.154550
0.005623
0.023790
-0.047442
0.021246
-0.166591
-0.031756
-0.185108
-0.443904
0.025347
0.085393
-0.172037
0.125320
-0.178133
0.044674
0.033034
-0.211581
-0.290544
0.060420
-0.085886
-0.073558
0.056207
-0.264637
0.036167
-0.190592
-0.076261
0.002947
-0.216936
-0.001290
-0.076374
-0.105586
-0.149575
-0.023801
-0.060084
-0.318116
0.065406
-0.181272
0.056110
-0.220981
-0.073370
-0.166068
0.200968
-0.170412
0.027207
-0.074881
-0.059515
-0.294109
0.228502
-0.228088
0.164087
-0.036367
0.193731
-0.148895
-0.299245
0.043355
-0.163881
-0.152685
-0.049211
-0.040681
0.110981
-0.068508
0.037828
0.000270
0.034763
-0.077868
0.327841
0.222753
-0.046380
0.120207
0.094268
0.059231
-0.143631
0.145572
-0.144175
0.023650
-0.093981
-0.250251
-0.095840
0.059986
0.148947
-0.150813
0.370752
-0.144269
0.074714
0.048392
0.022179
0.165340
0.116647
-0.062119
0.118522
0.050119
0.024640
-0.005747
-0.191327
-0.142470
0.314373
0.174253
0.346978
-0.283587
-0.279948
0.149703
-0.138500
0.062268
0.203634
0.032172
-0.061980
0.130691
0.105926
0.011418
-0.239843
-0.106528
0.134189
0.097457
0.215612
-0.124095
-0.141090
0.342078
0.048230
-0.240523
-0.059627
-0.039313
-0.253140
0.177121
0.040477
-0.156196
-0.293175
0.131300
0.140644
0.143938
0.167685
-0.046034
0.137773
0.091259
0.014004
-0.184923
-0.281346
0.129210
0.424800
-0.122036
-0.283113
-0.026149
0.225217
0.156744
0.037135
0.157590
0.042355
-0.089405
-0.093816
0.051860
-0.175534
-0.002708
0.198084
-0.138101
0.288374
-0.052029
0.147251
0.078473
0.070595
-0.216856
0.216622
-0.038612
-0.257361
0.065739
0.189313
0.073632
0.038633
0.148039
-0.157421
-0.169629
0.036383
0.014160
0.058804
0.081820
-0.049883
-0.315987
0.133920
-0.143762
-0.311734
-0.024642
0.206487
0.126528
0.227943
0.144968
0.465897
-0.263318
0.145854
-0.216205
0.015990
-0.126316
-0.009078
-0.093966
-0.007372
0.070248
0.104885
-0.184500
-0.228372
0.070005
-0.001687
-0.107106
-0.042491
0.015173
0.363772
0.156642
0.087882
0.071102
0.033678
0.120726
-0.108781
-0.083271
0.356070
-0.183092
-0.065280
-0.131565
-0.061862
-0.000429
-0.110993
-0.001690
-0.207413
0.026983
-0.101755
0.050093
0.027564
-0.259026
0.001576
-0.241481
-0.316613
-0.350177
0.145765
-0.237454
0.082406
-0.160800
-0.218851
0.001154
0.240205
-0.294148
0.061496
-0.182689
0.185836
0.016668
-0.066262
0.007679
0.143275
-0.100018
-0.123285
-0.183704
0.167082
-0.148988
-0.099276
0.198605
-0.120256
0.079465
0.191049
0.039589
0.284357
0.108841
0.053679
-0.073855
0.138798
-0.379815
-0.017025
-0.023726
0.003741
-0.120624
-0.145515
0.160628
0.250126
0.122920
0.135617
-0.114220
-0.021941
0.010779
-0.054801
0.214642
-0.099757
-0.220047
-0.065668
0.135537
0.279583
-0.045141
0.186972
0.077743
-0.298381
0.209306
-0.132438
0.160387
0.060279
-0.020925
-0.028124
0.182900
-0.095068
-0.031232
0.055211
-0.009413
-0.274422
-0.091197
-0.482981
-0.089052
-0.204079
0.066149
0.022393
-0.035013
-0.091849
-0.192892
-0.325624
-0.020113
-0.041094
0.027939
-0.240723
-0.026929
-0.438748
0.261420
-0.015405
-0.219906
0.092938
-0.130828
-0.224248
-0.024673
-0.083060
0.128560
-0.056250
0.227526
-0.204440
-0.053955
0.107172
0.263057
-0.035208
-0.207016
0.144903
-0.272896
-0.263160
0.035591
0.132886
-0.291492
0.072021
-0.022707
-0.429995
-0.092796
0.059222
0.148208
-0.284203
-0.082756
-0.223937
0.077449
-0.166938
-0.059684
0.067996
0.042468
0.061519
0.382525
-0.192257
-0.113269
-0.403555
-0.095179
0.130654
-0.315982
0.070737
0.018901
0.059221
-0.304279
0.113060
-0.264513
-0.075141
-0.011754
0.026283
0.247657
-0.021413
0.114373
-0.043142
0.154401
0.073813
-0.237168
0.144488
-0.222032
0.364602
0.106275
0.134079
-0.311357
0.190284
-0.048558
-0.129329
0.125301
0.171669
0.270036
-0.424340
-0.081313
-0.161806
-0.070952
-0.332422
0.050599
0.166026
0.108223
-0.397405
-0.011780
-0.095274
0.039890
-0.194275
-0.192364
-0.154334
-0.116289
0.170298
0.102974
0.208848
-0.177948
0.174384
-0.012347
0.004198
0.167914
-0.020748
0.131371
-0.183250
0.102463
0.247267
-0.283887
0.130313
0.011522
-0.064294
0.323995
0.131424
0.061339
0.100159
-0.204621
0.188188
0.284614
-0.193888
-0.116663
0.169027
0.285394
0.106533
-0.268597
-0.117875
0.287496
-0.391961
-0.254633
0.041548
0.009506
-0.242734
-0.342704
0.246487
-0.223072
-0.015758
0.121962
0.110756
-0.040133
0.191711
0.135250
0.131419
0.011895
-0.188309
-0.189383
0.037464
0.100900
-0.261843
0.351446
0.042560
-0.128228
-0.225505
-0.172858
-0.315688
0.039515
-0.224970
-0.390369
-0.262884
0.055400
-0.379911
0.227850
0.077915
0.210915
0.035944
-0.084013
0.167160
-0.237616
-0.139478
0.120610
-0.018952
0.052588
0.069680
-0.012301
0.003075
0.152961
0.071162
-0.072706
0.123761
0.110654
-0.035492
-0.351471
-0.012400
-0.061007
0.060280
-0.025988
0.106501
-0.028287
-0.040793
0.137796
0.244695
-0.052278
0.026026
-0.325436
-0.106093
-0.109649
0.072881
-0.011570
0.005793
0.004310
0.058466
0.010758
0.020106
-0.029628
0.202054
-0.173402
0.224619
0.088828
-0.188665
0.033150
-0.228608
0.149457
-0.014065
0.059930
0.186559
0.172939
-0.398950
0.151502
0.066197
-0.271458
0.015974
-0.574988
0.316459
-0.313704
0.155566
-0.284754
0.383379
0.231711
0.113812
0.090809
-0.212970
0.002248
-0.061339
-0.066940
0.012184
0.174253
0.049097
-0.044504
0.274103
-0.374167
0.083584
-0.077759
0.101287
0.011839
-0.059088
0.131422
0.270597
0.183927
0.012869
-0.236833
0.230718
-0.359884
-0.078864
-0.069777
0.119695
0.190539
-0.124632
0.042534
0.044885
0.132105
-0.102020
0.005855
0.017925
0.198882
0.006803
0.075815
0.010097
0.292291
0.144249
0.147462
0.303146
-0.049464
0.089359
0.041169
0.362113
-0.274874
-0.186008
0.339314
-0.181850
-0.218636
0.008213
0.179061
0.241147
-0.047466
0.061240
-0.120967
-0.035828
0.565871
-0.122903
0.147996
-0.016386
-0.045920
0.144395
0.148714
0.302992
-0.142126
0.092983
-0.024742
-0.035279
0.078337
-0.010617
0.276632
0.185608
0.192865
-0.150639
0.080733
-0.216191
-0.060103
0.050207
-0.117318
0.228494
0.141884
-0.035955
-0.162204
0.028527
-0.123075
-0.216720
-0.375378
-0.132339
-0.269251
0.021835
-0.136285
0.101894
-0.131156
-0.064503
-0.211998
0.357317
0.008151
-0.124066
-0.109245
-0.033703
0.076422
0.108834
0.101253
-0.005866
-0.132745
0.216169
-0.274840
-0.013598
-0.050098
-0.097178
0.133143
0.062140
0.058095
0.136901
-0.147008
-0.204453
-0.022995
0.030342
0.000860
-0.148038
0.143492
-0.187628
0.109129
0.097707
-0.009361
-0.208166
-0.190513
-0.384935
0.138198
0.003568
0.095299
-0.116772
0.036898
0.317907
0.023293
0.112159
-0.241200
0.115350
-0.183456
-0.133856
0.123772
0.124481
0.255299
0.368458
-0.205229
0.133896
-0.106358
-0.035942
-0.399043
0.027052
0.068625
0.169014
-0.266886
-0.024335
-0.386742
-0.068011
0.019786
-0.045681
-0.438378
0.112284
0.089026
-0.068637
0.178835
-0.158067
-0.167914
-0.025126
-0.185808
0.054472
-0.028684
-0.051945
-0.200388
-0.042919
-0.050459
-0.165668
0.204038
0.007801
-0.058372
-0.051457
-0.029438
-0.085438
0.142822
-0.091207
-0.257879
-0.351798
-0.010472
-0.023569
-0.205707
0.072668
-0.072495
0.408275
0.189140
0.106668
0.017169
0.121922
-0.168471
0.014450
0.188360
0.129744
0.324778
0.022715
-0.173312
-0.305849
-0.041073
-0.229070
-0.249001
0.490092
0.003838
0.007109
0.110596
-0.021662
-0.141173
-0.092252
-0.292378
0.142859
0.132390
0.111694
0.456007
0.126460
-0.009858
0.171364
0.095257
-0.036632
-0.269980
-0.026502
-0.380576
-0.105554
-0.029650
0.132830
0.053579
0.002776
0.001335
0.048351
0.014395
0.029195
0.393698
0.121003
-0.320004
0.284484
0.241391
0.043531
0.090147
0.080114
-0.110260
-0.182677
-0.188426
0.111815
0.065333
0.172991
0.072473
-0.333140
0.162498
0.045350
0.154529
-0.411394
0.312644
0.161814
-0.167272
-0.232334
0.274233
0.375165
0.216122
-0.224407
0.077837
0.003943
-0.078676
-0.075070
-0.161795
-0.130861
-0.097486
-0.164549
0.016566
-0.130973
0.224940
0.082820
0.100021
-0.033181
0.076854
-0.103969
0.065389
-0.057579
-0.077234
0.256966
0.022222
0.081096
-0.073099
-0.089332
0.224563
0.133821
0.050223
0.079753
0.167276
0.087284
-0.025686
0.070799
-0.074126
-0.543005
-0.145797
0.034010
-0.365370
0.034087
-0.064172
-0.035191
-0.081550
0.022568
0.117185
-0.359110
0.101733
0.076431
0.398883
0.040765
-0.068771
0.075028
0.015204
-0.057527
0.120969
0.252332
0.037096
0.182454
-0.052811
-0.218541
-0.081120
-0.037410
0.053034
0.072050
-0.012322
0.311229
0.017883
0.077807
-0.076439
-0.021677
0.123335
0.036845
-0.112335
0.293701
0.062524
0.308107
0.059641
0.179960
-0.225379
0.151764
-0.286970
-0.214684
0.074552
-0.163979
-0.016569
-0.033999
0.066634
-0.465461
-0.038386
-0.084669
-0.286196
0.118122
-0.026510
-0.159336
0.026166
-0.218118
-0.215271
0.015919
0.050043
0.248225
0.150420
0.130442
-0.178399
-0.027786
-0.055069
-0.404988
0.034755
-0.066122
-0.121561
-0.006462
0.154884
0.046542
-0.025886
-0.372828
0.202382
-0.076924
0.011240
0.153384
0.089388
-0.074688
0.123253
0.004754
-0.097820
-0.195669
0.124469
0.248486
0.096019
0.162080
-0.487296
-0.187448
0.102911
0.122879
-0.070334
-0.099949
-0.102304
-0.416877
-0.286089
-0.159874
0.165971
0.012547
0.082612
-0.208789
0.132650
-0.176142
0.164723
-0.297751
-0.256018
-0.089342
-0.163275
-0.177822
0.120731
0.353131
-0.196956
-0.023096
-0.018310
0.109944
0.099788
-0.129141
-0.019169
0.028139
0.157204
-0.233420
-0.086848
0.010303
-0.080753
-0.427381
-0.233594
-0.516611
0.025756
0.106043
-0.018828
-0.085529
-0.168879
-0.085733
-0.039442
0.116354
0.228730
0.023464
-0.225856
0.029667
-0.286188
-0.067931
-0.043690
-0.209159
0.077737
0.071726
0.303522
0.025214
-0.227618
-0.225398
0.140986
-0.114394
0.176458
0.266837
-0.269897
-0.232206
-0.078706
0.295272
-0.004277
-0.080078
0.281102
0.108319
-0.093475
0.126466
-0.005684
0.091058
-0.177551
-0.152070
-0.007958
0.132637
-0.084158
-0.044612
0.096052
-0.110220
0.007843
0.128217
0.098754
-0.021029
-0.467463
0.365114
-0.388156
0.267495
-0.137870
-0.186575
-0.103966
-0.048146
-0.147035
-0.038390
0.128898
-0.087095
-0.118349
-0.079486
0.371625
-0.425394
-0.251851
-0.130485
-0.066527
-0.048480
-0.069634
-0.001906
-0.098263
-0.220643
-0.069805
-0.083557
0.017685
-0.364015
-0.126330
0.246590
0.074829
0.084560
-0.155297
-0.403195
-0.123700
-0.043791
0.121418
0.059455
-0.231341
-0.192204
0.388392
0.029467
-0.015719
-0.178275
-0.350881
0.026406
-0.230089
0.126598
-0.120747
0.141821
-0.132805
0.074963
0.082982
0.075157
-0.237087
-0.032177
0.251079
-0.089634
-0.176720
-0.046056
-0.214304
-0.329137
0.109225
-0.224134
0.033048
-0.473432
0.038534
0.041231
0.099200
0.002451
0.098300
0.065843
-0.161574
-0.029158
-0.293180
0.126967
0.045358
-0.237083
-0.309901
-0.296962
-0.057660
0.048812
-0.362327
-0.262377
0.126986
0.156857
0.209794
-0.100920
0.030893
0.084287
-0.301986
0.024943
0.080349
-0.116465
-0.189198
-0.023659
-0.196762
-0.050020
-0.130236
0.161627
-0.203964
0.232772
-0.119802
-0.069717
-0.418684
0.004360
-0.016962
-0.066388
-0.086057
0.105804
0.002512
0.000244
-0.125175
-0.260434
0.108818
-0.291702
-0.401472
-0.031428
-0.167196
0.179443
-0.405107
0.091402
-0.105651
-0.108756
-0.040289
0.133590
-0.118241
0.086932
-0.189619
-0.210668
0.171805
-0.190143
0.272432
-0.215209
0.019809
0.155639
-0.039811
0.108761
0.157444
0.114826
-0.261472
-0.092527
0.144309
-0.236386
0.032321
-0.006444
0.035793
0.330169
0.275563
-0.144198
-0.070500
-0.281524
0.155192
-0.175403
-0.354643
0.246332
0.404886
-0.073452
-0.012029
0.029549
-0.079740
-0.334353
0.105627
0.047278
-0.018223
-0.150512
0.042248
0.127523
0.126824
-0.066953
0.110915
0.047598
0.281652
0.062801
-0.145392
0.301018
0.007367
0.150577
0.042439
0.151451
0.045707
0.002770
-0.356905
0.191361
0.074189
-0.139885
-0.183081
0.028998
0.093755
-0.097757
-0.088500
-0.127160
-0.085798
-0.229053
0.071516
-0.425309
-0.112918
-0.116081
0.298393
-0.031871
0.268262
-0.252821
0.029720
0.181476
-0.061054
-0.166160
-0.138875
0.131646
0.066378
-0.026617
0.067081
0.120446
-0.013913
0.046329
0.043451
-0.277842
-0.291309
-0.037975
0.209549
0.296954
0.136453
-0.447388
-0.234404
-0.215798
-0.021005
-0.188677
0.029827
0.204123
-0.209862
-0.200509
-0.260001
-0.158061
0.192641
-0.017006
-0.114597
0.117157
-0.363212
-0.256418
-0.201159
-0.437325
0.049012
-0.159377
0.091921
-0.436780
0.214857
0.061646
0.435720
-0.048348
-0.111823
0.149898
0.139789
-0.203432
0.179904
-0.060087
0.023157
0.022095
0.035606
0.015688
0.012228
-0.084683
-0.028947
0.119466
-0.307556
0.130005
-0.025031
-0.118657
0.045197
-0.100766
0.166668
-0.258384
0.064872
0.077653
0.002450
0.035142
0.016644
-0.064830
0.080694
-0.345649
0.381973
-0.004002
-0.106380
0.095001
-0.110406
-0.264263
-0.259403
0.181612
-0.068156
0.240757
0.074548
-0.047849
-0.008239
-0.321110
0.022955
-0.004881
0.047785
0.016716
-0.131166
-0.311063
-0.121622
-0.152544
0.129231
0.123423
-0.022019
0.238254
-0.051516
0.234039
0.151096
0.185761
0.204976
0.043977
-0.065656
-0.173343
-0.152074
0.107007
0.161787
-0.001004
-0.129595
0.122334
-0.237454
0.016804
0.111921
0.189829
-0.081624
0.007313
0.422273
-0.232069
-0.145063
-0.113211
-0.191452
-0.133287
0.007553
-0.002614
-0.212024
0.158410
-0.120198
-0.093988
0.162967
-0.086475
0.073084
0.118894
-0.105467
-0.062236
-0.082926
-0.175798
-0.336142
-0.163399
-0.151682
-0.157867
-0.142195
0.245150
0.047251
0.072946
-0.136148
-0.249175
-0.068096
-0.120126
-0.286753
-0.169528
0.020631
0.297296
0.021991
0.092084
0.051696
0.082130
0.074089
-0.122997
-0.184702
0.169480
-0.043997
0.126687
-0.184548
-0.177549
-0.040593
0.236985
0.200443
-0.124387
-0.059214
-0.013876
-0.035140
-0.192068
0.138095
0.066469
-0.394086
0.081280
0.145714
-0.228908
0.205519
0.039579
0.049074
-0.105731
-0.147817
-0.047637
0.154204
-0.123621
-0.216194
-0.056247
-0.197707
-0.049267
0.046623
0.145565
0.176262
-0.287359
-0.037138
-0.079201
-0.111429
-0.252717
-0.109564
0.000955
-0.161612
0.113764
-0.082918
0.060838
-0.288937
-0.124084
-0.124222
-0.166125
-0.140515
-0.002615
0.040863
0.065829
0.098447
-0.159851
0.041146
0.028255
0.038474
0.221880
-0.126553
0.007704
0.010882
0.205950
-0.043498
0.165851
0.205533
-0.171986
-0.101633
0.229902
-0.190989
-0.147469
-0.059027
-0.101255
0.071802
-0.085649
-0.060810
-0.218349
-0.128988
0.194177
-0.245246
0.388283
-0.280109
0.128191
0.566565
0.180149
0.049592
0.078677
-0.065015
0.286888
-0.064171
-0.129619
0.182000
-0.045895
0.120696
0.229220
-0.086479
-0.052730
0.203749
0.254777
0.435950
-0.123565
0.015419
-0.156735
-0.237182
0.032592
0.226483
-0.147315
-0.043742
-0.003223
0.126744
0.173451
0.082916
0.125644
0.237743
0.042059
0.099345
0.275369
-0.122928
0.037878
0.031255
-0.036573
-0.106296
0.267836
0.014989
-0.149038
0.189082
-0.005630
-0.144703
0.189315
0.253425
0.058300
0.076761
0.213388
-0.096700
-0.107353
0.033080
-0.005070
-0.157318
-0.310210
0.183015
-0.138592
0.010641
-0.080544
-0.106858
-0.191213
-0.048408
-0.095606
0.345020
0.238025
0.256154
0.052685
0.149398
-0.116965
-0.124795
0.205031
-0.113998
-0.078276
0.130805
0.070562
-0.222406
-0.017565
-0.282456
0.048457
0.141561
0.074279
-0.281007
0.032997
-0.152463
-0.060737
-0.066451
-0.028462
-0.247657
-0.022366
-0.175265
0.038872
0.030428
0.013410
0.027869
-0.013000
0.054158
-0.367774
-0.112447
0.006993
-0.186006
0.187529
0.045873
-0.086944
0.100034
-0.301554
0.093530
0.013983
0.251367
-0.137356
-0.091965
-0.131904
-0.267383
-0.087036
0.142944
-0.003783
-0.025617
-0.165496
0.065375
0.021740
-0.122579
-0.044946
0.001098
0.242222
0.106219
-0.160881
-0.029824
-0.347179
-0.062700
-0.132895
0.348722
-0.056438
0.345174
-0.049466
-0.181833
0.380487
0.239603
-0.330333
0.079550
0.009215
0.042956
-0.059429
-0.013394
-0.009491
-0.095917
-0.062230
0.125103
0.130504
-0.206069
0.219495
-0.010906
0.142313
0.251918
-0.104438
0.060832
-0.323675
0.124153
0.033735
0.204235
-0.159271
0.033932
0.005992
0.032356
-0.224225
0.311882
-0.031046
0.152662
0.163545
-0.137046
-0.221727
0.248409
-0.051569
-0.045212
-0.345100
-0.223650
-0.041203
-0.069373
-0.045628
-0.134004
-0.095535
0.083071
-0.089467
-0.228455
0.022177
-0.033147
-0.160425
0.121332
-0.139466
0.193670
-0.032506
0.025961
0.240346
-0.056645
0.041652
-0.066283
-0.006275
0.029908
0.229487
-0.051229
0.104831
0.107935
0.072950
0.118401
0.065684
-0.000104
-0.042230
0.266498
-0.139245
0.318811
-0.090549
-0.151881
-0.160529
0.176430
0.046249
0.221377
-0.141702
0.170045
0.155831
0.046792
-0.354460
0.175929
-0.053638
0.227438
-0.044864
0.116040
-0.253056
0.031571
-0.036045
-0.338569
0.013917
-0.072244
-0.104334
-0.000366
-0.258730
-0.165886
-0.059726
0.010787
-0.159485
-0.160069
-0.406885
-0.165476
-0.148185
-0.150574
-0.131788
-0.059593
-0.064956
0.258028
0.314384
-0.133955
-0.114249
-0.067048
-0.113797
0.175779
0.070313
0.026946
0.074460
0.029673
-0.009922
0.313388
-0.009947
0.038216
0.002551
-0.247513
-0.065888
0.083622
-0.113854
-0.326971
0.107907
0.054444
0.156478
0.285254
-0.202115
-0.246605
-0.031466
0.158128
0.485972
-0.201857
0.101812
0.224881
-0.270747
0.134944
0.218912
0.272667
-0.025453
0.138878
0.110564
0.018192
0.252820
0.054261
-0.248252
0.033551
0.271054
0.223910
-0.095636
-0.329547
0.103133
0.000836
0.083090
-0.296268
0.074715
-0.048032
-0.198693
-0.066164
-0.380434
-0.160002
0.166598
-0.181506
0.160712
-0.199337
0.044122
0.117329
0.216833
0.120121
0.061181
-0.105418
-0.398395
-0.050059
-0.115970
-0.163841
-0.079374
-0.176985
0.193080
0.054513
-0.027312
-0.098938
-0.012600
0.047000
-0.098317
0.124482
-0.029631
-0.133573
0.344466
-0.088717
-0.162178
0.383698
-0.049296
-0.015449
-0.195393
-0.107296
-0.014300
-0.074807
-0.068133
-0.126444
-0.177462
-0.148632
-0.035739
0.443013
0.036417
0.012649
0.359386
-0.028310
0.028603
-0.130426
0.190136
0.195279
-0.131302
-0.200099
0.016986
0.038158
0.132770
-0.045309
-0.011405
-0.156203
-0.156017
-0.169070
-0.163030
0.149805
-0.110975
-0.135291
0.066282
0.217536
0.027222
-0.214323
-0.052148
-0.079079
-0.036090
-0.265116
-0.145752
-0.198226
-0.142395
-0.155979
-0.281734
-0.092129
-0.249768
-0.013929
-0.206441
0.014207
0.155272
-0.214450
-0.251002
0.378152
-0.075016
0.102332
-0.148424
0.082018
0.096128
0.088890
0.177215
-0.202702
-0.006585
-0.114277
-0.496149
-0.123256
0.002807
-0.293085
-0.002585
-0.031102
-0.371417
0.094717
0.168922
0.232345
-0.002944
-0.132900
-0.037257
-0.231730
-0.104248
-0.169865
-0.076862
-0.189247
-0.085071
0.153760
-0.147714
-0.069649
0.167078
-0.157708
-0.355341
-0.035094
0.177703
0.005663
-0.031751
0.162560
0.014852
0.197372
-0.230555
-0.112186
0.332913
-0.386016
-0.189838
0.445120
-0.104113
0.059117
0.091505
0.108961
0.307079
0.098515
0.008775
0.019806
-0.252266
-0.059006
0.114680
0.082243
-0.067706
-0.064022
-0.041295
-0.223368
-0.054463
0.127869
0.282217
0.346757
0.152321
-0.397071
0.006874
-0.001104
0.005988
-0.243075
0.166049
0.165052
0.091707
-0.119858
-0.239025
-0.015498
0.243139
-0.063341
-0.326517
0.040334
-0.242537
0.174849
-0.334488
0.405503
-0.200598
-0.039341
-0.176656
-0.337047
0.298942
0.133009
0.045196
0.043875
-0.034677
-0.164072
-0.088998
-0.168787
-0.214282
0.105660
-0.255422
-0.330869
-0.074373
0.274250
0.038883
-0.124530
0.122606
-0.200327
0.017043
0.123327
-0.078638
0.076863
-0.131019
-0.073546
0.187512
-0.172396
-0.357013
0.055128
-0.053756
-0.135664
-0.117055
0.064541
0.023015
0.054525
-0.180978
0.060977
-0.111932
0.050090
0.279723
-0.033185
0.188886
-0.071278
-0.233064
-0.040890
-0.157852
0.001976
-0.108498
0.420899
-0.012351
0.023094
-0.293546
0.053145
0.328306
-0.148388
-0.264966
0.263503
0.105539
0.067251
-0.543472
0.030197
-0.183128
-0.270486
0.046692
-0.188093
0.092918
-0.101413
-0.059326
0.056002
0.323435
-0.111533
-0.227444
-0.294000
-0.354585
-0.332817
-0.447948
-0.116870
-0.302097
-0.005701
0.265898
0.009794
0.209047
0.256371
0.113020
-0.306837
-0.096369
-0.094121
0.015556
-0.255522
-0.037933
-0.170436
-0.024514
-0.385398
-0.111562
0.016515
-0.056833
0.027180
-0.129665
0.037411
-0.112355
-0.040140
-0.180656
0.069969
0.077466
-0.101568
0.216312
0.108780
-0.076821
0.116297
-0.056885
-0.006758
-0.273571
-0.148643
0.019476
0.029934
0.171822
0.084737
-0.018725
0.129260
0.022931
-0.057161
-0.167008
0.131067
0.037573
0.047108
0.013568
0.159203
-0.081230
-0.082908
0.108836
-0.200759
0.021604
0.033702
-0.420797
-0.019757
-0.070726
-0.022895
0.076220
-0.149987
0.019387
0.196443
-0.033288
-0.165368
0.224762
-0.229748
0.131575
-0.043688
0.060907
0.243983
0.086889
-0.326055
-0.169122
-0.222854
-0.123833
0.000583
-0.093586
-0.032337
0.237600
-0.109916
-0.128164
-0.270626
0.116562
-0.222974
-0.272357
0.131425
-0.100435
-0.034870
0.173933
-0.179465
-0.321102
-0.036532
-0.048643
-0.184614
0.105382
0.088525
-0.238968
-0.142746
-0.292328
-0.118359
-0.184511
-0.066930
0.141665
-0.276268
-0.061290
0.135867
-0.024461
-0.000985
0.074597
0.116469
-0.564331
-0.154621
-0.311559
-0.013822
-0.273836
0.102649
0.036542
-0.038009
0.073633
-0.087642
-0.114649
-0.071249
-0.003869
-0.167028
-0.043255
-0.187591
0.001832
0.241228
-0.083268
0.304557
-0.187970
-0.185871
-0.073124
0.154653
-0.037203
-0.350168
0.153821
0.024795
0.205176
-0.161023
-0.318419
-0.122740
0.009001
0.053178
-0.218618
-0.007754
0.141149
0.001701
-0.184411
0.092708
0.080734
-0.138020
0.240693
-0.440716
-0.097526
0.388270
0.008919
0.060805
-0.014415
-0.085578
-0.104159
-0.098800
0.143794
0.278500
0.096186
-0.215531
-0.005088
0.141372
0.218701
-0.060487
0.019670
-0.036861
-0.038762
-0.257945
-0.080356
-0.009425
-0.161696
-0.260711
0.070318
0.337337
-0.218610
0.082856
-0.093350
-0.326151
-0.145795
-0.059046
0.080496
0.042677
-0.389815
-0.577152
0.155936
0.106473
-0.243265
-0.265969
0.217855
-0.162484
0.064164
-0.204680
-0.037108
-0.303842
0.044949
0.137466
-0.034814
0.184593
0.018365
0.202696
0.003158
0.067087
-0.100072
-0.101102
-0.273097
-0.225046
-0.234176
0.152058
-0.417907
0.026711
0.102678
0.094185
-0.300119
-0.006316
-0.113355
-0.375222
-0.058133
0.007238
-0.137209
0.037547
0.013793
0.087662
0.066720
0.145262
-0.249629
-0.304972
0.249466
0.075023
-0.279142
0.027803
0.020832
0.031990
-0.155959
0.084498
0.010951
0.006760
-0.248653
-0.431417
-0.089236
0.025355
-0.385916
0.303076
0.109080
-0.188844
-0.050579
-0.130837
0.169456
0.104952
-0.092490
0.000817
-0.208948
0.132729
-0.397179
0.100175
0.485110
-0.242620
-0.253067
0.084301
-0.290145
-0.114568
0.222450
-0.107059
-0.032268
-0.240868
0.174125
0.119129
-0.003688
0.006642
0.011430
-0.071769
0.039906
-0.161935
-0.237257
-0.009674
0.243883
-0.022481
-0.021650
0.098643
0.123427
-0.032068
-0.037559
0.077892
-0.005460
0.015361
-0.231366
-0.007788
-0.016741
-0.303343
0.224744
-0.173669
0.043731
-0.134434
-0.081807
0.040721
-0.023596
0.065235
0.082749
-0.181408
0.166295
-0.026324
0.030191
0.095342
-0.272753
-0.007845
-0.227970
0.090695
-0.294397
-0.218419
-0.443040
0.052519
0.258482
-0.087843
-0.347890
-0.368167
0.133198
-0.012120
0.054395
-0.387514
0.063578
0.059354
-0.029444
0.059777
0.029270
0.201780
0.249746
-0.291159
-0.296734
-0.103731
-0.251336
-0.091868
-0.092705
0.321306
0.057023
0.294975
-0.148935
-0.000788
-0.070044
0.174146
-0.004198
-0.141949
0.097231
0.021839
0.056083
-0.045049
-0.057611
-0.090100
-0.229790
-0.102096
-0.125742
-0.011483
-0.086192
0.298909
-0.407266
-0.074547
0.314666
0.228410
-0.258812
-0.015299
-0.116794
-0.003433
-0.007826
0.092263
0.118451
-0.011254
-0.147099
0.127249
-0.029743
-0.113093
0.194986
0.012388
0.006351
-0.268827
-0.430230
-0.141958
-0.145935
-0.214643
-0.092736
0.150531
0.000748
-0.015323
0.111821
0.330181
0.128178
-0.399201
-0.140182
-0.423665
-0.254974
-0.117580
-0.131801
-0.091846
0.305001
-0.308883
0.024618
0.076052
0.108371
-0.291461
0.111487
0.159075
0.296243
0.069992
0.287027
-0.002851
0.238460
-0.260347
0.016194
-0.022915
0.031351
0.143970
-0.123695
-0.238682
-0.095869
-0.035391
-0.252301
-0.035754
0.191604
0.272060
-0.043070
-0.019384
-0.071901
0.206754
-0.057857
-0.099281
-0.121316
0.099566
-0.253625
0.423674
0.138078
-0.115970
0.158863
-0.027711
0.309106
-0.316593
0.118331
-0.007805
-0.056225
0.155212
0.009229
-0.131083
-0.437318
-0.147313
0.048674
0.107367
-0.179975
0.005757
0.168692
0.121922
0.229387
0.052356
-0.116717
-0.098615
-0.106425
-0.040087
0.028655
-0.024826
-0.100107
-0.279852
-0.179238
0.005013
0.189987
0.119886
0.196507
0.088269
-0.108945
0.177129
-0.175766
0.303440
0.096575
-0.008672
-0.361290
0.156823
0.002052
0.139745
-0.149330
-0.051659
0.054257
-0.086418
0.314730
0.075244
0.242770
-0.035996
0.027812
-0.106106
0.093762
-0.102690
0.044351
-0.242895
-0.188432
0.003833
0.072934
0.332135
0.121185
-0.170368
-0.159624
0.221979
0.080347
0.000764
-0.338558
0.116728
0.006353
0.045428
0.023736
-0.084672
-0.048573
-0.433960
-0.298204
-0.018456
-0.400772
0.209710
-0.156444
-0.127261
-0.228545
-0.100250
-0.161175
-0.225397
-0.223890
-0.009923
-0.394799
-0.057215
0.175954
0.038410
-0.133036
0.042680
-0.239208
-0.011764
-0.025251
0.029377
-0.005874
0.110804
0.097587
-0.154142
0.020020
0.237071
-0.060461
-0.157455
-0.107944
0.060012
-0.037911
-0.108425
-0.077226
-0.272898
-0.066459
0.279981
0.220533
-0.161268
-0.122520
0.140959
-0.047444
0.084892
0.271059
0.156354
0.112110
-0.120167
-0.016901
-0.009330
0.030445
-0.345543
-0.355238
0.350743
0.044691
0.379803
-0.057433
0.237888
-0.244827
-0.260444
-0.161942
0.144680
0.124929
-0.106872
-0.280342
-0.142938
-0.405494
0.032562
-0.176653
-0.215488
-0.121641
-0.556639
-0.122173
-0.041833
-0.101770
0.065724
-0.308940
0.040105
-0.025331
0.053552
0.028021
-0.201136
0.046533
-0.038422
-0.061780
-0.095990
0.194429
-0.026814
-0.064969
0.034898
0.074137
0.234688
0.069125
-0.354697
0.037861
0.083660
-0.177890
0.216216
-0.420929
-0.096475
-0.346813
0.411144
0.126797
-0.394316
-0.085687
0.229292
-0.156584
-0.029338
-0.026222
0.112862
-0.029277
-0.146900
-0.052862
0.138915
0.006511
0.001121
-0.211530
0.042773
0.096194
0.436113
-0.133180
0.026205
-0.300698
0.190136
-0.198022
-0.197233
-0.070151
0.068440
-0.032762
0.023065
-0.076424
0.052026
-0.085352
0.261989
-0.077107
-0.372200
0.001901
0.039012
-0.116153
-0.088508
-0.082770
0.134317
-0.056626
0.057048
0.117662
0.004194
-0.049644
-0.198570
-0.212331
-0.283749
-0.048957
-0.137989
-0.090621
-0.265273
-0.241429
0.157485
-0.247487
-0.003618
-0.068668
0.245642
0.030123
-0.082899
-0.032901
-0.070208
0.061485
-0.156625
-0.223099
-0.213936
-0.240324
0.053143
-0.175075
-0.233678
-0.012847
-0.209776
0.012277
-0.070394
-0.036065
-0.113530
-0.219878
-0.040780
-0.142973
-0.162949
-0.122360
-0.044219
-0.098581
-0.071878
-0.231716
-0.048392
-0.028899
0.028589
-0.119486
-0.199111
-0.002607
-0.089873
0.051585
0.145082
0.070487
-0.223075
-0.094924
-0.072374
-0.175032
-0.114149
-0.284718
-0.027945
-0.143671
-0.479514
0.003270
-0.043981
0.254906
-0.510377
-0.041755
-0.290071
0.051797
-0.171967
0.074107
0.024607
-0.235023
0.036068
0.113862
-0.024391
0.018786
-0.081315
-0.033912
0.043336
-0.213675
-0.386033
-0.214966
-0.054523
0.104263
-0.202644
0.060093
-0.452955
0.131277
-0.060671
0.166381
0.170841
0.242142
-0.108728
-0.280112
-0.083473
-0.134928
-0.155959
-0.110049
0.034560
-0.270143
0.152802
-0.117238
0.136050
-0.094792
-0.129831
0.006974
-0.176145
-0.116731
0.073587
0.040510
-0.162472
0.018171
-0.085864
0.257414
0.064621
-0.425268
-0.215374
0.207417
-0.213139
0.564554
-0.264029
-0.024956
-0.148570
0.382789
0.134059
0.018679
-0.104125
0.144556
0.004937
-0.270831
-0.116245
0.150180
0.374806
0.032143
-0.015820
0.119872
0.273883
0.130580
-0.022404
-0.022926
0.067566
0.070441
-0.273692
0.053723
0.019232
-0.076326
-0.187896
-0.228483
-0.100423
-0.018635
-0.151840
0.124091
-0.295997
0.143808
0.019565
0.207407
0.238237
-0.052099
0.056834
-0.233396
0.181332
0.095046
-0.211763
0.087134
-0.092306
0.283929
-0.217635
0.000709
0.051117
0.056239
-0.180947
0.160523
-0.066023
0.194599
-0.043475
-0.367807
-0.003661
-0.100053
0.046674
-0.104594
-0.009084
-0.008746
-0.133710
0.184545
-0.389437
-0.018995
0.018541
-0.105384
-0.009052
-0.045376
-0.274996
-0.271459
0.107664
0.085753
-0.283257
-0.296686
0.310333
0.002078
0.196055
0.035578
0.016012
0.196610
-0.180293
-0.225667
-0.202675
0.212255
0.127293
-0.041859
-0.074329
-0.164779
-0.062787
-0.237800
-0.172491
-0.430653
0.048726
-0.039229
0.101456
0.132308
0.018656
-0.309820
-0.009636
0.052430
0.197470
-0.302305
0.113958
0.296353
-0.227599
0.079186
0.035379
-0.047796
0.155985
0.282647
0.100457
-0.077369
-0.010119
-0.198488
-0.129261
0.146495
0.052674
-0.015420
0.007655
-0.222602
-0.053873
0.149310
-0.020966
0.054781
0.009677
-0.101389
-0.053951
0.101727
0.405922
-0.055772
0.207713
-0.399664
0.031787
0.209833
0.159591
-0.405875
-0.161898
0.044578
-0.034195
-0.004937
0.178396
0.214341
-0.027112
0.070286
-0.145480
0.046211
-0.152096
0.065262
0.197183
-0.090527
0.056911
0.116627
-0.174684
-0.004360
0.166355
-0.032620
-0.169946
0.123618
-0.447921
-0.335919
0.006604
0.262254
0.230391
-0.035767
-0.056183
0.019454
-0.077513
0.158712
0.072230
0.159830
-0.313791
0.007693
0.219993
0.241738
-0.099889
-0.151875
-0.127037
0.082038
-0.177527
-0.260168
0.027116
-0.312088
-0.086354
-0.287496
0.133805
-0.275170
0.366518
0.238432
0.047735
-0.236896
0.018134
-0.137856
0.058583
0.131353
-0.070478
-0.106169
-0.179361
-0.187879
-0.118368
-0.358486
0.094031
0.089672
0.103875
0.019231
0.075339
-0.033521
0.067232
0.000500
-0.171992
-0.177140
-0.006677
-0.062535
0.114538
-0.289032
-0.154157
-0.448136
-0.082775
-0.205509
0.024981
-0.194850
-0.265609
-0.021959
-0.036596
-0.053806
-0.074843
-0.179752
0.153002
0.005935
-0.125045
0.029803
0.282155
0.090524
0.012776
0.173221
0.061590
-0.058159
0.220484
0.002688
-0.045026
-0.034267
-0.208249
0.241906
-0.239460
-0.674066
0.119817
-0.026938
0.228707
-0.183813
-0.226110
0.159388
-0.274875
0.257865
0.077180
0.261855
-0.063815
-0.146956
0.134416
0.001631
-0.299007
-0.147942
0.231180
-0.278749
0.166169
0.210742
0.021936
-0.094700
0.203336
0.013009
0.138997
0.015062
0.054566
0.037007
0.212970
0.143455
-0.171926
0.176878
0.310337
0.074050
0.032290
-0.107481
0.047385
0.012284
0.034427
0.023560
-0.248664
0.005607
0.145908
-0.105692
0.037186
-0.160178
-0.029744
0.082956
0.050209
-0.145227
-0.073448
0.307153
0.057801
-0.305316
-0.241848
-0.210166
0.175047
0.015326
-0.308902
0.095512
0.024048
-0.344379
-0.219607
-0.053782
-0.128346
0.104044
-0.026692
0.385820
0.025839
-0.040547
-0.042446
0.109972
0.333255
-0.052434
-0.162784
-0.054470
-0.120043
0.075257
-0.227656
-0.200027
0.147769
-0.187803
0.044827
-0.200756
0.056128
0.243320
0.131313
-0.604193
0.050718
-0.157452
0.024513
-0.077774
0.033142
0.095648
0.095229
0.123556
-0.202873
-0.216772
-0.248466
-0.143523
-0.223366
-0.033819
0.059103
0.154770
-0.211645
0.297974
-0.019292
0.091256
-0.122420
0.129017
0.053042
-0.027060
-0.146839
0.065965
0.049288
0.042791
-0.458283
-0.136545
-0.038318
-0.028632
0.107505
-0.228578
0.137601
-0.088329
-0.101694
0.009926
0.073429
0.174388
-0.395433
-0.125454
-0.005135
-0.299565
0.031107
-0.214709
-0.578039
0.019246
-0.167577
-0.093358
0.109448
-0.226799
-0.280904
-0.124071
-0.031125
-0.135710
0.051861
0.108420
0.183056
0.189365
-0.152100
0.080258
-0.180093
-0.094190
0.080532
0.189966
0.148193
0.109818
0.095420
0.172527
0.031451
0.007222
-0.001097
-0.189782
-0.140813
-0.019544
0.181524
0.126262
-0.114677
0.184297
0.194224
-0.177572
0.186181
0.113009
0.461520
-0.001781
-0.216666
-0.158475
0.065943
0.154258
-0.078064
-0.119643
-0.273425
-0.400755
0.142002
0.105011
-0.170334
0.080439
-0.103720
0.161230
-0.105000
0.466440
0.021381
-0.068974
0.176384
0.018345
0.118989
-0.224042
-0.259050
0.119082
-0.177394
-0.175583
0.318779
0.117684
-0.462857
-0.023160
-0.150111
-0.059963
-0.221973
-0.164326
0.099681
0.148294
-0.046445
0.137475
0.007786
0.098800
-0.286296
-0.236751
0.048733
-0.084066
0.106745
0.070660
-0.166825
-0.208822
-0.183215
0.020310
-0.046526
-0.047777
-0.183526
0.000469
-0.190426
-0.289410
0.059624
0.091193
-0.417568
-0.104427
-0.071044
-0.007015
-0.157347
-0.011204
-0.097913
-0.013067
-0.151648
-0.103438
-0.132609
0.394760
-0.014023
0.062667
-0.044781
-0.017314
-0.196611
-0.013715
-0.017832
-0.112287
-0.165747
0.092040
0.036013
0.142178
-0.489945
-0.170453
0.115475
-0.230780
0.146094
0.182137
0.277634
0.243931
-0.051775
0.135218
-0.140161
0.259913
-0.172410
-0.141070
-0.001219
0.080534
-0.156827
0.034870
0.092155
0.073204
0.117706
0.167218
-0.069038
0.258514
-0.150621
-0.253243
-0.052998
-0.063313
0.022555
-0.337334
0.050624
0.063137
-0.391807
0.039046
0.025119
-0.373266
-0.078434
-0.256876
-0.176923
0.188278
-0.013338
-0.094645
-0.054122
0.111992
0.029230
0.229318
0.015365
0.279878
-0.137435
-0.204879
-0.159985
-0.071886
-0.142018
-0.037033
0.073017
-0.193101
-0.005848
-0.146839
-0.119242
-0.106633
-0.050058
0.286629
-0.083790
-0.017262
-0.075777
0.076169
0.202036
-0.252105
0.226975
-0.253829
-0.078098
-0.170560
0.054951
-0.186178
0.001132
0.134713
0.284997
-0.056079
-0.181555
-0.123750
-0.323528
-0.045831
0.047537
-0.513498
0.237126
-0.067685
0.049919
-0.130809
-0.012134
0.049036
-0.037049
0.014266
-0.303775
-0.010444
0.026155
0.052495
0.037059
-0.186509
-0.308405
-0.061801
0.087226
-0.046462
-0.108870
0.020504
-0.148971
-0.077579
0.242716
0.097880
-0.086850
-0.128284
-0.007488
-0.335033
-0.123203
-0.279959
0.243292
0.346046
-0.248144
-0.015983
0.094957
0.208098
0.205391
-0.153400
-0.102658
0.002409
-0.123737
-0.026133
-0.189295
-0.274007
0.068838
0.147515
0.002947
-0.235586
0.100127
-0.054633
-0.004156
-0.330688
-0.075886
0.118440
-0.149783
-0.131144
0.026480
-0.169973
-0.369842
0.109807
0.074436
-0.182465
-0.078647
0.204407
-0.388687
0.192895
-0.058980
0.039365
0.004670
0.063142
-0.007776
0.297710
-0.219716
0.140364
-0.226185
-0.172022
0.469976
0.029646
0.067007
-0.350840
0.322596
0.202271
0.095846
0.294719
0.119008
0.022297
0.060884
-0.140875
0.077990
-0.070191
-0.220644
-0.086535
-0.012905
0.102360
0.076843
0.012915
-0.091006
-0.015177
0.187516
0.067247
0.180452
-0.171063
-0.094412
-0.067049
0.237859
-0.323181
-0.223309
-0.323536
-0.069509
0.029739
0.209027
0.068801
0.136012
0.200729
-0.008945
0.042814
0.138831
-0.008863
-0.109310
-0.001463
-0.182371
0.032929
-0.184530
0.176589
-0.184629
-0.016426
0.234080
0.209684
0.179722
-0.098540
-0.257556
-0.004166
-0.079068
0.256319
-0.146352
-0.141498
0.009397
-0.032401
0.133383
0.005363
0.292879
-0.049153
0.070392
-0.049548
-0.100955
-0.078476
-0.100743
-0.059602
0.038969
-0.346172
-0.091065
0.047475
-0.211036
-0.275824
0.187469
-0.063486
0.115751
0.269103
-0.145471
0.108035
0.056699
-0.078772
0.097250
-0.392275
0.346735
0.293800
0.102432
-0.351491
0.158496
-0.049961
-0.074703
0.303759
0.030617
-0.065254
0.137063
-0.348076
-0.182207
0.171453
-0.151830
0.006904
0.061602
0.286398
-0.432578
-0.255086
-0.057194
0.024393
-0.457200
-0.315996
-0.234587
0.153932
-0.068497
0.178260
-0.038506
0.184874
0.204942
-0.131657
-0.163986
0.135115
0.037777
0.050879
0.167681
0.119880
-0.004639
0.054784
0.159081
-0.021942
-0.057643
-0.139349
-0.155478
-0.400430
-0.313391
-0.126032
-0.000933
-0.092987
-0.227284
-0.039174
0.110943
-0.127193
-0.077972
0.159005
-0.162249
-0.142526
0.060163
-0.167850
0.020274
-0.078569
-0.157730
0.040489
-0.374854
0.277751
-0.076832
-0.242244
-0.064701
-0.143775
0.084260
0.059755
-0.108721
0.055320
0.038188
0.240306
-0.091497
0.010903
0.107894
0.173462
-0.084202
-0.080874
-0.036730
0.066517
0.234992
0.065215
-0.092210
-0.363986
0.011323
0.190482
-0.075780
-0.220993
-0.045005
-0.066607
-0.020836
0.123698
-0.341343
-0.286993
-0.018535
-0.069970
0.074734
-0.278960
0.088381
0.134999
-0.060894
-0.245574
0.053594
0.094718
-0.155020
-0.015556
0.208110
0.035164
-0.033117
0.095337
0.209610
-0.105278
0.035522
-0.301023
-0.012611
-0.157591
-0.063695
0.046878
-0.028356
-0.089343
0.179335
-0.026556
-0.185159
-0.009718
-0.176055
-0.096512
-0.154860
0.024724
0.049996
0.065538
0.022097
0.153294
-0.000467
0.251568
-0.069873
0.234011
-0.054263
0.133137
0.238827
-0.098693
-0.374064
-0.029313
-0.040216
-0.223487
0.013590
-0.074260
-0.241301
0.255751
-0.038461
0.221072
0.078047
-0.197356
-0.132414
-0.238314
-0.058300
0.164352
0.199773
-0.074688
0.002562
0.066968
-0.219050
-0.135956
0.251464
-0.107317
0.106523
0.132105
-0.031623
0.096113
-0.082779
-0.222282
-0.082681
-0.100214
-0.044318
0.226206
0.125344
0.216553
0.069696
0.113485
0.121491
-0.392452
-0.032870
-0.410883
0.456199
0.094480
-0.370651
-0.117940
0.071749
0.280198
0.037908
0.079237
0.130180
0.147172
-0.158898
-0.287018
0.210999
-0.103109
0.179732
0.292129
0.066604
0.098082
0.031260
0.187121
0.161240
-0.024357
-0.229007
-0.219563
-0.252367
-0.009816
-0.067374
-0.236406
-0.010692
0.169021
-0.068870
-0.087611
0.032041
0.254738
-0.217258
0.116486
-0.130429
-0.060906
0.123728
0.133757
-0.116758
-0.250640
-0.096657
-0.421008
-0.125328
-0.106817
0.155272
0.048212
-0.391604
0.011266
-0.061596
-0.098348
-0.217985
-0.041469
0.017616
0.140145
0.060828
0.264295
-0.118895
-0.014192
-0.117053
0.018952
0.060169
-0.385048
-0.085304
-0.132372
-0.279514
0.195230
-0.046456
0.054411
0.004228
0.207056
0.280342
-0.009678
0.037550
-0.156660
-0.030131
-0.217027
-0.048313
-0.222519
0.162781
-0.086930
0.043689
0.024188
-0.020903
0.055876
0.161159
-0.086543
-0.050774
-0.093964
0.141585
0.306935
-0.065136
-0.105557
0.057821
-0.053978
0.052218
0.231227
0.103377
-0.128676
-0.207101
0.041708
0.133675
0.195954
0.042596
0.326740
-0.010714
-0.134051
-0.108981
-0.231631
0.018881
0.082582
-0.073792
-0.044517
0.273563
0.020091
0.216583
-0.145400
-0.349147
0.095245
-0.244218
0.307575
0.169940
0.259411
0.260379
-0.079570
0.030516
0.313126
0.150809
0.112332
-0.073629
0.147365
0.010750
-0.176422
0.171218
0.118935
-0.073892
-0.258955
-0.110028
0.102326
-0.022952
0.082535
-0.079753
0.148589
0.150850
-0.070515
-0.300985
-0.046098
-0.140033
0.206625
0.016999
-0.072357
0.139978
-0.048726
-0.189003
0.112362
-0.199837
-0.268961
-0.132830
0.225688
-0.073148
0.252204
-0.250224
0.192082
-0.014161
-0.184724
-0.360394
0.204369
-0.401286
0.065815
0.335297
0.098347
-0.027748
-0.129814
-0.023085
0.044696
0.075040
0.028109
-0.068428
-0.074683
-0.210981
-0.350178
-0.037875
0.316980
-0.069110
-0.286631
0.149693
0.012039
-0.031363
-0.051434
0.005052
0.163500
-0.194556
0.079901
0.144048
-0.196221
-0.107829
-0.249862
0.073289
0.129887
-0.290567
-0.198918
0.223374
-0.346904
0.042682
-0.051935
-0.569537
0.272640
-0.234707
0.107702
0.114598
-0.132205
-0.418595
0.241634
0.019380
0.117679
-0.214464
-0.068576
0.190315
-0.184187
0.181952
0.031439
-0.132469
-0.206884
0.020338
-0.067864
-0.048252
-0.155993
-0.415770
0.122055
-0.038562
0.267697
-0.140401
-0.210924
-0.025768
0.152079
0.160868
-0.264802
-0.056498
-0.146970
-0.395834
0.114926
-0.176685
0.063103
-0.289485
-0.174342
0.071949
0.064371
0.107279
0.065706
-0.065303
-0.353331
-0.294921
-0.127543
-0.034917
-0.356299
-0.114181
0.065677
-0.061327
-0.055374
-0.155372
-0.073109
0.295812
0.101232
0.078018
0.080606
-0.188732
-0.025224
-0.180324
0.023243
0.087358
-0.151665
-0.097455
-0.003205
0.053225
-0.023950
-0.174894
-0.345231
-0.009916
-0.147070
-0.068399
-0.085235
0.087733
0.386788
-0.065920
-0.294181
-0.167996
0.162312
0.124138
-0.232171
0.100445
-0.019839
-0.194586
-0.326956
-0.018556
0.014806
0.231189
0.043186
-0.186014
-0.088485
-0.109806
-0.210381
0.007461
0.061365
-0.489041
0.048183
-0.265278
0.192630
0.153972
-0.167274
-0.179116
-0.287674
-0.244026
-0.209487
-0.087408
-0.077104
-0.002507
-0.237042
-0.404023
-0.068080
-0.158780
0.096986
-0.044772
0.163322
0.174414
-0.251916
-0.047493
0.056832
0.108902
-0.384449
-0.150495
-0.023035
0.041720
-0.280377
-0.081601
-0.314371
0.220376
0.123072
-0.069630
-0.018144
0.046982
0.055630
0.126282
0.263303
-0.082421
0.001532
-0.129213
0.238544
0.032437
0.180527
-0.124324
0.062501
-0.267186
0.243323
-0.192838
-0.308219
0.066167
-0.067970
0.005015
-0.253905
0.017151
0.164840
-0.172879
-0.334106
-0.228782
0.096024
0.089913
-0.005270
-0.066403
-0.211013
-0.197811
-0.180391
0.013790
0.002243
-0.192025
-0.023264
0.092542
-0.147305
-0.296883
-0.111531
-0.032112
-0.149952
-0.087662
-0.065203
-0.020837
0.116815
-0.059676
-0.160238
0.129255
-0.137402
-0.043506
-0.119306
0.127225
-0.159280
-0.069801
0.052201
-0.029377
0.197789
-0.183108
0.087160
-0.028991
-0.138149
-0.019493
0.158392
-0.363698
-0.033085
-0.066680
0.419679
-0.203583
-0.033889
-0.198357
0.242597
-0.093970
0.060858
-0.089890
0.039074
-0.077107
-0.238868
-0.291552
0.040278
-0.079228
0.110441
-0.067254
-0.201269
0.165171
-0.208238
-0.275678
0.241595
0.206330
-0.147802
0.103467
-0.044008
-0.100970
-0.058976
-0.083240
-0.017529
-0.118314
-0.157215
-0.011495
-0.121934
0.182910
-0.074119
-0.186284
0.308672
-0.151056
-0.089411
-0.092877
-0.224800
0.073546
-0.067435
-0.093203
0.139995
0.039527
0.207330
0.051583
0.110106
-0.292009
0.283867
-0.005568
0.144268
-0.368723
-0.090573
0.129093
-0.188418
-0.145029
-0.007307
0.238663
0.021320
-0.011084
0.018387
0.065148
-0.199010
-0.020045
0.149237
0.026884
-0.276890
-0.044421
-0.063566
-0.064754
0.020128
-0.132334
0.020207
-0.064501
-0.327469
0.021499
0.019842
-0.069892
-0.024064
-0.297005
0.181038
-0.007380
0.191258
-0.218162
-0.046375
-0.296839
0.133194
-0.231552
-0.385481
-0.184126
0.001524
-0.395306
-0.160146
-0.012182
0.077704
0.108945
-0.134225
0.081254
-0.076636
-0.132163
-0.003223
-0.258629
-0.193039
0.011106
0.254988
-0.006565
0.310981
-0.063859
0.198475
0.187083
0.223917
-0.085470
0.172347
0.154723
-0.076319
0.169931
0.130087
-0.016025
0.113393
0.192999
-0.168754
-0.412504
0.134786
-0.059970
0.001919
0.001972
0.035982
-0.291126
0.181627
-0.022295
-0.270846
0.018785
0.189916
-0.166383
0.178711
0.152985
0.248881
-0.137083
0.281770
0.019477
-0.064145
0.061082
-0.002935
-0.295664
0.048564
-0.241744
0.438450
0.027300
-0.387430
-0.030558
0.201821
-0.000975
-0.139639
-0.085820
0.108580
0.172128
-0.048849
-0.268561
-0.064754
0.156925
-0.367750
-0.230185
0.188142
-0.204423
-0.062957
-0.248369
-0.269997
-0.032665
0.113787
-0.186248
-0.216361
-0.052228
0.212805
0.148698
-0.007895
-0.075143
0.119774
-0.109394
-0.106906
-0.253853
0.417757
-0.302418
0.076836
-0.076658
-0.196176
0.067482
0.145777
0.258930
0.339639
0.005465
0.301925
-0.063206
0.134753
-0.145365
0.148597
0.162552
0.157302
-0.201840
0.049336
-0.102732
0.129699
-0.045867
-0.071430
0.269398
0.205270
0.190064
0.207693
0.104245
0.175589
-0.111168
0.162086
-0.046295
0.049717
0.046615
-0.064670
-0.069993
-0.219319
0.237851
0.130313
0.030316
0.367289
-0.355712
-0.053510
-0.064187
-0.048442
0.155477
0.007418
-0.039972
-0.088928
0.263752
0.376890
0.082666
-0.071001
0.280342
-0.301410
0.419223
-0.253551
0.098423
0.238745
0.163210
0.242447
0.234702
-0.154256
0.075888
0.013437
-0.008488
-0.496994
-0.231317
-0.331407
-0.367758
0.035282
-0.280248
0.043484
-0.104046
-0.186698
-0.355654
-0.279242
0.136795
0.237193
0.085414
-0.189116
0.062562
-0.234478
0.170033
-0.232465
-0.008605
0.065084
-0.020138
-0.096163
-0.072854
-0.099491
0.138603
0.111803
0.232970
-0.285008
-0.066247
0.010467
0.016646
-0.090010
0.011821
0.100000
-0.051673
-0.233864
-0.208024
-0.299033
-0.312917
0.076274
-0.177857
-0.162625
-0.033325
-0.023704
0.111105
-0.288685
0.161396
-0.282846
-0.074765
0.061261
-0.184561
0.149534
-0.101578
-0.185321
0.418148
-0.021341
-0.099901
-0.210633
-0.312701
-0.121110
-0.194621
0.005783
-0.060301
-0.064522
-0.218687
0.004435
-0.111909
-0.012516
-0.217393
0.203671
0.271592
-0.040137
-0.066885
0.031864
0.126862
0.116074
-0.050175
0.211302
0.138841
0.036657
0.188106
0.184037
-0.222732
0.089129
-0.109983
-0.228058
0.194856
0.038098
0.019378
-0.147858
0.160762
-0.107236
0.118551
0.318412
0.080586
-0.127983
0.011264
-0.167046
-0.125908
-0.223775
-0.041247
0.046029
-0.033724
-0.171548
-0.319176
-0.028274
0.028121
0.085207
-0.068318
-0.040322
0.227855
0.150656
0.094165
-0.231657
-0.005852
-0.055838
0.182483
0.076480
-0.033121
0.115792
-0.001353
-0.115206
0.343345
-0.030644
0.098832
0.056167
-0.175895
-0.051934
0.204666
0.099625
-0.269540
0.144235
0.293480
-0.121468
0.058950
0.043924
0.192602
-0.139084
-0.294252
0.205170
0.065186
-0.197511
-0.151124
0.067965
-0.101069
0.252889
0.132538
0.058571
0.162933
-0.076586
0.021591
0.092761
0.207772
-0.105245
0.136610
0.183878
0.040383
0.233439
0.232229
0.256889
-0.038956
-0.298189
-0.335505
-0.009769
-0.260977
0.133920
0.019858
-0.093857
0.130031
-0.232622
-0.271308
0.354608
0.097158
-0.072284
-0.062049
0.270910
0.027477
-0.368024
0.183277
-0.231993
0.269416
0.107684
-0.089588
-0.186471
0.100981
-0.102419
-0.068767
0.267788
0.164371
-0.100315
-0.343374
-0.224752
-0.079048
0.190144
-0.375795
0.192957
0.154307
-0.159089
0.313325
0.289020
-0.144086
-0.350115
-0.030580
-0.343302
-0.146834
0.081308
-0.107759
-0.014157
-0.100033
-0.021051
0.298583
-0.056890
-0.087309
0.157391
-0.458410
0.076929
0.150427
-0.284528
0.114767
0.134363
-0.091974
0.107340
0.173806
0.293105
0.080890
-0.571397
0.055046
0.186012
-0.259163
0.014407
-0.414376
-0.140443
-0.014587
-0.210517
-0.422348
0.213663
-0.087095
0.127445
-0.126386
-0.062547
-0.000817
0.065467
0.373542
-0.379479
0.126583
0.431528
-0.190040
0.090747
-0.251199
-0.059792
0.005981
-0.132563
0.027616
0.099328
-0.000432
0.490673
-0.011633
0.155876
-0.018919
0.093334
0.109000
-0.161203
-0.132214
0.142265
0.330000
-0.087825
-0.159196
0.164167
0.116347
0.044668
0.031892
-0.050234
-0.012561
0.122041
-0.017718
0.063253
0.310763
-0.254420
0.113423
0.268126
0.167242
0.015186
0.366801
0.464087
-0.465864
-0.111414
0.121506
0.153368
0.102142
-0.510912
0.173530
0.227572
0.035967
0.361111
-0.245193
0.500733
0.721842
-0.143881
-0.104715
0.174132
-0.051770
-0.069294
0.190790
0.477934
-0.258587
-0.297645
0.244159
-0.210201
0.152705
-0.364574
0.285169
0.061918
0.078052
-0.221865
-0.111611
-0.326959
0.106133
0.063729
0.011440
0.136494
0.026439
-0.035459
-0.274942
0.055271
0.105610
0.049072
-0.154467
-0.032116
-0.416068
-0.011479
-0.186264
-0.011523
0.024239
-0.092162
-0.475794
0.193842
0.150050
0.115167
-0.010832
0.177899
-0.067969
-0.041863
0.098183
-0.008908
0.026583
0.050751
-0.632701
-0.188808
-0.040078
-0.218771
0.046017
-0.062372
0.155306
0.012107
-0.295996
-0.052459
-0.119465
0.167459
0.226787
-0.444192
0.312965
-0.096012
-0.162319
0.425710
-0.205933
0.082866
-0.023775
0.148327
0.175321
-0.018579
0.029265
-0.126578
0.021510
0.006483
-0.026712
0.205313
-0.308539
0.155894
-0.295490
0.021086
0.202949
0.207456
0.262550
0.302816
-0.127559
-0.184074
-0.232180
0.071331
-0.264694
-0.041228
-0.040522
-0.097840
-0.106271
0.044107
-0.300901
0.103424
0.036606
0.061191
-0.140643
-0.123362
-0.174313
-0.159940
0.397200
0.300073
0.051957
-0.071755
0.145547
0.147030
-0.054631
-0.303986
-0.069135
0.093986
0.029169
-0.042856
0.042246
0.032487
0.043543
-0.015675
0.052354
-0.022030
0.118629
0.012858
-0.292045
-0.143002
0.314365
0.230033
-0.127105
0.071603
-0.106136
0.126147
0.070400
0.197022
0.026781
0.049059
-0.151112
-0.117350
0.406425
-0.214872
0.410615
-0.096306
-0.131477
-0.066610
-0.277019
-0.022684
0.048233
0.427449
0.062857
-0.002025
-0.292176
-0.397603
0.145639
-0.030534
-0.279778
0.164108
0.075325
-0.068775
0.233557
0.078973
0.122693
0.120811
-0.003373
0.071796
0.182237
-0.179040
-0.695814
0.354693
-0.260571
-0.113820
-0.049852
-0.161568
-0.083304
0.131843
0.116144
0.019051
0.258318
-0.171976
-0.140738
0.274810
0.284483
-0.180746
0.066294
-0.199549
0.120173
0.015721
-0.060168
-0.074519
0.135126
0.053603
0.199530
-0.374366
0.164449
0.046230
-0.101258
0.165907
0.001427
0.078905
-0.139353
-0.165742
0.169806
0.205918
0.122788
-0.172924
-0.018794
0.044476
-0.210182
0.142520
0.037930
-0.250120
-0.022768
-0.241591
0.099357
-0.258448
0.138131
0.052677
0.199422
0.010709
-0.023031
-0.191451
0.101973
-0.147710
-0.252533
0.288000
-0.031179
-0.123003
-0.152596
0.187882
-0.275830
-0.290329
0.100958
-0.027922
0.127566
0.214474
0.033439
0.031408
-0.118327
-0.278791
-0.324510
-0.226537
-0.011561
-0.291270
-0.110419
0.189792
-0.232203
-0.087841
0.109414
-0.219395
-0.000814
0.028473
0.317346
0.273204
0.033382
-0.314113
-0.065015
-0.120848
0.053124
0.016407
-0.069056
-0.008350
-0.188438
0.026445
-0.060002
-0.004378
0.033919
0.106371
-0.049415
0.324938
-0.022227
0.150394
0.187824
0.073696
0.067250
-0.241242
0.110559
0.079905
-0.118208
0.053258
-0.058016
-0.051284
0.084318
-0.102852
-0.341623
-0.180019
-0.077456
-0.109044
0.370622
-0.227939
-0.117909
-0.195262
0.116738
-0.021461
-0.296062
0.310822
-0.117070
-0.063024
0.030709
0.231413
-0.285865
-0.196017
0.045721
0.134526
0.115217
0.096209
-0.157984
-0.051504
0.056067
-0.452871
0.005008
0.005129
0.073132
-0.122708
0.114896
-0.004034
-0.351147
-0.264159
-0.366434
-0.112339
0.127744
-0.112034
0.007264
0.288329
-0.095365
0.465003
0.041686
0.126267
0.045957
-0.186036
0.256303
-0.117586
-0.170729
-0.203763
0.097035
0.165391
-0.202468
-0.093591
-0.249891
0.110790
-0.074425
0.152256
0.165982
-0.071141
-0.063753
-0.256902
-0.104254
-0.046439
0.293866
-0.109628
-0.000289
-0.165998
-0.276887
-0.148859
-0.037087
0.238255
-0.286239
0.140313
0.168222
-0.217032
-0.085825
0.127046
0.128837
0.014010
0.321066
-0.133187
0.139773
-0.135823
0.021516
-0.002244
0.061440
-0.454731
0.014726
0.228220
0.225127
0.157720
-0.138144
0.038461
0.115365
0.018136
0.158412
0.187872
0.181006
0.055536
-0.106312
-0.131094
-0.070376
-0.160649
0.114797
-0.268571
0.078241
-0.353018
-0.003557
-0.142433
0.169532
0.170090
0.264235
0.267820
-0.404793
-0.227845
0.105557
0.347291
-0.064891
-0.232458
0.383991
-0.391267
-0.135459
0.098244
0.019952
0.120462
-0.339666
-0.269502
0.058147
0.193477
-0.128333
0.047123
-0.252871
-0.251318
0.054909
-0.106283
0.117694
0.119857
-0.145715
0.075989
0.005257
0.373956
-0.063264
0.052648
-0.088810
-0.111836
-0.343914
0.034869
-0.067265
-0.125672
0.090269
-0.300334
0.199787
-0.043365
-0.356129
0.113977
0.141474
-0.110082
0.097238
-0.069191
-0.003246
0.057996
-0.176958
-0.103448
0.189313
-0.230549
-0.395793
0.336969
-0.306198
0.052922
-0.188769
-0.065291
-0.040621
-0.000978
0.073103
-0.067924
-0.198007
-0.064571
0.168701
-0.007482
0.076160
-0.225480
-0.159176
0.035416
-0.054246
0.188161
0.110859
0.082207
-0.097304
-0.111067
-0.108026
0.071239
-0.002164
-0.055645
0.262239
0.189904
-0.197299
-0.146202
-0.119618
0.009994
0.271183
-0.101396
-0.246564
-0.242601
0.299745
-0.116769
0.136853
0.047871
-0.071593
0.018915
0.022536
-0.117619
-0.211065
-0.376626
0.050885
-0.054147
-0.280221
-0.095598
-0.222243
0.126960
-0.154689
-0.310681
-0.091922
0.040735
-0.116226
-0.183268
0.049945
-0.162236
-0.276803
-0.165094
0.156013
-0.058813
-0.188166
0.031977
-0.043638
0.115986
-0.240375
0.133623
-0.209583
-0.028691
-0.001697
-0.071063
-0.102973
0.176005
0.033272
-0.141429
-0.105845
-0.159184
0.062658
0.155035
-0.187047
-0.226450
0.176666
-0.278077
-0.317427
0.098649
-0.071089
0.108145
-0.313945
-0.009197
-0.015738
-0.116801
-0.174052
0.082806
-0.213739
0.110646
-0.147026
-0.279618
0.270838
-0.133774
0.298681
-0.370314
0.059187
-0.220613
-0.004574
0.231803
0.306385
0.170509
-0.192342
-0.160490
0.180180
-0.097586
0.111361
-0.119315
0.101882
0.109816
0.151456
-0.144227
-0.095590
-0.494359
0.109848
-0.013128
-0.211156
0.096823
0.161336
0.047451
0.116739
0.181755
-0.134287
-0.064556
0.194218
-0.134545
0.047370
-0.086231
0.238075
0.346919
-0.087522
0.101282
-0.215992
0.151734
0.032983
0.025131
0.111575
0.034306
-0.034360
-0.101731
-0.090089
0.022348
-0.014934
-0.198181
0.121171
0.158250
0.051467
-0.260699
0.250914
0.069110
0.018903
-0.186214
-0.088120
0.059444
-0.388192
-0.021457
-0.118503
-0.181020
-0.323835
-0.207597
0.142264
-0.095694
0.198399
0.042331
-0.129468
0.251714
-0.145961
-0.157834
0.051896
-0.391569
-0.047613
0.007355
0.265880
-0.069820
-0.097857
0.152738
-0.131460
-0.446918
-0.358402
-0.008863
0.089951
0.025440
-0.004087
-0.041933
-0.090871
0.300975
-0.303477
0.141327
-0.013558
-0.135453
0.134981
-0.041566
-0.308002
0.036854
0.128685
0.143839
-0.021181
0.138131
-0.279236
0.104904
0.015057
-0.378300
0.208982
-0.331269
0.030775
-0.555497
0.033305
0.150925
0.156759
0.091354
0.089899
-0.228365
-0.019253
-0.309458
0.139617
0.248067
0.294841
0.168149
-0.080476
-0.139243
0.102184
-0.110482
0.130933
0.066279
-0.115547
-0.275833
0.251278
-0.144436
0.132131
-0.008441
0.045900
-0.365241
0.029996
0.137929
0.145356
0.018179
0.024012
0.062796
-0.028265
-0.214181
0.228294
0.189091
-0.347513
0.205481
-0.117024
-0.142913
-0.211422
0.357683
0.053191
0.033117
-0.243754
-0.286830
0.081913
-0.265485
-0.261639
0.265587
0.159410
0.060440
-0.002349
-0.351663
-0.018072
-0.176288
0.137292
0.009748
-0.066438
0.361062
-0.133141
-0.151319
0.075648
0.197720
0.170848
0.025531
0.011048
-0.028204
-0.294177
0.171229
-0.085306
-0.181885
-0.264179
-0.067474
-0.272244
0.004593
-0.155485
0.000728
-0.308984
0.057660
0.133939
-0.069165
-0.068855
-0.314294
-0.093232
0.173990
0.222081
-0.028704
-0.250850
0.193080
-0.022328
-0.117237
0.107550
0.001760
0.107866
0.016679
-0.147264
-0.119641
-0.110111
-0.418718
-0.304786
-0.336910
-0.350254
-0.066765
-0.312975
0.132498
-0.358683
0.245512
-0.025349
-0.269872
-0.054797
0.041346
0.096004
-0.089168
0.074195
0.012177
-0.233511
0.209228
-0.048893
0.134810
0.168581
-0.216394
-0.044620
-0.151093
0.051687
-0.090833
-0.248373
0.138803
-0.083234
0.191911
0.296898
-0.019768
0.019564
-0.122020
-0.090642
-0.161591
-0.119505
-0.134273
0.036432
0.074549
-0.260140
0.421181
0.236794
-0.071766
0.144387
-0.178674
-0.207119
-0.003262
0.137795
-0.023574
-0.123901
-0.023821
0.089273
0.116868
0.308063
0.054797
-0.014614
-0.316838
-0.148913
-0.195534
0.076644
-0.392230
-0.009486
-0.128990
-0.042891
0.085178
-0.145065
0.043606
-0.252170
0.273845
-0.104675
-0.254083
0.070201
-0.090045
0.059167
0.190521
0.152421
-0.067931
-0.155339
-0.054447
-0.084622
0.242264
0.089021
-0.122193
0.002383
0.009328
-0.149953
0.103136
0.314605
-0.182906
-0.116934
0.324401
0.263297
-0.058130
0.089383
0.010157
0.196084
0.290816
-0.362042
0.002664
-0.082364
-0.052187
-0.132436
0.493232
-0.005168
0.235706
0.090823
0.202134
0.036558
0.032002
-0.050824
0.167666
-0.065142
-0.109106
0.354291
-0.179557
0.147359
0.142402
-0.029897
0.293653
0.239027
-0.068762
0.286412
-0.220445
-0.003569
-0.253437
-0.163666
0.163136
-0.109729
-0.052571
-0.114366
0.233798
-0.078617
0.140147
0.164045
-0.051049
-0.019688
0.057583
0.203182
-0.111693
0.014877
0.060860
-0.041654
-0.456932
-0.265108
0.210591
0.059655
-0.157470
0.130907
-0.099637
-0.194955
0.422310
-0.099950
0.219811
-0.061060
0.306945
0.133700
-0.178786
0.156594
0.038162
-0.234805
-0.257104
0.180514
0.107506
0.048607
-0.160207
-0.125818
-0.187430
0.109127
-0.283158
0.435270
0.228678
0.178052
0.081238
-0.033039
-0.244870
-0.098567
-0.075794
-0.193644
-0.414169
0.213421
-0.276465
-0.029588
-0.151172
-0.402258
0.008670
0.037908
0.039227
-0.179089
-0.283783
-0.167361
-0.209870
0.235188
-0.067521
0.020872
-0.102734
-0.055299
-0.192073
-0.172029
0.096811
-0.020979
0.085758
-0.016263
-0.275251
-0.209540
-0.015398
-0.226713
-0.257470
0.102725
0.186113
0.065451
-0.221450
0.055307
-0.186315
-0.111965
-0.141729
-0.193504
-0.202867
-0.368919
0.024003
-0.053361
-0.123274
-0.126366
-0.223402
-0.092342
-0.050570
-0.083990
0.204714
-0.105072
0.417802
0.088953
0.201652
0.076054
-0.234358
0.117769
0.073109
0.177628
-0.290815
0.217666
0.231285
-0.278164
0.181855
0.201293
-0.154710
0.278123
0.091444
-0.116860
0.070525
-0.187006
0.186709
-0.018587
-0.514905
0.659999
0.044842
0.038442
0.109999
0.099478
0.180257
0.126781
0.016043
-0.106596
-0.140498
-0.073057
-0.308316
0.125137
-0.077839
-0.055233
-0.256034
-0.086458
0.006243
0.331777
-0.086882
-0.083654
-0.325100
-0.129009
-0.138793
0.134632
-0.307333
0.040445
-0.594969
-0.014768
-0.189207
-0.174210
0.012969
-0.165593
0.006451
0.289733
0.124066
-0.122007
-0.134297
0.047809
-0.058601
0.038303
-0.085168
0.270239
-0.139708
0.214158
0.309064
-0.003636
-0.071849
-0.154920
0.063734
-0.020962
0.192053
-0.070770
-0.074715
0.252560
0.065772
0.061265
-0.126330
0.120775
-0.007803
0.110910
-0.175005
0.394860
-0.236503
-0.175674
-0.175685
-0.171835
-0.109777
0.050570
-0.263515
0.273335
0.034279
0.010390
-0.251265
0.197804
-0.156674
0.127630
0.109667
0.227455
-0.142989
-0.216495
-0.049662
-0.329712
-0.090639
0.020867
0.103841
0.117317
-0.019198
-0.086109
-0.261125
0.002178
-0.046552
-0.196521
-0.516427
-0.081395
-0.144857
-0.042163
-0.240898
0.185899
-0.154693
-0.038592
-0.056639
-0.089523
0.009629
0.023381
-0.005638
0.039077
-0.135045
0.032586
0.216281
-0.051628
0.175371
0.165719
-0.127439
-0.093468
0.217598
-0.149570
-0.028516
0.167882
0.104219
-0.308887
0.062719
-0.010057
0.304283
0.049912
-0.094791
-0.266869
-0.092722
-0.063433
0.446121
-0.318521
0.002045
-0.082004
-0.063139
-0.072082
0.120825
-0.021053
0.058875
-0.011472
-0.143619
0.014968
0.129978
-0.053485
-0.035344
-0.075532
0.041751
0.322481
-0.115132
0.044831
0.145839
0.094212
0.133435
-0.350647
-0.076353
0.012295
-0.030350
-0.155467
-0.419258
-0.027332
-0.130997
0.373983
0.017244
0.261147
0.135793
0.103808
0.213199
-0.019382
-0.068023
0.001367
-0.199956
0.104222
0.129767
-0.349544
-0.124939
-0.303847
0.103147
0.067343
0.005114
-0.070222
-0.132199
-0.094334
0.020408
0.071508
-0.297237
0.123111
0.125311
0.097864
-0.346840
0.422230
0.134132
0.122309
-0.169773
-0.173077
-0.129519
-0.195069
0.178572
-0.400795
-0.252413
0.392362
-0.092211
0.158974
0.212401
-0.060463
0.205498
0.118583
-0.120223
-0.042047
-0.033204
0.332682
0.048118
-0.032588
-0.165543
0.041470
0.141446
-0.083464
0.004727
-0.217054
-0.118564
-0.066892
-0.085884
0.155787
-0.075506
-0.016162
0.105489
0.137316
-0.100458
-0.382408
-0.157468
0.084126
0.047437
0.029013
-0.044438
-0.386428
-0.316048
-0.348786
-0.153745
-0.192229
-0.050612
0.192503
-0.156360
0.085444
0.200611
-0.265338
-0.356505
0.137268
-0.213839
0.164027
-0.114967
0.065262
0.032184
0.046528
0.145465
-0.441410
-0.142116
-0.003793
-0.367844
-0.368654
-0.161179
-0.126038
0.029103
-0.265353
-0.254316
0.014387
-0.151781
0.239089
0.051836
0.033144
-0.127641
-0.167722
-0.047644
-0.070603
0.061220
-0.058558
-0.046941
0.236443
-0.033464
0.155946
-0.047863
0.141396
-0.356136
-0.193246
-0.093877
0.040507
0.079019
-0.077429
-0.269296
0.119014
-0.073394
0.127573
-0.010585
-0.134984
-0.046744
0.268192
-0.032271
0.238372
0.242625
0.256027
-0.005117
0.158520
0.086053
0.253878
-0.178837
0.011033
0.179654
-0.077029
-0.034462
0.086130
-0.204982
0.107469
0.110351
0.068261
0.114002
0.259425
0.266576
-0.112366
0.128254
-0.024879
0.151135
-0.122289
-0.278306
0.344457
0.196150
-0.099738
-0.264355
0.362344
0.205865
-0.093065
-0.072151
0.001012
0.130636
-0.097564
-0.028811
-0.085235
0.115712
-0.106989
-0.241146
-0.212299
-0.000528
0.049070
-0.011418
-0.188094
-0.153266
-0.237937
-0.022843
-0.264729
-0.210590
0.274606
-0.248557
-0.223434
-0.119781
-0.115608
-0.026570
-0.417010
0.155700
-0.181810
-0.139721
0.004284
-0.043129
-0.054743
-0.180028
0.130540
0.184672
-0.233892
-0.491710
-0.147784
0.182123
-0.142332
0.135451
0.062515
-0.058417
0.093849
-0.108011
0.109868
0.045148
-0.130214
0.144022
0.099063
0.042472
0.351293
-0.464508
-0.069036
-0.051965
0.055085
-0.344646
0.239839
0.097796
-0.083786
-0.176898
0.039331
0.166712
0.070493
-0.132165
-0.056516
0.316175
-0.126362
-0.121795
-0.181632
0.152140
-0.356742
-0.176258
-0.041689
-0.140554
-0.033196
0.131329
0.079145
0.213021
0.124127
-0.023581
-0.337816
-0.060370
-0.280852
-0.502536
-0.056647
-0.336109
-0.229630
0.086976
-0.178754
0.265502
0.330240
0.022028
-0.158182
-0.248970
0.237318
-0.035071
-0.101250
-0.181916
-0.150108
-0.109112
0.016384
-0.212411
0.230278
0.030105
0.229051
-0.045473
0.029135
0.089839
-0.047732
-0.030292
-0.081577
-0.131601
-0.144120
0.111472
-0.009394
0.125978
0.171647
-0.166059
0.022053
-0.112251
-0.146630
0.072772
-0.033972
0.095844
0.106546
-0.026041
-0.137989
-0.119877
0.106102
0.036786
0.157892
0.010296
0.007535
0.048489
0.071630
-0.301570
0.076257
0.093856
-0.117639
0.035127
-0.170678
-0.022021
0.111411
-0.143668
-0.120324
0.015316
0.077981
0.044154
0.012084
-0.072879
-0.047836
-0.012387
-0.074710
-0.030587
-0.115627
0.301779
0.303518
-0.018511
-0.351371
-0.150369
-0.496925
-0.147418
-0.080918
0.167999
0.103146
0.031785
-0.290853
0.047848
-0.468464
-0.042727
-0.258427
-0.291253
0.306082
-0.232648
-0.148486
0.104474
-0.104611
-0.392831
0.068317
-0.216332
0.118455
0.031339
0.028225
-0.446897
-0.290140
-0.111817
-0.109016
-0.018873
-0.084944
0.050302
-0.151216
-0.017013
0.123360
-0.245761
-0.088090
0.232267
0.239218
-0.120293
-0.149573
-0.093127
0.291987
-0.273371
-0.064696
-0.049694
0.069731
0.107743
-0.215807
-0.034218
0.084335
-0.072090
0.007760
-0.310257
-0.060113
-0.099688
0.185271
0.060804
-0.027110
-0.166002
-0.165645
-0.153081
0.064452
-0.064506
-0.166476
0.333582
0.020232
0.136846
0.079370
-0.197534
-0.045143
0.156203
0.045185
-0.225496
-0.127230
0.251982
0.049791
-0.122737
0.141678
-0.155373
-0.212690
0.207134
-0.289935
-0.050701
0.264447
0.077746
-0.341480
-0.071624
-0.032586
-0.071920
-0.136383
0.260416
0.106420
0.208430
-0.137254
-0.142790
-0.092723
0.234527
-0.146935
-0.138603
-0.002478
0.084223
-0.084594
0.037129
-0.035128
-0.209996
-0.305152
0.007968
0.287718
0.020550
0.043302
-0.673445
-0.163788
-0.019357
-0.075818
-0.049979
0.095781
-0.244580
-0.215442
-0.027571
0.212975
-0.314169
-0.330108
0.108486
0.046949
0.160265
-0.062509
-0.127231
-0.226544
0.158378
-0.002419
0.106250
0.245120
0.071596
0.008242
0.008407
0.294642
0.086830
-0.151794
-0.068097
-0.110930
-0.256304
0.060084
-0.389385
0.037566
0.072052
0.046294
-0.169562
0.011019
-0.199468
-0.263355
0.019824
0.110163
-0.220111
-0.164061
0.004913
0.280800
0.093993
0.029665
0.007024
-0.188265
0.232869
-0.004378
-0.225215
0.012040
-0.002938
0.060303
-0.168391
-0.000261
-0.132188
-0.176040
-0.243793
-0.381715
-0.013949
-0.148577
-0.341716
0.312813
-0.058156
-0.116754
0.282289
-0.241864
-0.071611
0.157881
-0.284365
-0.195723
-0.429594
-0.149206
-0.357415
0.231331
0.280577
-0.071922
-0.221799
-0.031080
-0.166537
-0.173005
0.077364
-0.240917
0.081393
-0.283795
0.053300
-0.108747
0.059081
0.019506
0.039461
0.078746
0.168480
-0.059811
-0.119279
0.185661
0.279250
0.188630
0.042312
-0.074893
-0.018952
-0.146782
0.033908
0.077079
-0.053939
-0.055914
0.157102
0.002991
0.038434
-0.292700
0.311051
-0.124369
0.176605
-0.203305
-0.159755
-0.133241
-0.349677
-0.143761
-0.179889
-0.043329
-0.027709
-0.256843
-0.015215
0.132335
-0.330252
-0.021383
-0.462104
0.009934
-0.316798
-0.351109
-0.438389
-0.042968
0.089151
-0.067578
-0.496959
-0.334012
0.202591
0.146781
-0.076517
-0.189222
0.201774
0.060575
0.126845
0.126711
-0.063368
0.045966
0.422851
-0.294739
-0.243268
0.110920
-0.236151
0.099323
0.043268
0.020957
0.113399
0.107684
-0.263118
-0.023781
-0.030289
0.083109
-0.015081
0.095584
-0.079623
0.059830
0.117805
-0.325251
-0.002659
-0.051600
-0.326209
-0.006247
0.140841
-0.088144
-0.064593
0.435361
-0.211683
-0.128054
0.202973
0.328741
